/* Organism #54 Fitness: 10.480000 Time: 0 */
genomestart 54
trait 1 0.251975 1.000000 0.200987 0.000000 0.316486 0.202709 0.000000 0.000000 
node 1 1 1 1
node 2 1 1 1
node 3 1 1 1
node 4 1 1 1
node 5 1 1 1
node 6 1 1 1
node 7 1 1 1
node 8 1 1 1
node 9 1 1 1
node 10 1 1 1
node 11 1 1 1
node 12 1 1 1
node 13 1 1 1
node 14 1 1 1
node 15 1 1 3
node 16 1 0 2
node 17 1 0 2
node 24 1 0 0
node 30 1 0 0
node 38 1 0 0
node 89 1 0 0
node 146 1 0 0
node 178 1 0 0
node 202 1 0 0
node 216 1 0 0
node 226 1 0 0
gene 1 1 16 5.26613 0 1 5.26613 1
gene 1 1 17 -2.00331 0 2 -2.00331 1
gene 1 2 16 -1.03675 0 3 -1.03675 1
gene 1 2 17 7.30348 0 4 7.30348 1
gene 1 3 16 -0.963473 0 5 -0.963473 0
gene 1 3 17 8 0 6 8 1
gene 1 4 16 -0.211415 0 7 -0.211415 1
gene 1 4 17 -1.08768 0 8 -1.08768 1
gene 1 5 16 -2.9273 0 9 -2.9273 0
gene 1 5 17 5.15872 0 10 5.15872 1
gene 1 6 16 -1.11043 0 11 -1.11043 1
gene 1 6 17 -7.2956 0 12 -7.2956 1
gene 1 7 16 6.39099 0 13 6.39099 1
gene 1 7 17 7.97431 0 14 7.97431 1
gene 1 8 16 0.200705 0 15 0.200705 1
gene 1 8 17 0.127573 0 16 0.127573 1
gene 1 9 16 -8 0 17 -8 1
gene 1 9 17 -3.97991 0 18 -3.97991 1
gene 1 10 16 -4.41563 0 19 -4.41563 1
gene 1 10 17 -0.583806 0 20 -0.583806 1
gene 1 11 16 -0.0070329 0 21 -0.0070329 1
gene 1 11 17 3.7808 0 22 3.7808 1
gene 1 12 16 1.89216 0 23 1.89216 1
gene 1 12 17 -4.2048 0 24 -4.2048 1
gene 1 13 16 4.20221 0 25 4.20221 1
gene 1 13 17 -7.87897 0 16 -7.87897 1
gene 1 14 16 -8 0 17 -8 1
gene 1 14 17 -3.71178 0 28 -3.71178 1
gene 1 15 16 -7.54039 0 29 -7.54039 1
gene 1 15 17 -1.2659 0 30 -1.2659 1
gene 1 1 24 3.17836 0 45 3.17836 1
gene 1 24 17 1.62073 0 46 1.62073 0
gene 1 2 24 3.92153 0 59 3.92153 1
gene 1 1 30 5.84372 0 63 5.84372 1
gene 1 30 16 -7.58525 0 64 -7.58525 1
gene 1 7 30 0.163308 0 74 0.163308 1
gene 1 4 38 0.511558 0 91 0.511558 1
gene 1 38 16 5.17001 0 92 5.17001 1
gene 1 13 24 -8 0 100 -8 1
gene 1 2 38 -0.0484541 0 134 -0.0484541 1
gene 1 24 89 -0.257611 0 296 -0.257611 1
gene 1 89 17 -1.0268 0 297 -1.0268 1
gene 1 16 17 -2.49404 0 351 -2.49404 1
gene 1 30 24 -2.78903 0 393 -2.78903 1
gene 1 12 89 0.671581 0 425 0.671581 1
gene 1 1 146 2.91546 0 504 2.91546 1
gene 1 146 24 0.832199 0 505 0.832199 1
gene 1 12 146 -2.18683 0 538 -2.18683 1
gene 1 2 178 1.29867 0 651 1.29867 1
gene 1 178 38 -2.59898 0 652 -2.59898 0
gene 1 15 38 -2.51274 0 690 -2.51274 1
gene 1 178 202 1.42696 0 739 1.42696 1
gene 1 202 38 3.1165 0 740 3.1165 1
gene 1 3 216 -2.20468 0 795 -2.20468 1
gene 1 216 16 -2.36282 0 796 -2.36282 1
gene 1 16 24 -0.784589 0 805 -0.784589 1
gene 1 5 226 -0.346525 0 830 -0.346525 1
gene 1 226 16 0.373081 0 831 0.373081 1
gene 1 6 226 -1.00743 0 845 -1.00743 1
gene 1 178 226 0.0204652 0 903 0.0204652 1
genomeend 54


