/* Organism #9 Fitness: 9.850000 Time: 0 */
genomestart 9
trait 1 0.000000 0.000000 0.000000 0.000000 0.277273 0.013940 0.000000 0.000000 
node 1 1 1 1
node 2 1 1 1
node 3 1 1 1
node 4 1 1 1
node 5 1 1 1
node 6 1 1 1
node 7 1 1 1
node 8 1 1 1
node 9 1 1 1
node 10 1 1 1
node 11 1 1 1
node 12 1 1 1
node 13 1 1 1
node 14 1 1 1
node 15 1 1 3
node 16 1 0 2
node 17 1 0 2
node 90 1 0 0
node 162 1 0 0
node 208 1 0 0
node 209 1 0 0
node 214 1 0 0
gene 1 1 16 -5.05661 0 1 -5.05661 1
gene 1 1 17 -2.44357 0 2 -2.44357 1
gene 1 2 16 -4.19475 0 3 -4.19475 1
gene 1 2 17 -1.04558 0 4 -1.04558 1
gene 1 3 16 -0.622164 0 5 -0.622164 1
gene 1 3 17 1.47327 0 6 1.47327 1
gene 1 4 16 -7.37256 0 7 -7.37256 1
gene 1 4 17 5.68242 0 8 5.68242 1
gene 1 5 16 0.867623 0 9 0.867623 1
gene 1 5 17 3.41322 0 10 3.41322 1
gene 1 6 16 1.07786 0 11 1.07786 1
gene 1 6 17 2.10795 0 12 2.10795 1
gene 1 7 16 -1.0629 0 13 -1.0629 1
gene 1 7 17 0.0690357 0 14 0.0690357 1
gene 1 8 16 3.60203 0 15 3.60203 1
gene 1 8 17 0.127547 0 16 0.127547 1
gene 1 9 16 3.81604 0 17 3.81604 1
gene 1 9 17 3.19601 0 18 3.19601 1
gene 1 10 16 2.40234 0 19 2.40234 1
gene 1 10 17 -1.17319 0 20 -1.17319 1
gene 1 11 16 5.27365 0 21 5.27365 1
gene 1 11 17 4.25956 0 22 4.25956 1
gene 1 12 16 4.13944 0 23 4.13944 1
gene 1 12 17 -2.9528 0 24 -2.9528 1
gene 1 13 16 -1.13862 0 25 -1.13862 1
gene 1 13 17 -0.916436 0 16 -0.916436 1
gene 1 14 16 7.22368 0 17 7.22368 1
gene 1 14 17 -1.63985 0 28 -1.63985 1
gene 1 15 16 -1.60895 0 29 -1.60895 1
gene 1 15 17 4.01094 0 30 4.01094 1
gene 1 16 17 -0.111827 0 142 -0.111827 0
gene 1 16 90 -2.5945 0 306 -2.5945 1
gene 1 90 17 6.28006 0 307 6.28006 0
gene 1 9 90 0.0141154 0 443 0.0141154 1
gene 1 15 90 -0.0615753 0 498 -0.0615753 1
gene 1 7 90 4.42561 0 505 4.42561 0
gene 1 13 162 2.69292 0 554 2.69292 1
gene 1 162 17 3.89363 0 555 3.89363 1
gene 1 11 162 1.0649 0 569 1.0649 1
gene 1 15 162 -1.2761 0 615 -1.2761 1
gene 1 4 208 -1.41137 0 718 -1.41137 1
gene 1 208 17 5.28998 0 719 5.28998 1
gene 1 7 209 -1.22799 0 723 -1.22799 1
gene 1 209 90 5.6465 0 724 5.6465 1
gene 1 90 214 1 0 742 0 1
gene 1 214 17 3.99778 0 743 0 1
genomeend 9


