/* Organism #12 Fitness: 10.990000 Time: 0 */
genomestart 12
trait 1 0.100000 0.010254 0.000000 0.000000 0.001384 0.000000 0.000000 0.082418 
node 1 1 1 1
node 2 1 1 1
node 3 1 1 1
node 4 1 1 1
node 5 1 1 1
node 6 1 1 1
node 7 1 1 1
node 8 1 1 1
node 9 1 1 1
node 10 1 1 1
node 11 1 1 1
node 12 1 1 1
node 13 1 1 1
node 14 1 1 1
node 15 1 1 3
node 16 1 0 2
node 17 1 0 2
node 77 1 0 0
node 111 1 0 0
node 159 1 0 0
gene 1 1 16 0.231596 0 1 0.231596 1
gene 1 1 17 -6.67352 0 2 -6.67352 1
gene 1 2 16 -5.83725 0 3 -5.83725 1
gene 1 2 17 0.577413 0 4 0.577413 1
gene 1 3 16 0.51763 0 5 0.51763 1
gene 1 3 17 1.37001 0 6 1.37001 0
gene 1 4 16 2.5012 0 7 2.5012 0
gene 1 4 17 -0.624029 0 8 -0.624029 1
gene 1 5 16 1.2274 0 9 1.2274 1
gene 1 5 17 -2.59521 0 10 -2.59521 1
gene 1 6 16 -2.27924 0 11 -2.27924 1
gene 1 6 17 -2.69248 0 12 -2.69248 1
gene 1 7 16 5.80871 0 13 5.80871 1
gene 1 7 17 -2.30862 0 14 -2.30862 1
gene 1 8 16 1.31664 0 15 1.31664 1
gene 1 8 17 -5.8591 0 16 -5.8591 1
gene 1 9 16 2.39709 0 17 2.39709 1
gene 1 9 17 -2.48841 0 18 -2.48841 1
gene 1 10 16 3.54726 0 19 3.54726 1
gene 1 10 17 3.97228 0 20 3.97228 1
gene 1 11 16 -2.17359 0 21 -2.17359 1
gene 1 11 17 5.28983 0 22 5.28983 1
gene 1 12 16 0.0151459 0 23 0.0151459 1
gene 1 12 17 -1.52997 0 24 -1.52997 1
gene 1 13 16 2.15498 0 25 2.15498 1
gene 1 13 17 1.03921 0 16 1.03921 1
gene 1 14 16 -2.72726 0 17 -2.72726 1
gene 1 14 17 2.73303 0 28 2.73303 1
gene 1 15 16 8 0 29 8 1
gene 1 15 17 7.73468 0 30 7.73468 1
gene 1 17 16 -5.50809 0 186 -5.50809 0
gene 1 17 77 -7.22364 0 230 -7.22364 1
gene 1 77 16 -0.154349 0 231 -0.154349 1
gene 1 8 77 3.93891 0 254 3.93891 1
gene 1 12 77 -3.18578 0 300 -3.18578 1
gene 1 7 77 1.64984 0 334 1.64984 1
gene 1 3 77 -0.979449 0 342 -0.979449 1
gene 1 5 77 -1.84253 0 357 -1.84253 1
gene 1 3 111 2.06197 0 368 2.06197 1
gene 1 111 17 1.86312 0 369 1.86312 0
gene 1 5 111 1.08582 0 502 1.08582 1
gene 1 111 159 -0.553201 0 524 -0.553201 1
gene 1 159 17 -1.22234 0 525 -1.22234 1
gene 1 1 77 0.74342 0 593 0.74342 1
gene 1 1 111 0.469762 0 628 0.469762 1
gene 1 10 77 -1.03054 0 666 -1.03054 1
gene 1 15 111 -1.40802 0 687 -1.40802 1
genomeend 12


