/* Organism #7 Fitness: 10.770000 Time: 0 */
genomestart 7
trait 1 0.000000 0.222473 0.000000 0.090906 0.390091 0.000000 0.076245 0.066689 
node 1 1 1 1
node 2 1 1 1
node 3 1 1 1
node 4 1 1 1
node 5 1 1 1
node 6 1 1 1
node 7 1 1 1
node 8 1 1 1
node 9 1 1 1
node 10 1 1 1
node 11 1 1 1
node 12 1 1 1
node 13 1 1 1
node 14 1 1 1
node 15 1 1 3
node 16 1 0 2
node 17 1 0 2
node 45 1 0 0
node 52 1 0 0
node 87 1 0 0
node 143 1 0 0
node 180 1 0 0
node 183 1 0 0
gene 1 1 16 3.07275 0 1 3.07275 1
gene 1 1 17 -6.38941 0 2 -6.38941 1
gene 1 2 16 2.52884 0 3 2.52884 1
gene 1 2 17 -0.717915 0 4 -0.717915 1
gene 1 3 16 0.746061 0 5 0.746061 1
gene 1 3 17 3.00591 0 6 3.00591 1
gene 1 4 16 -0.597332 0 7 -0.597332 1
gene 1 4 17 3.23832 0 8 3.23832 1
gene 1 5 16 -1.23671 0 9 -1.23671 1
gene 1 5 17 -1.48823 0 10 -1.48823 1
gene 1 6 16 -2.8582 0 11 -2.8582 1
gene 1 6 17 -1.65312 0 12 -1.65312 1
gene 1 7 16 -0.538745 0 13 -0.538745 1
gene 1 7 17 -0.612265 0 14 -0.612265 1
gene 1 8 16 3.76089 0 15 3.76089 1
gene 1 8 17 -2.67465 0 16 -2.67465 1
gene 1 9 16 5.3912 0 17 5.3912 1
gene 1 9 17 -1.78155 0 18 -1.78155 1
gene 1 10 16 -0.777277 0 19 -0.777277 1
gene 1 10 17 5.50068 0 20 5.50068 1
gene 1 11 16 3.82584 0 21 3.82584 1
gene 1 11 17 1.11469 0 22 1.11469 1
gene 1 12 16 1.05251 0 23 1.05251 1
gene 1 12 17 -4.67729 0 24 -4.67729 1
gene 1 13 16 -0.762422 0 25 -0.762422 1
gene 1 13 17 0.512614 0 16 0.512614 0
gene 1 14 16 4.86452 0 17 4.86452 1
gene 1 14 17 5.05539 0 28 5.05539 1
gene 1 15 16 3.04069 0 29 3.04069 1
gene 1 15 17 3.44937 0 30 3.44937 1
gene 1 17 16 -1.44343 0 34 -1.44343 1
gene 1 8 45 -2.92631 0 122 -2.92631 0
gene 1 45 16 -1.27488 0 123 -1.27488 1
gene 1 11 52 2.60573 0 146 2.60573 1
gene 1 52 17 0.0260315 0 147 0.0260315 1
gene 1 3 45 -0.586108 0 190 -0.586108 1
gene 1 8 87 -1.09516 0 275 -1.09516 1
gene 1 87 45 -3.39491 0 276 -3.39491 1
gene 1 1 45 -0.199733 0 292 -0.199733 1
gene 1 7 52 0.708707 0 316 0.708707 1
gene 1 2 87 0.390844 0 338 0.390844 1
gene 1 7 87 1.03816 0 380 1.03816 1
gene 1 8 52 -0.939519 0 421 -0.939519 1
gene 1 13 52 1.16062 0 469 1.16062 1
gene 1 11 143 -1.8275 0 485 -1.8275 1
gene 1 143 16 3.24358 0 486 3.24358 1
gene 1 17 87 4.17006 0 530 4.17006 0
gene 1 3 143 -1.74154 0 589 -1.74154 1
gene 1 6 52 -1.11827 0 607 -1.11827 1
gene 1 17 180 1.89534 0 622 1.89534 1
gene 1 180 87 -2.63953 0 623 -2.63953 1
gene 1 13 183 2.64181 0 634 2.64181 1
gene 1 183 17 -0.0302609 0 635 -0.0302609 1
gene 1 2 143 -0.860137 0 658 -0.860137 1
gene 1 9 143 -1.01572 0 751 -1.01572 1
genomeend 7


