/* Organism #72 Fitness: 8.710000 Time: 0 */
genomestart 72
trait 1 0.860802 0.396542 0.459156 0.559444 0.361643 0.000000 0.826471 0.872295 
node 1 1 1 1
node 2 1 1 1
node 3 1 1 1
node 4 1 1 1
node 5 1 1 1
node 6 1 1 1
node 7 1 1 1
node 8 1 1 1
node 9 1 1 1
node 10 1 1 1
node 11 1 1 1
node 12 1 1 1
node 13 1 1 1
node 14 1 1 1
node 15 1 1 3
node 16 1 0 2
node 17 1 0 2
node 21 1 0 0
node 63 1 0 0
node 82 1 0 0
node 200 1 0 0
node 216 1 0 0
node 218 1 0 0
node 245 1 0 0
gene 1 1 16 4.62814 0 1 4.62814 1
gene 1 1 17 -5.07514 0 2 -5.07514 1
gene 1 2 16 1.3325 0 3 1.3325 1
gene 1 2 17 7.43899 0 4 7.43899 1
gene 1 3 16 -1.91779 0 5 -1.91779 1
gene 1 3 17 4.73585 0 6 4.73585 1
gene 1 4 16 -1.20642 0 7 -1.20642 1
gene 1 4 17 3.12685 0 8 3.12685 1
gene 1 5 16 -0.642725 0 9 -0.642725 1
gene 1 5 17 -5.19991 0 10 -5.19991 1
gene 1 6 16 0.413604 0 11 0.413604 1
gene 1 6 17 -4.3477 0 12 -4.3477 1
gene 1 7 16 -5.28828 0 13 -5.28828 1
gene 1 7 17 1.36112 0 14 1.36112 1
gene 1 8 16 -5.34486 0 15 -5.34486 1
gene 1 8 17 -1.13465 0 16 -1.13465 1
gene 1 9 16 -0.160468 0 17 -0.160468 1
gene 1 9 17 2.14746 0 18 2.14746 1
gene 1 10 16 2.79038 0 19 2.79038 1
gene 1 10 17 -5.04358 0 20 -5.04358 1
gene 1 11 16 -5.28342 0 21 -5.28342 1
gene 1 11 17 5.05698 0 22 5.05698 1
gene 1 12 16 0.712469 0 23 0.712469 1
gene 1 12 17 -2.94862 0 24 -2.94862 1
gene 1 13 16 3.11542 0 25 3.11542 1
gene 1 13 17 -5.87579 0 16 -5.87579 1
gene 1 14 16 -4.47252 0 17 -4.47252 1
gene 1 14 17 -3.00589 0 28 -3.00589 1
gene 1 15 16 -5.88782 0 29 -5.88782 1
gene 1 15 17 0.498148 0 30 0.498148 1
gene 1 17 16 -0.194396 0 35 -0.194396 1
gene 1 1 21 -3.55807 0 41 -3.55807 1
gene 1 21 17 0.0796387 0 42 0.0796387 1
gene 1 21 16 0.0360036 0 101 0.0360036 0
gene 1 5 63 0.256309 0 176 0.256309 1
gene 1 63 17 3.59331 0 177 3.59331 1
gene 1 1 82 -0.0124281 0 233 -0.0124281 0
gene 1 82 21 -4.2424 0 234 -4.2424 1
gene 1 63 16 -3.81585 0 276 -3.81585 1
gene 1 63 21 0.962248 0 301 0.962248 1
gene 1 13 82 -3.14079 0 318 -3.14079 1
gene 1 4 82 1.68157 0 334 1.68157 1
gene 1 12 82 5.0721 0 356 5.0721 1
gene 1 5 21 -1.64798 0 444 -1.64798 1
gene 1 2 63 -3.56298 0 471 -3.56298 1
gene 1 11 21 0.103031 0 488 0.103031 1
gene 1 63 82 0.556447 0 517 0.556447 1
gene 1 15 21 4.0644 0 573 4.0644 1
gene 1 14 21 2.10757 0 657 2.10757 1
gene 1 14 200 1.42689 0 665 1.42689 1
gene 1 200 17 -4.70565 0 666 -4.70565 1
gene 1 200 16 0.101457 0 687 0.101457 1
gene 1 14 82 -0.299629 0 716 -0.299629 1
gene 1 5 216 0.203598 0 726 0.203598 1
gene 1 216 21 -3.18923 0 727 -3.18923 1
gene 1 21 218 -0.171975 0 734 -0.171975 1
gene 1 218 16 1.09905 0 735 1.09905 1
gene 1 10 200 -1.66095 0 763 -1.66095 1
gene 1 4 63 -1.59202 0 774 -1.59202 1
gene 1 6 63 -0.707042 0 795 -0.707042 1
gene 1 10 82 -0.213397 0 807 -0.213397 1
gene 1 1 245 1 0 823 0 1
gene 1 245 82 -0.0124281 0 824 0 1
gene 1 9 63 -0.0614452 0 856 0 1
genomeend 72


