/* Organism #60 Fitness: 10.880000 Time: 0 */
genomestart 60
trait 1 0.173212 1.000000 0.253425 0.890710 0.000000 0.113973 0.673222 1.000000 
node 1 1 1 1
node 2 1 1 1
node 3 1 1 1
node 4 1 1 1
node 5 1 1 1
node 6 1 1 1
node 7 1 1 1
node 8 1 1 1
node 9 1 1 1
node 10 1 1 1
node 11 1 1 1
node 12 1 1 1
node 13 1 1 1
node 14 1 1 1
node 15 1 1 3
node 16 1 0 2
node 17 1 0 2
node 36 1 0 0
node 81 1 0 0
node 106 1 0 0
node 159 1 0 0
node 162 1 0 0
node 204 1 0 0
node 209 1 0 0
gene 1 1 16 -8 0 1 -8 1
gene 1 1 17 -0.12797 0 2 -0.12797 1
gene 1 2 16 -2.71295 0 3 -2.71295 1
gene 1 2 17 1.56565 0 4 1.56565 0
gene 1 3 16 6.94358 0 5 6.94358 1
gene 1 3 17 -4.60645 0 6 -4.60645 1
gene 1 4 16 -4.00916 0 7 -4.00916 1
gene 1 4 17 8 0 8 8 1
gene 1 5 16 -8 0 9 -8 1
gene 1 5 17 0.463748 0 10 0.463748 1
gene 1 6 16 -0.0499075 0 11 -0.0499075 1
gene 1 6 17 5.74769 0 12 5.74769 1
gene 1 7 16 -1.71711 0 13 -1.71711 1
gene 1 7 17 0.204415 0 14 0.204415 1
gene 1 8 16 4.53495 0 15 4.53495 1
gene 1 8 17 2.59192 0 16 2.59192 1
gene 1 9 16 1.01729 0 17 1.01729 1
gene 1 9 17 4.06128 0 18 4.06128 1
gene 1 10 16 5.18449 0 19 5.18449 1
gene 1 10 17 4.10658 0 20 4.10658 1
gene 1 11 16 7.80825 0 21 7.80825 1
gene 1 11 17 -2.17921 0 22 -2.17921 1
gene 1 12 16 5.2475 0 23 5.2475 1
gene 1 12 17 -0.995147 0 24 -0.995147 1
gene 1 13 16 -5.23446 0 25 -5.23446 1
gene 1 13 17 1.72009 0 16 1.72009 1
gene 1 14 16 -3.91161 0 17 -3.91161 1
gene 1 14 17 8 0 28 8 0
gene 1 15 16 0.716334 0 29 0.716334 1
gene 1 15 17 -1.45033 0 30 -1.45033 1
gene 1 17 16 3.77426 0 64 3.77426 0
gene 1 4 36 -1.83751 0 97 -1.83751 1
gene 1 36 17 6.70134 0 98 6.70134 1
gene 1 8 36 2.59732 0 106 2.59732 1
gene 1 11 36 -3.02099 0 161 -3.02099 1
gene 1 9 36 -0.31366 0 174 -0.31366 1
gene 1 12 36 1.70482 0 226 1.70482 1
gene 1 7 81 4.35003 0 254 4.35003 1
gene 1 81 16 -0.850754 0 255 -0.850754 1
gene 1 2 81 4.30965 0 274 4.30965 1
gene 1 12 106 0.0914503 0 347 0.0914503 1
gene 1 106 17 8 0 348 8 0
gene 1 6 36 1.61576 0 370 1.61576 1
gene 1 10 81 -2.91699 0 524 -2.91699 1
gene 1 5 81 -0.010368 0 536 -0.010368 1
gene 1 106 159 -1.04665 0 544 -1.04665 0
gene 1 159 17 2.79713 0 545 2.79713 1
gene 1 14 162 -0.674165 0 552 -0.674165 1
gene 1 162 17 -1.5408 0 553 -1.5408 1
gene 1 36 81 0.0715688 0 583 0.0715688 1
gene 1 13 159 0.283 0 683 0.283 1
gene 1 17 204 0.51407 0 724 0.51407 1
gene 1 204 16 4.36828 0 725 4.36828 1
gene 1 106 209 -1.99232 0 742 -1.99232 0
gene 1 209 159 3.18113 0 743 3.18113 1
gene 1 15 36 -2.14448 0 756 -2.14448 1
gene 1 12 209 3.79855 0 789 3.79855 1
genomeend 60


