/* Organism #51 Fitness: 10.570000 Time: 0 */
genomestart 51
trait 1 0.100000 0.000000 0.000000 0.000000 0.000000 0.000000 0.000000 0.000000 
node 1 1 1 1
node 2 1 1 1
node 3 1 1 1
node 4 1 1 1
node 5 1 1 1
node 6 1 1 1
node 7 1 1 1
node 8 1 1 1
node 9 1 1 1
node 10 1 1 1
node 11 1 1 1
node 12 1 1 1
node 13 1 1 1
node 14 1 1 1
node 15 1 1 3
node 16 1 0 2
node 17 1 0 2
node 23 1 0 0
node 44 1 0 0
node 55 1 0 0
node 73 1 0 0
node 94 1 0 0
node 107 1 0 0
node 141 1 0 0
node 142 1 0 0
node 147 1 0 0
node 215 1 0 0
gene 1 1 16 -5.83534 0 1 -5.83534 1
gene 1 1 17 0.221585 0 2 0.221585 1
gene 1 2 16 -4.41471 0 3 -4.41471 1
gene 1 2 17 4.84308 0 4 4.84308 1
gene 1 3 16 8 0 5 8 1
gene 1 3 17 2.72025 0 6 2.72025 1
gene 1 4 16 -7.82822 0 7 -7.82822 1
gene 1 4 17 -0.744464 0 8 -0.744464 1
gene 1 5 16 -8 0 9 -8 1
gene 1 5 17 5.87442 0 10 5.87442 1
gene 1 6 16 2.92443 0 11 2.92443 1
gene 1 6 17 5.87679 0 12 5.87679 1
gene 1 7 16 0.923214 0 13 0.923214 1
gene 1 7 17 6.70279 0 14 6.70279 1
gene 1 8 16 3.33028 0 15 3.33028 1
gene 1 8 17 3.46357 0 16 3.46357 1
gene 1 9 16 1.17913 0 17 1.17913 1
gene 1 9 17 -3.59766 0 18 -3.59766 1
gene 1 10 16 8 0 19 8 1
gene 1 10 17 1.00835 0 20 1.00835 1
gene 1 11 16 7.53951 0 21 7.53951 1
gene 1 11 17 0.139289 0 22 0.139289 1
gene 1 12 16 5.76739 0 23 5.76739 1
gene 1 12 17 0.136236 0 24 0.136236 1
gene 1 13 16 -0.16755 0 25 -0.16755 1
gene 1 13 17 -3.32375 0 16 -3.32375 1
gene 1 14 16 -5.45367 0 17 -5.45367 1
gene 1 14 17 0.314009 0 28 0.314009 1
gene 1 15 16 3.92268 0 29 3.92268 1
gene 1 15 17 3.52978 0 30 3.52978 1
gene 1 16 17 -0.870594 0 33 -0.870594 1
gene 1 14 23 5.14728 0 46 5.14728 0
gene 1 23 17 5.34218 0 47 5.34218 1
gene 1 7 23 -8 0 72 -8 1
gene 1 6 23 6.9481 0 78 6.9481 1
gene 1 13 23 -0.288908 0 101 -0.288908 1
gene 1 2 23 -2.25587 0 105 -2.25587 0
gene 1 15 23 -6.84596 0 116 -6.84596 1
gene 1 2 44 1.32518 0 124 1.32518 1
gene 1 44 17 5.80209 0 125 5.80209 1
gene 1 14 55 6.16949 0 169 6.16949 1
gene 1 55 23 -0.429247 0 170 -0.429247 1
gene 1 10 44 3.00275 0 181 3.00275 0
gene 1 10 73 2.58081 0 230 2.58081 1
gene 1 73 44 1.84687 0 231 1.84687 1
gene 1 55 44 -0.737547 0 242 -0.737547 1
gene 1 11 55 1.42487 0 283 1.42487 1
gene 1 4 44 8 0 298 8 1
gene 1 10 94 5.87937 0 324 5.87937 1
gene 1 94 17 3.26469 0 325 3.26469 1
gene 1 2 73 4.17676 0 333 4.17676 1
gene 1 2 94 -0.290182 0 377 -0.290182 1
gene 1 8 107 0.293396 0 387 0.293396 1
gene 1 107 17 0.403502 0 388 0.403502 1
gene 1 8 55 0.218984 0 406 0.218984 1
gene 1 2 141 0.823603 0 520 0.823603 1
gene 1 141 23 2.18164 0 521 2.18164 1
gene 1 3 142 2.19091 0 526 2.19091 1
gene 1 142 17 0.79523 0 527 0.79523 1
gene 1 4 147 1.44041 0 540 1.44041 1
gene 1 147 17 -1.2363 0 541 -1.2363 0
gene 1 12 147 -2.4414 0 562 -2.4414 1
gene 1 107 44 -0.070947 0 740 -0.070947 1
gene 1 7 142 -2.10474 0 754 -2.10474 1
gene 1 107 55 1.44498 0 773 1.44498 1
gene 1 147 215 2.65869 0 814 2.65869 1
gene 1 215 17 -0.585941 0 815 -0.585941 1
genomeend 51


