/* Organism #42 Fitness: 9.470000 Time: 0 */
genomestart 42
trait 1 0.916137 0.000000 0.998887 0.033084 0.838268 0.000000 0.528702 0.437862 
node 1 1 1 1
node 2 1 1 1
node 3 1 1 1
node 4 1 1 1
node 5 1 1 1
node 6 1 1 1
node 7 1 1 1
node 8 1 1 1
node 9 1 1 1
node 10 1 1 1
node 11 1 1 1
node 12 1 1 1
node 13 1 1 1
node 14 1 1 1
node 15 1 1 3
node 16 1 0 2
node 17 1 0 2
node 24 1 0 0
node 35 1 0 0
node 70 1 0 0
node 142 1 0 0
node 163 1 0 0
node 180 1 0 0
node 183 1 0 0
node 199 1 0 0
node 223 1 0 0
gene 1 1 16 3.31844 0 1 3.31844 1
gene 1 1 17 3.40089 0 2 3.40089 1
gene 1 2 16 8 0 3 8 1
gene 1 2 17 -1.7822 0 4 -1.7822 1
gene 1 3 16 8 0 5 8 1
gene 1 3 17 -0.450768 0 6 -0.450768 1
gene 1 4 16 -7.10866 0 7 -7.10866 1
gene 1 4 17 3.97337 0 8 3.97337 0
gene 1 5 16 5.39349 0 9 5.39349 1
gene 1 5 17 -5.87855 0 10 -5.87855 1
gene 1 6 16 -3.51927 0 11 -3.51927 1
gene 1 6 17 0.862226 0 12 0.862226 1
gene 1 7 16 1.72941 0 13 1.72941 1
gene 1 7 17 -4.76211 0 14 -4.76211 1
gene 1 8 16 -3.1046 0 15 -3.1046 1
gene 1 8 17 -3.05935 0 16 -3.05935 1
gene 1 9 16 -1.78025 0 17 -1.78025 1
gene 1 9 17 4.80231 0 18 4.80231 1
gene 1 10 16 -0.924568 0 19 -0.924568 1
gene 1 10 17 1.57096 0 20 1.57096 1
gene 1 11 16 3.17629 0 21 3.17629 1
gene 1 11 17 -5.59244 0 22 -5.59244 0
gene 1 12 16 1.75432 0 23 1.75432 1
gene 1 12 17 -3.62658 0 24 -3.62658 1
gene 1 13 16 -2.84981 0 25 -2.84981 1
gene 1 13 17 -1.45377 0 16 -1.45377 1
gene 1 14 16 1.12985 0 17 1.12985 1
gene 1 14 17 -5.21314 0 28 -5.21314 1
gene 1 15 16 -2.24463 0 29 -2.24463 1
gene 1 15 17 -5.46014 0 30 -5.46014 1
gene 1 7 24 3.54159 0 47 3.54159 1
gene 1 24 16 0.867209 0 48 0.867209 1
gene 1 12 35 3.27615 0 74 3.27615 1
gene 1 35 17 -3.55837 0 75 -3.55837 1
gene 1 35 16 1.18702 0 85 1.18702 1
gene 1 7 70 -3.21776 0 180 -3.21776 0
gene 1 70 17 -0.305016 0 181 -0.305016 1
gene 1 35 24 0.648174 0 236 0.648174 1
gene 1 2 35 1.75253 0 309 1.75253 1
gene 1 8 35 0.325988 0 324 0.325988 1
gene 1 9 35 -0.764797 0 346 -0.764797 1
gene 1 2 24 2.29101 0 362 2.29101 1
gene 1 5 35 1.23475 0 372 1.23475 1
gene 1 7 142 0.0280791 0 416 0.0280791 1
gene 1 142 70 -0.654197 0 417 -0.654197 1
gene 1 1 142 -1.77136 0 425 -1.77136 1
gene 1 11 163 -0.959303 0 481 -0.959303 1
gene 1 163 17 -8 0 482 -8 1
gene 1 9 142 -0.47399 0 508 -0.47399 1
gene 1 163 180 1 0 534 0 1
gene 1 180 17 -8 0 535 0 0
gene 1 9 183 1 0 542 0 1
gene 1 183 142 -0.47399 0 543 0 1
gene 1 180 199 1 0 595 0 1
gene 1 199 17 -8 0 596 0 0
gene 1 8 199 0.58905 0 627 0.58905 1
gene 1 199 223 1 0 677 0 1
gene 1 223 17 -8 0 678 0 1
gene 1 5 70 -0.64427 0 714 -0.64427 1
gene 1 13 223 -0.0294939 0 731 -0.0294939 1
gene 1 180 142 -0.197078 0 743 -0.197078 1
gene 1 6 142 0.693957 0 777 0.693957 1
gene 1 14 35 -0.369563 0 785 -0.369563 1
gene 1 2 183 0.551179 0 819 0.551179 1
gene 1 14 24 -0.30107 0 847 -0.30107 1
gene 1 10 180 -0.641946 0 859 -0.641946 1
genomeend 42


