/* Organism #32 Fitness: 10.670000 Time: 0 */
genomestart 32
trait 1 0.080592 0.566041 0.224028 0.273588 0.000000 0.723250 0.466842 0.007106 
node 1 1 1 1
node 2 1 1 1
node 3 1 1 1
node 4 1 1 1
node 5 1 1 1
node 6 1 1 1
node 7 1 1 1
node 8 1 1 1
node 9 1 1 1
node 10 1 1 1
node 11 1 1 1
node 12 1 1 1
node 13 1 1 1
node 14 1 1 1
node 15 1 1 3
node 16 1 0 2
node 17 1 0 2
node 19 1 0 0
node 63 1 0 0
node 107 1 0 0
node 120 1 0 0
node 129 1 0 0
node 198 1 0 0
gene 1 1 16 -2.58589 0 1 -2.58589 1
gene 1 1 17 -0.0886679 0 2 -0.0886679 1
gene 1 2 16 3.5243 0 3 3.5243 1
gene 1 2 17 -4.36932 0 4 -4.36932 1
gene 1 3 16 6.1994 0 5 6.1994 1
gene 1 3 17 -3.83475 0 6 -3.83475 1
gene 1 4 16 0.0825224 0 7 0.0825224 1
gene 1 4 17 -4.99608 0 8 -4.99608 1
gene 1 5 16 -1.47442 0 9 -1.47442 1
gene 1 5 17 -2.36309 0 10 -2.36309 1
gene 1 6 16 0.643968 0 11 0.643968 1
gene 1 6 17 3.9881 0 12 3.9881 1
gene 1 7 16 -2.5089 0 13 -2.5089 1
gene 1 7 17 -1.86701 0 14 -1.86701 1
gene 1 8 16 -1.48237 0 15 -1.48237 1
gene 1 8 17 -2.20478 0 16 -2.20478 1
gene 1 9 16 -1.60012 0 17 -1.60012 1
gene 1 9 17 -3.9416 0 18 -3.9416 1
gene 1 10 16 -5.4009 0 19 -5.4009 1
gene 1 10 17 -7.57881 0 20 -7.57881 1
gene 1 11 16 -1.52802 0 21 -1.52802 1
gene 1 11 17 -0.653124 0 22 -0.653124 1
gene 1 12 16 -4.78944 0 23 -4.78944 1
gene 1 12 17 4.68701 0 24 4.68701 1
gene 1 13 16 1.17567 0 25 1.17567 1
gene 1 13 17 -2.52464 0 16 -2.52464 0
gene 1 14 16 2.10821 0 17 2.10821 1
gene 1 14 17 -3.55906 0 28 -3.55906 1
gene 1 15 16 1.46765 0 29 1.46765 1
gene 1 15 17 -8 0 30 -8 1
gene 1 12 19 -5.70831 0 34 -5.70831 1
gene 1 19 17 -2.96493 0 35 -2.96493 1
gene 1 6 19 -3.01113 0 44 -3.01113 1
gene 1 12 63 4.02646 0 188 4.02646 1
gene 1 63 19 4.38267 0 189 4.38267 1
gene 1 12 107 3.33531 0 347 3.33531 1
gene 1 107 63 0.57065 0 348 0.57065 1
gene 1 7 120 -0.391324 0 399 -0.391324 1
gene 1 120 17 -5.52006 0 400 -5.52006 1
gene 1 17 16 1.75772 0 407 1.75772 1
gene 1 4 120 0.409468 0 417 0.409468 1
gene 1 19 129 2.25373 0 435 2.25373 1
gene 1 129 17 -1.00855 0 436 -1.00855 1
gene 1 107 17 1.82013 0 458 1.82013 1
gene 1 129 120 -0.938942 0 544 -0.938942 1
gene 1 4 107 -2.03613 0 565 -2.03613 1
gene 1 3 120 -0.34001 0 602 -0.34001 1
gene 1 6 129 0.701152 0 655 0.701152 1
gene 1 13 198 1 0 722 0 1
gene 1 198 17 -2.52464 0 723 0 1
gene 1 6 107 0.800964 0 760 0.800964 1
genomeend 32


