/* Organism #52 Fitness: 9.700000 Time: 0 */
genomestart 52
trait 1 0.910946 0.000000 0.744896 0.000000 1.000000 0.929245 0.125559 0.000000 
node 1 1 1 1
node 2 1 1 1
node 3 1 1 1
node 4 1 1 1
node 5 1 1 1
node 6 1 1 1
node 7 1 1 1
node 8 1 1 1
node 9 1 1 1
node 10 1 1 1
node 11 1 1 1
node 12 1 1 1
node 13 1 1 1
node 14 1 1 1
node 15 1 1 3
node 16 1 0 2
node 17 1 0 2
node 58 1 0 0
node 67 1 0 0
node 132 1 0 0
node 146 1 0 0
node 154 1 0 0
node 191 1 0 0
node 203 1 0 0
gene 1 1 16 -4.81833 0 1 -4.81833 1
gene 1 1 17 -0.503888 0 2 -0.503888 1
gene 1 2 16 -4.21596 0 3 -4.21596 1
gene 1 2 17 -0.659348 0 4 -0.659348 1
gene 1 3 16 6.90303 0 5 6.90303 1
gene 1 3 17 -1.18253 0 6 -1.18253 1
gene 1 4 16 -7.86046 0 7 -7.86046 1
gene 1 4 17 -0.493729 0 8 -0.493729 1
gene 1 5 16 -7.50974 0 9 -7.50974 1
gene 1 5 17 0.356765 0 10 0.356765 1
gene 1 6 16 2.16502 0 11 2.16502 1
gene 1 6 17 1.40878 0 12 1.40878 1
gene 1 7 16 -5.93917 0 13 -5.93917 1
gene 1 7 17 3.75476 0 14 3.75476 1
gene 1 8 16 5.16142 0 15 5.16142 1
gene 1 8 17 2.19343 0 16 2.19343 1
gene 1 9 16 3.37612 0 17 3.37612 1
gene 1 9 17 7.45087 0 18 7.45087 0
gene 1 10 16 -1.10542 0 19 -1.10542 1
gene 1 10 17 -1.80662 0 20 -1.80662 1
gene 1 11 16 -1.72298 0 21 -1.72298 0
gene 1 11 17 4.72932 0 22 4.72932 1
gene 1 12 16 0.913673 0 23 0.913673 1
gene 1 12 17 -3.68554 0 24 -3.68554 1
gene 1 13 16 -2.80729 0 25 -2.80729 1
gene 1 13 17 -2.72661 0 16 -2.72661 1
gene 1 14 16 -3.67204 0 17 -3.67204 1
gene 1 14 17 1.35881 0 28 1.35881 1
gene 1 15 16 7.44357 0 29 7.44357 1
gene 1 15 17 2.3347 0 30 2.3347 1
gene 1 8 58 -1.91525 0 169 -1.91525 1
gene 1 58 17 5.85488 0 170 5.85488 1
gene 1 1 58 1.97397 0 184 1.97397 0
gene 1 9 67 0.915375 0 206 0.915375 1
gene 1 67 16 0.0708832 0 207 0.0708832 1
gene 1 3 67 -1.5244 0 294 -1.5244 1
gene 1 5 58 -0.5093 0 333 -0.5093 1
gene 1 17 16 -2.11441 0 361 -2.11441 0
gene 1 4 58 0.958475 0 416 0.958475 1
gene 1 1 132 1.65653 0 426 1.15653 0
gene 1 132 58 1.08532 0 427 0.813993 1
gene 1 14 67 0.703298 0 469 0.703298 1
gene 1 3 146 1.30954 0 479 1.05954 1
gene 1 146 67 -3.32681 0 480 -1.87787 1
gene 1 9 154 1 0 503 0.5 1
gene 1 154 17 6.90174 0 504 3.45087 1
gene 1 10 58 -0.409515 0 640 -0.409515 1
gene 1 1 191 1 0 651 0 1
gene 1 191 132 1.65653 0 652 0 1
gene 1 154 58 -0.586417 0 662 -0.586417 1
gene 1 17 203 1 0 700 0 1
gene 1 203 16 -2.11441 0 701 0 1
gene 1 191 17 0.265965 0 766 0.265965 1
gene 1 10 146 -0.754556 0 802 -0.754556 1
genomeend 52


