/*Fitness: 15089.8*/
genomestart 1
node 1 0 1 1
node 2 0 1 1
node 3 0 1 1
node 4 0 1 1
node 5 0 1 1
node 6 0 1 1
node 7 0 1 1
node 8 0 1 1
node 9 0 1 1
node 10 0 1 1
node 11 0 1 1
node 12 0 1 1
node 13 0 1 1
node 14 0 1 1
node 15 0 1 3
node 16 0 0 2
node 17 0 0 2
gene 0 1 16 -2.45665 0 0 1 1
gene 0 2 16 2.487 0 0 1 1
gene 0 3 16 3.178 0 0 1 1
gene 0 4 16 3.40293 0 0 1 1
gene 0 5 16 -1.9268 0 0 1 1
gene 0 6 16 -2.1424 0 0 1 1
gene 0 7 16 0.542077 0 0 1 1
gene 0 8 16 -2.45646 0 0 1 1
gene 0 9 16 -4.87284 0 0 1 1
gene 0 10 16 -0.318803 0 0 1 1
gene 0 11 16 -2.05692 0 0 1 1
gene 0 12 16 -4.04811 0 0 1 1
gene 0 13 16 0.522541 0 0 1 1
gene 0 14 16 2.44538 0 0 1 1
gene 0 15 16 4.2797 0 0 1 1
gene 0 1 17 0.541197 0 0 1 1
gene 0 2 17 0.487507 0 0 1 1
gene 0 3 17 4.61434 0 0 1 1
gene 0 4 17 -3.02714 0 0 1 1
gene 0 5 17 -1.4378 0 0 1 1
gene 0 6 17 -0.13481 0 0 1 1
gene 0 7 17 -3.31232 0 0 1 1
gene 0 8 17 -3.57555 0 0 1 1
gene 0 9 17 -2.87537 0 0 1 1
gene 0 10 17 0.849777 0 0 1 1
gene 0 11 17 4.17161 0 0 1 1
gene 0 12 17 -2.7714 0 0 1 1
gene 0 13 17 2.42394 0 0 1 1
gene 0 14 17 0.389227 0 0 1 1
gene 0 15 17 -3.01854 0 0 1 1
genomeend 1
