/*Fitness: 14280.9*/
genomestart 1
node 1 0 1 1
node 2 0 1 1
node 3 0 1 1
node 4 0 1 1
node 5 0 1 1
node 6 0 1 1
node 7 0 1 1
node 8 0 1 1
node 9 0 1 1
node 10 0 1 1
node 11 0 1 1
node 12 0 1 1
node 13 0 1 1
node 14 0 1 1
node 15 0 1 3
node 16 0 0 2
node 17 0 0 2
gene 0 1 16 -1.27597 0 0 1 1
gene 0 2 16 3.37691 0 0 1 1
gene 0 3 16 0.280672 0 0 1 1
gene 0 4 16 3.83961 0 0 1 1
gene 0 5 16 -4.07845 0 0 1 1
gene 0 6 16 -1.30317 0 0 1 1
gene 0 7 16 -1.22412 0 0 1 1
gene 0 8 16 -3.39263 0 0 1 1
gene 0 9 16 -2.14903 0 0 1 1
gene 0 10 16 -2.21958 0 0 1 1
gene 0 11 16 3.34617 0 0 1 1
gene 0 12 16 3.91274 0 0 1 1
gene 0 13 16 -2.68258 0 0 1 1
gene 0 14 16 0.866366 0 0 1 1
gene 0 15 16 -3.39749 0 0 1 1
gene 0 1 17 1.09586 0 0 1 1
gene 0 2 17 1.91179 0 0 1 1
gene 0 3 17 3.33968 0 0 1 1
gene 0 4 17 -2.46241 0 0 1 1
gene 0 5 17 -2.31343 0 0 1 1
gene 0 6 17 0.779996 0 0 1 1
gene 0 7 17 -1.65948 0 0 1 1
gene 0 8 17 -0.272228 0 0 1 1
gene 0 9 17 -4.48888 0 0 1 1
gene 0 10 17 -1.60844 0 0 1 1
gene 0 11 17 4.03723 0 0 1 1
gene 0 12 17 2.86831 0 0 1 1
gene 0 13 17 2.65074 0 0 1 1
gene 0 14 17 1.27355 0 0 1 1
gene 0 15 17 4.67683 0 0 1 1
genomeend 1
