/*Fitness: 14626.2*/
genomestart 1
node 1 0 1 1
node 2 0 1 1
node 3 0 1 1
node 4 0 1 1
node 5 0 1 1
node 6 0 1 1
node 7 0 1 1
node 8 0 1 1
node 9 0 1 1
node 10 0 1 1
node 11 0 1 1
node 12 0 1 1
node 13 0 1 1
node 14 0 1 1
node 15 0 1 3
node 16 0 0 2
node 17 0 0 2
gene 0 1 16 -1.75898 0 0 1 1
gene 0 2 16 -3.83724 0 0 1 1
gene 0 3 16 -4.64748 0 0 1 1
gene 0 4 16 -2.68871 0 0 1 1
gene 0 5 16 -4.32591 0 0 1 1
gene 0 6 16 -2.13959 0 0 1 1
gene 0 7 16 -2.56991 0 0 1 1
gene 0 8 16 -2.76605 0 0 1 1
gene 0 9 16 -2.93626 0 0 1 1
gene 0 10 16 -1.53169 0 0 1 1
gene 0 11 16 -1.87346 0 0 1 1
gene 0 12 16 -0.555592 0 0 1 1
gene 0 13 16 -1.02423 0 0 1 1
gene 0 14 16 -2.95204 0 0 1 1
gene 0 15 16 2.01971 0 0 1 1
gene 0 1 17 3.24294 0 0 1 1
gene 0 2 17 2.76221 0 0 1 1
gene 0 3 17 3.7444 0 0 1 1
gene 0 4 17 -2.90554 0 0 1 1
gene 0 5 17 -2.12557 0 0 1 1
gene 0 6 17 0.415322 0 0 1 1
gene 0 7 17 -2.15651 0 0 1 1
gene 0 8 17 -1.29094 0 0 1 1
gene 0 9 17 -5 0 0 1 1
gene 0 10 17 -1.18367 0 0 1 1
gene 0 11 17 4.78966 0 0 1 1
gene 0 12 17 0.00482471 0 0 1 1
gene 0 13 17 0.642696 0 0 1 1
gene 0 14 17 1.09502 0 0 1 1
gene 0 15 17 4.33832 0 0 1 1
genomeend 1
