/*Fitness: 14830.3*/
genomestart 1
node 1 0 1 1
node 2 0 1 1
node 3 0 1 1
node 4 0 1 1
node 5 0 1 1
node 6 0 1 1
node 7 0 1 1
node 8 0 1 1
node 9 0 1 1
node 10 0 1 1
node 11 0 1 1
node 12 0 1 1
node 13 0 1 1
node 14 0 1 1
node 15 0 1 3
node 16 0 0 2
node 17 0 0 2
gene 0 1 16 -4.38878 0 0 1 1
gene 0 2 16 2.78937 0 0 1 1
gene 0 3 16 2.77525 0 0 1 1
gene 0 4 16 3.20591 0 0 1 1
gene 0 5 16 -0.434702 0 0 1 1
gene 0 6 16 -0.663983 0 0 1 1
gene 0 7 16 1.77754 0 0 1 1
gene 0 8 16 -0.680931 0 0 1 1
gene 0 9 16 -4.78333 0 0 1 1
gene 0 10 16 -0.135873 0 0 1 1
gene 0 11 16 -4.02091 0 0 1 1
gene 0 12 16 -2.35228 0 0 1 1
gene 0 13 16 -4.247 0 0 1 1
gene 0 14 16 -3.38266 0 0 1 1
gene 0 15 16 2.56031 0 0 1 1
gene 0 1 17 4.42836 0 0 1 1
gene 0 2 17 3.77488 0 0 1 1
gene 0 3 17 -0.299274 0 0 1 1
gene 0 4 17 -1.262 0 0 1 1
gene 0 5 17 -2.65306 0 0 1 1
gene 0 6 17 -3.91365 0 0 1 1
gene 0 7 17 -2.14357 0 0 1 1
gene 0 8 17 -3.109 0 0 1 1
gene 0 9 17 0.481084 0 0 1 1
gene 0 10 17 -4.56056 0 0 1 1
gene 0 11 17 -2.90501 0 0 1 1
gene 0 12 17 0.209122 0 0 1 1
gene 0 13 17 1.53084 0 0 1 1
gene 0 14 17 -0.83563 0 0 1 1
gene 0 15 17 -4.42141 0 0 1 1
genomeend 1
