/*Fitness: 14524.9*/
genomestart 1
node 1 0 1 1
node 2 0 1 1
node 3 0 1 1
node 4 0 1 1
node 5 0 1 1
node 6 0 1 1
node 7 0 1 1
node 8 0 1 1
node 9 0 1 1
node 10 0 1 1
node 11 0 1 1
node 12 0 1 1
node 13 0 1 1
node 14 0 1 1
node 15 0 1 3
node 16 0 0 2
node 17 0 0 2
gene 0 1 16 -1.79974 0 0 1 1
gene 0 2 16 0.519932 0 0 1 1
gene 0 3 16 4.10581 0 0 1 1
gene 0 4 16 0.501702 0 0 1 1
gene 0 5 16 -3.91055 0 0 1 1
gene 0 6 16 -5 0 0 1 1
gene 0 7 16 -2.4066 0 0 1 1
gene 0 8 16 -4.80451 0 0 1 1
gene 0 9 16 -2.5539 0 0 1 1
gene 0 10 16 -2.63168 0 0 1 1
gene 0 11 16 4.52695 0 0 1 1
gene 0 12 16 4.22702 0 0 1 1
gene 0 13 16 3.06743 0 0 1 1
gene 0 14 16 3.61963 0 0 1 1
gene 0 15 16 1.99114 0 0 1 1
gene 0 1 17 3.32717 0 0 1 1
gene 0 2 17 3.13905 0 0 1 1
gene 0 3 17 5 0 0 1 1
gene 0 4 17 -4.03479 0 0 1 1
gene 0 5 17 -1.66045 0 0 1 1
gene 0 6 17 0.406425 0 0 1 1
gene 0 7 17 -1.51851 0 0 1 1
gene 0 8 17 -1.63955 0 0 1 1
gene 0 9 17 -5 0 0 1 1
gene 0 10 17 -1.46469 0 0 1 1
gene 0 11 17 4.093 0 0 1 1
gene 0 12 17 0.761173 0 0 1 1
gene 0 13 17 -1.05903 0 0 1 1
gene 0 14 17 -1.27614 0 0 1 1
gene 0 15 17 4.32565 0 0 1 1
genomeend 1
