/*Fitness: 14806.6*/
genomestart 1
node 1 0 1 1
node 2 0 1 1
node 3 0 1 1
node 4 0 1 1
node 5 0 1 1
node 6 0 1 1
node 7 0 1 1
node 8 0 1 1
node 9 0 1 1
node 10 0 1 1
node 11 0 1 1
node 12 0 1 1
node 13 0 1 1
node 14 0 1 1
node 15 0 1 3
node 16 0 0 2
node 17 0 0 2
gene 0 1 16 -0.748409 0 0 1 1
gene 0 2 16 3.11141 0 0 1 1
gene 0 3 16 1.31008 0 0 1 1
gene 0 4 16 -0.10537 0 0 1 1
gene 0 5 16 -1.48904 0 0 1 1
gene 0 6 16 -0.175178 0 0 1 1
gene 0 7 16 -3.86529 0 0 1 1
gene 0 8 16 -0.195784 0 0 1 1
gene 0 9 16 -1.86258 0 0 1 1
gene 0 10 16 -4.00304 0 0 1 1
gene 0 11 16 1.0579 0 0 1 1
gene 0 12 16 2.53939 0 0 1 1
gene 0 13 16 -0.91201 0 0 1 1
gene 0 14 16 -0.148016 0 0 1 1
gene 0 15 16 -3.57397 0 0 1 1
gene 0 1 17 2.85982 0 0 1 1
gene 0 2 17 2.75763 0 0 1 1
gene 0 3 17 3.35338 0 0 1 1
gene 0 4 17 -3.93531 0 0 1 1
gene 0 5 17 -2.43679 0 0 1 1
gene 0 6 17 0.539177 0 0 1 1
gene 0 7 17 -2.30289 0 0 1 1
gene 0 8 17 -1.86596 0 0 1 1
gene 0 9 17 -5 0 0 1 1
gene 0 10 17 -1.20205 0 0 1 1
gene 0 11 17 -2.73462 0 0 1 1
gene 0 12 17 0.51394 0 0 1 1
gene 0 13 17 0.0248457 0 0 1 1
gene 0 14 17 1.22755 0 0 1 1
gene 0 15 17 5 0 0 1 1
genomeend 1
