/*Fitness: 14980.5*/
genomestart 1
node 1 0 1 1
node 2 0 1 1
node 3 0 1 1
node 4 0 1 1
node 5 0 1 1
node 6 0 1 1
node 7 0 1 1
node 8 0 1 1
node 9 0 1 1
node 10 0 1 1
node 11 0 1 1
node 12 0 1 1
node 13 0 1 1
node 14 0 1 1
node 15 0 1 3
node 16 0 0 2
node 17 0 0 2
gene 0 1 16 -2.88084 0 0 1 1
gene 0 2 16 2.4515 0 0 1 1
gene 0 3 16 2.53152 0 0 1 1
gene 0 4 16 2.60164 0 0 1 1
gene 0 5 16 -1.63191 0 0 1 1
gene 0 6 16 -1.50352 0 0 1 1
gene 0 7 16 0.578602 0 0 1 1
gene 0 8 16 -1.81552 0 0 1 1
gene 0 9 16 -5 0 0 1 1
gene 0 10 16 -1.12149 0 0 1 1
gene 0 11 16 0.899252 0 0 1 1
gene 0 12 16 1.7203 0 0 1 1
gene 0 13 16 3.60077 0 0 1 1
gene 0 14 16 2.43595 0 0 1 1
gene 0 15 16 4.30361 0 0 1 1
gene 0 1 17 -1.372 0 0 1 1
gene 0 2 17 -2.49024 0 0 1 1
gene 0 3 17 -2.09466 0 0 1 1
gene 0 4 17 -2.06776 0 0 1 1
gene 0 5 17 -2.87164 0 0 1 1
gene 0 6 17 -1.3457 0 0 1 1
gene 0 7 17 -4.85943 0 0 1 1
gene 0 8 17 -3.76789 0 0 1 1
gene 0 9 17 -4.02681 0 0 1 1
gene 0 10 17 0.555819 0 0 1 1
gene 0 11 17 4.59791 0 0 1 1
gene 0 12 17 3.93801 0 0 1 1
gene 0 13 17 0.909701 0 0 1 1
gene 0 14 17 3.0236 0 0 1 1
gene 0 15 17 -2.20027 0 0 1 1
genomeend 1
