/*Fitness: 13750.2*/
genomestart 1
node 1 0 1 1
node 2 0 1 1
node 3 0 1 1
node 4 0 1 1
node 5 0 1 1
node 6 0 1 1
node 7 0 1 1
node 8 0 1 1
node 9 0 1 1
node 10 0 1 1
node 11 0 1 1
node 12 0 1 1
node 13 0 1 1
node 14 0 1 1
node 15 0 1 3
node 16 0 0 2
node 17 0 0 2
gene 0 1 16 -1.1806 0 0 1 1
gene 0 2 16 0.976699 0 0 1 1
gene 0 3 16 3.86722 0 0 1 1
gene 0 4 16 2.31106 0 0 1 1
gene 0 5 16 0.664681 0 0 1 1
gene 0 6 16 0.60715 0 0 1 1
gene 0 7 16 2.41605 0 0 1 1
gene 0 8 16 0.391635 0 0 1 1
gene 0 9 16 -4.9441 0 0 1 1
gene 0 10 16 -2.03766 0 0 1 1
gene 0 11 16 -1.64938 0 0 1 1
gene 0 12 16 -2.43793 0 0 1 1
gene 0 13 16 -0.357477 0 0 1 1
gene 0 14 16 -3.73077 0 0 1 1
gene 0 15 16 1.81727 0 0 1 1
gene 0 1 17 2.98876 0 0 1 1
gene 0 2 17 0.116894 0 0 1 1
gene 0 3 17 -1.73916 0 0 1 1
gene 0 4 17 1.56177 0 0 1 1
gene 0 5 17 -2.42487 0 0 1 1
gene 0 6 17 -2.57771 0 0 1 1
gene 0 7 17 -2.48373 0 0 1 1
gene 0 8 17 0.0289372 0 0 1 1
gene 0 9 17 1.07377 0 0 1 1
gene 0 10 17 -2.65443 0 0 1 1
gene 0 11 17 0.103446 0 0 1 1
gene 0 12 17 -2.43982 0 0 1 1
gene 0 13 17 -1.42085 0 0 1 1
gene 0 14 17 -3.31107 0 0 1 1
gene 0 15 17 -3.76056 0 0 1 1
genomeend 1
