/*Fitness: 14936*/
genomestart 1
node 1 0 1 1
node 2 0 1 1
node 3 0 1 1
node 4 0 1 1
node 5 0 1 1
node 6 0 1 1
node 7 0 1 1
node 8 0 1 1
node 9 0 1 1
node 10 0 1 1
node 11 0 1 1
node 12 0 1 1
node 13 0 1 1
node 14 0 1 1
node 15 0 1 3
node 16 0 0 2
node 17 0 0 2
gene 0 1 16 -1.96793 0 0 1 1
gene 0 2 16 3.60153 0 0 1 1
gene 0 3 16 3.2239 0 0 1 1
gene 0 4 16 2.90286 0 0 1 1
gene 0 5 16 1.02126 0 0 1 1
gene 0 6 16 0.520973 0 0 1 1
gene 0 7 16 2.85951 0 0 1 1
gene 0 8 16 0.366354 0 0 1 1
gene 0 9 16 -4.84313 0 0 1 1
gene 0 10 16 -1.09486 0 0 1 1
gene 0 11 16 0.648726 0 0 1 1
gene 0 12 16 -1.9375 0 0 1 1
gene 0 13 16 -2.64979 0 0 1 1
gene 0 14 16 0.714299 0 0 1 1
gene 0 15 16 1.20469 0 0 1 1
gene 0 1 17 -1.72382 0 0 1 1
gene 0 2 17 1.01284 0 0 1 1
gene 0 3 17 -1.01125 0 0 1 1
gene 0 4 17 0.907159 0 0 1 1
gene 0 5 17 -3.5757 0 0 1 1
gene 0 6 17 -1.64917 0 0 1 1
gene 0 7 17 -2.7695 0 0 1 1
gene 0 8 17 0.0119086 0 0 1 1
gene 0 9 17 -1.38895 0 0 1 1
gene 0 10 17 -2.73728 0 0 1 1
gene 0 11 17 1.83791 0 0 1 1
gene 0 12 17 3.68344 0 0 1 1
gene 0 13 17 1.50603 0 0 1 1
gene 0 14 17 -2.17718 0 0 1 1
gene 0 15 17 -3.02418 0 0 1 1
genomeend 1
