/*Fitness: 14337.3*/
genomestart 1
node 1 0 1 1
node 2 0 1 1
node 3 0 1 1
node 4 0 1 1
node 5 0 1 1
node 6 0 1 1
node 7 0 1 1
node 8 0 1 1
node 9 0 1 1
node 10 0 1 1
node 11 0 1 1
node 12 0 1 1
node 13 0 1 1
node 14 0 1 1
node 15 0 1 3
node 16 0 0 2
node 17 0 0 2
gene 0 1 16 1.84319 0 0 1 1
gene 0 2 16 -0.225999 0 0 1 1
gene 0 3 16 -1.58849 0 0 1 1
gene 0 4 16 1.41152 0 0 1 1
gene 0 5 16 -1.25882 0 0 1 1
gene 0 6 16 -1.63644 0 0 1 1
gene 0 7 16 -0.750976 0 0 1 1
gene 0 8 16 -3.04927 0 0 1 1
gene 0 9 16 -3.03393 0 0 1 1
gene 0 10 16 -1.20504 0 0 1 1
gene 0 11 16 -1.2649 0 0 1 1
gene 0 12 16 1.30654 0 0 1 1
gene 0 13 16 -4.05768 0 0 1 1
gene 0 14 16 -2.39258 0 0 1 1
gene 0 15 16 -2.77739 0 0 1 1
gene 0 1 17 2.54767 0 0 1 1
gene 0 2 17 2.89093 0 0 1 1
gene 0 3 17 4.19953 0 0 1 1
gene 0 4 17 -3.63484 0 0 1 1
gene 0 5 17 -1.38959 0 0 1 1
gene 0 6 17 1.57076 0 0 1 1
gene 0 7 17 -1.46249 0 0 1 1
gene 0 8 17 -0.796299 0 0 1 1
gene 0 9 17 -5 0 0 1 1
gene 0 10 17 -0.81738 0 0 1 1
gene 0 11 17 1.47396 0 0 1 1
gene 0 12 17 -1.76712 0 0 1 1
gene 0 13 17 3.28716 0 0 1 1
gene 0 14 17 -3.792 0 0 1 1
gene 0 15 17 3.65693 0 0 1 1
genomeend 1
