/* Organism #0 Fitness: -139682.775300 Time: 0 */
genomestart 0
trait 1 0.078748 0.117068 0.304558 0.659164 0.521423 0.577742 0.160722 0.212278 
node 1 1 1 1
node 2 1 1 1
node 3 1 1 1
node 4 1 1 1
node 5 1 1 1
node 6 1 1 1
node 7 1 1 1
node 8 1 1 1
node 9 1 1 1
node 10 1 1 1
node 11 1 1 1
node 12 1 1 1
node 13 1 1 1
node 14 1 1 1
node 15 1 1 3
node 16 1 0 2
node 17 1 0 2
node 55 1 0 0
gene 1 1 16 -2.46151 0 1 -2.46151 1
gene 1 1 17 0.585586 0 2 0.585586 1
gene 1 2 16 -1.59177 0 3 -1.59177 1
gene 1 2 17 -0.594656 0 4 -0.594656 1
gene 1 3 16 3.02787 0 5 3.02787 1
gene 1 3 17 2.38629 0 6 2.38629 1
gene 1 4 16 -1.73768 0 7 -1.73768 0
gene 1 4 17 -0.346187 0 8 -0.346187 1
gene 1 5 16 0.794584 0 9 0.794584 1
gene 1 5 17 -2.39123 0 10 -2.39123 0
gene 1 6 16 0.787046 0 11 0.787046 1
gene 1 6 17 3.49958 0 12 3.49958 1
gene 1 7 16 1.73386 0 13 1.73386 1
gene 1 7 17 1.70058 0 14 1.70058 1
gene 1 8 16 2.7525 0 15 2.7525 1
gene 1 8 17 -4.23193 0 16 -4.23193 0
gene 1 9 16 -1.0624 0 17 -1.0624 1
gene 1 9 17 -0.321156 0 18 -0.321156 1
gene 1 10 16 0.384037 0 19 0.384037 1
gene 1 10 17 -4.34164 0 20 -4.34164 0
gene 1 11 16 -4.24426 0 21 -4.24426 1
gene 1 11 17 0.659366 0 22 0.659366 1
gene 1 12 16 -0.09937 0 23 -0.09937 1
gene 1 12 17 1.69873 0 24 1.69873 1
gene 1 13 16 2.58884 0 25 2.58884 1
gene 1 13 17 -1.37086 0 16 -1.37086 1
gene 1 14 16 -1.02037 0 17 -1.02037 1
gene 1 14 17 0.181521 0 28 0.181521 1
gene 1 15 16 -0.361042 0 29 -0.361042 1
gene 1 15 17 -2.1182 0 30 -2.1182 1
gene 1 5 55 -0.387499 0 128 -0.387499 1
gene 1 55 17 -3.87005 0 129 -3.87005 1
gene 1 16 17 -0.309616 0 132 -0.309616 1
gene 1 14 55 -1.14017 0 213 -1.14017 1
gene 1 10 55 0.0952673 0 241 0.0952673 1
gene 1 9 55 0.812328 0 257 0.812328 1
gene 1 6 55 1.06284 0 349 1.06284 1
gene 1 1 55 0.482686 0 432 0.536815 1
gene 1 3 55 -0.487996 0 498 -0.487996 1
gene 1 15 55 -0.742567 0 508 0 1
gene 1 55 16 0.445779 0 562 0.445779 1
gene 1 7 55 0.855842 0 673 0 1
genomeend 0


