/* Organism #0 Fitness: -139214.267300 Time: 0 */
genomestart 0
trait 1 0.122482 0.462767 0.165444 0.165465 0.211536 0.074037 0.172564 0.000000 
node 1 1 1 1
node 2 1 1 1
node 3 1 1 1
node 4 1 1 1
node 5 1 1 1
node 6 1 1 1
node 7 1 1 1
node 8 1 1 1
node 9 1 1 1
node 10 1 1 1
node 11 1 1 1
node 12 1 1 1
node 13 1 1 1
node 14 1 1 1
node 15 1 1 3
node 16 1 0 2
node 17 1 0 2
node 199 1 0 0
gene 1 1 16 -5.12246 0 1 -5.12246 1
gene 1 1 17 2.96775 0 2 2.96775 1
gene 1 2 16 2.55084 0 3 2.55084 0
gene 1 2 17 -1.47999 0 4 -1.47999 1
gene 1 3 16 6.80791 0 5 6.80791 1
gene 1 3 17 -1.46125 0 6 -1.46125 0
gene 1 4 16 0.594789 0 7 0.594789 1
gene 1 4 17 1.16001 0 8 1.16001 0
gene 1 5 16 2.25261 0 9 2.25261 1
gene 1 5 17 -1.59602 0 10 -1.59602 1
gene 1 6 16 -0.407536 0 11 -0.407536 1
gene 1 6 17 -2.41279 0 12 -2.41279 1
gene 1 7 16 0.128079 0 13 0.128079 0
gene 1 7 17 -2.01628 0 14 -2.01628 1
gene 1 8 16 0.684232 0 15 0.684232 1
gene 1 8 17 -0.589857 0 16 -0.589857 0
gene 1 9 16 -1.36018 0 17 -1.36018 1
gene 1 9 17 -2.98079 0 18 -2.98079 1
gene 1 10 16 -0.97204 0 19 -0.97204 1
gene 1 10 17 -0.76689 0 20 -0.76689 1
gene 1 11 16 -5.69748 0 21 -5.69748 1
gene 1 11 17 2.32121 0 22 2.32121 0
gene 1 12 16 2.98946 0 23 2.98946 1
gene 1 12 17 0.64476 0 24 0.64476 0
gene 1 13 16 5.30754 0 25 5.30754 1
gene 1 13 17 0.136035 0 16 0.136035 1
gene 1 14 16 0.112565 0 17 0.112565 1
gene 1 14 17 -1.03325 0 28 -1.03325 1
gene 1 15 16 -1.57523 0 29 -1.57523 1
gene 1 15 17 -3.05386 0 30 -3.05386 1
gene 1 16 17 1.10637 0 47 1.10637 1
gene 1 2 199 -0.42064 0 594 -0.42064 1
gene 1 199 16 2.55774 0 595 2.55774 1
gene 1 7 199 -0.991153 0 599 -0.991153 1
genomeend 0


