/* Organism #57 Fitness: -140510.493500 Time: 0 */
genomestart 57
trait 1 0.042943 0.210405 0.000000 0.119817 0.506041 0.000000 0.051727 0.735653 
node 1 1 1 1
node 2 1 1 1
node 3 1 1 1
node 4 1 1 1
node 5 1 1 1
node 6 1 1 1
node 7 1 1 1
node 8 1 1 1
node 9 1 1 1
node 10 1 1 1
node 11 1 1 1
node 12 1 1 1
node 13 1 1 1
node 14 1 1 1
node 15 1 1 3
node 16 1 0 2
node 17 1 0 2
node 23 1 0 0
node 47 1 0 0
node 78 1 0 0
node 83 1 0 0
node 100 1 0 0
node 232 1 0 0
gene 1 1 16 -3.85427 0 1 -3.85427 0
gene 1 1 17 -3.33951 0 2 -3.33951 1
gene 1 2 16 2.29006 0 3 2.29006 0
gene 1 2 17 -0.494299 0 4 -0.494299 0
gene 1 3 16 0.753737 0 5 0.753737 0
gene 1 3 17 3.2018 0 6 3.2018 1
gene 1 4 16 -5.01775 0 7 -5.01775 1
gene 1 4 17 -1.89241 0 8 -1.89241 1
gene 1 5 16 -3.44028 0 9 -3.44028 1
gene 1 5 17 -0.91721 0 10 -0.91721 1
gene 1 6 16 -2.85735 0 11 -2.85735 1
gene 1 6 17 0.0389276 0 12 0.0389276 1
gene 1 7 16 0.570391 0 13 0.570391 1
gene 1 7 17 -4.90889 0 14 -4.90889 1
gene 1 8 16 1.90429 0 15 1.90429 1
gene 1 8 17 0.186744 0 16 0.186744 1
gene 1 9 16 0.0269988 0 17 0.0269988 1
gene 1 9 17 0.403053 0 18 0.403053 1
gene 1 10 16 0.506488 0 19 0.506488 1
gene 1 10 17 -0.53181 0 20 -0.53181 1
gene 1 11 16 -1.1312 0 21 -1.1312 1
gene 1 11 17 -3.88685 0 22 -3.88685 1
gene 1 12 16 -0.705798 0 23 -0.705798 1
gene 1 12 17 2.37571 0 24 2.37571 1
gene 1 13 16 0.53305 0 25 0.53305 0
gene 1 13 17 4.16069 0 16 4.16069 1
gene 1 14 16 -2.06934 0 17 -2.06934 1
gene 1 14 17 -2.32567 0 28 -2.32567 1
gene 1 15 16 1.09309 0 29 1.09309 1
gene 1 15 17 0.958282 0 30 0.958282 1
gene 1 1 23 -0.332111 0 45 -0.332111 1
gene 1 23 16 3.8502 0 46 3.8502 1
gene 1 6 47 2.23019 0 122 2.23019 1
gene 1 47 16 -0.459033 0 123 -0.459033 0
gene 1 7 23 2.38897 0 202 2.38897 1
gene 1 6 78 1.54081 0 256 1.54081 1
gene 1 78 47 -1.38102 0 257 -1.38102 1
gene 1 2 83 2.10283 0 286 1.60283 1
gene 1 83 17 -0.447242 0 287 -0.200093 1
gene 1 47 100 2.80485 0 341 2.80485 0
gene 1 100 16 0.941714 0 342 1.37552 1
gene 1 8 83 0.142649 0 378 0.142649 1
gene 1 10 78 -2.43711 0 498 -2.43711 1
gene 1 83 100 -0.136366 0 515 -0.136366 1
gene 1 1 47 0.686746 0 567 0.686746 1
gene 1 8 78 2.56412 0 596 2.56412 1
gene 1 12 47 1.2658 0 619 1.2658 1
gene 1 5 23 -0.685286 0 691 -0.685286 1
gene 1 7 83 0.817575 0 699 0.817575 1
gene 1 78 100 -0.140373 0 764 -0.140373 1
gene 1 5 47 3.44131 0 787 3.44131 1
gene 1 15 47 2.00204 0 797 2.00204 1
gene 1 2 232 1 0 853 0 1
gene 1 232 16 2.29006 0 854 0 1
gene 1 6 232 0.353621 0 879 0.353621 1
genomeend 57


