/* Organism #64 Fitness: -141148.965700 Time: 0 */
genomestart 64
trait 1 0.095716 0.052540 0.519607 0.224292 0.000917 0.349372 0.129709 0.178497 
node 1 1 1 1
node 2 1 1 1
node 3 1 1 1
node 4 1 1 1
node 5 1 1 1
node 6 1 1 1
node 7 1 1 1
node 8 1 1 1
node 9 1 1 1
node 10 1 1 1
node 11 1 1 1
node 12 1 1 1
node 13 1 1 1
node 14 1 1 1
node 15 1 1 3
node 16 1 0 2
node 17 1 0 2
node 27 1 0 0
node 32 1 0 0
gene 1 1 16 -2.11047 0 1 -2.11047 1
gene 1 1 17 -1.77847 0 2 -1.77847 1
gene 1 2 16 5.00805 0 3 5.00805 1
gene 1 2 17 3.61519 0 4 3.61519 1
gene 1 3 16 3.75966 0 5 3.75966 1
gene 1 3 17 0.287783 0 6 0.287783 1
gene 1 4 16 -1.48145 0 7 -1.48145 1
gene 1 4 17 4.40663 0 8 4.40663 1
gene 1 5 16 1.92237 0 9 1.92237 1
gene 1 5 17 0.426527 0 10 0.426527 1
gene 1 6 16 -1.25365 0 11 -1.25365 1
gene 1 6 17 5.78411 0 12 5.78411 1
gene 1 7 16 -2.38555 0 13 -2.38555 1
gene 1 7 17 0.123725 0 14 0.123725 1
gene 1 8 16 -1.41597 0 15 -1.41597 1
gene 1 8 17 0.585192 0 16 0.585192 0
gene 1 9 16 -0.262893 0 17 -0.262893 1
gene 1 9 17 -0.503207 0 18 -0.503207 1
gene 1 10 16 0.242776 0 19 0.242776 1
gene 1 10 17 -1.71434 0 20 -1.71434 1
gene 1 11 16 -2.58367 0 21 -2.58367 1
gene 1 11 17 1.13764 0 22 1.13764 0
gene 1 12 16 1.30163 0 23 1.30163 1
gene 1 12 17 -1.16793 0 24 -1.16793 1
gene 1 13 16 1.55636 0 25 1.55636 1
gene 1 13 17 0.701011 0 16 0.701011 1
gene 1 14 16 -1.83367 0 17 -1.83367 1
gene 1 14 17 0.596131 0 28 0.596131 1
gene 1 15 16 0.649644 0 29 0.649644 1
gene 1 15 17 2.27351 0 30 2.27351 1
gene 1 8 27 2.37658 0 54 2.37658 1
gene 1 27 17 0.984129 0 55 0.984129 1
gene 1 7 32 -1.5109 0 68 -1.5109 1
gene 1 32 17 4.34707 0 69 4.34707 1
gene 1 14 27 -1.00141 0 184 -1.00141 1
gene 1 13 32 -0.328174 0 218 -0.328174 1
gene 1 2 32 -1.18761 0 255 -1.18761 1
gene 1 12 27 2.28012 0 304 2.28012 1
gene 1 1 27 0.301926 0 310 0.301926 1
gene 1 16 27 -0.715603 0 360 -0.715603 1
gene 1 9 27 -0.104285 0 364 -0.104285 1
gene 1 14 32 1.51614 0 466 1.51614 1
gene 1 2 27 0.748767 0 586 0.748767 1
gene 1 10 32 -0.405393 0 631 -0.405393 1
gene 1 6 27 0.651692 0 648 0.651692 1
gene 1 11 32 -0.670693 0 665 -0.670693 1
gene 1 13 27 0.703813 0 711 0.703813 1
genomeend 64


