/* Organism #94 Fitness: -138065.348600 Time: 0 */
genomestart 94
trait 1 0.079988 0.398668 0.328966 0.187456 0.029542 0.018113 0.080656 0.163966 
node 1 1 1 1
node 2 1 1 1
node 3 1 1 1
node 4 1 1 1
node 5 1 1 1
node 6 1 1 1
node 7 1 1 1
node 8 1 1 1
node 9 1 1 1
node 10 1 1 1
node 11 1 1 1
node 12 1 1 1
node 13 1 1 1
node 14 1 1 1
node 15 1 1 3
node 16 1 0 2
node 17 1 0 2
node 66 1 0 0
node 179 1 0 0
node 215 1 0 0
gene 1 1 16 -2.37057 0 1 -2.37057 0
gene 1 1 17 -5.33958 0 2 -5.33958 1
gene 1 2 16 -0.0129079 0 3 -0.0129079 1
gene 1 2 17 2.46122 0 4 2.46122 1
gene 1 3 16 -3.81147 0 5 -3.81147 1
gene 1 3 17 2.13667 0 6 2.13667 1
gene 1 4 16 -1.92317 0 7 -1.92317 1
gene 1 4 17 -1.65702 0 8 -1.65702 1
gene 1 5 16 0.465813 0 9 0.465813 0
gene 1 5 17 -1.13614 0 10 -1.13614 1
gene 1 6 16 1.32301 0 11 1.32301 0
gene 1 6 17 2.55206 0 12 2.55206 1
gene 1 7 16 3.33773 0 13 3.33773 1
gene 1 7 17 -1.98798 0 14 -1.98798 1
gene 1 8 16 2.32806 0 15 2.32806 1
gene 1 8 17 -1.07071 0 16 -1.07071 1
gene 1 9 16 7.21305 0 17 7.21305 1
gene 1 9 17 2.82935 0 18 2.82935 1
gene 1 10 16 -3.65886 0 19 -3.65886 1
gene 1 10 17 0.868751 0 20 0.868751 1
gene 1 11 16 -0.55341 0 21 -0.55341 1
gene 1 11 17 -7.75854 0 22 -7.75854 1
gene 1 12 16 -4.35362 0 23 -4.35362 1
gene 1 12 17 3.61714 0 24 3.61714 1
gene 1 13 16 0.945043 0 25 0.945043 1
gene 1 13 17 6.97148 0 16 6.97148 1
gene 1 14 16 -1.30004 0 17 -1.30004 1
gene 1 14 17 -2.7384 0 28 -2.7384 1
gene 1 15 16 7.25414 0 29 7.25414 1
gene 1 15 17 0.116207 0 30 0.116207 1
gene 1 6 66 -1.26133 0 191 -1.26133 1
gene 1 66 16 2.25053 0 192 2.25053 1
gene 1 8 66 -0.308938 0 280 -0.308938 1
gene 1 10 66 -2.9037 0 290 -2.9037 0
gene 1 12 66 0.360877 0 432 0.360877 1
gene 1 17 66 -0.148321 0 477 -0.148321 0
gene 1 17 179 1 0 598 0 1
gene 1 179 66 -1.0237 0 599 0 1
gene 1 6 179 -0.890275 0 637 -0.890275 0
gene 1 4 179 0.879993 0 703 0.879993 1
gene 1 6 215 1 0 745 0 1
gene 1 215 179 -0.890275 0 746 0 1
genomeend 94


