/* Organism #28 Fitness: -140655.900200 Time: 0 */
genomestart 28
trait 1 0.417247 0.970990 0.952787 0.072792 0.330354 0.000000 0.304363 0.222192 
node 1 1 1 1
node 2 1 1 1
node 3 1 1 1
node 4 1 1 1
node 5 1 1 1
node 6 1 1 1
node 7 1 1 1
node 8 1 1 1
node 9 1 1 1
node 10 1 1 1
node 11 1 1 1
node 12 1 1 1
node 13 1 1 1
node 14 1 1 1
node 15 1 1 3
node 16 1 0 2
node 17 1 0 2
node 49 1 0 0
node 87 1 0 0
node 111 1 0 0
node 215 1 0 0
gene 1 1 16 -3.6893 0 1 -3.6893 1
gene 1 1 17 -5.35971 0 2 -5.35971 1
gene 1 2 16 2.4698 0 3 2.4698 0
gene 1 2 17 1.71207 0 4 1.71207 1
gene 1 3 16 3.5844 0 5 3.5844 1
gene 1 3 17 -2.44113 0 6 -2.44113 1
gene 1 4 16 1.98077 0 7 1.98077 1
gene 1 4 17 -1.5423 0 8 -1.5423 1
gene 1 5 16 3.21861 0 9 3.21861 1
gene 1 5 17 -0.40232 0 10 -0.40232 1
gene 1 6 16 1.84384 0 11 1.84384 1
gene 1 6 17 -4.00141 0 12 -4.00141 1
gene 1 7 16 2.22367 0 13 2.22367 1
gene 1 7 17 0.787588 0 14 0.787588 1
gene 1 8 16 2.32398 0 15 2.32398 1
gene 1 8 17 3.9088 0 16 3.9088 1
gene 1 9 16 0.11848 0 17 0.11848 1
gene 1 9 17 1.25302 0 18 1.25302 1
gene 1 10 16 0.517536 0 19 0.517536 1
gene 1 10 17 1.4632 0 20 1.4632 1
gene 1 11 16 0.711077 0 21 0.711077 1
gene 1 11 17 -6.44649 0 22 -6.44649 1
gene 1 12 16 -0.157468 0 23 -0.157468 1
gene 1 12 17 0.397081 0 24 0.397081 1
gene 1 13 16 1.9361 0 25 1.9361 1
gene 1 13 17 2.3086 0 16 2.3086 1
gene 1 14 16 -0.434488 0 17 -0.434488 1
gene 1 14 17 -0.103527 0 28 -0.103527 1
gene 1 15 16 8 0 29 8 1
gene 1 15 17 0.518779 0 30 0.518779 1
gene 1 4 49 0.129668 0 134 0.129668 1
gene 1 49 16 -0.700557 0 135 -0.700557 1
gene 1 3 49 7.2282 0 168 7.2282 1
gene 1 17 49 3.36561 0 209 3.36561 1
gene 1 7 49 -1.82218 0 237 -1.82218 1
gene 1 9 49 2.28422 0 259 2.28422 1
gene 1 3 87 -0.173857 0 273 -0.173857 1
gene 1 87 49 3.68326 0 274 3.68326 1
gene 1 12 49 -0.875683 0 314 -0.875683 1
gene 1 13 49 -0.189336 0 342 -0.189336 1
gene 1 12 87 1.18613 0 348 1.18613 1
gene 1 2 111 3.19018 0 385 3.19018 1
gene 1 111 16 -0.448432 0 386 -0.448432 1
gene 1 14 111 0.589104 0 414 0.589104 1
gene 1 13 111 0.121154 0 448 0.121154 1
gene 1 5 87 2.48485 0 467 2.48485 1
gene 1 6 111 0.47223 0 526 0.47223 1
gene 1 17 87 1.13396 0 572 1.13396 0
gene 1 1 87 -0.627685 0 657 -0.627685 1
gene 1 2 87 2.98725 0 730 2.98725 1
gene 1 11 215 1 0 802 1 1
gene 1 215 16 2.06472 0 803 2.06472 1
gene 1 8 111 -0.251272 0 811 -0.251272 1
genomeend 28


