/* Organism #0 Fitness: -137525.779300 Time: 0 */
genomestart 0
trait 1 0.465513 0.000000 0.000000 0.473763 0.138097 0.071897 0.052934 0.126083 
node 1 1 1 1
node 2 1 1 1
node 3 1 1 1
node 4 1 1 1
node 5 1 1 1
node 6 1 1 1
node 7 1 1 1
node 8 1 1 1
node 9 1 1 1
node 10 1 1 1
node 11 1 1 1
node 12 1 1 1
node 13 1 1 1
node 14 1 1 1
node 15 1 1 3
node 16 1 0 2
node 17 1 0 2
node 30 1 0 0
node 64 1 0 0
node 117 1 0 0
gene 1 1 16 -2.51131 0 1 -2.51131 1
gene 1 1 17 2.41263 0 2 2.41263 1
gene 1 2 16 6.11135 0 3 6.11135 1
gene 1 2 17 3.9741 0 4 3.9741 1
gene 1 3 16 3.32669 0 5 3.32669 1
gene 1 3 17 0.637162 0 6 0.637162 0
gene 1 4 16 -1.48557 0 7 -1.48557 1
gene 1 4 17 6.59903 0 8 6.59903 1
gene 1 5 16 -2.22369 0 9 -2.22369 1
gene 1 5 17 1.00426 0 10 1.00426 1
gene 1 6 16 -0.7717 0 11 -0.7717 1
gene 1 6 17 -1.67107 0 12 -1.67107 1
gene 1 7 16 1.77024 0 13 1.77024 1
gene 1 7 17 -2.47055 0 14 -2.47055 1
gene 1 8 16 -1.4117 0 15 -1.4117 1
gene 1 8 17 -4.44652 0 16 -4.44652 1
gene 1 9 16 -0.526838 0 17 -0.526838 1
gene 1 9 17 7.49338 0 18 7.49338 1
gene 1 10 16 1.18535 0 19 1.18535 1
gene 1 10 17 -0.0638648 0 20 -0.0638648 1
gene 1 11 16 -4.47706 0 21 -4.47706 1
gene 1 11 17 1.59075 0 22 1.59075 1
gene 1 12 16 5.33245 0 23 5.33245 1
gene 1 12 17 -1.42645 0 24 -1.42645 0
gene 1 13 16 1.78051 0 25 1.78051 1
gene 1 13 17 0.638362 0 16 0.638362 1
gene 1 14 16 -2.32654 0 17 -2.32654 1
gene 1 14 17 0.104744 0 28 0.104744 1
gene 1 15 16 0.796325 0 29 0.796325 1
gene 1 15 17 1.64335 0 30 1.64335 1
gene 1 9 30 -3.46507 0 61 -3.46507 1
gene 1 30 17 3.32666 0 62 3.32666 1
gene 1 3 30 -0.503476 0 87 -0.503476 1
gene 1 1 30 0.715067 0 162 0.715067 1
gene 1 12 64 0.434639 0 171 0.434639 1
gene 1 64 17 0.719712 0 172 0.81859 1
gene 1 5 64 -1.20277 0 191 -1.20277 1
gene 1 2 64 1.50447 0 223 1.50447 1
gene 1 16 30 0.662857 0 239 0.662857 1
gene 1 7 64 0.256747 0 293 0.256747 1
gene 1 30 64 -0.274818 0 323 -0.274818 1
gene 1 12 117 3.56153 0 361 3.56153 1
gene 1 117 17 -1.18508 0 362 -0.62715 1
gene 1 117 30 1.17148 0 396 1.17148 1
gene 1 10 30 -1.59799 0 413 -1.59799 1
gene 1 8 117 -0.554547 0 501 -0.554547 1
gene 1 10 117 -0.104841 0 579 -0.104841 1
gene 1 6 30 -0.598087 0 634 -0.598087 1
gene 1 16 17 -0.211558 0 686 -0.211558 1
genomeend 0


