/* Organism #22 Fitness: -139401.356300 Time: 0 */
genomestart 22
trait 1 0.072646 0.113176 0.000568 0.000000 0.316390 0.534431 0.359278 0.000012 
node 1 1 1 1
node 2 1 1 1
node 3 1 1 1
node 4 1 1 1
node 5 1 1 1
node 6 1 1 1
node 7 1 1 1
node 8 1 1 1
node 9 1 1 1
node 10 1 1 1
node 11 1 1 1
node 12 1 1 1
node 13 1 1 1
node 14 1 1 1
node 15 1 1 3
node 16 1 0 2
node 17 1 0 2
node 30 1 0 0
node 120 1 0 0
node 150 1 0 0
gene 1 1 16 -3.71889 0 1 -3.71889 1
gene 1 1 17 -1.07022 0 2 -1.07022 1
gene 1 2 16 3.18664 0 3 3.18664 1
gene 1 2 17 -0.248436 0 4 -0.248436 1
gene 1 3 16 4.23023 0 5 4.23023 1
gene 1 3 17 -3.46304 0 6 -3.46304 1
gene 1 4 16 -1.67377 0 7 -1.67377 1
gene 1 4 17 -3.46828 0 8 -3.46828 1
gene 1 5 16 -0.569015 0 9 -0.569015 1
gene 1 5 17 -0.943999 0 10 -0.943999 0
gene 1 6 16 1.36152 0 11 1.36152 1
gene 1 6 17 0.350119 0 12 0.350119 1
gene 1 7 16 2.67015 0 13 2.67015 1
gene 1 7 17 -2.80598 0 14 -2.80598 1
gene 1 8 16 -7.69827 0 15 -7.69827 1
gene 1 8 17 -8 0 16 -8 1
gene 1 9 16 -0.568484 0 17 -0.568484 1
gene 1 9 17 0.464739 0 18 0.464739 1
gene 1 10 16 3.0723 0 19 3.0723 1
gene 1 10 17 3.29517 0 20 3.29517 1
gene 1 11 16 -1.47619 0 21 -1.47619 1
gene 1 11 17 -0.664496 0 22 -0.664496 1
gene 1 12 16 -3.0181 0 23 -3.0181 0
gene 1 12 17 -1.23201 0 24 -1.23201 1
gene 1 13 16 8 0 25 8 1
gene 1 13 17 -4.52269 0 16 -4.52269 1
gene 1 14 16 -8 0 17 -8 1
gene 1 14 17 -1.28772 0 28 -1.28772 1
gene 1 15 16 1.04122 0 29 1.04122 1
gene 1 15 17 6.09846 0 30 6.09846 1
gene 1 8 30 5.50401 0 66 5.50401 1
gene 1 30 17 1.85773 0 67 1.85773 1
gene 1 5 30 1.1234 0 114 1.1234 1
gene 1 7 30 0.157412 0 199 0.157412 1
gene 1 14 30 -0.469978 0 220 -0.469978 1
gene 1 16 30 -0.350199 0 349 -0.350199 1
gene 1 13 30 -2.26442 0 357 -2.26442 1
gene 1 5 120 -0.800134 0 369 -0.800134 1
gene 1 120 17 0.501617 0 370 0.501617 1
gene 1 12 30 -0.325785 0 405 -0.325785 0
gene 1 120 16 -0.000645665 0 496 -0.000645665 1
gene 1 12 150 -2.36635 0 508 -2.36635 1
gene 1 150 30 0.171915 0 509 0.171915 1
gene 1 150 120 0.940768 0 525 0.940768 1
gene 1 3 120 -0.733012 0 594 -0.733012 1
gene 1 2 30 -0.859068 0 626 -0.859068 1
gene 1 11 120 1.65714 0 686 1.65714 1
gene 1 6 30 1.40133 0 707 1.40133 1
gene 1 15 120 2.19413 0 708 2.19413 1
gene 1 10 30 -0.372553 0 828 -0.372553 1
gene 1 11 30 0.900906 0 870 0.900906 1
gene 1 4 120 -0.0276667 0 918 -0.0276667 1
genomeend 22


