/* Organism #22 Fitness: -140212.944000 Time: 0 */
genomestart 22
trait 1 0.205727 0.521984 0.502301 0.125311 0.143985 0.355500 0.674596 0.650677 
node 1 1 1 1
node 2 1 1 1
node 3 1 1 1
node 4 1 1 1
node 5 1 1 1
node 6 1 1 1
node 7 1 1 1
node 8 1 1 1
node 9 1 1 1
node 10 1 1 1
node 11 1 1 1
node 12 1 1 1
node 13 1 1 1
node 14 1 1 1
node 15 1 1 3
node 16 1 0 2
node 17 1 0 2
node 90 1 0 0
node 134 1 0 0
node 146 1 0 0
gene 1 1 16 -0.88103 0 1 -0.88103 1
gene 1 1 17 -4.40551 0 2 -4.40551 1
gene 1 2 16 1.74583 0 3 1.74583 1
gene 1 2 17 1.37419 0 4 1.37419 1
gene 1 3 16 6.38419 0 5 6.38419 1
gene 1 3 17 4.48929 0 6 4.48929 1
gene 1 4 16 0.634183 0 7 0.634183 1
gene 1 4 17 -1.49993 0 8 -1.49993 1
gene 1 5 16 -1.34414 0 9 -1.34414 1
gene 1 5 17 -2.17733 0 10 -2.17733 1
gene 1 6 16 -1.3215 0 11 -1.3215 1
gene 1 6 17 0.92709 0 12 0.92709 1
gene 1 7 16 1.00793 0 13 1.00793 1
gene 1 7 17 -0.973026 0 14 -0.973026 1
gene 1 8 16 1.3545 0 15 1.3545 1
gene 1 8 17 0.196977 0 16 0.196977 1
gene 1 9 16 2.60958 0 17 2.60958 1
gene 1 9 17 0.219997 0 18 0.219997 1
gene 1 10 16 0.234012 0 19 0.234012 1
gene 1 10 17 2.3906 0 20 2.3906 1
gene 1 11 16 -0.438835 0 21 -0.438835 1
gene 1 11 17 -7.02841 0 22 -7.02841 1
gene 1 12 16 1.61601 0 23 1.61601 1
gene 1 12 17 0.0287863 0 24 0.0287863 1
gene 1 13 16 0.0604282 0 25 0.0604282 1
gene 1 13 17 0.335466 0 16 0.335466 1
gene 1 14 16 1.13064 0 17 1.13064 0
gene 1 14 17 -0.14513 0 28 -0.14513 1
gene 1 15 16 0.305157 0 29 0.305157 1
gene 1 15 17 0.832041 0 30 0.832041 1
gene 1 9 90 1.83815 0 250 1.74305 1
gene 1 90 16 1.35379 0 251 1.2525 1
gene 1 4 90 1.67882 0 274 1.67882 1
gene 1 1 90 0.991342 0 341 0.991342 1
gene 1 2 90 -0.674307 0 353 -0.674307 1
gene 1 14 134 2.5903 0 416 2.49265 1
gene 1 134 16 0.850835 0 417 0.806203 1
gene 1 134 146 2.11627 0 456 1.66424 1
gene 1 146 16 0.0871762 0 457 -0.091759 1
gene 1 4 146 0.68645 0 545 0.68645 1
gene 1 17 134 -0.539674 0 613 -0.539674 1
gene 1 11 90 -0.0267363 0 653 -0.0267363 1
gene 1 13 134 -0.572717 0 720 -0.572717 1
genomeend 22


