/* Organism #49 Fitness: -137828.865900 Time: 0 */
genomestart 49
trait 1 0.978367 0.019864 0.502282 0.638448 0.000000 0.106955 0.426254 0.479791 
node 1 1 1 1
node 2 1 1 1
node 3 1 1 1
node 4 1 1 1
node 5 1 1 1
node 6 1 1 1
node 7 1 1 1
node 8 1 1 1
node 9 1 1 1
node 10 1 1 1
node 11 1 1 1
node 12 1 1 1
node 13 1 1 1
node 14 1 1 1
node 15 1 1 3
node 16 1 0 2
node 17 1 0 2
node 25 1 0 0
node 72 1 0 0
node 77 1 0 0
node 95 1 0 0
node 106 1 0 0
node 127 1 0 0
node 146 1 0 0
node 207 1 0 0
gene 1 1 16 1.59624 0 1 1.59624 1
gene 1 1 17 -0.299722 0 2 -0.299722 1
gene 1 2 16 -2.13155 0 3 -2.13155 1
gene 1 2 17 1.43742 0 4 1.43742 1
gene 1 3 16 8 0 5 8 1
gene 1 3 17 -2.10536 0 6 -2.10536 1
gene 1 4 16 0.202128 0 7 0.202128 1
gene 1 4 17 -0.641808 0 8 -0.641808 1
gene 1 5 16 1.25044 0 9 1.25044 1
gene 1 5 17 -5.39942 0 10 -5.39942 0
gene 1 6 16 -2.47898 0 11 -2.47898 1
gene 1 6 17 -1.90297 0 12 -1.90297 1
gene 1 7 16 -0.644781 0 13 -0.644781 1
gene 1 7 17 -2.65869 0 14 -2.65869 1
gene 1 8 16 0.0750596 0 15 0.0750596 1
gene 1 8 17 2.13914 0 16 2.13914 1
gene 1 9 16 -0.61015 0 17 -0.61015 1
gene 1 9 17 -2.22104 0 18 -2.22104 1
gene 1 10 16 -1.41485 0 19 -1.41485 1
gene 1 10 17 -3.00454 0 20 -3.00454 1
gene 1 11 16 -5.35878 0 21 -5.35878 1
gene 1 11 17 -1.14865 0 22 -1.14865 1
gene 1 12 16 -3.69897 0 23 -3.69897 0
gene 1 12 17 -5.18988 0 24 -5.18988 1
gene 1 13 16 4.90181 0 25 4.90181 1
gene 1 13 17 1.54041 0 16 1.54041 1
gene 1 14 16 -0.709951 0 17 -0.709951 1
gene 1 14 17 -0.901295 0 28 -0.901295 1
gene 1 15 16 0.669454 0 29 0.669454 1
gene 1 15 17 -3.13693 0 30 -3.13693 1
gene 1 5 25 -1.88291 0 47 -1.88291 1
gene 1 25 16 -0.892531 0 48 -0.892531 1
gene 1 15 25 4.74556 0 105 4.74556 1
gene 1 10 25 2.50392 0 144 2.50392 1
gene 1 1 25 -2.2582 0 194 -2.2582 1
gene 1 14 25 -2.29066 0 209 -2.29066 1
gene 1 12 72 2.39085 0 210 2.39085 1
gene 1 72 16 -0.494201 0 211 -0.494201 1
gene 1 10 77 -0.346786 0 227 -0.346786 1
gene 1 77 25 1.92784 0 228 1.92784 1
gene 1 5 95 0.797105 0 275 0.797105 1
gene 1 95 17 -2.65539 0 276 -2.65539 1
gene 1 11 106 0.363679 0 310 0.363679 1
gene 1 106 17 0.0455202 0 311 0.0455202 1
gene 1 9 77 0.513535 0 367 0.513535 1
gene 1 9 127 1 0 390 0 1
gene 1 127 77 0.513535 0 391 0 1
gene 1 10 146 1 0 454 0 1
gene 1 146 25 2.50392 0 455 0 1
gene 1 127 95 -0.322321 0 548 -0.322321 1
gene 1 6 72 -0.846781 0 567 -0.846781 1
gene 1 4 77 -0.757544 0 644 -0.757544 1
gene 1 8 207 1 0 689 0 1
gene 1 207 17 2.13914 0 690 0 1
gene 1 13 146 -0.814689 0 716 -0.814689 1
gene 1 17 25 -0.407283 0 770 -0.407283 1
gene 1 1 77 -0.511855 0 784 -0.511855 1
gene 1 106 77 -0.375653 0 824 -0.375653 1
gene 1 4 72 0.907911 0 881 0.907911 1
genomeend 49


