/* Organism #10 Fitness: 2783.790000 Time: 0 */
genomestart 10
trait 1 1.000000 0.000000 0.000000 0.000000 0.795671 1.000000 0.000000 0.000000 
node 1 1 1 1
node 2 1 1 1
node 3 1 1 1
node 4 1 1 1
node 5 1 1 1
node 6 1 1 1
node 7 1 1 1
node 8 1 1 1
node 9 1 1 1
node 10 1 1 1
node 11 1 1 1
node 12 1 1 1
node 13 1 1 1
node 14 1 1 1
node 15 1 1 3
node 16 1 0 2
node 17 1 0 2
gene 1 1 16 -1.78014 0 1 -1.78014 1
gene 1 1 17 -0.633098 0 2 -0.633098 1
gene 1 2 16 2.81846 0 3 2.81846 1
gene 1 2 17 0.0978145 0 4 0.0978145 1
gene 1 3 16 1.97687 0 5 1.97687 1
gene 1 3 17 -0.200149 0 6 -0.200149 1
gene 1 4 16 3.87074 0 7 3.87074 1
gene 1 4 17 -1.2566 0 8 -1.2566 1
gene 1 5 16 1.04099 0 9 1.04099 1
gene 1 5 17 0.849403 0 10 0.849403 1
gene 1 6 16 -1.06814 0 11 -1.06814 1
gene 1 6 17 0.381779 0 12 0.381779 1
gene 1 7 16 1.52565 0 13 1.52565 1
gene 1 7 17 3.83005 0 14 3.83005 1
gene 1 8 16 2.49796 0 15 2.49796 1
gene 1 8 17 -0.709792 0 16 -0.709792 1
gene 1 9 16 -4.43108 0 17 -4.43108 1
gene 1 9 17 -4.75111 0 18 -4.75111 1
gene 1 10 16 0.166631 0 19 0.166631 1
gene 1 10 17 0.377174 0 20 0.377174 1
gene 1 11 16 2.99546 0 21 2.99546 1
gene 1 11 17 -1.23698 0 22 -1.23698 1
gene 1 12 16 3.76874 0 23 3.76874 1
gene 1 12 17 -0.246768 0 24 -0.246768 1
gene 1 13 16 -2.90135 0 25 -2.90135 1
gene 1 13 17 0.820419 0 16 0.820419 1
gene 1 14 16 -1.01036 0 17 -1.01036 1
gene 1 14 17 0.0251918 0 28 0.0251918 1
gene 1 15 16 0.0671741 0 29 0.0671741 1
gene 1 15 17 0.865006 0 30 0.865006 1
genomeend 10


