/* Organism #12 Fitness: 2788.380000 Time: 0 */
genomestart 12
trait 1 1.000000 0.000000 0.000000 0.000000 0.191326 0.000000 0.000000 0.000000 
node 1 1 1 1
node 2 1 1 1
node 3 1 1 1
node 4 1 1 1
node 5 1 1 1
node 6 1 1 1
node 7 1 1 1
node 8 1 1 1
node 9 1 1 1
node 10 1 1 1
node 11 1 1 1
node 12 1 1 1
node 13 1 1 1
node 14 1 1 1
node 15 1 1 3
node 16 1 0 2
node 17 1 0 2
gene 1 1 16 -1.65713 0 1 -1.65713 1
gene 1 1 17 -0.447672 0 2 -0.447672 1
gene 1 2 16 1.93092 0 3 1.93092 1
gene 1 2 17 2.56008 0 4 2.56008 1
gene 1 3 16 -1.96948 0 5 -1.96948 1
gene 1 3 17 3.16052 0 6 3.16052 1
gene 1 4 16 0.048886 0 7 0.048886 1
gene 1 4 17 0.538105 0 8 0.538105 1
gene 1 5 16 -3.22436 0 9 -3.22436 1
gene 1 5 17 -0.139937 0 10 -0.139937 1
gene 1 6 16 2.1703 0 11 2.1703 1
gene 1 6 17 0.113549 0 12 0.113549 1
gene 1 7 16 0.0815544 0 13 0.0815544 1
gene 1 7 17 0.378347 0 14 0.378347 1
gene 1 8 16 1.40664 0 15 1.40664 1
gene 1 8 17 0.353521 0 16 0.353521 1
gene 1 9 16 -5 0 17 -5 1
gene 1 9 17 -4.90154 0 18 -4.90154 1
gene 1 10 16 -0.535368 0 19 -0.535368 1
gene 1 10 17 -0.148789 0 20 -0.148789 1
gene 1 11 16 -0.627852 0 21 -0.627852 1
gene 1 11 17 -0.091411 0 22 -0.091411 1
gene 1 12 16 1.91299 0 23 1.91299 1
gene 1 12 17 -3.01445 0 24 -3.01445 1
gene 1 13 16 0.135026 0 25 0.135026 1
gene 1 13 17 -0.459006 0 16 -0.459006 1
gene 1 14 16 -2.8334 0 17 -2.8334 1
gene 1 14 17 0.17849 0 28 0.17849 1
gene 1 15 16 0.137776 0 29 0.137776 1
gene 1 15 17 1.05887 0 30 1.05887 1
genomeend 12


