/* Organism #8 Fitness: 2850.260000 Time: 0 */
genomestart 8
trait 1 0.403701 0.000000 0.000000 0.000000 0.127951 0.000000 0.047952 0.104580 
node 1 1 1 1
node 2 1 1 1
node 3 1 1 1
node 4 1 1 1
node 5 1 1 1
node 6 1 1 1
node 7 1 1 1
node 8 1 1 1
node 9 1 1 1
node 10 1 1 1
node 11 1 1 1
node 12 1 1 1
node 13 1 1 1
node 14 1 1 1
node 15 1 1 3
node 16 1 0 2
node 17 1 0 2
gene 1 1 16 -1.37293 0 1 -1.37293 1
gene 1 1 17 -0.121136 0 2 -0.121136 1
gene 1 2 16 1.82209 0 3 1.82209 1
gene 1 2 17 2.75689 0 4 2.75689 1
gene 1 3 16 -1.29303 0 5 -1.29303 1
gene 1 3 17 1.4611 0 6 1.4611 1
gene 1 4 16 -3.59535 0 7 -3.59535 1
gene 1 4 17 0.528718 0 8 0.528718 1
gene 1 5 16 -0.262153 0 9 -0.262153 1
gene 1 5 17 -0.750852 0 10 -0.750852 1
gene 1 6 16 0.048991 0 11 0.048991 1
gene 1 6 17 -0.817838 0 12 -0.817838 1
gene 1 7 16 0.288748 0 13 0.288748 1
gene 1 7 17 -0.132512 0 14 -0.132512 1
gene 1 8 16 3.08014 0 15 3.08014 1
gene 1 8 17 -2.62697 0 16 -2.62697 1
gene 1 9 16 -4.24198 0 17 -4.24198 1
gene 1 9 17 -4.15118 0 18 -4.15118 1
gene 1 10 16 0.826832 0 19 0.826832 1
gene 1 10 17 0.41523 0 20 0.41523 1
gene 1 11 16 -0.554564 0 21 -0.554564 1
gene 1 11 17 2.53763 0 22 2.53763 1
gene 1 12 16 1.44461 0 23 1.44461 1
gene 1 12 17 -0.966231 0 24 -0.966231 1
gene 1 13 16 0.720835 0 25 0.720835 1
gene 1 13 17 0.804386 0 16 0.804386 1
gene 1 14 16 -0.241182 0 17 -0.241182 1
gene 1 14 17 0.0387992 0 28 0.0387992 1
gene 1 15 16 -0.0467803 0 29 -0.0467803 1
gene 1 15 17 0.558472 0 30 0.558472 1
genomeend 8


