/* Organism #12 Fitness: 2819.660000 Time: 0 */
genomestart 12
trait 1 0.100000 0.000000 0.000000 0.000000 0.000000 0.000000 0.000000 0.000000 
node 1 1 1 1
node 2 1 1 1
node 3 1 1 1
node 4 1 1 1
node 5 1 1 1
node 6 1 1 1
node 7 1 1 1
node 8 1 1 1
node 9 1 1 1
node 10 1 1 1
node 11 1 1 1
node 12 1 1 1
node 13 1 1 1
node 14 1 1 1
node 15 1 1 3
node 16 1 0 2
node 17 1 0 2
gene 1 1 16 -2.57579 0 1 -2.57579 1
gene 1 1 17 -0.138996 0 2 -0.138996 1
gene 1 2 16 -0.393896 0 3 -0.393896 1
gene 1 2 17 -1.08138 0 4 -1.08138 1
gene 1 3 16 3.84848 0 5 3.84848 1
gene 1 3 17 -0.751218 0 6 -0.751218 1
gene 1 4 16 3.46236 0 7 3.46236 1
gene 1 4 17 0.35372 0 8 0.35372 1
gene 1 5 16 3.4257 0 9 3.4257 1
gene 1 5 17 -0.186743 0 10 -0.186743 1
gene 1 6 16 -1.3758 0 11 -1.3758 1
gene 1 6 17 4.63992 0 12 4.63992 1
gene 1 7 16 -0.989703 0 13 -0.989703 1
gene 1 7 17 1.44432 0 14 1.44432 1
gene 1 8 16 1.60634 0 15 1.60634 1
gene 1 8 17 1.27267 0 16 1.27267 1
gene 1 9 16 -4.92872 0 17 -4.92872 1
gene 1 9 17 -3.82298 0 18 -3.82298 1
gene 1 10 16 -0.14802 0 19 -0.14802 1
gene 1 10 17 -0.604134 0 20 -0.604134 1
gene 1 11 16 0.870561 0 21 0.870561 1
gene 1 11 17 -2.59625 0 22 -2.59625 1
gene 1 12 16 0.264376 0 23 0.264376 1
gene 1 12 17 0.280275 0 24 0.280275 1
gene 1 13 16 0.0741189 0 25 0.0741189 1
gene 1 13 17 1.57018 0 16 1.57018 1
gene 1 14 16 -2.71031 0 17 -2.71031 1
gene 1 14 17 2.31258 0 28 2.31258 1
gene 1 15 16 0.932788 0 29 0.932788 1
gene 1 15 17 0.127964 0 30 0.127964 1
genomeend 12


