/* Organism #2 Fitness: 2707.920000 Time: 0 */
genomestart 2
trait 1 0.205841 1.000000 0.926406 0.000000 0.447681 0.520559 0.000000 0.000000 
node 1 1 1 1
node 2 1 1 1
node 3 1 1 1
node 4 1 1 1
node 5 1 1 1
node 6 1 1 1
node 7 1 1 1
node 8 1 1 1
node 9 1 1 1
node 10 1 1 1
node 11 1 1 1
node 12 1 1 1
node 13 1 1 1
node 14 1 1 1
node 15 1 1 3
node 16 1 0 2
node 17 1 0 2
gene 1 1 16 -3.91328 0 1 -3.91328 1
gene 1 1 17 -2.15014 0 2 -2.15014 1
gene 1 2 16 3.39553 0 3 3.39553 1
gene 1 2 17 1.12781 0 4 1.12781 1
gene 1 3 16 3.6318 0 5 3.6318 1
gene 1 3 17 -0.62187 0 6 -0.62187 1
gene 1 4 16 1.91816 0 7 1.91816 1
gene 1 4 17 -5 0 8 -5 1
gene 1 5 16 -0.249775 0 9 -0.249775 1
gene 1 5 17 -3.69664 0 10 -3.69664 1
gene 1 6 16 -0.962307 0 11 -0.962307 1
gene 1 6 17 2.54667 0 12 2.54667 1
gene 1 7 16 -0.859456 0 13 -0.859456 1
gene 1 7 17 1.25061 0 14 1.25061 1
gene 1 8 16 -1.14451 0 15 -1.14451 1
gene 1 8 17 0.290654 0 16 0.290654 1
gene 1 9 16 -4.89415 0 17 -4.89415 1
gene 1 9 17 -3.62502 0 18 -3.62502 1
gene 1 10 16 -0.50842 0 19 -0.50842 1
gene 1 10 17 -3.93676 0 20 -3.93676 1
gene 1 11 16 3.97608 0 21 3.97608 1
gene 1 11 17 -5 0 22 -5 1
gene 1 12 16 1.0498 0 23 1.0498 1
gene 1 12 17 0.95687 0 24 0.95687 1
gene 1 13 16 -1.02674 0 25 -1.02674 1
gene 1 13 17 4.51052 0 16 4.51052 1
gene 1 14 16 -0.0155227 0 17 -0.0155227 1
gene 1 14 17 1.0347 0 28 1.0347 1
gene 1 15 16 0.724523 0 29 0.724523 1
gene 1 15 17 0.0957728 0 30 0.0957728 1
genomeend 2


