/* Organism #6 Fitness: 2884.770000 Time: 0 */
genomestart 6
trait 1 0.863402 0.000000 0.329862 0.000000 0.000000 0.912984 1.000000 0.778293 
node 1 1 1 1
node 2 1 1 1
node 3 1 1 1
node 4 1 1 1
node 5 1 1 1
node 6 1 1 1
node 7 1 1 1
node 8 1 1 1
node 9 1 1 1
node 10 1 1 1
node 11 1 1 1
node 12 1 1 1
node 13 1 1 1
node 14 1 1 1
node 15 1 1 3
node 16 1 0 2
node 17 1 0 2
gene 1 1 16 0.25639 0 1 0.25639 1
gene 1 1 17 -0.259302 0 2 -0.259302 1
gene 1 2 16 -1.89025 0 3 -1.89025 1
gene 1 2 17 3.5732 0 4 3.5732 1
gene 1 3 16 0.574947 0 5 0.574947 1
gene 1 3 17 2.41906 0 6 2.41906 1
gene 1 4 16 -1.58375 0 7 -1.58375 1
gene 1 4 17 0.0640926 0 8 0.0640926 1
gene 1 5 16 -1.18619 0 9 -1.18619 1
gene 1 5 17 -0.218686 0 10 -0.218686 1
gene 1 6 16 -2.07396 0 11 -2.07396 1
gene 1 6 17 -0.396143 0 12 -0.396143 1
gene 1 7 16 -1.71682 0 13 -1.71682 1
gene 1 7 17 0.00770148 0 14 0.00770148 1
gene 1 8 16 -0.52063 0 15 -0.52063 1
gene 1 8 17 0.310294 0 16 0.310294 1
gene 1 9 16 -3.91247 0 17 -3.91247 1
gene 1 9 17 -4.4192 0 18 -4.4192 1
gene 1 10 16 0.82935 0 19 0.82935 1
gene 1 10 17 -0.288839 0 20 -0.288839 1
gene 1 11 16 1.88256 0 21 1.88256 1
gene 1 11 17 -2.13241 0 22 -2.13241 1
gene 1 12 16 3.19842 0 23 3.19842 1
gene 1 12 17 -2.08643 0 24 -2.08643 1
gene 1 13 16 -0.494411 0 25 -0.494411 1
gene 1 13 17 0.121173 0 16 0.121173 1
gene 1 14 16 1.1245 0 17 1.1245 1
gene 1 14 17 0.383754 0 28 0.383754 1
gene 1 15 16 -0.385847 0 29 -0.385847 1
gene 1 15 17 0.843254 0 30 0.843254 1
genomeend 6


