/* Organism #6 Fitness: 2729.300000 Time: 0 */
genomestart 6
trait 1 0.100000 0.615108 0.000000 0.000000 0.367468 0.000000 0.968990 0.411486 
node 1 1 1 1
node 2 1 1 1
node 3 1 1 1
node 4 1 1 1
node 5 1 1 1
node 6 1 1 1
node 7 1 1 1
node 8 1 1 1
node 9 1 1 1
node 10 1 1 1
node 11 1 1 1
node 12 1 1 1
node 13 1 1 1
node 14 1 1 1
node 15 1 1 3
node 16 1 0 2
node 17 1 0 2
gene 1 1 16 -0.972386 0 1 -0.972386 1
gene 1 1 17 0.164085 0 2 0.164085 1
gene 1 2 16 1.09048 0 3 1.09048 1
gene 1 2 17 3.82737 0 4 3.82737 1
gene 1 3 16 1.40992 0 5 1.40992 1
gene 1 3 17 0.906242 0 6 0.906242 1
gene 1 4 16 -3.30213 0 7 -3.30213 1
gene 1 4 17 0.685303 0 8 0.685303 1
gene 1 5 16 -0.734532 0 9 -0.734532 1
gene 1 5 17 -0.549956 0 10 -0.549956 1
gene 1 6 16 0.579859 0 11 0.579859 1
gene 1 6 17 1.20896 0 12 1.20896 1
gene 1 7 16 1.32053 0 13 1.32053 1
gene 1 7 17 -0.815774 0 14 -0.815774 1
gene 1 8 16 3.18158 0 15 3.18158 1
gene 1 8 17 -0.732756 0 16 -0.732756 1
gene 1 9 16 -1.1716 0 17 -1.1716 1
gene 1 9 17 -5 0 18 -5 1
gene 1 10 16 -4.09783 0 19 -4.09783 1
gene 1 10 17 0.26558 0 20 0.26558 1
gene 1 11 16 0.901996 0 21 0.901996 1
gene 1 11 17 5 0 22 5 1
gene 1 12 16 -1.81719 0 23 -1.81719 1
gene 1 12 17 1.09131 0 24 1.09131 1
gene 1 13 16 0.0835847 0 25 0.0835847 1
gene 1 13 17 -0.633109 0 16 -0.633109 1
gene 1 14 16 -2.19524 0 17 -2.19524 1
gene 1 14 17 0.529449 0 28 0.529449 1
gene 1 15 16 -3.73555 0 29 -3.73555 1
gene 1 15 17 0.923299 0 30 0.923299 1
genomeend 6


