/* Organism #6 Fitness: 2779.950000 Time: 0 */
genomestart 6
trait 1 0.100000 0.590817 0.052439 0.000000 0.000000 0.000000 0.000000 0.000000 
node 1 1 1 1
node 2 1 1 1
node 3 1 1 1
node 4 1 1 1
node 5 1 1 1
node 6 1 1 1
node 7 1 1 1
node 8 1 1 1
node 9 1 1 1
node 10 1 1 1
node 11 1 1 1
node 12 1 1 1
node 13 1 1 1
node 14 1 1 1
node 15 1 1 3
node 16 1 0 2
node 17 1 0 2
gene 1 1 16 -1.75156 0 1 -1.75156 1
gene 1 1 17 -0.549933 0 2 -0.549933 1
gene 1 2 16 -2.18619 0 3 -2.18619 1
gene 1 2 17 1.76489 0 4 1.76489 1
gene 1 3 16 0.00666248 0 5 0.00666248 1
gene 1 3 17 0.305008 0 6 0.305008 1
gene 1 4 16 0.475138 0 7 0.475138 1
gene 1 4 17 -0.285357 0 8 -0.285357 1
gene 1 5 16 3.97298 0 9 3.97298 1
gene 1 5 17 -0.830318 0 10 -0.830318 1
gene 1 6 16 2.09159 0 11 2.09159 1
gene 1 6 17 -0.768133 0 12 -0.768133 1
gene 1 7 16 -0.868904 0 13 -0.868904 1
gene 1 7 17 0.897754 0 14 0.897754 1
gene 1 8 16 -1.35298 0 15 -1.35298 1
gene 1 8 17 0.343532 0 16 0.343532 1
gene 1 9 16 -4.38902 0 17 -4.38902 1
gene 1 9 17 -5 0 18 -5 1
gene 1 10 16 -2.27263 0 19 -2.27263 1
gene 1 10 17 0.651693 0 20 0.651693 1
gene 1 11 16 2.06466 0 21 2.06466 1
gene 1 11 17 -2.22488 0 22 -2.22488 1
gene 1 12 16 2.77501 0 23 2.77501 1
gene 1 12 17 -1.96934 0 24 -1.96934 1
gene 1 13 16 -1.19788 0 25 -1.19788 1
gene 1 13 17 0.330331 0 16 0.330331 1
gene 1 14 16 -1.50191 0 17 -1.50191 1
gene 1 14 17 0.262918 0 28 0.262918 1
gene 1 15 16 0.829788 0 29 0.829788 1
gene 1 15 17 0.995345 0 30 0.995345 1
genomeend 6


