/* Organism #16 Fitness: 2707.940000 Time: 0 */
genomestart 16
trait 1 0.100000 0.000000 0.000000 0.000000 0.000000 0.000000 0.000000 0.000000 
node 1 1 1 1
node 2 1 1 1
node 3 1 1 1
node 4 1 1 1
node 5 1 1 1
node 6 1 1 1
node 7 1 1 1
node 8 1 1 1
node 9 1 1 1
node 10 1 1 1
node 11 1 1 1
node 12 1 1 1
node 13 1 1 1
node 14 1 1 1
node 15 1 1 3
node 16 1 0 2
node 17 1 0 2
gene 1 1 16 -1.46106 0 1 -1.46106 1
gene 1 1 17 -4.06613 0 2 -4.06613 1
gene 1 2 16 2.3751 0 3 2.3751 1
gene 1 2 17 -1.80637 0 4 -1.80637 1
gene 1 3 16 3.06995 0 5 3.06995 1
gene 1 3 17 1.78274 0 6 1.78274 1
gene 1 4 16 4.03466 0 7 4.03466 1
gene 1 4 17 -2.82862 0 8 -2.82862 1
gene 1 5 16 -2.39562 0 9 -2.39562 1
gene 1 5 17 -0.364015 0 10 -0.364015 1
gene 1 6 16 1.36078 0 11 1.36078 1
gene 1 6 17 -1.17512 0 12 -1.17512 1
gene 1 7 16 -5 0 13 -5 1
gene 1 7 17 0.46573 0 14 0.46573 1
gene 1 8 16 -0.87209 0 15 -0.87209 1
gene 1 8 17 4.23971 0 16 4.23971 1
gene 1 9 16 -5 0 17 -5 1
gene 1 9 17 -4.33362 0 18 -4.33362 1
gene 1 10 16 -1.66267 0 19 -1.66267 1
gene 1 10 17 -1.0347 0 20 -1.0347 1
gene 1 11 16 1.03824 0 21 1.03824 1
gene 1 11 17 1.04339 0 22 1.04339 1
gene 1 12 16 2.06759 0 23 2.06759 1
gene 1 12 17 -1.29725 0 24 -1.29725 1
gene 1 13 16 -1.7367 0 25 -1.7367 1
gene 1 13 17 2.02873 0 16 2.02873 1
gene 1 14 16 0.454682 0 17 0.454682 1
gene 1 14 17 -0.259312 0 28 -0.259312 1
gene 1 15 16 0.727464 0 29 0.727464 1
gene 1 15 17 0.350687 0 30 0.350687 1
genomeend 16


