/* Organism #54 Fitness: 2753.780000 Time: 0 */
genomestart 54
trait 1 0.100000 0.209256 0.407163 0.000000 0.948311 0.000000 0.691009 0.000000 
node 1 1 1 1
node 2 1 1 1
node 3 1 1 1
node 4 1 1 1
node 5 1 1 1
node 6 1 1 1
node 7 1 1 1
node 8 1 1 1
node 9 1 1 1
node 10 1 1 1
node 11 1 1 1
node 12 1 1 1
node 13 1 1 1
node 14 1 1 1
node 15 1 1 3
node 16 1 0 2
node 17 1 0 2
gene 1 1 16 -1.17162 0 1 -1.17162 1
gene 1 1 17 -2.75733 0 2 -2.75733 1
gene 1 2 16 2.74743 0 3 2.74743 1
gene 1 2 17 -2.7619 0 4 -2.7619 1
gene 1 3 16 4.19722 0 5 4.19722 1
gene 1 3 17 0.245421 0 6 0.245421 1
gene 1 4 16 1.6152 0 7 1.6152 1
gene 1 4 17 -1.70218 0 8 -1.70218 1
gene 1 5 16 -0.62651 0 9 -0.62651 1
gene 1 5 17 -1.81136 0 10 -1.81136 1
gene 1 6 16 2.69049 0 11 2.69049 1
gene 1 6 17 4.52509 0 12 4.52509 1
gene 1 7 16 -2.10359 0 13 -2.10359 1
gene 1 7 17 0.608328 0 14 0.608328 1
gene 1 8 16 2.58132 0 15 2.58132 1
gene 1 8 17 5 0 16 5 1
gene 1 9 16 -5 0 17 -5 1
gene 1 9 17 -3.41446 0 18 -3.41446 1
gene 1 10 16 2.75406 0 19 2.75406 1
gene 1 10 17 -2.86017 0 20 -2.86017 1
gene 1 11 16 0.386771 0 21 0.386771 1
gene 1 11 17 -1.23879 0 22 -1.23879 1
gene 1 12 16 0.555017 0 23 0.555017 1
gene 1 12 17 -0.270132 0 24 -0.270132 1
gene 1 13 16 -1.93506 0 25 -1.93506 1
gene 1 13 17 2.62428 0 16 2.62428 1
gene 1 14 16 -1.53123 0 17 -1.53123 1
gene 1 14 17 0.610333 0 28 0.610333 1
gene 1 15 16 0.459354 0 29 0.459354 1
gene 1 15 17 0.355178 0 30 0.355178 1
genomeend 54


