/* Organism #0 Fitness: 13351.250000 Time: 0 */
genomestart 0
trait 1 0.100000 0.160088 0.773258 0.275441 0.000000 0.277989 0.364716 0.000000 
node 1 1 1 1
node 2 1 1 1
node 3 1 1 1
node 4 1 1 1
node 5 1 1 1
node 6 1 1 1
node 7 1 1 1
node 8 1 1 1
node 9 1 1 1
node 10 1 1 1
node 11 1 1 1
node 12 1 1 1
node 13 1 1 1
node 14 1 1 1
node 15 1 1 3
node 16 1 0 2
node 17 1 0 2
gene 1 1 16 -1.32172 0 1 -1.32172 1
gene 1 1 17 3.0653 0 2 3.0653 1
gene 1 2 16 3.16309 0 3 3.16309 1
gene 1 2 17 0.189311 0 4 0.189311 1
gene 1 3 16 2.97392 0 5 2.97392 1
gene 1 3 17 3.60331 0 6 3.60331 1
gene 1 4 16 3.46788 0 7 3.46788 1
gene 1 4 17 -2.04813 0 8 -2.04813 1
gene 1 5 16 -0.87279 0 9 -0.87279 1
gene 1 5 17 -5 0 10 -5 1
gene 1 6 16 -0.587718 0 11 -0.587718 1
gene 1 6 17 -1.73848 0 12 -1.73848 1
gene 1 7 16 0.820623 0 13 0.820623 1
gene 1 7 17 0.276931 0 14 0.276931 1
gene 1 8 16 -0.467519 0 15 -0.467519 1
gene 1 8 17 -5 0 16 -5 1
gene 1 9 16 -5 0 17 -5 1
gene 1 9 17 -2.72814 0 18 -2.72814 1
gene 1 10 16 -1.18131 0 19 -1.18131 1
gene 1 10 17 -3.95272 0 20 -3.95272 1
gene 1 11 16 4.47357 0 21 4.47357 1
gene 1 11 17 -5 0 22 -5 1
gene 1 12 16 -1.16932 0 23 -1.16932 1
gene 1 12 17 1.41376 0 24 1.41376 1
gene 1 13 16 -1.06748 0 25 -1.06748 1
gene 1 13 17 1.01425 0 16 1.01425 1
gene 1 14 16 0.890788 0 17 0.890788 1
gene 1 14 17 0.25657 0 28 0.25657 1
gene 1 15 16 2.60593 0 29 2.60593 1
gene 1 15 17 0.588178 0 30 0.588178 1
genomeend 0


