/* Organism #19 Fitness: 13198.850000 Time: 0 */
genomestart 19
trait 1 0.100000 0.000000 0.894229 0.000000 0.000000 0.000000 0.000000 0.000000 
node 1 1 1 1
node 2 1 1 1
node 3 1 1 1
node 4 1 1 1
node 5 1 1 1
node 6 1 1 1
node 7 1 1 1
node 8 1 1 1
node 9 1 1 1
node 10 1 1 1
node 11 1 1 1
node 12 1 1 1
node 13 1 1 1
node 14 1 1 1
node 15 1 1 3
node 16 1 0 2
node 17 1 0 2
gene 1 1 16 -0.641914 0 1 -0.641914 1
gene 1 1 17 -1.17711 0 2 -1.17711 1
gene 1 2 16 1.69141 0 3 1.69141 1
gene 1 2 17 1.6961 0 4 1.6961 1
gene 1 3 16 3.55887 0 5 3.55887 1
gene 1 3 17 2.27125 0 6 2.27125 1
gene 1 4 16 2.25969 0 7 2.25969 1
gene 1 4 17 -1.51439 0 8 -1.51439 1
gene 1 5 16 0.677559 0 9 0.677559 1
gene 1 5 17 -0.601511 0 10 -0.601511 1
gene 1 6 16 0.611787 0 11 0.611787 1
gene 1 6 17 -0.889473 0 12 -0.889473 1
gene 1 7 16 2.04452 0 13 2.04452 1
gene 1 7 17 0.144282 0 14 0.144282 1
gene 1 8 16 0.642773 0 15 0.642773 1
gene 1 8 17 -2.42724 0 16 -2.42724 1
gene 1 9 16 -5 0 17 -5 1
gene 1 9 17 -1.95283 0 18 -1.95283 1
gene 1 10 16 -2.25998 0 19 -2.25998 1
gene 1 10 17 -0.73471 0 20 -0.73471 1
gene 1 11 16 1.79227 0 21 1.79227 1
gene 1 11 17 -1.53446 0 22 -1.53446 1
gene 1 12 16 -0.963744 0 23 -0.963744 1
gene 1 12 17 0.421616 0 24 0.421616 1
gene 1 13 16 -0.151327 0 25 -0.151327 1
gene 1 13 17 -0.59343 0 16 -0.59343 1
gene 1 14 16 2.48167 0 17 2.48167 1
gene 1 14 17 -1.53388 0 28 -1.53388 1
gene 1 15 16 1.93015 0 29 1.93015 1
gene 1 15 17 -0.638583 0 30 -0.638583 1
genomeend 19


