/* Organism #6 Fitness: 13100.070000 Time: 0 */
genomestart 6
trait 1 0.000000 0.688158 0.507653 0.000000 0.272967 0.583261 0.000000 0.739570 
node 1 1 1 1
node 2 1 1 1
node 3 1 1 1
node 4 1 1 1
node 5 1 1 1
node 6 1 1 1
node 7 1 1 1
node 8 1 1 1
node 9 1 1 1
node 10 1 1 1
node 11 1 1 1
node 12 1 1 1
node 13 1 1 1
node 14 1 1 1
node 15 1 1 3
node 16 1 0 2
node 17 1 0 2
gene 1 1 16 -0.405866 0 1 -0.405866 1
gene 1 1 17 2.42886 0 2 2.42886 1
gene 1 2 16 -1.00196 0 3 -1.00196 1
gene 1 2 17 2.96603 0 4 2.96603 1
gene 1 3 16 -1.97362 0 5 -1.97362 1
gene 1 3 17 2.11433 0 6 2.11433 1
gene 1 4 16 -2.25266 0 7 -2.25266 1
gene 1 4 17 -1.90789 0 8 -1.90789 1
gene 1 5 16 -1.25861 0 9 -1.25861 1
gene 1 5 17 0.105284 0 10 0.105284 1
gene 1 6 16 2.43645 0 11 2.43645 1
gene 1 6 17 2.88867 0 12 2.88867 1
gene 1 7 16 -2.61353 0 13 -2.61353 1
gene 1 7 17 0.801643 0 14 0.801643 1
gene 1 8 16 -1.42325 0 15 -1.42325 1
gene 1 8 17 0.79656 0 16 0.79656 1
gene 1 9 16 -3.32203 0 17 -3.32203 1
gene 1 9 17 -4.21564 0 18 -4.21564 1
gene 1 10 16 -4.82307 0 19 -4.82307 1
gene 1 10 17 -0.370921 0 20 -0.370921 1
gene 1 11 16 0.800132 0 21 0.800132 1
gene 1 11 17 -0.587534 0 22 -0.587534 1
gene 1 12 16 0.19586 0 23 0.19586 1
gene 1 12 17 -2.66544 0 24 -2.66544 1
gene 1 13 16 2.2769 0 25 2.2769 1
gene 1 13 17 -0.926003 0 16 -0.926003 1
gene 1 14 16 0.344273 0 17 0.344273 1
gene 1 14 17 -0.374632 0 28 -0.374632 1
gene 1 15 16 -0.814417 0 29 -0.814417 1
gene 1 15 17 0.609049 0 30 0.609049 1
genomeend 6


