/* Organism #0 Fitness: 13125.620000 Time: 0 */
genomestart 0
trait 1 0.100000 0.000000 0.982175 0.000000 0.000000 0.008724 1.000000 0.451750 
node 1 1 1 1
node 2 1 1 1
node 3 1 1 1
node 4 1 1 1
node 5 1 1 1
node 6 1 1 1
node 7 1 1 1
node 8 1 1 1
node 9 1 1 1
node 10 1 1 1
node 11 1 1 1
node 12 1 1 1
node 13 1 1 1
node 14 1 1 1
node 15 1 1 3
node 16 1 0 2
node 17 1 0 2
gene 1 1 16 -3.0137 0 1 -3.0137 1
gene 1 1 17 -0.269799 0 2 -0.269799 1
gene 1 2 16 2.55507 0 3 2.55507 1
gene 1 2 17 -1.50928 0 4 -1.50928 1
gene 1 3 16 4.22392 0 5 4.22392 1
gene 1 3 17 1.34982 0 6 1.34982 1
gene 1 4 16 1.80891 0 7 1.80891 1
gene 1 4 17 -0.738086 0 8 -0.738086 1
gene 1 5 16 0.701123 0 9 0.701123 1
gene 1 5 17 1.17707 0 10 1.17707 1
gene 1 6 16 1.81665 0 11 1.81665 1
gene 1 6 17 -2.49714 0 12 -2.49714 1
gene 1 7 16 2.69909 0 13 2.69909 1
gene 1 7 17 -1.36345 0 14 -1.36345 1
gene 1 8 16 1.19121 0 15 1.19121 1
gene 1 8 17 -0.446233 0 16 -0.446233 1
gene 1 9 16 -5 0 17 -5 1
gene 1 9 17 -1.47008 0 18 -1.47008 1
gene 1 10 16 -1.84599 0 19 -1.84599 1
gene 1 10 17 0.319622 0 20 0.319622 1
gene 1 11 16 -1.54084 0 21 -1.54084 1
gene 1 11 17 2.87867 0 22 2.87867 1
gene 1 12 16 -0.258264 0 23 -0.258264 1
gene 1 12 17 -2.97657 0 24 -2.97657 1
gene 1 13 16 -2.06898 0 25 -2.06898 1
gene 1 13 17 -0.140733 0 16 -0.140733 1
gene 1 14 16 -1.32072 0 17 -1.32072 1
gene 1 14 17 0.627311 0 28 0.627311 1
gene 1 15 16 1.33747 0 29 1.33747 1
gene 1 15 17 -1.97553 0 30 -1.97553 1
genomeend 0


