/* Organism #10 Fitness: 11651.090000 Time: 0 */
genomestart 10
trait 1 0.262677 0.000000 0.000000 0.362828 0.000000 0.000000 0.853702 0.000000 
node 1 1 1 1
node 2 1 1 1
node 3 1 1 1
node 4 1 1 1
node 5 1 1 1
node 6 1 1 1
node 7 1 1 1
node 8 1 1 1
node 9 1 1 1
node 10 1 1 1
node 11 1 1 1
node 12 1 1 1
node 13 1 1 1
node 14 1 1 1
node 15 1 1 3
node 16 1 0 2
node 17 1 0 2
gene 1 1 16 1.22524 0 1 1.22524 1
gene 1 1 17 -0.972313 0 2 -0.972313 1
gene 1 2 16 0.403722 0 3 0.403722 1
gene 1 2 17 -0.147018 0 4 -0.147018 1
gene 1 3 16 5 0 5 5 1
gene 1 3 17 -1.57361 0 6 -1.57361 1
gene 1 4 16 1.47057 0 7 1.47057 1
gene 1 4 17 0.851627 0 8 0.851627 1
gene 1 5 16 0.313761 0 9 0.313761 1
gene 1 5 17 0.550225 0 10 0.550225 1
gene 1 6 16 1.30151 0 11 1.30151 1
gene 1 6 17 -2.21742 0 12 -2.21742 1
gene 1 7 16 0.73649 0 13 0.73649 1
gene 1 7 17 -0.792662 0 14 -0.792662 1
gene 1 8 16 2.19043 0 15 2.19043 1
gene 1 8 17 0.405823 0 16 0.405823 1
gene 1 9 16 -1.87859 0 17 -1.87859 1
gene 1 9 17 -4.33886 0 18 -4.33886 1
gene 1 10 16 -3.84062 0 19 -3.84062 1
gene 1 10 17 2.79191 0 20 2.79191 1
gene 1 11 16 0.0637215 0 21 0.0637215 1
gene 1 11 17 2.43258 0 22 2.43258 1
gene 1 12 16 1.4494 0 23 1.4494 1
gene 1 12 17 -0.587644 0 24 -0.587644 1
gene 1 13 16 2.17667 0 25 2.17667 1
gene 1 13 17 0.531874 0 16 0.531874 1
gene 1 14 16 2.32097 0 17 2.32097 1
gene 1 14 17 -0.380505 0 28 -0.380505 1
gene 1 15 16 -0.507746 0 29 -0.507746 1
gene 1 15 17 1.24732 0 30 1.24732 1
genomeend 10


