/* Organism #0 Fitness: 14359.980000 Time: 0 */
genomestart 0
trait 1 0.000000 0.000000 0.795894 0.000000 0.660335 0.000000 0.000000 0.000000 
node 1 1 1 1
node 2 1 1 1
node 3 1 1 1
node 4 1 1 1
node 5 1 1 1
node 6 1 1 1
node 7 1 1 1
node 8 1 1 1
node 9 1 1 1
node 10 1 1 1
node 11 1 1 1
node 12 1 1 1
node 13 1 1 1
node 14 1 1 1
node 15 1 1 3
node 16 1 0 2
node 17 1 0 2
gene 1 1 16 -3.50099 0 1 -3.50099 1
gene 1 1 17 -0.870406 0 2 -0.870406 1
gene 1 2 16 2.94669 0 3 2.94669 1
gene 1 2 17 -0.404593 0 4 -0.404593 1
gene 1 3 16 3.68973 0 5 3.68973 1
gene 1 3 17 3.59971 0 6 3.59971 1
gene 1 4 16 3.57218 0 7 3.57218 1
gene 1 4 17 0.670221 0 8 0.670221 1
gene 1 5 16 0.00869274 0 9 0.00869274 1
gene 1 5 17 0.598446 0 10 0.598446 1
gene 1 6 16 -0.456801 0 11 -0.456801 1
gene 1 6 17 0.328057 0 12 0.328057 1
gene 1 7 16 2.59855 0 13 2.59855 1
gene 1 7 17 -0.107313 0 14 -0.107313 1
gene 1 8 16 -0.786703 0 15 -0.786703 1
gene 1 8 17 -0.903402 0 16 -0.903402 1
gene 1 9 16 -5 0 17 -5 1
gene 1 9 17 -3.6982 0 18 -3.6982 1
gene 1 10 16 -0.651792 0 19 -0.651792 1
gene 1 10 17 -1.17233 0 20 -1.17233 1
gene 1 11 16 -1.82506 0 21 -1.82506 1
gene 1 11 17 -2.31552 0 22 -2.31552 1
gene 1 12 16 1.24006 0 23 1.24006 1
gene 1 12 17 -0.0508791 0 24 -0.0508791 1
gene 1 13 16 -1.28832 0 25 -1.28832 1
gene 1 13 17 0.143073 0 16 0.143073 1
gene 1 14 16 -0.0528496 0 17 -0.0528496 1
gene 1 14 17 -0.0450025 0 28 -0.0450025 1
gene 1 15 16 2.07807 0 29 2.07807 1
gene 1 15 17 -0.875947 0 30 -0.875947 1
genomeend 0


