/* Organism #3 Fitness: 13850.280000 Time: 0 */
genomestart 3
trait 1 0.000000 0.000000 0.000000 0.591640 0.000000 0.602885 0.000000 0.000000 
node 1 1 1 1
node 2 1 1 1
node 3 1 1 1
node 4 1 1 1
node 5 1 1 1
node 6 1 1 1
node 7 1 1 1
node 8 1 1 1
node 9 1 1 1
node 10 1 1 1
node 11 1 1 1
node 12 1 1 1
node 13 1 1 1
node 14 1 1 1
node 15 1 1 3
node 16 1 0 2
node 17 1 0 2
gene 1 1 16 -0.612742 0 1 -0.612742 1
gene 1 1 17 -0.193471 0 2 -0.193471 1
gene 1 2 16 5 0 3 5 1
gene 1 2 17 -4.17233 0 4 -4.17233 1
gene 1 3 16 3.33926 0 5 3.33926 1
gene 1 3 17 0.257281 0 6 0.257281 1
gene 1 4 16 2.95167 0 7 2.95167 1
gene 1 4 17 -2.3102 0 8 -2.3102 1
gene 1 5 16 -0.187262 0 9 -0.187262 1
gene 1 5 17 -1.03628 0 10 -1.03628 1
gene 1 6 16 -0.321453 0 11 -0.321453 1
gene 1 6 17 0.70012 0 12 0.70012 1
gene 1 7 16 1.51159 0 13 1.51159 1
gene 1 7 17 -0.542889 0 14 -0.542889 1
gene 1 8 16 -0.205386 0 15 -0.205386 1
gene 1 8 17 -3.83122 0 16 -3.83122 1
gene 1 9 16 -5 0 17 -5 1
gene 1 9 17 -3.91121 0 18 -3.91121 1
gene 1 10 16 -1.06411 0 19 -1.06411 1
gene 1 10 17 -5 0 20 -5 1
gene 1 11 16 1.55039 0 21 1.55039 1
gene 1 11 17 -2.29346 0 22 -2.29346 1
gene 1 12 16 0.336956 0 23 0.336956 1
gene 1 12 17 -0.20408 0 24 -0.20408 1
gene 1 13 16 -0.371224 0 25 -0.371224 1
gene 1 13 17 0.298856 0 16 0.298856 1
gene 1 14 16 0.321984 0 17 0.321984 1
gene 1 14 17 0.324834 0 28 0.324834 1
gene 1 15 16 2.1827 0 29 2.1827 1
gene 1 15 17 -0.636644 0 30 -0.636644 1
genomeend 3


