/* Organism #2 Fitness: 13562.100000 Time: 0 */
genomestart 2
trait 1 0.313300 0.306901 0.000000 0.101523 0.547190 0.000000 0.000000 0.000000 
node 1 1 1 1
node 2 1 1 1
node 3 1 1 1
node 4 1 1 1
node 5 1 1 1
node 6 1 1 1
node 7 1 1 1
node 8 1 1 1
node 9 1 1 1
node 10 1 1 1
node 11 1 1 1
node 12 1 1 1
node 13 1 1 1
node 14 1 1 1
node 15 1 1 3
node 16 1 0 2
node 17 1 0 2
gene 1 1 16 -5 0 1 -5 1
gene 1 1 17 2.3288 0 2 2.3288 1
gene 1 2 16 2.03142 0 3 2.03142 1
gene 1 2 17 -1.72557 0 4 -1.72557 1
gene 1 3 16 3.0414 0 5 3.0414 1
gene 1 3 17 0.424946 0 6 0.424946 1
gene 1 4 16 2.52548 0 7 2.52548 1
gene 1 4 17 2.92149 0 8 2.92149 1
gene 1 5 16 0.99971 0 9 0.99971 1
gene 1 5 17 -1.79306 0 10 -1.79306 1
gene 1 6 16 1.64327 0 11 1.64327 1
gene 1 6 17 -1.55117 0 12 -1.55117 1
gene 1 7 16 3.41202 0 13 3.41202 1
gene 1 7 17 -0.739087 0 14 -0.739087 1
gene 1 8 16 1.09588 0 15 1.09588 1
gene 1 8 17 -0.0426104 0 16 -0.0426104 1
gene 1 9 16 -5 0 17 -5 1
gene 1 9 17 -1.72992 0 18 -1.72992 1
gene 1 10 16 -0.333961 0 19 -0.333961 1
gene 1 10 17 -1.19614 0 20 -1.19614 1
gene 1 11 16 -2.29621 0 21 -2.29621 1
gene 1 11 17 -0.03234 0 22 -0.03234 1
gene 1 12 16 3.53053 0 23 3.53053 1
gene 1 12 17 1.25152 0 24 1.25152 1
gene 1 13 16 -4.69803 0 25 -4.69803 1
gene 1 13 17 0.692144 0 16 0.692144 1
gene 1 14 16 -0.512286 0 17 -0.512286 1
gene 1 14 17 0.634357 0 28 0.634357 1
gene 1 15 16 0.766261 0 29 0.766261 1
gene 1 15 17 -4.32751 0 30 -4.32751 1
genomeend 2


