/* Organism #2 Fitness: 12558.620000 Time: 0 */
genomestart 2
trait 1 0.210700 0.516049 0.000000 0.000000 1.000000 0.517592 0.000000 0.000000 
node 1 1 1 1
node 2 1 1 1
node 3 1 1 1
node 4 1 1 1
node 5 1 1 1
node 6 1 1 1
node 7 1 1 1
node 8 1 1 1
node 9 1 1 1
node 10 1 1 1
node 11 1 1 1
node 12 1 1 1
node 13 1 1 1
node 14 1 1 1
node 15 1 1 3
node 16 1 0 2
node 17 1 0 2
gene 1 1 16 -1.95997 0 1 -1.95997 1
gene 1 1 17 1.45064 0 2 1.45064 1
gene 1 2 16 4.34431 0 3 4.34431 1
gene 1 2 17 -0.513634 0 4 -0.513634 1
gene 1 3 16 5 0 5 5 1
gene 1 3 17 -1.53308 0 6 -1.53308 1
gene 1 4 16 3.20086 0 7 3.20086 1
gene 1 4 17 0.90053 0 8 0.90053 1
gene 1 5 16 0.909477 0 9 0.909477 1
gene 1 5 17 -1.87682 0 10 -1.87682 1
gene 1 6 16 1.07619 0 11 1.07619 1
gene 1 6 17 -0.722178 0 12 -0.722178 1
gene 1 7 16 3.3522 0 13 3.3522 1
gene 1 7 17 0.680594 0 14 0.680594 1
gene 1 8 16 0.678203 0 15 0.678203 1
gene 1 8 17 -0.97318 0 16 -0.97318 1
gene 1 9 16 -5 0 17 -5 1
gene 1 9 17 -3.63378 0 18 -3.63378 1
gene 1 10 16 -0.647296 0 19 -0.647296 1
gene 1 10 17 1.04518 0 20 1.04518 1
gene 1 11 16 1.9677 0 21 1.9677 1
gene 1 11 17 -0.373811 0 22 -0.373811 1
gene 1 12 16 -1.90824 0 23 -1.90824 1
gene 1 12 17 -0.429099 0 24 -0.429099 1
gene 1 13 16 -0.736351 0 25 -0.736351 1
gene 1 13 17 -1.54185 0 16 -1.54185 1
gene 1 14 16 0.431792 0 17 0.431792 1
gene 1 14 17 -2.65227 0 28 -2.65227 1
gene 1 15 16 0.382995 0 29 0.382995 1
gene 1 15 17 -3.62342 0 30 -3.62342 1
genomeend 2


