/* Organism #4 Fitness: 13445.060000 Time: 0 */
genomestart 4
trait 1 0.510472 0.000000 0.000000 0.000000 0.004740 0.000000 0.798734 0.000000 
node 1 1 1 1
node 2 1 1 1
node 3 1 1 1
node 4 1 1 1
node 5 1 1 1
node 6 1 1 1
node 7 1 1 1
node 8 1 1 1
node 9 1 1 1
node 10 1 1 1
node 11 1 1 1
node 12 1 1 1
node 13 1 1 1
node 14 1 1 1
node 15 1 1 3
node 16 1 0 2
node 17 1 0 2
gene 1 1 16 -2.5239 0 1 -2.5239 1
gene 1 1 17 -1.29157 0 2 -1.29157 1
gene 1 2 16 2.40727 0 3 2.40727 1
gene 1 2 17 -4.24285 0 4 -4.24285 1
gene 1 3 16 3.31693 0 5 3.31693 1
gene 1 3 17 2.4268 0 6 2.4268 1
gene 1 4 16 3.12661 0 7 3.12661 1
gene 1 4 17 -0.674101 0 8 -0.674101 1
gene 1 5 16 -1.85868 0 9 -1.85868 1
gene 1 5 17 -0.0671379 0 10 -0.0671379 1
gene 1 6 16 -1.92563 0 11 -1.92563 1
gene 1 6 17 -4.27783 0 12 -4.27783 1
gene 1 7 16 0.768596 0 13 0.768596 1
gene 1 7 17 -2.89657 0 14 -2.89657 1
gene 1 8 16 -1.75817 0 15 -1.75817 1
gene 1 8 17 -1.91203 0 16 -1.91203 1
gene 1 9 16 -4.79467 0 17 -4.79467 1
gene 1 9 17 -4.36731 0 18 -4.36731 1
gene 1 10 16 -0.635311 0 19 -0.635311 1
gene 1 10 17 0.0335692 0 20 0.0335692 1
gene 1 11 16 0.124091 0 21 0.124091 1
gene 1 11 17 1.5482 0 22 1.5482 1
gene 1 12 16 3.04958 0 23 3.04958 1
gene 1 12 17 -0.225279 0 24 -0.225279 1
gene 1 13 16 1.52198 0 25 1.52198 1
gene 1 13 17 -0.724553 0 16 -0.724553 1
gene 1 14 16 -0.794246 0 17 -0.794246 1
gene 1 14 17 -3.35846 0 28 -3.35846 1
gene 1 15 16 3.95122 0 29 3.95122 1
gene 1 15 17 -0.377441 0 30 -0.377441 1
genomeend 4


