/* Organism #38 Fitness: 5263.700000 Time: 0 */
genomestart 38
trait 1 0.860369 0.897929 0.000000 0.000000 0.223376 0.135299 0.169770 0.042012 
node 1 1 1 1
node 2 1 1 1
node 3 1 1 1
node 4 1 1 1
node 5 1 1 1
node 6 1 1 1
node 7 1 1 1
node 8 1 1 1
node 9 1 1 1
node 10 1 1 1
node 11 1 1 1
node 12 1 1 1
node 13 1 1 1
node 14 1 1 1
node 15 1 1 3
node 16 1 0 2
node 17 1 0 2
node 21 1 0 0
node 66 1 0 0
node 71 1 0 0
node 109 1 0 0
node 117 1 0 0
node 154 1 0 0
node 178 1 0 0
node 189 1 0 0
node 209 1 0 0
node 243 1 0 0
gene 1 1 16 -7.12923 0 1 -7.12923 1
gene 1 1 17 -1.52651 0 2 -1.52651 1
gene 1 2 16 -0.611402 0 3 -0.611402 1
gene 1 2 17 -1.24681 0 4 -1.24681 1
gene 1 3 16 -2.96559 0 5 -2.96559 0
gene 1 3 17 0.0235784 0 6 0.0235784 1
gene 1 4 16 4.3526 0 7 4.3526 1
gene 1 4 17 -1.71158 0 8 -1.71158 0
gene 1 5 16 -0.689203 0 9 -0.689203 1
gene 1 5 17 4.39429 0 10 4.39429 1
gene 1 6 16 3.41774 0 11 3.41774 1
gene 1 6 17 0.226966 0 12 0.226966 1
gene 1 7 16 -0.849218 0 13 -0.849218 1
gene 1 7 17 -6.9754 0 14 -6.9754 0
gene 1 8 16 6.68304 0 15 6.68304 1
gene 1 8 17 -3.82711 0 16 -3.82711 1
gene 1 9 16 -8 0 17 -8 1
gene 1 9 17 1.2508 0 18 1.2508 1
gene 1 10 16 1.55669 0 19 1.55669 1
gene 1 10 17 0.0663774 0 20 0.0663774 1
gene 1 11 16 -3.48471 0 21 -3.48471 1
gene 1 11 17 5.81753 0 22 5.81753 1
gene 1 12 16 3.63158 0 23 3.63158 1
gene 1 12 17 -6.87944 0 24 -6.87944 0
gene 1 13 16 -0.407385 0 25 -0.407385 1
gene 1 13 17 1.39871 0 16 1.39871 0
gene 1 14 16 6.73679 0 17 6.73679 1
gene 1 14 17 -8 0 28 -8 1
gene 1 15 16 0.0565554 0 29 0.0565554 1
gene 1 15 17 -5.96018 0 30 -5.96018 1
gene 1 3 21 -3.90646 0 38 -3.90646 1
gene 1 21 16 0.0014058 0 39 0.0014058 0
gene 1 13 21 -3.43558 0 47 -3.43558 1
gene 1 7 66 -8 0 190 -8 1
gene 1 66 17 -2.75965 0 191 -2.75965 0
gene 1 2 71 1.37026 0 210 1.37026 1
gene 1 71 16 -0.0157526 0 211 -0.0157526 1
gene 1 9 66 -0.209163 0 241 -0.209163 0
gene 1 3 66 -2.01874 0 306 -2.01874 1
gene 1 12 21 -1.38059 0 330 -1.38059 0
gene 1 3 71 0.466813 0 347 0.466813 1
gene 1 66 109 1 0 370 1 1
gene 1 109 17 -1.2265 0 371 -1.2265 1
gene 1 1 71 1.69857 0 384 1.69857 1
gene 1 12 117 -1.95542 0 395 -1.95542 1
gene 1 117 17 -0.979345 0 396 -0.979345 1
gene 1 13 71 0.684118 0 494 0.684118 1
gene 1 6 71 0.711207 0 535 0.711207 0
gene 1 4 154 1 0 551 0 1
gene 1 154 17 -1.71158 0 552 0 1
gene 1 21 178 1 0 631 0 1
gene 1 178 16 0.0014058 0 632 0 1
gene 1 7 154 0.640793 0 643 0.640793 1
gene 1 6 189 1 0 684 0 1
gene 1 189 71 0.711207 0 685 0 1
gene 1 117 71 -0.652334 0 735 -0.652334 1
gene 1 12 209 1 0 788 0 1
gene 1 209 21 -1.38059 0 789 0 1
gene 1 7 243 1 0 887 0 1
gene 1 243 17 -6.9754 0 888 0 1
gene 1 154 178 -0.253679 0 911 -0.253679 1
genomeend 38


