/* Organism #23 Fitness: 8382.310000 Time: 0 */
genomestart 23
trait 1 0.802138 0.562560 0.038746 0.000000 0.000000 0.000000 0.386822 0.126801 
node 1 1 1 1
node 2 1 1 1
node 3 1 1 1
node 4 1 1 1
node 5 1 1 1
node 6 1 1 1
node 7 1 1 1
node 8 1 1 1
node 9 1 1 1
node 10 1 1 1
node 11 1 1 1
node 12 1 1 1
node 13 1 1 1
node 14 1 1 1
node 15 1 1 3
node 16 1 0 2
node 17 1 0 2
node 26 1 0 0
node 84 1 0 0
node 136 1 0 0
node 174 1 0 0
node 218 1 0 0
gene 1 1 16 -2.69305 0 1 -2.69305 1
gene 1 1 17 4.94242 0 2 4.94242 1
gene 1 2 16 2.43749 0 3 2.43749 1
gene 1 2 17 0.934235 0 4 0.934235 1
gene 1 3 16 2.79019 0 5 2.79019 1
gene 1 3 17 -0.448273 0 6 -0.448273 1
gene 1 4 16 2.01201 0 7 2.01201 1
gene 1 4 17 0.677311 0 8 0.677311 1
gene 1 5 16 -0.190773 0 9 -0.190773 1
gene 1 5 17 -0.64707 0 10 -0.64707 1
gene 1 6 16 -0.77806 0 11 -0.77806 1
gene 1 6 17 4.49705 0 12 4.49705 1
gene 1 7 16 0.895326 0 13 0.895326 1
gene 1 7 17 -1.09128 0 14 -1.09128 1
gene 1 8 16 -1.0464 0 15 -1.0464 1
gene 1 8 17 -0.941943 0 16 -0.941943 1
gene 1 9 16 -7.73897 0 17 -7.73897 1
gene 1 9 17 -8 0 18 -8 1
gene 1 10 16 -0.615053 0 19 -0.615053 1
gene 1 10 17 -3.42557 0 20 -3.42557 1
gene 1 11 16 2.32164 0 21 2.32164 1
gene 1 11 17 -5.08146 0 22 -5.08146 1
gene 1 12 16 -1.52238 0 23 -1.52238 1
gene 1 12 17 1.42979 0 24 1.42979 0
gene 1 13 16 0.0286116 0 25 0.0286116 0
gene 1 13 17 -1.22513 0 16 -1.22513 0
gene 1 14 16 1.9832 0 17 1.9832 0
gene 1 14 17 -3.64147 0 28 -3.64147 1
gene 1 15 16 1.74512 0 29 1.74512 1
gene 1 15 17 -8 0 30 -8 1
gene 1 17 16 0.147977 0 42 0.147977 1
gene 1 11 26 -2.28573 0 60 -2.28573 1
gene 1 26 16 1.30512 0 61 1.30512 1
gene 1 15 26 -5.51375 0 74 -5.51375 1
gene 1 4 26 0.66053 0 137 0.66053 1
gene 1 17 26 3.20262 0 146 3.20262 1
gene 1 1 26 -2.30317 0 183 -2.30317 1
gene 1 3 26 4.00455 0 217 4.00455 1
gene 1 1 84 -2.96981 0 235 -2.96981 1
gene 1 84 17 0.449214 0 236 0.449214 1
gene 1 2 84 0.225977 0 260 0.225977 1
gene 1 10 84 1.91913 0 276 1.91913 1
gene 1 14 26 3.58845 0 346 3.58845 1
gene 1 3 136 1 0 421 1 1
gene 1 136 26 4.20363 0 422 4.20363 1
gene 1 136 16 1.1129 0 451 1.1129 1
gene 1 3 84 -1.31698 0 462 -1.31698 1
gene 1 84 136 -1.2848 0 539 -1.2848 1
gene 1 1 136 -0.349925 0 551 -0.349925 1
gene 1 14 174 1 0 563 1 1
gene 1 174 16 -0.455377 0 564 -0.455377 1
gene 1 17 136 0.648988 0 598 0.648988 1
gene 1 13 136 -0.653096 0 651 -0.653096 1
gene 1 13 218 1 0 707 0 1
gene 1 218 17 -1.22513 0 708 0 1
gene 1 174 218 0.431291 0 849 0.431291 1
genomeend 23


