/* Organism #81 Fitness: 7522.780000 Time: 0 */
genomestart 81
trait 1 0.000000 0.659143 0.477853 0.406140 1.000000 0.000000 1.000000 0.029510 
node 1 1 1 1
node 2 1 1 1
node 3 1 1 1
node 4 1 1 1
node 5 1 1 1
node 6 1 1 1
node 7 1 1 1
node 8 1 1 1
node 9 1 1 1
node 10 1 1 1
node 11 1 1 1
node 12 1 1 1
node 13 1 1 1
node 14 1 1 1
node 15 1 1 3
node 16 1 0 2
node 17 1 0 2
node 22 1 0 0
node 25 1 0 0
node 35 1 0 0
node 113 1 0 0
node 161 1 0 0
node 181 1 0 0
node 203 1 0 0
node 213 1 0 0
node 218 1 0 0
node 225 1 0 0
node 233 1 0 0
gene 1 1 16 -5.81744 0 1 -5.81744 1
gene 1 1 17 -0.889166 0 2 -0.889166 1
gene 1 2 16 3.99733 0 3 3.99733 1
gene 1 2 17 3.16243 0 4 3.16243 1
gene 1 3 16 6.93263 0 5 6.93263 1
gene 1 3 17 -5.37962 0 6 -5.37962 1
gene 1 4 16 2.35477 0 7 2.35477 1
gene 1 4 17 -3.61557 0 8 -3.61557 1
gene 1 5 16 -0.216389 0 9 -0.216389 1
gene 1 5 17 4.72644 0 10 4.72644 1
gene 1 6 16 0.177982 0 11 0.177982 0
gene 1 6 17 -6.47453 0 12 -6.47453 0
gene 1 7 16 1.11897 0 13 1.11897 0
gene 1 7 17 -1.37036 0 14 -1.37036 1
gene 1 8 16 -0.514684 0 15 -0.514684 1
gene 1 8 17 4.8578 0 16 4.8578 1
gene 1 9 16 -8 0 17 -8 1
gene 1 9 17 -1.62129 0 18 -1.62129 1
gene 1 10 16 -1.21222 0 19 -1.21222 1
gene 1 10 17 -0.815077 0 20 -0.815077 1
gene 1 11 16 4.01158 0 21 4.01158 1
gene 1 11 17 3.66266 0 22 3.66266 1
gene 1 12 16 -0.261421 0 23 -0.261421 1
gene 1 12 17 -2.2663 0 24 -2.2663 0
gene 1 13 16 1.74733 0 25 1.74733 1
gene 1 13 17 1.17441 0 16 1.17441 1
gene 1 14 16 4.07254 0 17 4.07254 1
gene 1 14 17 -0.95553 0 28 -0.95553 1
gene 1 15 16 0.961365 0 29 0.961365 1
gene 1 15 17 -3.66616 0 30 -3.66616 1
gene 1 17 16 -8 0 35 -8 0
gene 1 1 22 -2.17785 0 41 -2.17785 1
gene 1 22 17 -4.22437 0 42 -4.22437 0
gene 1 6 25 3.29185 0 48 3.29185 1
gene 1 25 17 -2.22154 0 49 -2.22154 0
gene 1 13 35 2.42941 0 82 2.42941 1
gene 1 35 17 -7.14943 0 83 -7.14943 1
gene 1 22 25 1.04198 0 192 1.04198 1
gene 1 7 22 -2.25966 0 312 -2.25966 1
gene 1 1 35 0.48313 0 355 0.48313 1
gene 1 25 113 1.94117 0 388 1.94117 1
gene 1 113 17 -3.60863 0 389 -3.60863 1
gene 1 9 22 -1.41786 0 393 -1.41786 1
gene 1 12 22 -0.809261 0 413 -0.809261 1
gene 1 8 22 3.05683 0 487 3.05683 1
gene 1 2 25 1.78427 0 501 1.78427 1
gene 1 25 16 0.968033 0 527 0.968033 1
gene 1 3 25 1.20182 0 543 1.20182 1
gene 1 17 161 -1.05001 0 557 -1.05001 1
gene 1 161 16 -2.55638 0 558 -2.55638 1
gene 1 10 113 1.86639 0 631 1.86639 1
gene 1 7 181 -1.96093 0 650 -1.96093 1
gene 1 181 16 1.92436 0 651 1.92436 1
gene 1 11 203 -2.80782 0 720 -2.80782 1
gene 1 203 17 1.99164 0 721 1.99164 1
gene 1 13 203 -2.89001 0 744 -2.89001 1
gene 1 6 213 1 0 760 0 1
gene 1 213 16 0.177982 0 761 0 1
gene 1 22 218 1 0 784 0 1
gene 1 218 17 -4.22437 0 785 0 1
gene 1 6 225 1 0 806 0 1
gene 1 225 17 -6.47453 0 807 0 1
gene 1 12 233 1 0 840 0 1
gene 1 233 17 -2.2663 0 841 0 1
genomeend 81


