/* Organism #10 Fitness: 7653.300000 Time: 0 */
genomestart 10
trait 1 0.643549 0.000000 0.000000 0.000000 0.940261 0.667771 0.000000 0.069033 
node 1 1 1 1
node 2 1 1 1
node 3 1 1 1
node 4 1 1 1
node 5 1 1 1
node 6 1 1 1
node 7 1 1 1
node 8 1 1 1
node 9 1 1 1
node 10 1 1 1
node 11 1 1 1
node 12 1 1 1
node 13 1 1 1
node 14 1 1 1
node 15 1 1 3
node 16 1 0 2
node 17 1 0 2
node 20 1 0 0
node 70 1 0 0
node 100 1 0 0
node 121 1 0 0
node 137 1 0 0
node 156 1 0 0
node 223 1 0 0
node 244 1 0 0
gene 1 1 16 3.88376 0 1 3.88376 1
gene 1 1 17 -0.821998 0 2 -0.821998 1
gene 1 2 16 -2.03263 0 3 -2.03263 1
gene 1 2 17 7.7121 0 4 7.7121 1
gene 1 3 16 -1.35794 0 5 -1.35794 1
gene 1 3 17 2.5392 0 6 2.5392 1
gene 1 4 16 5.73484 0 7 5.73484 1
gene 1 4 17 3.7241 0 8 3.7241 1
gene 1 5 16 -0.85954 0 9 -0.85954 1
gene 1 5 17 1.00905 0 10 1.00905 1
gene 1 6 16 1.33804 0 11 1.33804 1
gene 1 6 17 0.173982 0 12 0.173982 1
gene 1 7 16 -3.09394 0 13 -3.09394 0
gene 1 7 17 1.47951 0 14 1.47951 1
gene 1 8 16 2.22708 0 15 2.22708 1
gene 1 8 17 -2.4976 0 16 -2.4976 0
gene 1 9 16 -1.63846 0 17 -1.63846 1
gene 1 9 17 -6.11935 0 18 -6.11935 1
gene 1 10 16 2.7539 0 19 2.7539 1
gene 1 10 17 0.934408 0 20 0.934408 1
gene 1 11 16 -2.45938 0 21 -2.45938 1
gene 1 11 17 2.27377 0 22 2.27377 1
gene 1 12 16 -1.36319 0 23 -1.36319 1
gene 1 12 17 -0.155041 0 24 -0.155041 1
gene 1 13 16 -1.59317 0 25 -1.59317 0
gene 1 13 17 -0.810393 0 16 -0.810393 1
gene 1 14 16 3.9355 0 17 3.9355 0
gene 1 14 17 -0.31349 0 28 -0.31349 1
gene 1 15 16 -5.28153 0 29 -5.28153 1
gene 1 15 17 0.775443 0 30 0.775443 1
gene 1 5 20 -1.57674 0 37 -1.57674 0
gene 1 20 16 -6.27433 0 38 -6.27433 0
gene 1 4 20 -2.92702 0 45 -2.92702 1
gene 1 6 20 -1.17722 0 115 -1.17722 1
gene 1 7 20 4.38504 0 149 4.38504 1
gene 1 14 70 6.7366 0 197 6.7366 1
gene 1 70 16 -4.86494 0 198 -4.86494 1
gene 1 11 70 -3.16111 0 224 -3.16111 1
gene 1 20 100 1.97989 0 293 1.97989 1
gene 1 100 16 -6.37695 0 294 -6.37695 1
gene 1 8 121 -0.412188 0 366 -0.412188 1
gene 1 121 17 -0.0870308 0 367 -0.0870308 1
gene 1 3 121 1.12115 0 380 1.12115 1
gene 1 7 137 -3.08372 0 420 -3.08372 0
gene 1 137 16 -1.57152 0 421 -1.57152 1
gene 1 6 100 -1.20593 0 446 -1.20593 1
gene 1 13 156 -0.145785 0 488 -0.145785 1
gene 1 156 17 -1.61361 0 489 -1.61361 1
gene 1 11 121 0.488608 0 554 0.488608 1
gene 1 12 156 -0.278862 0 621 -0.278862 1
gene 1 16 121 1.42291 0 710 1.42291 1
gene 1 5 223 1 0 727 0 1
gene 1 223 20 -0.597172 0 728 0 1
gene 1 3 137 -0.389939 0 782 -0.389939 1
gene 1 137 244 1 0 811 0 1
gene 1 244 16 -1.57152 0 812 0 1
gene 1 70 156 0.328669 0 856 0.328669 1
genomeend 10


