/* Organism #44 Fitness: 7813.260000 Time: 0 */
genomestart 44
trait 1 0.015496 0.519233 0.057625 1.000000 0.090225 0.000000 0.102999 0.000000 
node 1 1 1 1
node 2 1 1 1
node 3 1 1 1
node 4 1 1 1
node 5 1 1 1
node 6 1 1 1
node 7 1 1 1
node 8 1 1 1
node 9 1 1 1
node 10 1 1 1
node 11 1 1 1
node 12 1 1 1
node 13 1 1 1
node 14 1 1 1
node 15 1 1 3
node 16 1 0 2
node 17 1 0 2
node 24 1 0 0
node 51 1 0 0
node 58 1 0 0
node 64 1 0 0
node 75 1 0 0
node 104 1 0 0
node 129 1 0 0
node 134 1 0 0
node 145 1 0 0
node 172 1 0 0
node 198 1 0 0
gene 1 1 16 -1.98076 0 1 -1.98076 1
gene 1 1 17 4.49609 0 2 4.49609 1
gene 1 2 16 -2.10041 0 3 -2.10041 1
gene 1 2 17 -2.49109 0 4 -2.49109 1
gene 1 3 16 5.90857 0 5 5.90857 1
gene 1 3 17 -0.663445 0 6 -0.663445 1
gene 1 4 16 2.72849 0 7 2.72849 1
gene 1 4 17 -1.27394 0 8 -1.27394 1
gene 1 5 16 -0.29223 0 9 -0.29223 1
gene 1 5 17 -4.39361 0 10 -4.39361 0
gene 1 6 16 0.312862 0 11 0.312862 1
gene 1 6 17 -0.129766 0 12 -0.129766 1
gene 1 7 16 0.355987 0 13 0.355987 1
gene 1 7 17 -2.10691 0 14 -2.10691 1
gene 1 8 16 0.824023 0 15 0.824023 1
gene 1 8 17 -0.0730444 0 16 -0.0730444 1
gene 1 9 16 -8 0 17 -8 1
gene 1 9 17 -0.805823 0 18 -0.805823 1
gene 1 10 16 -0.215065 0 19 -0.215065 1
gene 1 10 17 -4.16235 0 20 -4.16235 1
gene 1 11 16 0.894461 0 21 0.894461 1
gene 1 11 17 -2.07504 0 22 -2.07504 1
gene 1 12 16 0.7283 0 23 0.7283 1
gene 1 12 17 -2.43939 0 24 -2.43939 1
gene 1 13 16 1.70083 0 25 1.70083 1
gene 1 13 17 -0.915249 0 16 -0.915249 1
gene 1 14 16 0.584132 0 17 0.584132 1
gene 1 14 17 1.37272 0 28 1.37272 1
gene 1 15 16 0.750461 0 29 0.750461 1
gene 1 15 17 -1.31405 0 30 -1.31405 1
gene 1 9 24 -2.97828 0 51 -2.97828 1
gene 1 24 17 -0.854726 0 52 -0.854726 1
gene 1 6 24 -2.19 0 94 -2.19 1
gene 1 4 24 -0.333683 0 106 -0.333683 1
gene 1 14 51 0.118619 0 137 0.118619 1
gene 1 51 16 -0.14289 0 138 -0.14289 1
gene 1 2 58 2.30228 0 165 2.30228 0
gene 1 58 17 -2.42024 0 166 -1.17469 1
gene 1 2 64 2.78249 0 184 2.78249 1
gene 1 64 58 -0.393825 0 185 -0.393825 1
gene 1 6 64 0.225309 0 193 0.225309 1
gene 1 64 17 0.18777 0 211 0.18777 1
gene 1 5 75 0.696858 0 225 0.196858 1
gene 1 75 17 -4.36249 0 226 -2.69335 1
gene 1 3 75 0.412181 0 331 0.412181 1
gene 1 24 104 1 0 335 0 1
gene 1 104 17 -0.854726 0 336 0 1
gene 1 64 104 -0.955786 0 385 -0.955786 1
gene 1 9 51 -0.762522 0 398 -0.762522 1
gene 1 64 51 0.701082 0 426 0.701082 1
gene 1 10 129 1 0 435 0 1
gene 1 129 17 -4.16235 0 436 0 1
gene 1 4 64 -0.378257 0 443 -0.378257 0
gene 1 58 134 1 0 451 0 1
gene 1 134 17 -2.42024 0 452 0 1
gene 1 12 104 0.309757 0 463 0.309757 1
gene 1 10 75 -0.631034 0 479 -0.631034 1
gene 1 24 129 0.556586 0 490 0.556586 1
gene 1 8 145 1 0 511 0 0
gene 1 145 17 -0.0730444 0 512 0 1
gene 1 8 129 -0.171538 0 550 -0.171538 1
gene 1 8 172 1 0 605 0 1
gene 1 172 145 1 0 606 0 1
gene 1 64 145 -0.428902 0 614 -0.428902 1
gene 1 16 172 -0.488457 0 679 -0.488457 1
gene 1 16 134 0.348656 0 707 0.348656 1
gene 1 2 198 1 0 712 0 1
gene 1 198 58 2.30228 0 713 0 1
gene 1 1 104 -0.921155 0 785 -0.921155 1
gene 1 129 58 -0.166892 0 794 -0.166892 1
gene 1 1 145 0.182768 0 815 0.182768 1
genomeend 44


