/* Organism #0 Fitness: 7572.120000 Time: 0 */
genomestart 0
trait 1 0.000000 0.000000 0.342186 0.221504 0.583496 0.000000 0.000000 0.214843 
node 1 1 1 1
node 2 1 1 1
node 3 1 1 1
node 4 1 1 1
node 5 1 1 1
node 6 1 1 1
node 7 1 1 1
node 8 1 1 1
node 9 1 1 1
node 10 1 1 1
node 11 1 1 1
node 12 1 1 1
node 13 1 1 1
node 14 1 1 1
node 15 1 1 3
node 16 1 0 2
node 17 1 0 2
node 46 1 0 0
node 174 1 0 0
node 194 1 0 0
node 201 1 0 0
node 214 1 0 0
gene 1 1 16 -1.82437 0 1 -1.82437 1
gene 1 1 17 -5.22109 0 2 -5.22109 1
gene 1 2 16 2.41408 0 3 2.41408 1
gene 1 2 17 2.95933 0 4 2.95933 1
gene 1 3 16 6.09824 0 5 6.09824 1
gene 1 3 17 2.48841 0 6 2.48841 0
gene 1 4 16 1.34027 0 7 1.34027 1
gene 1 4 17 0.605638 0 8 0.605638 1
gene 1 5 16 -3.22309 0 9 -3.22309 1
gene 1 5 17 0.689301 0 10 0.689301 0
gene 1 6 16 1.14761 0 11 1.14761 1
gene 1 6 17 -1.12168 0 12 -1.12168 1
gene 1 7 16 -2.98098 0 13 -2.98098 1
gene 1 7 17 1.34865 0 14 1.34865 1
gene 1 8 16 0.788551 0 15 0.788551 1
gene 1 8 17 -2.34868 0 16 -2.34868 1
gene 1 9 16 -8 0 17 -8 1
gene 1 9 17 -4.179 0 18 -4.179 1
gene 1 10 16 0.118014 0 19 0.118014 1
gene 1 10 17 -0.687794 0 20 -0.687794 1
gene 1 11 16 -0.693252 0 21 -0.693252 1
gene 1 11 17 4.64069 0 22 4.64069 1
gene 1 12 16 -0.636863 0 23 -0.636863 1
gene 1 12 17 3.98304 0 24 3.98304 1
gene 1 13 16 -1.51184 0 25 -1.51184 1
gene 1 13 17 1.78097 0 16 1.78097 1
gene 1 14 16 2.56411 0 17 2.56411 1
gene 1 14 17 -2.04509 0 28 -2.04509 1
gene 1 15 16 3.35081 0 29 3.35081 1
gene 1 15 17 -4.88764 0 30 -4.88764 1
gene 1 16 17 -2.69333 0 61 -2.69333 1
gene 1 8 46 -0.66563 0 121 -0.66563 1
gene 1 46 17 1.66794 0 122 1.66794 1
gene 1 15 46 1.287 0 137 1.287 1
gene 1 3 46 -4.16189 0 174 -4.16189 1
gene 1 2 46 0.559733 0 276 0.559733 0
gene 1 6 46 2.93466 0 426 2.93466 1
gene 1 9 46 1.52951 0 477 1.52951 1
gene 1 13 46 -0.844802 0 520 -0.844802 1
gene 1 14 46 1.89766 0 532 1.89766 1
gene 1 11 46 -0.205518 0 542 -0.205518 1
gene 1 1 46 -1.39929 0 565 -1.39929 0
gene 1 7 46 2.62064 0 617 2.62064 0
gene 1 2 174 0.886661 0 624 0.886661 1
gene 1 174 46 -0.520575 0 625 -0.520575 1
gene 1 4 46 0.0436586 0 648 0.0436586 1
gene 1 10 46 -0.239163 0 682 -0.239163 1
gene 1 5 194 1 0 693 1 1
gene 1 194 17 1.01948 0 694 1.01948 1
gene 1 1 201 -0.468494 0 716 -0.468494 1
gene 1 201 46 -0.62126 0 717 -0.62126 1
gene 1 7 194 0.187208 0 731 0.187208 1
gene 1 201 16 -0.00858935 0 755 -0.00858935 1
gene 1 7 214 1.11038 0 770 1.11038 1
gene 1 214 46 0.228288 0 771 0.228288 1
gene 1 1 214 0.0767184 0 786 0.0767184 1
genomeend 0


