/* Organism #6 Fitness: 8648.430000 Time: 0 */
genomestart 6
trait 1 0.213811 1.000000 1.000000 0.592247 1.000000 0.211749 0.000000 0.000000 
node 1 1 1 1
node 2 1 1 1
node 3 1 1 1
node 4 1 1 1
node 5 1 1 1
node 6 1 1 1
node 7 1 1 1
node 8 1 1 1
node 9 1 1 1
node 10 1 1 1
node 11 1 1 1
node 12 1 1 1
node 13 1 1 1
node 14 1 1 1
node 15 1 1 3
node 16 1 0 2
node 17 1 0 2
node 22 1 0 0
node 75 1 0 0
node 162 1 0 0
node 196 1 0 0
node 211 1 0 0
gene 1 1 16 -3.71905 0 1 -3.71905 1
gene 1 1 17 2.19474 0 2 2.19474 1
gene 1 2 16 2.7583 0 3 2.7583 1
gene 1 2 17 2.73004 0 4 2.73004 1
gene 1 3 16 1.34079 0 5 1.34079 1
gene 1 3 17 2.2132 0 6 2.2132 1
gene 1 4 16 -1.38565 0 7 -1.38565 1
gene 1 4 17 -1.5597 0 8 -1.5597 1
gene 1 5 16 0.426468 0 9 0.426468 1
gene 1 5 17 -1.00367 0 10 -1.00367 0
gene 1 6 16 1.66215 0 11 1.66215 1
gene 1 6 17 -0.986048 0 12 -0.986048 1
gene 1 7 16 -1.50471 0 13 -1.50471 0
gene 1 7 17 -2.16393 0 14 -2.16393 0
gene 1 8 16 0.89158 0 15 0.89158 1
gene 1 8 17 -1.23046 0 16 -1.23046 1
gene 1 9 16 -1.2962 0 17 -1.2962 1
gene 1 9 17 -7.26588 0 18 -7.26588 1
gene 1 10 16 1.26799 0 19 1.26799 1
gene 1 10 17 -0.358498 0 20 -0.358498 1
gene 1 11 16 0.57347 0 21 0.57347 0
gene 1 11 17 3.65985 0 22 3.65985 1
gene 1 12 16 0.607188 0 23 0.607188 1
gene 1 12 17 -3.19882 0 24 -3.19882 1
gene 1 13 16 2.26644 0 25 2.26644 1
gene 1 13 17 1.75999 0 16 1.75999 1
gene 1 14 16 -0.267911 0 17 -0.267911 1
gene 1 14 17 -0.116807 0 28 -0.116807 1
gene 1 15 16 -4.27611 0 29 -4.27611 1
gene 1 15 17 0.968486 0 30 0.968486 1
gene 1 5 22 0.349211 0 43 0.349211 1
gene 1 22 17 1.04678 0 44 1.04678 1
gene 1 6 22 0.56718 0 210 0.56718 1
gene 1 14 75 1 0 241 0 1
gene 1 75 16 -0.267911 0 242 0 1
gene 1 9 75 0.759001 0 277 0.759001 1
gene 1 17 16 0.664299 0 310 0.664299 1
gene 1 13 22 -0.497644 0 319 -0.497644 1
gene 1 15 75 -0.070269 0 359 -0.070269 1
gene 1 11 75 -0.430165 0 374 -0.430165 1
gene 1 4 75 0.533396 0 385 0.533396 1
gene 1 8 22 0.434814 0 393 0.434814 1
gene 1 10 22 0.524679 0 544 0.524679 1
gene 1 14 22 0.809497 0 596 0.809497 1
gene 1 7 162 1 0 607 0 1
gene 1 162 16 -1.50471 0 608 0 1
gene 1 7 75 0.25674 0 627 0.25674 1
gene 1 2 22 -0.956106 0 647 -0.956106 0
gene 1 22 75 -0.239408 0 657 -0.239408 1
gene 1 2 196 1 0 723 0 1
gene 1 196 22 -0.956106 0 724 0 1
gene 1 6 162 0.64832 0 767 0.64832 1
gene 1 11 211 1 0 782 0 1
gene 1 211 16 0.57347 0 783 0 1
gene 1 4 196 0.228803 0 805 0.228803 1
genomeend 6


