/* Organism #88 Fitness: 5593.640000 Time: 0 */
genomestart 88
trait 1 0.132985 0.651321 0.000000 0.430437 0.686519 0.041459 0.941901 1.000000 
node 1 1 1 1
node 2 1 1 1
node 3 1 1 1
node 4 1 1 1
node 5 1 1 1
node 6 1 1 1
node 7 1 1 1
node 8 1 1 1
node 9 1 1 1
node 10 1 1 1
node 11 1 1 1
node 12 1 1 1
node 13 1 1 1
node 14 1 1 1
node 15 1 1 3
node 16 1 0 2
node 17 1 0 2
node 19 1 0 0
node 29 1 0 0
node 53 1 0 0
node 72 1 0 0
node 97 1 0 0
node 103 1 0 0
node 175 1 0 0
node 190 1 0 0
node 251 1 0 0
node 252 1 0 0
node 256 1 0 0
gene 1 1 16 -3.81818 0 1 -3.81818 1
gene 1 1 17 -2.29584 0 2 -2.29584 1
gene 1 2 16 -1.42782 0 3 -1.42782 1
gene 1 2 17 2.5709 0 4 2.5709 1
gene 1 3 16 -2.68768 0 5 -2.68768 1
gene 1 3 17 -2.85172 0 6 -2.85172 1
gene 1 4 16 -2.89698 0 7 -2.89698 0
gene 1 4 17 0.270801 0 8 0.270801 0
gene 1 5 16 -0.279485 0 9 -0.279485 1
gene 1 5 17 -0.665491 0 10 -0.665491 0
gene 1 6 16 -1.67601 0 11 -1.67601 1
gene 1 6 17 -0.43876 0 12 -0.43876 1
gene 1 7 16 -0.72163 0 13 -0.72163 1
gene 1 7 17 -0.115972 0 14 -0.115972 1
gene 1 8 16 1.48795 0 15 1.48795 1
gene 1 8 17 -0.559723 0 16 -0.559723 1
gene 1 9 16 -4.76593 0 17 -4.76593 1
gene 1 9 17 -6.9908 0 18 -6.9908 1
gene 1 10 16 -0.39321 0 19 -0.39321 0
gene 1 10 17 -2.57294 0 20 -2.57294 1
gene 1 11 16 0.000630482 0 21 0.000630482 1
gene 1 11 17 3.50927 0 22 3.50927 1
gene 1 12 16 2.8502 0 23 2.8502 1
gene 1 12 17 0.4648 0 24 0.4648 1
gene 1 13 16 -1.98169 0 25 -1.98169 1
gene 1 13 17 5.46389 0 16 5.46389 1
gene 1 14 16 0.0199261 0 17 0.0199261 0
gene 1 14 17 5.67591 0 28 5.67591 1
gene 1 15 16 -1.53802 0 29 -1.53802 1
gene 1 15 17 2.77768 0 30 2.77768 1
gene 1 8 19 1.03595 0 35 1.03595 1
gene 1 19 17 -1.51135 0 36 -1.51135 1
gene 1 11 29 3.27543 0 66 3.27543 0
gene 1 29 16 0.43818 0 67 0.43818 1
gene 1 10 53 0.0538999 0 138 0.0538999 1
gene 1 53 16 3.11267 0 139 3.11267 1
gene 1 10 72 1 0 223 0 1
gene 1 72 53 -0.593863 0 224 -0.593863 0
gene 1 9 72 0.106918 0 234 0.106918 1
gene 1 6 53 -0.00331677 0 253 -0.00331677 1
gene 1 29 53 -0.964413 0 273 -0.964413 1
gene 1 11 97 1 0 314 0 1
gene 1 97 29 3.27543 0 315 0 1
gene 1 11 72 1.14848 0 326 1.14848 1
gene 1 4 103 1 0 335 0 1
gene 1 103 17 1.47596 0 336 1.47596 1
gene 1 29 103 -0.768556 0 347 -0.768556 0
gene 1 12 97 0.385396 0 424 0.385396 1
gene 1 17 72 -0.622077 0 431 -0.622077 1
gene 1 4 19 0.547138 0 437 0.547138 1
gene 1 9 53 -0.110337 0 467 -0.110337 1
gene 1 11 53 0.643902 0 532 0.643902 1
gene 1 1 19 0.677573 0 568 0.677573 1
gene 1 7 175 1 0 580 0 1
gene 1 175 16 -0.72163 0 581 0 1
gene 1 5 190 1 0 623 0 1
gene 1 190 17 -0.665491 0 624 0 1
gene 1 14 190 -0.889325 0 707 -0.889325 1
gene 1 97 72 -0.770684 0 804 -0.770684 1
gene 1 2 190 0.083059 0 860 0.083059 1
gene 1 9 175 0.30332 0 870 0.30332 1
gene 1 72 251 1 0 874 0 1
gene 1 251 53 -0.593863 0 875 0 1
gene 1 4 252 1 0 885 0 1
gene 1 252 16 -2.89698 0 886 0 1
gene 1 29 256 1 0 896 0 1
gene 1 256 103 -0.768556 0 897 0 1
genomeend 88


