/* Organism #30 Fitness: 8168.430000 Time: 0 */
genomestart 30
trait 1 0.100000 0.000000 0.611798 0.703908 0.000000 0.000000 0.023589 0.005244 
node 1 1 1 1
node 2 1 1 1
node 3 1 1 1
node 4 1 1 1
node 5 1 1 1
node 6 1 1 1
node 7 1 1 1
node 8 1 1 1
node 9 1 1 1
node 10 1 1 1
node 11 1 1 1
node 12 1 1 1
node 13 1 1 1
node 14 1 1 1
node 15 1 1 3
node 16 1 0 2
node 17 1 0 2
node 18 1 0 0
node 27 1 0 0
node 73 1 0 0
node 108 1 0 0
node 148 1 0 0
node 168 1 0 0
node 196 1 0 0
gene 1 1 16 1.1814 0 1 1.1814 1
gene 1 1 17 2.23163 0 2 2.23163 1
gene 1 2 16 1.57793 0 3 1.57793 1
gene 1 2 17 -2.97177 0 4 -2.97177 1
gene 1 3 16 2.65478 0 5 2.65478 1
gene 1 3 17 -1.83783 0 6 -1.83783 1
gene 1 4 16 1.30622 0 7 1.30622 1
gene 1 4 17 1.734 0 8 1.734 1
gene 1 5 16 -0.5741 0 9 -0.5741 1
gene 1 5 17 -1.87891 0 10 -1.87891 1
gene 1 6 16 1.14787 0 11 1.14787 1
gene 1 6 17 -3.48501 0 12 -3.48501 1
gene 1 7 16 -0.201401 0 13 -0.201401 1
gene 1 7 17 -4.38916 0 14 -4.38916 1
gene 1 8 16 1.05445 0 15 1.05445 1
gene 1 8 17 4.28057 0 16 4.28057 1
gene 1 9 16 -7.90444 0 17 -7.90444 1
gene 1 9 17 -0.805964 0 18 -0.805964 1
gene 1 10 16 0.492889 0 19 0.492889 1
gene 1 10 17 0.642666 0 20 0.642666 0
gene 1 11 16 1.84255 0 21 1.84255 1
gene 1 11 17 0.61379 0 22 0.61379 1
gene 1 12 16 2.3646 0 23 2.3646 1
gene 1 12 17 -1.08656 0 24 -1.08656 1
gene 1 13 16 -2.32011 0 25 -2.32011 1
gene 1 13 17 -1.03909 0 16 -1.03909 1
gene 1 14 16 3.56538 0 17 3.56538 1
gene 1 14 17 -4.40856 0 28 -4.40856 1
gene 1 15 16 0.374124 0 29 0.374124 1
gene 1 15 17 -4.57694 0 30 -4.57694 1
gene 1 12 18 -3.69802 0 32 -3.69802 1
gene 1 18 17 0.91241 0 33 0.91241 1
gene 1 7 27 3.10986 0 58 3.10986 1
gene 1 27 17 -2.14298 0 59 -2.14298 1
gene 1 13 18 1.55905 0 150 1.55905 0
gene 1 9 73 -0.00697626 0 240 -0.0382263 1
gene 1 73 17 0.0405463 0 241 0.0634892 1
gene 1 16 27 -0.772487 0 246 -0.772487 1
gene 1 7 73 0.695761 0 268 0.695761 0
gene 1 11 27 -0.117712 0 304 -0.117712 1
gene 1 7 18 -0.219877 0 356 -0.219877 1
gene 1 73 108 1.56316 0 379 1.43816 1
gene 1 108 17 -3.48782 0 380 -3.2351 1
gene 1 16 18 -0.931461 0 418 -0.931461 1
gene 1 15 73 -0.370648 0 425 -0.370648 1
gene 1 11 108 -1.44516 0 433 -1.44516 1
gene 1 108 27 0.550403 0 472 0.550403 1
gene 1 108 148 2.09378 0 516 1.96878 1
gene 1 148 27 -0.748461 0 517 -0.645566 1
gene 1 18 73 0.842335 0 569 0.842335 1
gene 1 8 18 -0.209957 0 580 -0.209957 1
gene 1 13 168 1 0 593 0.5 1
gene 1 168 18 0.408211 0 594 0.204105 1
gene 1 4 108 -0.609235 0 609 -0.609235 1
gene 1 9 108 -0.732407 0 632 -0.732407 1
gene 1 4 27 -0.0524686 0 644 -0.0524686 1
gene 1 168 108 -0.986501 0 671 -0.986501 1
gene 1 7 196 1 0 705 0 1
gene 1 196 73 0.695761 0 706 0 1
gene 1 5 168 -0.0047946 0 711 -0.0047946 1
genomeend 30


