/* Organism #99 Fitness: 9579.710000 Time: 0 */
genomestart 99
trait 1 0.718092 1.000000 0.000000 0.000000 0.286062 0.000000 0.352174 0.000000 
node 1 1 1 1
node 2 1 1 1
node 3 1 1 1
node 4 1 1 1
node 5 1 1 1
node 6 1 1 1
node 7 1 1 1
node 8 1 1 1
node 9 1 1 1
node 10 1 1 1
node 11 1 1 1
node 12 1 1 1
node 13 1 1 1
node 14 1 1 1
node 15 1 1 3
node 16 1 0 2
node 17 1 0 2
node 20 1 0 0
node 27 1 0 0
node 83 1 0 0
node 149 1 0 0
node 183 1 0 0
node 221 1 0 0
node 238 1 0 0
node 249 1 0 0
gene 1 1 16 -3.72469 0 1 -3.72469 1
gene 1 1 17 -0.819507 0 2 -0.819507 1
gene 1 2 16 6.05233 0 3 6.05233 1
gene 1 2 17 6.07821 0 4 6.07821 1
gene 1 3 16 1.70991 0 5 1.70991 0
gene 1 3 17 1.18072 0 6 1.18072 1
gene 1 4 16 2.26761 0 7 2.26761 1
gene 1 4 17 -7.92574 0 8 -7.92574 1
gene 1 5 16 3.4845 0 9 3.4845 0
gene 1 5 17 0.975108 0 10 0.975108 1
gene 1 6 16 -6.37209 0 11 -6.37209 1
gene 1 6 17 0.0859406 0 12 0.0859406 1
gene 1 7 16 -0.875874 0 13 -0.875874 1
gene 1 7 17 1.073 0 14 1.073 1
gene 1 8 16 -2.28461 0 15 -2.28461 1
gene 1 8 17 -0.542137 0 16 -0.542137 1
gene 1 9 16 1.63692 0 17 1.63692 1
gene 1 9 17 -8 0 18 -8 1
gene 1 10 16 1.98138 0 19 1.98138 1
gene 1 10 17 0.848521 0 20 0.848521 1
gene 1 11 16 -8 0 21 -8 0
gene 1 11 17 5.10133 0 22 5.10133 1
gene 1 12 16 -4.40362 0 23 -4.40362 1
gene 1 12 17 -2.32709 0 24 -2.32709 1
gene 1 13 16 8 0 25 8 1
gene 1 13 17 -0.111433 0 16 -0.111433 1
gene 1 14 16 0.450303 0 17 0.450303 1
gene 1 14 17 1.17515 0 28 1.17515 1
gene 1 15 16 -6.70352 0 29 -6.70352 1
gene 1 15 17 0.447525 0 30 0.447525 1
gene 1 10 20 -2.9606 0 38 -2.9606 1
gene 1 20 17 -0.344476 0 39 -0.344476 1
gene 1 7 20 -0.316819 0 43 -0.316819 1
gene 1 13 27 -1.02799 0 59 -1.02799 1
gene 1 27 17 0.10721 0 60 0.10721 0
gene 1 11 20 -0.283344 0 224 -0.283344 1
gene 1 27 83 -0.0227204 0 250 -0.0227204 1
gene 1 83 17 0.738593 0 251 0.738593 1
gene 1 11 83 -0.811855 0 315 -0.811855 1
gene 1 83 16 -0.345336 0 323 -0.345336 1
gene 1 3 20 1.29412 0 367 1.29412 1
gene 1 13 83 0.495278 0 398 0.495278 1
gene 1 12 83 -0.516089 0 426 -0.516089 1
gene 1 5 149 1.57468 0 513 1.07468 1
gene 1 149 16 3.26102 0 514 0 1
gene 1 2 149 -0.0239044 0 528 -0.0239044 0
gene 1 9 27 -0.369966 0 620 -0.369966 1
gene 1 12 27 -0.509859 0 636 -0.509859 1
gene 1 3 183 1 0 662 0 1
gene 1 183 16 1.70991 0 663 0 1
gene 1 17 149 0.189306 0 669 0.189306 1
gene 1 183 149 -0.947474 0 740 -0.947474 1
gene 1 8 27 0.945404 0 783 0.945404 1
gene 1 2 221 1 0 795 0 1
gene 1 221 149 -0.0239044 0 796 0 1
gene 1 14 83 -0.588678 0 810 -0.588678 1
gene 1 13 149 -0.346427 0 824 -0.346427 1
gene 1 1 83 0.0901352 0 836 0.0901352 0
gene 1 1 238 1 0 866 0 1
gene 1 238 83 0.0901352 0 867 0 1
gene 1 5 83 -0.0945651 0 904 -0.0945651 1
gene 1 11 249 1 0 913 0 1
gene 1 249 16 -8 0 914 0 1
genomeend 99


