/* Organism #44 Fitness: 15.220000 Time: 0 */
genomestart 44
trait 1 0.152768 0.277275 0.009470 0.736250 0.121075 0.553868 0.390552 0.265729 
node 1 1 1 1
node 2 1 1 1
node 3 1 1 1
node 4 1 1 1
node 5 1 1 1
node 6 1 1 1
node 7 1 1 1
node 8 1 1 1
node 9 1 1 1
node 10 1 1 1
node 11 1 1 1
node 12 1 1 1
node 13 1 1 1
node 14 1 1 1
node 15 1 1 3
node 16 1 0 2
node 17 1 0 2
node 20 1 0 0
node 43 1 0 0
node 74 1 0 0
node 147 1 0 0
node 167 1 0 0
node 171 1 0 0
node 188 1 0 0
node 196 1 0 0
node 199 1 0 0
node 205 1 0 0
gene 1 1 16 -2.65029 0 1 -2.65029 1
gene 1 1 17 -3.75869 0 2 -3.75869 1
gene 1 2 16 -0.61324 0 3 -0.61324 1
gene 1 2 17 8 0 4 8 1
gene 1 3 16 -2.44545 0 5 -2.44545 1
gene 1 3 17 2.68936 0 6 2.68936 1
gene 1 4 16 -2.72872 0 7 -2.72872 1
gene 1 4 17 3.6414 0 8 3.6414 1
gene 1 5 16 3.40878 0 9 3.40878 1
gene 1 5 17 -1.23865 0 10 -1.23865 1
gene 1 6 16 0.242069 0 11 0.242069 0
gene 1 6 17 -7.11547 0 12 -7.11547 1
gene 1 7 16 -3.62444 0 13 -3.62444 1
gene 1 7 17 -0.0200217 0 14 -0.0200217 1
gene 1 8 16 -0.0245819 0 15 -0.0245819 1
gene 1 8 17 -7.11212 0 16 -7.11212 1
gene 1 9 16 -6.18402 0 17 -6.18402 1
gene 1 9 17 0.342564 0 18 0.342564 1
gene 1 10 16 -2.62909 0 19 -2.62909 1
gene 1 10 17 -0.489921 0 20 -0.489921 1
gene 1 11 16 0.295702 0 21 0.295702 1
gene 1 11 17 3.66582 0 22 3.66582 1
gene 1 12 16 -1.79462 0 23 -1.79462 1
gene 1 12 17 2.861 0 24 2.861 1
gene 1 13 16 -0.595602 0 25 -0.595602 1
gene 1 13 17 0.246194 0 16 0.246194 1
gene 1 14 16 -0.281175 0 17 -0.281175 1
gene 1 14 17 3.92019 0 28 3.92019 1
gene 1 15 16 1.22078 0 29 1.22078 1
gene 1 15 17 0.237889 0 30 0.237889 1
gene 1 8 20 3.78771 0 37 3.78771 1
gene 1 20 16 0.920501 0 38 0.920501 1
gene 1 9 43 -1.34711 0 101 -1.34711 1
gene 1 43 17 2.97773 0 102 2.97773 1
gene 1 9 20 -3.96559 0 179 -3.96559 0
gene 1 5 20 -0.396772 0 194 -0.396772 1
gene 1 10 74 1.70178 0 218 1.20178 1
gene 1 74 16 -0.609736 0 219 0.195302 1
gene 1 17 16 0.510837 0 232 0.510837 1
gene 1 7 74 1.20789 0 282 1.20789 0
gene 1 20 17 0.270139 0 305 0.270139 1
gene 1 11 74 1.30213 0 331 1.30213 1
gene 1 12 20 0.106219 0 358 0.106219 1
gene 1 5 74 1.11635 0 436 1.11635 1
gene 1 9 147 0.152529 0 482 -0.347471 1
gene 1 147 20 -3.54292 0 483 -1.98246 1
gene 1 3 20 -0.749776 0 505 -0.749776 1
gene 1 13 74 -0.146653 0 518 -0.146653 0
gene 1 5 147 0.128192 0 578 0.128192 1
gene 1 13 167 1.95848 0 591 1.45848 0
gene 1 167 17 0.246194 0 592 0 1
gene 1 12 171 1 0 606 0 1
gene 1 171 20 0.1217 0 607 0 1
gene 1 74 171 1.76766 0 619 1.76766 1
gene 1 43 167 -0.423184 0 642 -0.423184 1
gene 1 13 188 1 0 667 0.5 1
gene 1 188 74 -0.146653 0 668 0 1
gene 1 6 196 1.8299 0 687 1.3299 1
gene 1 196 16 0.242069 0 688 0 1
gene 1 7 199 1 0 698 0 1
gene 1 199 74 1.20789 0 699 0 1
gene 1 13 205 1 0 728 0 1
gene 1 205 167 1 0 729 0 1
gene 1 10 205 0.24809 0 794 0.24809 1
genomeend 44


