/* Organism #15 Fitness: 13.620000 Time: 0 */
genomestart 15
trait 1 0.711278 0.000000 0.000000 0.819443 0.287330 0.024080 0.880963 0.568959 
node 1 1 1 1
node 2 1 1 1
node 3 1 1 1
node 4 1 1 1
node 5 1 1 1
node 6 1 1 1
node 7 1 1 1
node 8 1 1 1
node 9 1 1 1
node 10 1 1 1
node 11 1 1 1
node 12 1 1 1
node 13 1 1 1
node 14 1 1 1
node 15 1 1 3
node 16 1 0 2
node 17 1 0 2
node 28 1 0 0
node 43 1 0 0
node 59 1 0 0
node 123 1 0 0
node 159 1 0 0
node 171 1 0 0
gene 1 1 16 -0.164505 0 1 -0.164505 1
gene 1 1 17 6.14294 0 2 6.14294 1
gene 1 2 16 6.33617 0 3 6.33617 1
gene 1 2 17 -1.03409 0 4 -1.03409 0
gene 1 3 16 2.87996 0 5 2.87996 1
gene 1 3 17 3.77287 0 6 3.77287 1
gene 1 4 16 -7.75557 0 7 -7.75557 1
gene 1 4 17 1.07978 0 8 1.07978 1
gene 1 5 16 -5.03277 0 9 -5.03277 1
gene 1 5 17 5.14402 0 10 5.14402 1
gene 1 6 16 -4.68771 0 11 -4.68771 0
gene 1 6 17 7.56533 0 12 7.56533 1
gene 1 7 16 -4.10659 0 13 -4.10659 1
gene 1 7 17 2.67794 0 14 2.67794 1
gene 1 8 16 3.22689 0 15 3.22689 1
gene 1 8 17 0.507653 0 16 0.507653 1
gene 1 9 16 1.40297 0 17 1.40297 1
gene 1 9 17 4.25936 0 18 4.25936 1
gene 1 10 16 -7.76435 0 19 -7.76435 0
gene 1 10 17 3.92505 0 20 3.92505 1
gene 1 11 16 -1.15671 0 21 -1.15671 1
gene 1 11 17 -1.99758 0 22 -1.99758 1
gene 1 12 16 1.81157 0 23 1.81157 1
gene 1 12 17 7.33375 0 24 7.33375 1
gene 1 13 16 2.65442 0 25 2.65442 1
gene 1 13 17 4.71298 0 16 4.71298 1
gene 1 14 16 1.69194 0 17 1.69194 1
gene 1 14 17 7.11593 0 28 7.11593 1
gene 1 15 16 2.98271 0 29 2.98271 1
gene 1 15 17 -2.34018 0 30 -2.34018 1
gene 1 17 16 -0.888199 0 42 -0.888199 1
gene 1 6 28 -3.31037 0 58 -3.31037 1
gene 1 28 16 4.88282 0 59 4.88282 1
gene 1 14 28 -0.688183 0 81 -0.688183 1
gene 1 6 43 0.414251 0 105 0.414251 1
gene 1 43 28 -1.91756 0 106 -1.91756 1
gene 1 1 43 2.41412 0 155 2.41412 1
gene 1 2 59 0.122927 0 170 0.122927 1
gene 1 59 17 -3.13709 0 171 -3.13709 1
gene 1 3 43 0.398814 0 305 0.398814 0
gene 1 1 123 -1.0285 0 411 -1.0285 1
gene 1 123 43 -0.873202 0 412 -0.873202 1
gene 1 13 123 -2.30448 0 462 -2.30448 1
gene 1 2 123 -1.50623 0 481 -1.50623 1
gene 1 4 59 1.04284 0 515 1.04284 1
gene 1 10 159 -0.34773 0 560 -0.34773 1
gene 1 159 16 -1.57631 0 561 -1.57631 1
gene 1 10 171 0.758599 0 604 0.758599 1
gene 1 171 159 -1.67394 0 605 -1.67394 1
gene 1 17 159 0.0064829 0 668 0.0064829 1
gene 1 13 59 0.207414 0 742 0.207414 1
gene 1 12 28 -0.62728 0 751 -0.62728 1
gene 1 2 159 -0.0299301 0 794 -0.0299301 1
gene 1 1 159 0.76561 0 876 0.76561 1
genomeend 15


