/* Organism #10 Fitness: 16.810000 Time: 0 */
genomestart 10
trait 1 0.691960 0.000000 0.194003 0.000000 1.000000 0.000000 0.000000 0.000000 
node 1 1 1 1
node 2 1 1 1
node 3 1 1 1
node 4 1 1 1
node 5 1 1 1
node 6 1 1 1
node 7 1 1 1
node 8 1 1 1
node 9 1 1 1
node 10 1 1 1
node 11 1 1 1
node 12 1 1 1
node 13 1 1 1
node 14 1 1 1
node 15 1 1 3
node 16 1 0 2
node 17 1 0 2
node 25 1 0 0
node 81 1 0 0
node 110 1 0 0
node 118 1 0 0
node 161 1 0 0
node 169 1 0 0
node 175 1 0 0
node 180 1 0 0
node 185 1 0 0
node 197 1 0 0
node 200 1 0 0
node 203 1 0 0
node 223 1 0 0
gene 1 1 16 -8 0 1 -8 1
gene 1 1 17 -4.71824 0 2 -4.71824 1
gene 1 2 16 3.56192 0 3 3.56192 1
gene 1 2 17 -4.18482 0 4 -4.18482 1
gene 1 3 16 4.35429 0 5 4.35429 1
gene 1 3 17 -3.82695 0 6 -3.82695 0
gene 1 4 16 -1.61768 0 7 -1.61768 1
gene 1 4 17 -0.112253 0 8 -0.112253 1
gene 1 5 16 -5.28273 0 9 -5.28273 1
gene 1 5 17 3.71979 0 10 3.71979 0
gene 1 6 16 -2.11232 0 11 -2.11232 1
gene 1 6 17 -0.190396 0 12 -0.190396 1
gene 1 7 16 -6.97794 0 13 -6.97794 1
gene 1 7 17 0.532973 0 14 0.532973 0
gene 1 8 16 -2.58251 0 15 -2.58251 0
gene 1 8 17 5.8986 0 16 5.8986 1
gene 1 9 16 0.936774 0 17 0.936774 1
gene 1 9 17 -8 0 18 -8 1
gene 1 10 16 1.83238 0 19 1.83238 1
gene 1 10 17 -1.3381 0 20 -1.3381 1
gene 1 11 16 -4.73372 0 21 -4.73372 1
gene 1 11 17 -1.61258 0 22 -1.61258 1
gene 1 12 16 -0.720784 0 23 -0.720784 1
gene 1 12 17 0.555594 0 24 0.555594 0
gene 1 13 16 -2.93489 0 25 -2.93489 1
gene 1 13 17 -1.38677 0 16 -1.38677 0
gene 1 14 16 1.71462 0 17 1.71462 1
gene 1 14 17 2.24557 0 28 2.24557 1
gene 1 15 16 0.842867 0 29 0.842867 1
gene 1 15 17 -4.79229 0 30 -4.79229 1
gene 1 9 25 3.84786 0 47 3.84786 1
gene 1 25 17 2.66627 0 48 2.66627 0
gene 1 11 25 0.0303597 0 148 0.0303597 1
gene 1 10 25 2.72832 0 161 2.72832 1
gene 1 16 25 -1.16653 0 218 -1.16653 1
gene 1 15 25 -2.04033 0 237 -2.04033 1
gene 1 3 81 -0.0036596 0 245 -0.0036596 1
gene 1 81 17 -2.02962 0 246 -2.02962 1
gene 1 15 81 0.794525 0 347 0.794525 1
gene 1 5 110 5.32155 0 362 5.32155 1
gene 1 110 17 1.37242 0 363 1.37242 1
gene 1 25 118 -2.04035 0 400 -2.04035 1
gene 1 118 17 -4.931 0 401 -4.931 1
gene 1 110 118 -1.66832 0 431 -1.66832 1
gene 1 13 81 0.674939 0 496 0.674939 1
gene 1 8 161 -0.0282374 0 559 -0.0282374 0
gene 1 161 16 -0.136384 0 560 -0.136384 1
gene 1 14 169 -0.0954518 0 587 -0.595452 1
gene 1 169 17 2.26928 0 588 2.26928 1
gene 1 5 118 0.48916 0 606 0.48916 1
gene 1 12 175 -0.496638 0 626 -0.996638 1
gene 1 175 17 -0.848625 0 627 -0.424312 0
gene 1 8 180 0.849795 0 641 0.849795 1
gene 1 180 161 1.30159 0 642 1.30159 1
gene 1 110 185 0.536568 0 660 0.0365675 1
gene 1 185 17 2.38743 0 661 0.795281 1
gene 1 13 197 -0.21228 0 705 -0.71228 1
gene 1 197 17 -1.18277 0 706 -0.995528 0
gene 1 197 200 1.85093 0 714 1.35093 1
gene 1 200 17 1.02616 0 715 1.2134 1
gene 1 175 203 0.918919 0 727 0.418919 1
gene 1 203 17 -0.280085 0 728 0.144227 1
gene 1 81 180 -0.235521 0 794 -0.235521 1
gene 1 7 223 1.57095 0 803 1.07095 1
gene 1 223 17 0.906621 0 804 1.13461 1
gene 1 185 197 0.0330832 0 814 0.0330832 1
gene 1 3 180 -0.334442 0 844 -0.334442 1
gene 1 161 110 0.942973 0 880 0.942973 1
genomeend 10


