/* Organism #56 Fitness: 15.200000 Time: 0 */
genomestart 56
trait 1 0.100000 0.000000 0.448574 0.000000 0.570795 0.000000 0.158859 0.000000 
node 1 1 1 1
node 2 1 1 1
node 3 1 1 1
node 4 1 1 1
node 5 1 1 1
node 6 1 1 1
node 7 1 1 1
node 8 1 1 1
node 9 1 1 1
node 10 1 1 1
node 11 1 1 1
node 12 1 1 1
node 13 1 1 1
node 14 1 1 1
node 15 1 1 3
node 16 1 0 2
node 17 1 0 2
node 20 1 0 0
node 33 1 0 0
node 73 1 0 0
node 124 1 0 0
node 131 1 0 0
node 146 1 0 0
node 183 1 0 0
node 240 1 0 0
gene 1 1 16 3.55024 0 1 3.55024 1
gene 1 1 17 4.72943 0 2 4.72943 1
gene 1 2 16 -2.25128 0 3 -2.25128 0
gene 1 2 17 6.94012 0 4 6.94012 1
gene 1 3 16 0.0188132 0 5 0.0188132 1
gene 1 3 17 3.94086 0 6 3.94086 1
gene 1 4 16 -4.60235 0 7 -4.60235 1
gene 1 4 17 1.46504 0 8 1.46504 1
gene 1 5 16 -2.92306 0 9 -2.92306 1
gene 1 5 17 1.05027 0 10 1.05027 1
gene 1 6 16 0.99935 0 11 0.99935 1
gene 1 6 17 -2.83102 0 12 -2.83102 1
gene 1 7 16 0.772387 0 13 0.772387 0
gene 1 7 17 -0.418061 0 14 -0.418061 1
gene 1 8 16 0.0702371 0 15 0.0702371 1
gene 1 8 17 0.444669 0 16 0.444669 1
gene 1 9 16 -1.31436 0 17 -1.31436 1
gene 1 9 17 -4.54427 0 18 -4.54427 1
gene 1 10 16 -4.44354 0 19 -4.44354 1
gene 1 10 17 0.264296 0 20 0.264296 1
gene 1 11 16 -4.36998 0 21 -4.36998 1
gene 1 11 17 1.87725 0 22 1.87725 1
gene 1 12 16 0.868537 0 23 0.868537 1
gene 1 12 17 -0.395314 0 24 -0.395314 1
gene 1 13 16 3.97548 0 25 3.97548 0
gene 1 13 17 -5.75617 0 16 -5.75617 1
gene 1 14 16 1.33432 0 17 1.33432 1
gene 1 14 17 2.77519 0 28 2.77519 1
gene 1 15 16 -5.71928 0 29 -5.71928 1
gene 1 15 17 -0.273523 0 30 -0.273523 1
gene 1 13 20 -1.46308 0 38 -1.46308 0
gene 1 20 16 -2.41223 0 39 -2.41223 1
gene 1 4 20 -2.01525 0 72 -2.01525 1
gene 1 15 20 4.5217 0 76 4.5217 1
gene 1 8 33 -0.520464 0 81 -0.520464 1
gene 1 33 17 -0.466867 0 82 -0.466867 1
gene 1 1 33 0.743962 0 153 0.743962 1
gene 1 11 73 0.0749504 0 218 -0.17505 1
gene 1 73 16 -2.16071 0 219 -1.43389 1
gene 1 14 33 -0.695487 0 270 -0.695487 1
gene 1 33 16 0.435019 0 379 0.435019 1
gene 1 7 124 -0.0563773 0 414 -0.556377 1
gene 1 124 16 0.12563 0 415 -0.265908 0
gene 1 1 131 1.43926 0 428 0.939261 1
gene 1 131 16 2.46439 0 429 0.724892 1
gene 1 13 146 0.981505 0 480 0.481505 1
gene 1 146 20 -2.16074 0 481 -1.05978 1
gene 1 3 146 -0.168758 0 499 -0.168758 1
gene 1 9 73 -0.0839889 0 621 -0.0839889 1
gene 1 73 146 -0.239048 0 639 -0.239048 0
gene 1 9 20 0.915101 0 648 0.915101 1
gene 1 2 183 1 0 656 0 1
gene 1 183 16 -2.25128 0 657 0 1
gene 1 4 124 0.922329 0 688 0.922329 1
gene 1 2 33 0.728696 0 696 0.728696 1
gene 1 33 131 -0.122813 0 706 -0.122813 1
gene 1 9 183 0.818287 0 804 0.818287 1
gene 1 183 33 -0.487724 0 821 -0.487724 1
gene 1 73 240 1 0 867 0 1
gene 1 240 146 -0.239048 0 868 0 1
genomeend 56


