/* Organism #62 Fitness: 14.670000 Time: 0 */
genomestart 62
trait 1 0.100000 0.000000 0.000000 0.000000 0.000000 0.000000 0.000000 0.000000 
node 1 1 1 1
node 2 1 1 1
node 3 1 1 1
node 4 1 1 1
node 5 1 1 1
node 6 1 1 1
node 7 1 1 1
node 8 1 1 1
node 9 1 1 1
node 10 1 1 1
node 11 1 1 1
node 12 1 1 1
node 13 1 1 1
node 14 1 1 1
node 15 1 1 3
node 16 1 0 2
node 17 1 0 2
node 32 1 0 0
node 33 1 0 0
node 95 1 0 0
node 118 1 0 0
node 128 1 0 0
node 159 1 0 0
node 171 1 0 0
node 199 1 0 0
node 228 1 0 0
node 248 1 0 0
gene 1 1 16 -3.877 0 1 -3.877 1
gene 1 1 17 -2.4137 0 2 -2.4137 1
gene 1 2 16 0.863776 0 3 0.863776 0
gene 1 2 17 1.63387 0 4 1.63387 1
gene 1 3 16 -4.09849 0 5 -4.09849 1
gene 1 3 17 2.40057 0 6 2.40057 1
gene 1 4 16 -7.53994 0 7 -7.53994 1
gene 1 4 17 0.91999 0 8 0.91999 1
gene 1 5 16 -0.673671 0 9 -0.673671 0
gene 1 5 17 3.80049 0 10 3.80049 1
gene 1 6 16 -3.23206 0 11 -3.23206 0
gene 1 6 17 3.53521 0 12 3.53521 1
gene 1 7 16 -0.584813 0 13 -0.584813 1
gene 1 7 17 2.82822 0 14 2.82822 1
gene 1 8 16 1.88842 0 15 1.88842 1
gene 1 8 17 2.78073 0 16 2.78073 0
gene 1 9 16 0.607387 0 17 0.607387 1
gene 1 9 17 4.78285 0 18 4.78285 1
gene 1 10 16 2.42967 0 19 2.42967 1
gene 1 10 17 -0.00323383 0 20 -0.00323383 1
gene 1 11 16 -1.24036 0 21 -1.24036 1
gene 1 11 17 -0.150509 0 22 -0.150509 1
gene 1 12 16 -0.746389 0 23 -0.746389 1
gene 1 12 17 3.24647 0 24 3.24647 1
gene 1 13 16 2.13208 0 25 2.13208 1
gene 1 13 17 1.69535 0 16 1.69535 1
gene 1 14 16 -2.39108 0 17 -2.39108 0
gene 1 14 17 -1.50763 0 28 -1.50763 1
gene 1 15 16 2.1501 0 29 2.1501 1
gene 1 15 17 1.83248 0 30 1.83248 1
gene 1 17 16 1.2294 0 60 1.2294 1
gene 1 8 32 1.95391 0 74 1.95391 1
gene 1 32 17 0.955266 0 75 0.955266 1
gene 1 10 33 0.961754 0 81 0.961754 1
gene 1 33 17 -0.741752 0 82 -0.741752 1
gene 1 4 32 -0.101554 0 141 -0.101554 1
gene 1 13 32 2.94363 0 194 2.94363 0
gene 1 11 33 0.411478 0 203 0.411478 0
gene 1 5 95 1.39287 0 301 0.892873 1
gene 1 95 16 0.516374 0 302 0.788669 1
gene 1 17 95 1.80183 0 313 1.80183 1
gene 1 15 32 -0.594858 0 330 -0.594858 1
gene 1 13 33 0.894777 0 371 0.894777 1
gene 1 2 118 1.89572 0 385 1.39572 1
gene 1 118 16 0.425698 0 386 0.178053 1
gene 1 14 118 1.13733 0 415 1.13733 1
gene 1 118 128 1.10235 0 421 0.602352 1
gene 1 128 16 0.597682 0 422 0.350037 1
gene 1 33 128 0.28895 0 435 0.28895 1
gene 1 95 118 -0.16641 0 457 -0.16641 1
gene 1 8 95 -0.266518 0 515 -0.266518 1
gene 1 14 159 1.20112 0 527 0.701125 1
gene 1 159 16 -1.25621 0 528 -0.628106 1
gene 1 33 171 0.749543 0 563 0.249543 1
gene 1 171 17 -2.2694 0 564 -1.38488 1
gene 1 3 33 0.028051 0 571 0.028051 1
gene 1 12 118 -1.12984 0 600 -1.12984 1
gene 1 13 199 1 0 668 0 1
gene 1 199 32 2.94363 0 669 0 0
gene 1 7 171 -0.434492 0 699 -0.434492 1
gene 1 1 118 -0.671777 0 718 -0.671777 1
gene 1 11 118 0.917719 0 727 0.917719 1
gene 1 15 33 0.139706 0 736 0.139706 1
gene 1 17 118 0.513375 0 753 0.513375 1
gene 1 199 228 1 0 787 0 1
gene 1 228 32 2.94363 0 788 0 1
gene 1 11 248 1 0 856 0 1
gene 1 248 33 0.411478 0 857 0 1
gene 1 6 171 0.381753 0 879 0.381753 1
genomeend 62


