/* Organism #7 Fitness: 14.840000 Time: 0 */
genomestart 7
trait 1 0.317366 0.000000 0.548337 0.000000 0.000000 0.000000 0.307253 0.000000 
node 1 1 1 1
node 2 1 1 1
node 3 1 1 1
node 4 1 1 1
node 5 1 1 1
node 6 1 1 1
node 7 1 1 1
node 8 1 1 1
node 9 1 1 1
node 10 1 1 1
node 11 1 1 1
node 12 1 1 1
node 13 1 1 1
node 14 1 1 1
node 15 1 1 3
node 16 1 0 2
node 17 1 0 2
node 44 1 0 0
node 77 1 0 0
node 126 1 0 0
node 130 1 0 0
node 206 1 0 0
node 227 1 0 0
gene 1 1 16 0.888337 0 1 0.888337 1
gene 1 1 17 4.13388 0 2 4.13388 1
gene 1 2 16 -0.152248 0 3 -0.152248 1
gene 1 2 17 8 0 4 8 1
gene 1 3 16 0.103855 0 5 0.103855 1
gene 1 3 17 0.230206 0 6 0.230206 1
gene 1 4 16 -0.42892 0 7 -0.42892 1
gene 1 4 17 -1.0941 0 8 -1.0941 1
gene 1 5 16 -5.32386 0 9 -5.32386 1
gene 1 5 17 0.70835 0 10 0.70835 1
gene 1 6 16 -7.25952 0 11 -7.25952 1
gene 1 6 17 3.33301 0 12 3.33301 0
gene 1 7 16 -4.85989 0 13 -4.85989 1
gene 1 7 17 -0.40201 0 14 -0.40201 0
gene 1 8 16 -1.26165 0 15 -1.26165 1
gene 1 8 17 1.76129 0 16 1.76129 1
gene 1 9 16 -2.43791 0 17 -2.43791 1
gene 1 9 17 -4.47478 0 18 -4.47478 1
gene 1 10 16 -0.355344 0 19 -0.355344 1
gene 1 10 17 -0.441025 0 20 -0.441025 1
gene 1 11 16 0.476971 0 21 0.476971 1
gene 1 11 17 -4.78895 0 22 -4.78895 1
gene 1 12 16 -1.42325 0 23 -1.42325 1
gene 1 12 17 3.06293 0 24 3.06293 1
gene 1 13 16 1.72288 0 25 1.72288 0
gene 1 13 17 0.937209 0 16 0.937209 1
gene 1 14 16 -3.58376 0 17 -3.58376 1
gene 1 14 17 -2.99861 0 28 -2.99861 1
gene 1 15 16 -0.755665 0 29 -0.755665 1
gene 1 15 17 -0.677511 0 30 -0.677511 1
gene 1 6 44 -1.33432 0 115 -1.33432 0
gene 1 44 17 -2.68421 0 116 -2.68421 1
gene 1 9 77 -1.24413 0 237 -1.24413 0
gene 1 77 16 -3.01946 0 238 -3.01946 1
gene 1 5 77 -0.788431 0 260 -0.788431 1
gene 1 15 77 0.0818775 0 284 0.0818775 1
gene 1 10 44 -0.920144 0 334 -0.920144 1
gene 1 16 17 0.946904 0 357 0.946904 1
gene 1 10 77 0.696654 0 374 0.696654 1
gene 1 5 44 -0.635509 0 412 -0.635509 1
gene 1 12 44 0.410953 0 422 0.410953 1
gene 1 6 126 1 0 432 0 1
gene 1 126 44 -1.33432 0 433 0 1
gene 1 9 130 1 0 446 0 1
gene 1 130 77 -1.24413 0 447 0 1
gene 1 126 16 0.856359 0 463 0.856359 1
gene 1 13 130 -0.687283 0 507 -0.687283 1
gene 1 14 44 0.847629 0 648 0.847629 1
gene 1 1 44 0.887223 0 674 0.887223 1
gene 1 7 206 1 0 710 0 1
gene 1 206 16 -4.85989 0 711 0 1
gene 1 14 77 -0.272702 0 732 -0.272702 1
gene 1 10 126 -0.794557 0 752 -0.794557 1
gene 1 44 206 -0.109456 0 765 -0.109456 1
gene 1 4 77 0.797135 0 782 0.797135 1
gene 1 13 227 1 0 813 0 1
gene 1 227 16 1.72288 0 814 0 1
genomeend 7


