/* Organism #19 Fitness: 14.690000 Time: 0 */
genomestart 19
trait 1 0.050000 0.000000 0.000000 0.000000 0.322196 0.000000 0.021824 0.217028 
node 1 1 1 1
node 2 1 1 1
node 3 1 1 1
node 4 1 1 1
node 5 1 1 1
node 6 1 1 1
node 7 1 1 1
node 8 1 1 1
node 9 1 1 1
node 10 1 1 1
node 11 1 1 1
node 12 1 1 1
node 13 1 1 1
node 14 1 1 1
node 15 1 1 3
node 16 1 0 2
node 17 1 0 2
node 20 1 0 0
node 29 1 0 0
node 86 1 0 0
node 131 1 0 0
node 135 1 0 0
node 165 1 0 0
node 222 1 0 0
gene 1 1 16 6.15724 0 1 6.15724 1
gene 1 1 17 -7.40815 0 2 -7.40815 1
gene 1 2 16 -0.497024 0 3 -0.497024 1
gene 1 2 17 -3.80458 0 4 -3.80458 1
gene 1 3 16 3.93933 0 5 3.93933 1
gene 1 3 17 4.3224 0 6 4.3224 1
gene 1 4 16 7.12625 0 7 7.12625 1
gene 1 4 17 -2.8175 0 8 -2.8175 1
gene 1 5 16 -4.06337 0 9 -4.06337 1
gene 1 5 17 1.08465 0 10 1.08465 1
gene 1 6 16 -1.91783 0 11 -1.91783 1
gene 1 6 17 0.465824 0 12 0.465824 1
gene 1 7 16 1.08737 0 13 1.08737 0
gene 1 7 17 0.0202254 0 14 0.0202254 1
gene 1 8 16 3.97074 0 15 3.97074 0
gene 1 8 17 0.668433 0 16 0.668433 1
gene 1 9 16 7.70384 0 17 7.70384 1
gene 1 9 17 2.12708 0 18 2.12708 0
gene 1 10 16 -0.879733 0 19 -0.879733 1
gene 1 10 17 2.71963 0 20 2.71963 1
gene 1 11 16 1.80811 0 21 1.80811 1
gene 1 11 17 2.29318 0 22 2.29318 1
gene 1 12 16 1.09796 0 23 1.09796 0
gene 1 12 17 -5.91875 0 24 -5.91875 0
gene 1 13 16 2.89484 0 25 2.89484 1
gene 1 13 17 -7.39106 0 16 -7.39106 1
gene 1 14 16 -3.91009 0 17 -3.91009 1
gene 1 14 17 1.8709 0 28 1.8709 1
gene 1 15 16 -3.76575 0 29 -3.76575 1
gene 1 15 17 4.2183 0 30 4.2183 1
gene 1 12 20 2.46286 0 35 2.46286 1
gene 1 20 16 2.16023 0 36 2.16023 1
gene 1 9 29 -7.72859 0 57 -7.72859 1
gene 1 29 17 -2.70426 0 58 -2.70426 1
gene 1 12 29 -0.930016 0 149 -0.930016 0
gene 1 1 29 2.08959 0 211 2.08959 1
gene 1 12 86 -0.529723 0 264 -0.529723 1
gene 1 86 29 -5.75106 0 265 -5.75106 1
gene 1 6 29 3.48761 0 306 3.48761 1
gene 1 2 20 -0.214261 0 311 -0.214261 1
gene 1 5 86 -1.66737 0 317 -1.66737 1
gene 1 4 20 3.36512 0 327 3.36512 1
gene 1 3 86 -3.37253 0 340 -3.37253 1
gene 1 86 17 2.32696 0 433 2.32696 0
gene 1 12 131 4.1513 0 451 4.1513 1
gene 1 131 17 1.5292 0 452 1.5292 1
gene 1 86 135 -5.62016 0 471 -5.62016 1
gene 1 135 17 -0.670945 0 472 -0.670945 1
gene 1 9 86 -0.981515 0 481 -0.981515 1
gene 1 13 29 0.75511 0 530 0.75511 1
gene 1 8 165 1.34493 0 590 1.34493 1
gene 1 165 16 5.55267 0 591 5.55267 1
gene 1 10 86 -0.634177 0 723 -0.634177 1
gene 1 15 131 -0.417638 0 809 -0.417638 1
gene 1 7 222 1 0 819 0 1
gene 1 222 16 1.08737 0 820 0 1
genomeend 19


