/* Organism #9 Fitness: 14.200000 Time: 0 */
genomestart 9
trait 1 0.961832 1.000000 0.228413 0.000000 0.000000 0.090351 0.494173 0.944353 
node 1 1 1 1
node 2 1 1 1
node 3 1 1 1
node 4 1 1 1
node 5 1 1 1
node 6 1 1 1
node 7 1 1 1
node 8 1 1 1
node 9 1 1 1
node 10 1 1 1
node 11 1 1 1
node 12 1 1 1
node 13 1 1 1
node 14 1 1 1
node 15 1 1 3
node 16 1 0 2
node 17 1 0 2
node 84 1 0 0
node 144 1 0 0
node 171 1 0 0
node 191 1 0 0
node 220 1 0 0
gene 1 1 16 3.63505 0 1 3.63505 1
gene 1 1 17 5.60857 0 2 5.60857 1
gene 1 2 16 1.51552 0 3 1.51552 1
gene 1 2 17 7.07251 0 4 7.07251 1
gene 1 3 16 1.16735 0 5 1.16735 1
gene 1 3 17 7.84981 0 6 7.84981 1
gene 1 4 16 -2.44409 0 7 -2.44409 1
gene 1 4 17 -5.3669 0 8 -5.3669 0
gene 1 5 16 6.80653 0 9 6.80653 1
gene 1 5 17 -0.845266 0 10 -0.845266 1
gene 1 6 16 7.06013 0 11 7.06013 1
gene 1 6 17 -0.348665 0 12 -0.348665 1
gene 1 7 16 8 0 13 8 0
gene 1 7 17 -1.2381 0 14 -1.2381 1
gene 1 8 16 -1.41357 0 15 -1.41357 1
gene 1 8 17 -0.392858 0 16 -0.392858 1
gene 1 9 16 -5.157 0 17 -5.157 1
gene 1 9 17 -4.88784 0 18 -4.88784 1
gene 1 10 16 4.9558 0 19 4.9558 0
gene 1 10 17 1.56649 0 20 1.56649 1
gene 1 11 16 4.96117 0 21 4.96117 1
gene 1 11 17 -1.97972 0 22 -1.97972 1
gene 1 12 16 4.11065 0 23 4.11065 1
gene 1 12 17 -1.69823 0 24 -1.69823 1
gene 1 13 16 -1.30665 0 25 -1.30665 1
gene 1 13 17 2.10918 0 16 2.10918 1
gene 1 14 16 4.16701 0 17 4.16701 1
gene 1 14 17 8 0 28 8 1
gene 1 15 16 -5.66731 0 29 -5.66731 1
gene 1 15 17 -2.61318 0 30 -2.61318 1
gene 1 1 84 -0.989405 0 254 -0.989405 0
gene 1 84 16 2.80708 0 255 2.80708 1
gene 1 9 84 -5.08766 0 354 -5.08766 0
gene 1 4 84 -0.207623 0 360 -0.207623 1
gene 1 13 84 -1.23278 0 364 -1.23278 1
gene 1 6 84 -5.35127 0 375 -5.35127 1
gene 1 84 17 -2.10648 0 432 -2.10648 1
gene 1 10 144 -0.240414 0 479 -0.240414 1
gene 1 144 16 -1.74982 0 480 -1.74982 1
gene 1 11 84 3.55743 0 574 3.55743 1
gene 1 4 171 -0.761709 0 592 -0.761709 1
gene 1 171 17 2.05472 0 593 2.05472 1
gene 1 6 171 1.41247 0 631 1.41247 1
gene 1 1 191 1.98714 0 656 1.98714 1
gene 1 191 84 0.216187 0 657 0.216187 1
gene 1 11 171 -0.575823 0 674 -0.575823 1
gene 1 9 171 0.524817 0 765 0.524817 1
gene 1 9 220 1 0 781 0 1
gene 1 220 84 -5.08766 0 782 0 1
gene 1 10 220 -0.0749257 0 792 -0.0749257 1
genomeend 9


