/* Organism #90 Fitness: 16.710000 Time: 0 */
genomestart 90
trait 1 0.220819 0.007066 0.147656 0.085087 0.000000 1.000000 0.221807 0.000000 
node 1 1 1 1
node 2 1 1 1
node 3 1 1 1
node 4 1 1 1
node 5 1 1 1
node 6 1 1 1
node 7 1 1 1
node 8 1 1 1
node 9 1 1 1
node 10 1 1 1
node 11 1 1 1
node 12 1 1 1
node 13 1 1 1
node 14 1 1 1
node 15 1 1 3
node 16 1 0 2
node 17 1 0 2
node 24 1 0 0
node 27 1 0 0
node 111 1 0 0
node 146 1 0 0
node 206 1 0 0
node 212 1 0 0
gene 1 1 16 0.0200314 0 1 0.0200314 1
gene 1 1 17 4.6307 0 2 4.6307 1
gene 1 2 16 -0.384334 0 3 -0.384334 1
gene 1 2 17 8 0 4 8 1
gene 1 3 16 -1.06474 0 5 -1.06474 1
gene 1 3 17 2.22359 0 6 2.22359 1
gene 1 4 16 -0.47011 0 7 -0.47011 1
gene 1 4 17 -1.98796 0 8 -1.98796 1
gene 1 5 16 -0.175932 0 9 -0.175932 1
gene 1 5 17 0.808662 0 10 0.808662 1
gene 1 6 16 3.20369 0 11 3.20369 1
gene 1 6 17 -1.74135 0 12 -1.74135 1
gene 1 7 16 -5.60721 0 13 -5.60721 1
gene 1 7 17 -0.0277571 0 14 -0.0277571 1
gene 1 8 16 3.80972 0 15 3.80972 1
gene 1 8 17 -0.362098 0 16 -0.362098 1
gene 1 9 16 -6.26282 0 17 -6.26282 1
gene 1 9 17 -0.745361 0 18 -0.745361 1
gene 1 10 16 3.5117 0 19 3.5117 1
gene 1 10 17 3.49564 0 20 3.49564 0
gene 1 11 16 -5.40537 0 21 -5.40537 1
gene 1 11 17 -4.0574 0 22 -4.0574 1
gene 1 12 16 4.49275 0 23 4.49275 1
gene 1 12 17 3.05242 0 24 3.05242 1
gene 1 13 16 -1.38363 0 25 -1.38363 1
gene 1 13 17 -0.0200257 0 16 -0.0200257 1
gene 1 14 16 1.24207 0 17 1.24207 0
gene 1 14 17 -1.26314 0 28 -1.26314 1
gene 1 15 16 0.717756 0 29 0.717756 1
gene 1 15 17 -4.56405 0 30 -4.56405 1
gene 1 17 16 0.167019 0 32 0.167019 1
gene 1 8 24 -2.03735 0 46 -2.03735 1
gene 1 24 16 -3.73723 0 47 -3.73723 1
gene 1 10 27 -0.293416 0 59 -0.293416 1
gene 1 27 17 0.747955 0 60 0.747955 1
gene 1 2 27 -0.417972 0 98 -0.417972 1
gene 1 4 27 -0.227699 0 173 -0.227699 1
gene 1 3 27 1.13528 0 207 1.13528 1
gene 1 5 24 0.591397 0 341 0.591397 0
gene 1 8 111 1.08942 0 406 1.08942 1
gene 1 111 16 -1.37023 0 407 -1.37023 1
gene 1 1 27 -1.04315 0 440 -1.04315 1
gene 1 11 27 -1.49502 0 507 -1.49502 1
gene 1 14 111 0.347076 0 526 0.347076 1
gene 1 3 146 1.59887 0 533 1.59887 1
gene 1 146 27 0.668255 0 534 0.668255 1
gene 1 8 27 -2.59089 0 539 -2.59089 1
gene 1 9 24 -1.36848 0 572 -1.36848 1
gene 1 14 206 1 0 787 0 1
gene 1 206 16 1.24207 0 788 0 1
gene 1 5 212 1 0 808 0 1
gene 1 212 24 0.591397 0 809 0 1
genomeend 90


