/* Organism #14 Fitness: 14.960000 Time: 0 */
genomestart 14
trait 1 0.447335 0.403719 0.163799 0.373723 0.020651 0.046073 0.031511 0.621771 
node 1 1 1 1
node 2 1 1 1
node 3 1 1 1
node 4 1 1 1
node 5 1 1 1
node 6 1 1 1
node 7 1 1 1
node 8 1 1 1
node 9 1 1 1
node 10 1 1 1
node 11 1 1 1
node 12 1 1 1
node 13 1 1 1
node 14 1 1 1
node 15 1 1 3
node 16 1 0 2
node 17 1 0 2
node 30 1 0 0
node 51 1 0 0
node 92 1 0 0
node 111 1 0 0
node 122 1 0 0
node 127 1 0 0
node 137 1 0 0
node 173 1 0 0
node 186 1 0 0
node 190 1 0 0
node 195 1 0 0
node 212 1 0 0
node 237 1 0 0
gene 1 1 16 4.65181 0 1 4.65181 1
gene 1 1 17 1.85386 0 2 1.85386 1
gene 1 2 16 -2.29646 0 3 -2.29646 1
gene 1 2 17 8 0 4 8 1
gene 1 3 16 -3.57013 0 5 -3.57013 1
gene 1 3 17 2.67788 0 6 2.67788 1
gene 1 4 16 2.84403 0 7 2.84403 1
gene 1 4 17 -3.67817 0 8 -3.67817 1
gene 1 5 16 -6.71873 0 9 -6.71873 0
gene 1 5 17 3.92547 0 10 3.92547 1
gene 1 6 16 3.38904 0 11 3.38904 1
gene 1 6 17 -0.377399 0 12 -0.377399 1
gene 1 7 16 1.39244 0 13 1.39244 1
gene 1 7 17 3.12865 0 14 3.12865 1
gene 1 8 16 2.25241 0 15 2.25241 1
gene 1 8 17 2.42322 0 16 2.42322 1
gene 1 9 16 -3.42206 0 17 -3.42206 1
gene 1 9 17 -2.84303 0 18 -2.84303 1
gene 1 10 16 3.75406 0 19 3.75406 1
gene 1 10 17 -1.83386 0 20 -1.83386 1
gene 1 11 16 -0.170009 0 21 -0.170009 1
gene 1 11 17 -8 0 22 -8 1
gene 1 12 16 0.446321 0 23 0.446321 1
gene 1 12 17 -2.62353 0 24 -2.62353 1
gene 1 13 16 -3.02805 0 25 -3.02805 1
gene 1 13 17 -3.37965 0 16 -3.37965 1
gene 1 14 16 -4.0083 0 17 -4.0083 1
gene 1 14 17 0.7447 0 28 0.7447 1
gene 1 15 16 -0.47249 0 29 -0.47249 1
gene 1 15 17 -3.74587 0 30 -3.74587 1
gene 1 1 30 3.32536 0 65 3.32536 1
gene 1 30 16 -4.23683 0 66 -4.23683 1
gene 1 30 51 -0.063435 0 126 -0.063435 1
gene 1 51 16 -2.40252 0 127 -2.40252 1
gene 1 4 51 -0.573675 0 136 -0.573675 1
gene 1 12 51 -1.34213 0 179 -1.34213 1
gene 1 5 92 -0.104663 0 267 -0.104663 1
gene 1 92 16 -2.00067 0 268 -2.00067 1
gene 1 7 51 -0.0666456 0 289 -0.0666456 1
gene 1 1 111 4.92815 0 343 4.92815 1
gene 1 111 16 0.646891 0 344 0.646891 1
gene 1 4 122 2.91933 0 370 2.91933 1
gene 1 122 51 -1.08014 0 371 -1.08014 1
gene 1 9 127 2.79001 0 387 2.79001 1
gene 1 127 16 -1.41125 0 388 -1.41125 0
gene 1 111 17 2.08953 0 418 2.08953 1
gene 1 17 16 1.31261 0 427 1.31261 0
gene 1 12 137 1.33236 0 433 1.33236 1
gene 1 137 51 -2.59146 0 434 -2.59146 1
gene 1 17 92 -0.214229 0 447 -0.214229 1
gene 1 11 173 -0.535433 0 539 -0.535433 1
gene 1 173 16 2.32013 0 540 2.32013 1
gene 1 30 111 -1.41779 0 568 -1.41779 1
gene 1 12 127 -3.54285 0 580 -3.54285 1
gene 1 3 186 -0.0612994 0 595 -0.0612994 1
gene 1 186 17 1.51754 0 596 1.51754 1
gene 1 5 190 1 0 613 1 1
gene 1 190 16 -0.438682 0 614 -0.438682 1
gene 1 173 30 3.37609 0 628 3.37609 1
gene 1 190 195 2.36944 0 635 2.36944 1
gene 1 195 16 -6.39103 0 636 -6.39103 1
gene 1 111 190 0.301667 0 660 0.301667 1
gene 1 195 137 0.403686 0 706 0.403686 1
gene 1 127 212 -0.0624386 0 718 -0.562439 1
gene 1 212 16 -2.64446 0 719 -1.32223 1
gene 1 127 92 0.5004 0 750 0.5004 1
gene 1 17 237 1 0 796 0 1
gene 1 237 16 1.31261 0 797 0 1
genomeend 14


