/*Fitness: -131991*/
genomestart 1
node 1 0 1 1
node 2 0 1 1
node 3 0 1 1
node 4 0 1 1
node 5 0 1 1
node 6 0 1 1
node 7 0 1 1
node 8 0 1 1
node 9 0 1 1
node 10 0 1 1
node 11 0 1 1
node 12 0 1 1
node 13 0 1 1
node 14 0 1 1
node 15 0 1 3
node 16 0 0 2
node 17 0 0 2
gene 0 1 16 -2.24259 0 0 1 1
gene 0 2 16 3.78841 0 0 1 1
gene 0 3 16 3.64086 0 0 1 1
gene 0 4 16 -2.34413 0 0 1 1
gene 0 5 16 0.599308 0 0 1 1
gene 0 6 16 -1.99829 0 0 1 1
gene 0 7 16 3.22615 0 0 1 1
gene 0 8 16 -2.70769 0 0 1 1
gene 0 9 16 0.959077 0 0 1 1
gene 0 10 16 0.0954218 0 0 1 1
gene 0 11 16 -3.82002 0 0 1 1
gene 0 12 16 4.64056 0 0 1 1
gene 0 13 16 4.05312 0 0 1 1
gene 0 14 16 -3.54762 0 0 1 1
gene 0 15 16 0.33295 0 0 1 1
gene 0 1 17 0.326074 0 0 1 1
gene 0 2 17 -1.88348 0 0 1 1
gene 0 3 17 2.04007 0 0 1 1
gene 0 4 17 2.83858 0 0 1 1
gene 0 5 17 2.91557 0 0 1 1
gene 0 6 17 -1.91046 0 0 1 1
gene 0 7 17 -1.38739 0 0 1 1
gene 0 8 17 3.28611 0 0 1 1
gene 0 9 17 1.14994 0 0 1 1
gene 0 10 17 -0.494602 0 0 1 1
gene 0 11 17 -2.84249 0 0 1 1
gene 0 12 17 -3.87645 0 0 1 1
gene 0 13 17 3.58088 0 0 1 1
gene 0 14 17 -0.732662 0 0 1 1
gene 0 15 17 0.877712 0 0 1 1
genomeend 1
