/*Fitness: -130554*/
genomestart 1
node 1 0 1 1
node 2 0 1 1
node 3 0 1 1
node 4 0 1 1
node 5 0 1 1
node 6 0 1 1
node 7 0 1 1
node 8 0 1 1
node 9 0 1 1
node 10 0 1 1
node 11 0 1 1
node 12 0 1 1
node 13 0 1 1
node 14 0 1 1
node 15 0 1 3
node 16 0 0 2
node 17 0 0 2
gene 0 1 16 -4.12194 0 0 1 1
gene 0 2 16 -0.74093 0 0 1 1
gene 0 3 16 4.06195 0 0 1 1
gene 0 4 16 -2.18085 0 0 1 1
gene 0 5 16 -1.87756 0 0 1 1
gene 0 6 16 -1.20139 0 0 1 1
gene 0 7 16 -1.91554 0 0 1 1
gene 0 8 16 -4.38556 0 0 1 1
gene 0 9 16 0.500462 0 0 1 1
gene 0 10 16 -0.0671943 0 0 1 1
gene 0 11 16 -3.03442 0 0 1 1
gene 0 12 16 5 0 0 1 1
gene 0 13 16 4.1131 0 0 1 1
gene 0 14 16 -4.01633 0 0 1 1
gene 0 15 16 0.584311 0 0 1 1
gene 0 1 17 -0.340219 0 0 1 1
gene 0 2 17 1.96334 0 0 1 1
gene 0 3 17 -0.45211 0 0 1 1
gene 0 4 17 2.23491 0 0 1 1
gene 0 5 17 3.64038 0 0 1 1
gene 0 6 17 -3.07632 0 0 1 1
gene 0 7 17 3.03062 0 0 1 1
gene 0 8 17 1.91132 0 0 1 1
gene 0 9 17 1.815 0 0 1 1
gene 0 10 17 0.264501 0 0 1 1
gene 0 11 17 0.392103 0 0 1 1
gene 0 12 17 4.20909 0 0 1 1
gene 0 13 17 1.42228 0 0 1 1
gene 0 14 17 3.45004 0 0 1 1
gene 0 15 17 1.43399 0 0 1 1
genomeend 1
