/*Fitness: -131472*/
genomestart 1
node 1 0 1 1
node 2 0 1 1
node 3 0 1 1
node 4 0 1 1
node 5 0 1 1
node 6 0 1 1
node 7 0 1 1
node 8 0 1 1
node 9 0 1 1
node 10 0 1 1
node 11 0 1 1
node 12 0 1 1
node 13 0 1 1
node 14 0 1 1
node 15 0 1 3
node 16 0 0 2
node 17 0 0 2
gene 0 1 16 -3.69457 0 0 1 1
gene 0 2 16 2.42246 0 0 1 1
gene 0 3 16 4.71133 0 0 1 1
gene 0 4 16 0.339315 0 0 1 1
gene 0 5 16 -2.51666 0 0 1 1
gene 0 6 16 2.91253 0 0 1 1
gene 0 7 16 -0.656499 0 0 1 1
gene 0 8 16 -0.820325 0 0 1 1
gene 0 9 16 -0.912969 0 0 1 1
gene 0 10 16 -0.503117 0 0 1 1
gene 0 11 16 -4.8063 0 0 1 1
gene 0 12 16 2.23486 0 0 1 1
gene 0 13 16 3.93145 0 0 1 1
gene 0 14 16 -4.5475 0 0 1 1
gene 0 15 16 -0.336976 0 0 1 1
gene 0 1 17 -1.90842 0 0 1 1
gene 0 2 17 -3.0451 0 0 1 1
gene 0 3 17 -0.20892 0 0 1 1
gene 0 4 17 -0.752849 0 0 1 1
gene 0 5 17 -4.44806 0 0 1 1
gene 0 6 17 -1.43433 0 0 1 1
gene 0 7 17 1.32049 0 0 1 1
gene 0 8 17 1.15529 0 0 1 1
gene 0 9 17 -0.792737 0 0 1 1
gene 0 10 17 0.454718 0 0 1 1
gene 0 11 17 -1.61977 0 0 1 1
gene 0 12 17 -0.279288 0 0 1 1
gene 0 13 17 -1.51619 0 0 1 1
gene 0 14 17 1.79648 0 0 1 1
gene 0 15 17 -3.59252 0 0 1 1
genomeend 1
