/*Fitness: -133491*/
genomestart 1
node 1 0 1 1
node 2 0 1 1
node 3 0 1 1
node 4 0 1 1
node 5 0 1 1
node 6 0 1 1
node 7 0 1 1
node 8 0 1 1
node 9 0 1 1
node 10 0 1 1
node 11 0 1 1
node 12 0 1 1
node 13 0 1 1
node 14 0 1 1
node 15 0 1 3
node 16 0 0 2
node 17 0 0 2
gene 0 1 16 1.33218 0 0 1 1
gene 0 2 16 -1.0636 0 0 1 1
gene 0 3 16 -2.10065 0 0 1 1
gene 0 4 16 -1.03703 0 0 1 1
gene 0 5 16 -0.237951 0 0 1 1
gene 0 6 16 0.553985 0 0 1 1
gene 0 7 16 3.15653 0 0 1 1
gene 0 8 16 2.70897 0 0 1 1
gene 0 9 16 0.127349 0 0 1 1
gene 0 10 16 1.26527 0 0 1 1
gene 0 11 16 3.32194 0 0 1 1
gene 0 12 16 4.2113 0 0 1 1
gene 0 13 16 -2.89612 0 0 1 1
gene 0 14 16 -2.79141 0 0 1 1
gene 0 15 16 3.0705 0 0 1 1
gene 0 1 17 -3.42059 0 0 1 1
gene 0 2 17 3.30228 0 0 1 1
gene 0 3 17 1.50053 0 0 1 1
gene 0 4 17 -2.74379 0 0 1 1
gene 0 5 17 2.7359 0 0 1 1
gene 0 6 17 2.80958 0 0 1 1
gene 0 7 17 -1.10594 0 0 1 1
gene 0 8 17 -2.54819 0 0 1 1
gene 0 9 17 1.17187 0 0 1 1
gene 0 10 17 -0.0745066 0 0 1 1
gene 0 11 17 -4.52936 0 0 1 1
gene 0 12 17 4.5807 0 0 1 1
gene 0 13 17 3.97379 0 0 1 1
gene 0 14 17 -1.55701 0 0 1 1
gene 0 15 17 0.415244 0 0 1 1
genomeend 1
