/*Fitness: -132183*/
genomestart 1
node 1 0 1 1
node 2 0 1 1
node 3 0 1 1
node 4 0 1 1
node 5 0 1 1
node 6 0 1 1
node 7 0 1 1
node 8 0 1 1
node 9 0 1 1
node 10 0 1 1
node 11 0 1 1
node 12 0 1 1
node 13 0 1 1
node 14 0 1 1
node 15 0 1 3
node 16 0 0 2
node 17 0 0 2
gene 0 1 16 -0.439604 0 0 1 1
gene 0 2 16 0.28512 0 0 1 1
gene 0 3 16 0.382182 0 0 1 1
gene 0 4 16 4.21225 0 0 1 1
gene 0 5 16 -1.03479 0 0 1 1
gene 0 6 16 -0.973031 0 0 1 1
gene 0 7 16 1.34616 0 0 1 1
gene 0 8 16 -0.312502 0 0 1 1
gene 0 9 16 -2.51302 0 0 1 1
gene 0 10 16 2.58499 0 0 1 1
gene 0 11 16 1.52383 0 0 1 1
gene 0 12 16 0.344145 0 0 1 1
gene 0 13 16 -2.06665 0 0 1 1
gene 0 14 16 0.974341 0 0 1 1
gene 0 15 16 -2.74546 0 0 1 1
gene 0 1 17 -1.05354 0 0 1 1
gene 0 2 17 3.59237 0 0 1 1
gene 0 3 17 3.06095 0 0 1 1
gene 0 4 17 -4.04612 0 0 1 1
gene 0 5 17 -2.70277 0 0 1 1
gene 0 6 17 1.53262 0 0 1 1
gene 0 7 17 -0.134248 0 0 1 1
gene 0 8 17 -1.39868 0 0 1 1
gene 0 9 17 -1.35962 0 0 1 1
gene 0 10 17 -1.53297 0 0 1 1
gene 0 11 17 -4.523 0 0 1 1
gene 0 12 17 4.57859 0 0 1 1
gene 0 13 17 4.09242 0 0 1 1
gene 0 14 17 -4.02658 0 0 1 1
gene 0 15 17 -0.0747838 0 0 1 1
genomeend 1
