/*Fitness: -132235*/
genomestart 1
node 1 0 1 1
node 2 0 1 1
node 3 0 1 1
node 4 0 1 1
node 5 0 1 1
node 6 0 1 1
node 7 0 1 1
node 8 0 1 1
node 9 0 1 1
node 10 0 1 1
node 11 0 1 1
node 12 0 1 1
node 13 0 1 1
node 14 0 1 1
node 15 0 1 3
node 16 0 0 2
node 17 0 0 2
gene 0 1 16 -0.573231 0 0 1 1
gene 0 2 16 -0.129014 0 0 1 1
gene 0 3 16 2.42806 0 0 1 1
gene 0 4 16 2.31912 0 0 1 1
gene 0 5 16 -2.44817 0 0 1 1
gene 0 6 16 1.80052 0 0 1 1
gene 0 7 16 -0.696022 0 0 1 1
gene 0 8 16 1.82252 0 0 1 1
gene 0 9 16 -3.75689 0 0 1 1
gene 0 10 16 -4.57268 0 0 1 1
gene 0 11 16 -2.0867 0 0 1 1
gene 0 12 16 -3.37455 0 0 1 1
gene 0 13 16 0.885374 0 0 1 1
gene 0 14 16 -0.31116 0 0 1 1
gene 0 15 16 -2.30992 0 0 1 1
gene 0 1 17 -0.196657 0 0 1 1
gene 0 2 17 3.99749 0 0 1 1
gene 0 3 17 4.14493 0 0 1 1
gene 0 4 17 -2.67369 0 0 1 1
gene 0 5 17 1.73823 0 0 1 1
gene 0 6 17 4.60117 0 0 1 1
gene 0 7 17 3.1995 0 0 1 1
gene 0 8 17 2.58933 0 0 1 1
gene 0 9 17 -0.802905 0 0 1 1
gene 0 10 17 0.0723631 0 0 1 1
gene 0 11 17 -2.92264 0 0 1 1
gene 0 12 17 4.61763 0 0 1 1
gene 0 13 17 2.84941 0 0 1 1
gene 0 14 17 -5 0 0 1 1
gene 0 15 17 -0.501848 0 0 1 1
genomeend 1
