/*Fitness: -133266*/
genomestart 1
node 1 0 1 1
node 2 0 1 1
node 3 0 1 1
node 4 0 1 1
node 5 0 1 1
node 6 0 1 1
node 7 0 1 1
node 8 0 1 1
node 9 0 1 1
node 10 0 1 1
node 11 0 1 1
node 12 0 1 1
node 13 0 1 1
node 14 0 1 1
node 15 0 1 3
node 16 0 0 2
node 17 0 0 2
gene 0 1 16 -0.281114 0 0 1 1
gene 0 2 16 -0.439367 0 0 1 1
gene 0 3 16 -2.17501 0 0 1 1
gene 0 4 16 -0.648112 0 0 1 1
gene 0 5 16 2.20292 0 0 1 1
gene 0 6 16 -1.6686 0 0 1 1
gene 0 7 16 1.49432 0 0 1 1
gene 0 8 16 -2.85311 0 0 1 1
gene 0 9 16 1.47204 0 0 1 1
gene 0 10 16 0.606752 0 0 1 1
gene 0 11 16 3.35379 0 0 1 1
gene 0 12 16 -0.956334 0 0 1 1
gene 0 13 16 -2.24837 0 0 1 1
gene 0 14 16 1.85939 0 0 1 1
gene 0 15 16 3.68601 0 0 1 1
gene 0 1 17 -3.29526 0 0 1 1
gene 0 2 17 3.37372 0 0 1 1
gene 0 3 17 -3.01399 0 0 1 1
gene 0 4 17 -1.5748 0 0 1 1
gene 0 5 17 -0.39517 0 0 1 1
gene 0 6 17 -0.0649117 0 0 1 1
gene 0 7 17 -1.99133 0 0 1 1
gene 0 8 17 -3.88421 0 0 1 1
gene 0 9 17 -0.576038 0 0 1 1
gene 0 10 17 0.178869 0 0 1 1
gene 0 11 17 -4.15033 0 0 1 1
gene 0 12 17 2.46344 0 0 1 1
gene 0 13 17 5 0 0 1 1
gene 0 14 17 -3.47363 0 0 1 1
gene 0 15 17 1.13642 0 0 1 1
genomeend 1
