/*Fitness: -132436*/
genomestart 1
node 1 0 1 1
node 2 0 1 1
node 3 0 1 1
node 4 0 1 1
node 5 0 1 1
node 6 0 1 1
node 7 0 1 1
node 8 0 1 1
node 9 0 1 1
node 10 0 1 1
node 11 0 1 1
node 12 0 1 1
node 13 0 1 1
node 14 0 1 1
node 15 0 1 3
node 16 0 0 2
node 17 0 0 2
gene 0 1 16 -4.03981 0 0 1 1
gene 0 2 16 0.722477 0 0 1 1
gene 0 3 16 4.38953 0 0 1 1
gene 0 4 16 -0.105264 0 0 1 1
gene 0 5 16 -0.185331 0 0 1 1
gene 0 6 16 1.63168 0 0 1 1
gene 0 7 16 -1.61819 0 0 1 1
gene 0 8 16 2.41441 0 0 1 1
gene 0 9 16 0.841437 0 0 1 1
gene 0 10 16 -0.533845 0 0 1 1
gene 0 11 16 -4.74378 0 0 1 1
gene 0 12 16 2.34848 0 0 1 1
gene 0 13 16 4.35001 0 0 1 1
gene 0 14 16 -4.17432 0 0 1 1
gene 0 15 16 -1.03772 0 0 1 1
gene 0 1 17 0.809077 0 0 1 1
gene 0 2 17 -1.29889 0 0 1 1
gene 0 3 17 -1.38908 0 0 1 1
gene 0 4 17 -3.34291 0 0 1 1
gene 0 5 17 -1.28636 0 0 1 1
gene 0 6 17 -2.09165 0 0 1 1
gene 0 7 17 2.4839 0 0 1 1
gene 0 8 17 3.62265 0 0 1 1
gene 0 9 17 -1.66796 0 0 1 1
gene 0 10 17 -2.73375 0 0 1 1
gene 0 11 17 3.52313 0 0 1 1
gene 0 12 17 2.46057 0 0 1 1
gene 0 13 17 -2.66194 0 0 1 1
gene 0 14 17 -2.52163 0 0 1 1
gene 0 15 17 -5 0 0 1 1
genomeend 1
