/*Fitness: 11.7*/
genomestart 1
node 1 0 1 1
node 2 0 1 1
node 3 0 1 1
node 4 0 1 1
node 5 0 1 1
node 6 0 1 1
node 7 0 1 1
node 8 0 1 1
node 9 0 1 1
node 10 0 1 1
node 11 0 1 1
node 12 0 1 1
node 13 0 1 1
node 14 0 1 1
node 15 0 1 3
node 16 0 0 2
node 17 0 0 2
gene 0 1 16 3.57765 0 0 1 1
gene 0 2 16 1.73374 0 0 1 1
gene 0 3 16 4.43127 0 0 1 1
gene 0 4 16 -1.86277 0 0 1 1
gene 0 5 16 3.50424 0 0 1 1
gene 0 6 16 3.78163 0 0 1 1
gene 0 7 16 1.29372 0 0 1 1
gene 0 8 16 3.01888 0 0 1 1
gene 0 9 16 3.13618 0 0 1 1
gene 0 10 16 -1.09829 0 0 1 1
gene 0 11 16 -0.59679 0 0 1 1
gene 0 12 16 1.97094 0 0 1 1
gene 0 13 16 4.10461 0 0 1 1
gene 0 14 16 -4.97012 0 0 1 1
gene 0 15 16 3.97996 0 0 1 1
gene 0 1 17 -4.18035 0 0 1 1
gene 0 2 17 -4.31364 0 0 1 1
gene 0 3 17 4.85554 0 0 1 1
gene 0 4 17 -1.98869 0 0 1 1
gene 0 5 17 3.23572 0 0 1 1
gene 0 6 17 -4.22309 0 0 1 1
gene 0 7 17 0.552737 0 0 1 1
gene 0 8 17 -0.740888 0 0 1 1
gene 0 9 17 -1.23219 0 0 1 1
gene 0 10 17 2.12859 0 0 1 1
gene 0 11 17 3.00332 0 0 1 1
gene 0 12 17 0.915273 0 0 1 1
gene 0 13 17 0.865416 0 0 1 1
gene 0 14 17 3.57238 0 0 1 1
gene 0 15 17 3.57037 0 0 1 1
genomeend 1
