/*Fitness: 14.4*/
genomestart 1
node 1 0 1 1
node 2 0 1 1
node 3 0 1 1
node 4 0 1 1
node 5 0 1 1
node 6 0 1 1
node 7 0 1 1
node 8 0 1 1
node 9 0 1 1
node 10 0 1 1
node 11 0 1 1
node 12 0 1 1
node 13 0 1 1
node 14 0 1 1
node 15 0 1 3
node 16 0 0 2
node 17 0 0 2
gene 0 1 16 -3.50788 0 0 1 1
gene 0 2 16 0.39982 0 0 1 1
gene 0 3 16 1.68298 0 0 1 1
gene 0 4 16 -3.43012 0 0 1 1
gene 0 5 16 1.43458 0 0 1 1
gene 0 6 16 1.25157 0 0 1 1
gene 0 7 16 -0.405897 0 0 1 1
gene 0 8 16 2.44894 0 0 1 1
gene 0 9 16 4.59956 0 0 1 1
gene 0 10 16 3.75904 0 0 1 1
gene 0 11 16 3.28999 0 0 1 1
gene 0 12 16 -0.210319 0 0 1 1
gene 0 13 16 -0.960596 0 0 1 1
gene 0 14 16 -2.16719 0 0 1 1
gene 0 15 16 -1.92146 0 0 1 1
gene 0 1 17 -1.4961 0 0 1 1
gene 0 2 17 0.497902 0 0 1 1
gene 0 3 17 2.79043 0 0 1 1
gene 0 4 17 3.64587 0 0 1 1
gene 0 5 17 1.42889 0 0 1 1
gene 0 6 17 1.2354 0 0 1 1
gene 0 7 17 2.49443 0 0 1 1
gene 0 8 17 0.245279 0 0 1 1
gene 0 9 17 2.3436 0 0 1 1
gene 0 10 17 1.65057 0 0 1 1
gene 0 11 17 -1.65331 0 0 1 1
gene 0 12 17 1.95345 0 0 1 1
gene 0 13 17 -1.51227 0 0 1 1
gene 0 14 17 -0.726674 0 0 1 1
gene 0 15 17 1.22539 0 0 1 1
genomeend 1
