/*Fitness: 12.2*/
genomestart 1
node 1 0 1 1
node 2 0 1 1
node 3 0 1 1
node 4 0 1 1
node 5 0 1 1
node 6 0 1 1
node 7 0 1 1
node 8 0 1 1
node 9 0 1 1
node 10 0 1 1
node 11 0 1 1
node 12 0 1 1
node 13 0 1 1
node 14 0 1 1
node 15 0 1 3
node 16 0 0 2
node 17 0 0 2
gene 0 1 16 1.65773 0 0 1 1
gene 0 2 16 3.69777 0 0 1 1
gene 0 3 16 4.13283 0 0 1 1
gene 0 4 16 -3.00595 0 0 1 1
gene 0 5 16 3.4096 0 0 1 1
gene 0 6 16 0.866834 0 0 1 1
gene 0 7 16 3.34011 0 0 1 1
gene 0 8 16 3.16259 0 0 1 1
gene 0 9 16 3.0274 0 0 1 1
gene 0 10 16 3.60909 0 0 1 1
gene 0 11 16 -0.925699 0 0 1 1
gene 0 12 16 4.01622 0 0 1 1
gene 0 13 16 1.85992 0 0 1 1
gene 0 14 16 -4.14551 0 0 1 1
gene 0 15 16 1.76304 0 0 1 1
gene 0 1 17 -3.2311 0 0 1 1
gene 0 2 17 -3.86237 0 0 1 1
gene 0 3 17 3.64064 0 0 1 1
gene 0 4 17 -2.39387 0 0 1 1
gene 0 5 17 4.08988 0 0 1 1
gene 0 6 17 -4.04002 0 0 1 1
gene 0 7 17 1.29009 0 0 1 1
gene 0 8 17 0.236031 0 0 1 1
gene 0 9 17 -0.283421 0 0 1 1
gene 0 10 17 2.13574 0 0 1 1
gene 0 11 17 2.7709 0 0 1 1
gene 0 12 17 -0.487407 0 0 1 1
gene 0 13 17 3.74329 0 0 1 1
gene 0 14 17 3.90325 0 0 1 1
gene 0 15 17 1.73302 0 0 1 1
genomeend 1
