/*Fitness: 15.5*/
genomestart 1
node 1 0 1 1
node 2 0 1 1
node 3 0 1 1
node 4 0 1 1
node 5 0 1 1
node 6 0 1 1
node 7 0 1 1
node 8 0 1 1
node 9 0 1 1
node 10 0 1 1
node 11 0 1 1
node 12 0 1 1
node 13 0 1 1
node 14 0 1 1
node 15 0 1 3
node 16 0 0 2
node 17 0 0 2
gene 0 1 16 0.870394 0 0 1 1
gene 0 2 16 -2.22121 0 0 1 1
gene 0 3 16 0.090275 0 0 1 1
gene 0 4 16 -5 0 0 1 1
gene 0 5 16 -1.28943 0 0 1 1
gene 0 6 16 -3.13662 0 0 1 1
gene 0 7 16 0.211815 0 0 1 1
gene 0 8 16 1.9311 0 0 1 1
gene 0 9 16 -1.77268 0 0 1 1
gene 0 10 16 -1.29105 0 0 1 1
gene 0 11 16 -2.21394 0 0 1 1
gene 0 12 16 4.1444 0 0 1 1
gene 0 13 16 2.88413 0 0 1 1
gene 0 14 16 -3.98928 0 0 1 1
gene 0 15 16 -2.9103 0 0 1 1
gene 0 1 17 -0.753712 0 0 1 1
gene 0 2 17 4.9308 0 0 1 1
gene 0 3 17 4.89532 0 0 1 1
gene 0 4 17 -2.66422 0 0 1 1
gene 0 5 17 1.01643 0 0 1 1
gene 0 6 17 -1.00157 0 0 1 1
gene 0 7 17 3.92687 0 0 1 1
gene 0 8 17 0.664853 0 0 1 1
gene 0 9 17 -0.452547 0 0 1 1
gene 0 10 17 -2.67511 0 0 1 1
gene 0 11 17 1.28521 0 0 1 1
gene 0 12 17 -0.10979 0 0 1 1
gene 0 13 17 -4.00713 0 0 1 1
gene 0 14 17 -0.806367 0 0 1 1
gene 0 15 17 -2.33562 0 0 1 1
genomeend 1
