/*Fitness: 13.1*/
genomestart 1
node 1 0 1 1
node 2 0 1 1
node 3 0 1 1
node 4 0 1 1
node 5 0 1 1
node 6 0 1 1
node 7 0 1 1
node 8 0 1 1
node 9 0 1 1
node 10 0 1 1
node 11 0 1 1
node 12 0 1 1
node 13 0 1 1
node 14 0 1 1
node 15 0 1 3
node 16 0 0 2
node 17 0 0 2
gene 0 1 16 -3.89985 0 0 1 1
gene 0 2 16 -3.71019 0 0 1 1
gene 0 3 16 -2.4689 0 0 1 1
gene 0 4 16 2.89249 0 0 1 1
gene 0 5 16 -2.49656 0 0 1 1
gene 0 6 16 3.28952 0 0 1 1
gene 0 7 16 3.61056 0 0 1 1
gene 0 8 16 -3.15655 0 0 1 1
gene 0 9 16 -3.9529 0 0 1 1
gene 0 10 16 -1.07299 0 0 1 1
gene 0 11 16 -0.466618 0 0 1 1
gene 0 12 16 0.928064 0 0 1 1
gene 0 13 16 1.64542 0 0 1 1
gene 0 14 16 -1.4979 0 0 1 1
gene 0 15 16 -2.12049 0 0 1 1
gene 0 1 17 -1.16374 0 0 1 1
gene 0 2 17 4.47019 0 0 1 1
gene 0 3 17 4.03437 0 0 1 1
gene 0 4 17 -3.67091 0 0 1 1
gene 0 5 17 -1.4196 0 0 1 1
gene 0 6 17 3.31383 0 0 1 1
gene 0 7 17 -3.44139 0 0 1 1
gene 0 8 17 4.25155 0 0 1 1
gene 0 9 17 3.34408 0 0 1 1
gene 0 10 17 -0.94787 0 0 1 1
gene 0 11 17 -2.19865 0 0 1 1
gene 0 12 17 -4.54029 0 0 1 1
gene 0 13 17 -2.38497 0 0 1 1
gene 0 14 17 -0.860751 0 0 1 1
gene 0 15 17 -2.89629 0 0 1 1
genomeend 1
