/*Fitness: 16*/
genomestart 1
node 1 0 1 1
node 2 0 1 1
node 3 0 1 1
node 4 0 1 1
node 5 0 1 1
node 6 0 1 1
node 7 0 1 1
node 8 0 1 1
node 9 0 1 1
node 10 0 1 1
node 11 0 1 1
node 12 0 1 1
node 13 0 1 1
node 14 0 1 1
node 15 0 1 3
node 16 0 0 2
node 17 0 0 2
gene 0 1 16 0.98597 0 0 1 1
gene 0 2 16 -4.3988 0 0 1 1
gene 0 3 16 -4.42629 0 0 1 1
gene 0 4 16 1.68527 0 0 1 1
gene 0 5 16 1.35636 0 0 1 1
gene 0 6 16 -3.66686 0 0 1 1
gene 0 7 16 0.252971 0 0 1 1
gene 0 8 16 2.30612 0 0 1 1
gene 0 9 16 -0.120364 0 0 1 1
gene 0 10 16 1.43365 0 0 1 1
gene 0 11 16 -2.89432 0 0 1 1
gene 0 12 16 3.73411 0 0 1 1
gene 0 13 16 1.11097 0 0 1 1
gene 0 14 16 -3.20386 0 0 1 1
gene 0 15 16 -3.30002 0 0 1 1
gene 0 1 17 -1.47131 0 0 1 1
gene 0 2 17 4.95228 0 0 1 1
gene 0 3 17 4.88656 0 0 1 1
gene 0 4 17 -1.81457 0 0 1 1
gene 0 5 17 0.300395 0 0 1 1
gene 0 6 17 -2.75615 0 0 1 1
gene 0 7 17 4.15504 0 0 1 1
gene 0 8 17 0.447197 0 0 1 1
gene 0 9 17 -1.07683 0 0 1 1
gene 0 10 17 -3.9274 0 0 1 1
gene 0 11 17 0.72791 0 0 1 1
gene 0 12 17 1.63887 0 0 1 1
gene 0 13 17 -3.00982 0 0 1 1
gene 0 14 17 0.291916 0 0 1 1
gene 0 15 17 -1.80328 0 0 1 1
genomeend 1
