/*Fitness: 15.2*/
genomestart 1
node 1 0 1 1
node 2 0 1 1
node 3 0 1 1
node 4 0 1 1
node 5 0 1 1
node 6 0 1 1
node 7 0 1 1
node 8 0 1 1
node 9 0 1 1
node 10 0 1 1
node 11 0 1 1
node 12 0 1 1
node 13 0 1 1
node 14 0 1 1
node 15 0 1 3
node 16 0 0 2
node 17 0 0 2
gene 0 1 16 0.747859 0 0 1 1
gene 0 2 16 -0.688382 0 0 1 1
gene 0 3 16 -2.50984 0 0 1 1
gene 0 4 16 2.85933 0 0 1 1
gene 0 5 16 -1.09787 0 0 1 1
gene 0 6 16 -4.75011 0 0 1 1
gene 0 7 16 -1.75724 0 0 1 1
gene 0 8 16 -4.16393 0 0 1 1
gene 0 9 16 -2.97658 0 0 1 1
gene 0 10 16 0.699397 0 0 1 1
gene 0 11 16 0.0573384 0 0 1 1
gene 0 12 16 2.10377 0 0 1 1
gene 0 13 16 2.50322 0 0 1 1
gene 0 14 16 -1.94511 0 0 1 1
gene 0 15 16 -3.06767 0 0 1 1
gene 0 1 17 1.04278 0 0 1 1
gene 0 2 17 3.71998 0 0 1 1
gene 0 3 17 3.85691 0 0 1 1
gene 0 4 17 -3.26988 0 0 1 1
gene 0 5 17 -1.55354 0 0 1 1
gene 0 6 17 -4.89538 0 0 1 1
gene 0 7 17 -2.87971 0 0 1 1
gene 0 8 17 -3.49765 0 0 1 1
gene 0 9 17 -4.54412 0 0 1 1
gene 0 10 17 -3.106 0 0 1 1
gene 0 11 17 1.5244 0 0 1 1
gene 0 12 17 2.90946 0 0 1 1
gene 0 13 17 -4.16845 0 0 1 1
gene 0 14 17 0.0960892 0 0 1 1
gene 0 15 17 4.57742 0 0 1 1
genomeend 1
