/*Fitness: 15.9*/
genomestart 1
node 1 0 1 1
node 2 0 1 1
node 3 0 1 1
node 4 0 1 1
node 5 0 1 1
node 6 0 1 1
node 7 0 1 1
node 8 0 1 1
node 9 0 1 1
node 10 0 1 1
node 11 0 1 1
node 12 0 1 1
node 13 0 1 1
node 14 0 1 1
node 15 0 1 3
node 16 0 0 2
node 17 0 0 2
gene 0 1 16 -3.99504 0 0 1 1
gene 0 2 16 5 0 0 1 1
gene 0 3 16 4.14541 0 0 1 1
gene 0 4 16 -4.17447 0 0 1 1
gene 0 5 16 -3.63332 0 0 1 1
gene 0 6 16 1.54556 0 0 1 1
gene 0 7 16 -0.107477 0 0 1 1
gene 0 8 16 1.11111 0 0 1 1
gene 0 9 16 -3.24929 0 0 1 1
gene 0 10 16 0.876905 0 0 1 1
gene 0 11 16 4.50438 0 0 1 1
gene 0 12 16 2.16917 0 0 1 1
gene 0 13 16 -3.07339 0 0 1 1
gene 0 14 16 3.18787 0 0 1 1
gene 0 15 16 4.06404 0 0 1 1
gene 0 1 17 4.45033 0 0 1 1
gene 0 2 17 -2.27373 0 0 1 1
gene 0 3 17 4.13949 0 0 1 1
gene 0 4 17 5 0 0 1 1
gene 0 5 17 0.997103 0 0 1 1
gene 0 6 17 -3.79015 0 0 1 1
gene 0 7 17 2.92837 0 0 1 1
gene 0 8 17 3.67137 0 0 1 1
gene 0 9 17 1.29812 0 0 1 1
gene 0 10 17 -2.58999 0 0 1 1
gene 0 11 17 -3.38422 0 0 1 1
gene 0 12 17 4.3817 0 0 1 1
gene 0 13 17 3.35504 0 0 1 1
gene 0 14 17 -5 0 0 1 1
gene 0 15 17 4.20105 0 0 1 1
genomeend 1
