/*Fitness: 10.9*/
genomestart 1
node 1 0 1 1
node 2 0 1 1
node 3 0 1 1
node 4 0 1 1
node 5 0 1 1
node 6 0 1 1
node 7 0 1 1
node 8 0 1 1
node 9 0 1 1
node 10 0 1 1
node 11 0 1 1
node 12 0 1 1
node 13 0 1 1
node 14 0 1 1
node 15 0 1 3
node 16 0 0 2
node 17 0 0 2
gene 0 1 16 1.43867 0 0 1 1
gene 0 2 16 3.55268 0 0 1 1
gene 0 3 16 -3.5157 0 0 1 1
gene 0 4 16 -2.58286 0 0 1 1
gene 0 5 16 1.74964 0 0 1 1
gene 0 6 16 2.42323 0 0 1 1
gene 0 7 16 3.69946 0 0 1 1
gene 0 8 16 2.12285 0 0 1 1
gene 0 9 16 3.29551 0 0 1 1
gene 0 10 16 2.50193 0 0 1 1
gene 0 11 16 1.22216 0 0 1 1
gene 0 12 16 1.84946 0 0 1 1
gene 0 13 16 4.97837 0 0 1 1
gene 0 14 16 2.05333 0 0 1 1
gene 0 15 16 1.45308 0 0 1 1
gene 0 1 17 -4.66624 0 0 1 1
gene 0 2 17 -3.71634 0 0 1 1
gene 0 3 17 4.02569 0 0 1 1
gene 0 4 17 -1.54511 0 0 1 1
gene 0 5 17 3.92999 0 0 1 1
gene 0 6 17 -4.85042 0 0 1 1
gene 0 7 17 -0.498472 0 0 1 1
gene 0 8 17 -2.90935 0 0 1 1
gene 0 9 17 -0.0942965 0 0 1 1
gene 0 10 17 1.65291 0 0 1 1
gene 0 11 17 -1.66773 0 0 1 1
gene 0 12 17 3.25295 0 0 1 1
gene 0 13 17 3.63753 0 0 1 1
gene 0 14 17 1.75204 0 0 1 1
gene 0 15 17 4.39094 0 0 1 1
genomeend 1
