/*Fitness: 15.1*/
genomestart 1
node 1 0 1 1
node 2 0 1 1
node 3 0 1 1
node 4 0 1 1
node 5 0 1 1
node 6 0 1 1
node 7 0 1 1
node 8 0 1 1
node 9 0 1 1
node 10 0 1 1
node 11 0 1 1
node 12 0 1 1
node 13 0 1 1
node 14 0 1 1
node 15 0 1 3
node 16 0 0 2
node 17 0 0 2
gene 0 1 16 -3.5598 0 0 1 1
gene 0 2 16 2.11757 0 0 1 1
gene 0 3 16 5 0 0 1 1
gene 0 4 16 1.00698 0 0 1 1
gene 0 5 16 -3.20523 0 0 1 1
gene 0 6 16 -3.02773 0 0 1 1
gene 0 7 16 -4.79122 0 0 1 1
gene 0 8 16 -0.549141 0 0 1 1
gene 0 9 16 -5 0 0 1 1
gene 0 10 16 -3.22726 0 0 1 1
gene 0 11 16 0.44368 0 0 1 1
gene 0 12 16 -2.87789 0 0 1 1
gene 0 13 16 3.65926 0 0 1 1
gene 0 14 16 0.138844 0 0 1 1
gene 0 15 16 4.48703 0 0 1 1
gene 0 1 17 -2.94362 0 0 1 1
gene 0 2 17 2.35353 0 0 1 1
gene 0 3 17 -1.13166 0 0 1 1
gene 0 4 17 0.732309 0 0 1 1
gene 0 5 17 -3.28114 0 0 1 1
gene 0 6 17 -2.89862 0 0 1 1
gene 0 7 17 -1.47055 0 0 1 1
gene 0 8 17 -4.18102 0 0 1 1
gene 0 9 17 -5 0 0 1 1
gene 0 10 17 -1.20236 0 0 1 1
gene 0 11 17 0.200311 0 0 1 1
gene 0 12 17 -3.03881 0 0 1 1
gene 0 13 17 3.00784 0 0 1 1
gene 0 14 17 -2.42594 0 0 1 1
gene 0 15 17 -3.47965 0 0 1 1
genomeend 1
