/* Organism #18 Fitness: 12.250000 Time: 0 */
genomestart 18
trait 1 0.100000 0.489822 0.000000 0.000000 0.000000 0.000000 0.000000 0.000000 
node 1 1 1 1
node 2 1 1 1
node 3 1 1 1
node 4 1 1 1
node 5 1 1 1
node 6 1 1 1
node 7 1 1 1
node 8 1 1 1
node 9 1 1 1
node 10 1 1 1
node 11 1 1 1
node 12 1 1 1
node 13 1 1 1
node 14 1 1 1
node 15 1 1 3
node 16 1 0 2
node 17 1 0 2
gene 1 1 16 0.543394 0 1 0.543394 1
gene 1 1 17 -5 0 2 -5 1
gene 1 2 16 1.47068 0 3 1.47068 1
gene 1 2 17 5 0 4 5 1
gene 1 3 16 0.773955 0 5 0.773955 1
gene 1 3 17 0.640874 0 6 0.640874 1
gene 1 4 16 -1.01801 0 7 -1.01801 1
gene 1 4 17 0.419568 0 8 0.419568 1
gene 1 5 16 0.496952 0 9 0.496952 1
gene 1 5 17 2.35032 0 10 2.35032 1
gene 1 6 16 -1.20212 0 11 -1.20212 1
gene 1 6 17 -1.10151 0 12 -1.10151 1
gene 1 7 16 -0.780174 0 13 -0.780174 1
gene 1 7 17 1.67336 0 14 1.67336 1
gene 1 8 16 1.01046 0 15 1.01046 1
gene 1 8 17 -3.25323 0 16 -3.25323 1
gene 1 9 16 4.34648 0 17 4.34648 1
gene 1 9 17 1.54114 0 18 1.54114 1
gene 1 10 16 -1.45478 0 19 -1.45478 1
gene 1 10 17 2.16783 0 20 2.16783 1
gene 1 11 16 -0.406269 0 21 -0.406269 1
gene 1 11 17 -0.777333 0 22 -0.777333 1
gene 1 12 16 4.84944 0 23 4.84944 1
gene 1 12 17 0.705539 0 24 0.705539 1
gene 1 13 16 0.159299 0 25 0.159299 1
gene 1 13 17 -0.10051 0 16 -0.10051 1
gene 1 14 16 -0.553942 0 17 -0.553942 1
gene 1 14 17 2.44535 0 28 2.44535 1
gene 1 15 16 0.815713 0 29 0.815713 1
gene 1 15 17 0.791655 0 30 0.791655 1
genomeend 18


