/* Organism #34 Fitness: 13.110000 Time: 0 */
genomestart 34
trait 1 0.398367 0.880865 0.596017 0.863739 0.000000 0.607973 0.277897 0.000000 
node 1 1 1 1
node 2 1 1 1
node 3 1 1 1
node 4 1 1 1
node 5 1 1 1
node 6 1 1 1
node 7 1 1 1
node 8 1 1 1
node 9 1 1 1
node 10 1 1 1
node 11 1 1 1
node 12 1 1 1
node 13 1 1 1
node 14 1 1 1
node 15 1 1 3
node 16 1 0 2
node 17 1 0 2
gene 1 1 16 -2.88371 0 1 -2.88371 1
gene 1 1 17 -3.11207 0 2 -3.11207 1
gene 1 2 16 1.21283 0 3 1.21283 1
gene 1 2 17 0.459143 0 4 0.459143 1
gene 1 3 16 3.87367 0 5 3.87367 1
gene 1 3 17 -2.615 0 6 -2.615 1
gene 1 4 16 -3.61476 0 7 -3.61476 1
gene 1 4 17 0.761801 0 8 0.761801 1
gene 1 5 16 -4.23972 0 9 -4.23972 1
gene 1 5 17 4.74866 0 10 4.74866 1
gene 1 6 16 0.0608319 0 11 0.0608319 1
gene 1 6 17 -1.68631 0 12 -1.68631 1
gene 1 7 16 -1.27565 0 13 -1.27565 1
gene 1 7 17 2.36818 0 14 2.36818 1
gene 1 8 16 -0.0671965 0 15 -0.0671965 1
gene 1 8 17 2.49098 0 16 2.49098 1
gene 1 9 16 -0.6989 0 17 -0.6989 1
gene 1 9 17 3.61453 0 18 3.61453 1
gene 1 10 16 5 0 19 5 1
gene 1 10 17 4.91969 0 20 4.91969 1
gene 1 11 16 0.711295 0 21 0.711295 1
gene 1 11 17 -3.30911 0 22 -3.30911 1
gene 1 12 16 2.4101 0 23 2.4101 1
gene 1 12 17 1.93106 0 24 1.93106 1
gene 1 13 16 -1.57061 0 25 -1.57061 1
gene 1 13 17 -0.440701 0 16 -0.440701 1
gene 1 14 16 -0.870641 0 17 -0.870641 1
gene 1 14 17 -0.156705 0 28 -0.156705 1
gene 1 15 16 3.78036 0 29 3.78036 1
gene 1 15 17 0.463125 0 30 0.463125 1
genomeend 34


