/* Organism #3 Fitness: 13.380000 Time: 0 */
genomestart 3
trait 1 0.100000 0.629761 0.749237 0.573572 0.000000 0.384941 0.000000 0.000000 
node 1 1 1 1
node 2 1 1 1
node 3 1 1 1
node 4 1 1 1
node 5 1 1 1
node 6 1 1 1
node 7 1 1 1
node 8 1 1 1
node 9 1 1 1
node 10 1 1 1
node 11 1 1 1
node 12 1 1 1
node 13 1 1 1
node 14 1 1 1
node 15 1 1 3
node 16 1 0 2
node 17 1 0 2
gene 1 1 16 -0.0945521 0 1 -0.0945521 1
gene 1 1 17 -5 0 2 -5 1
gene 1 2 16 0.217469 0 3 0.217469 1
gene 1 2 17 4.10944 0 4 4.10944 1
gene 1 3 16 0.0433635 0 5 0.0433635 1
gene 1 3 17 -0.495114 0 6 -0.495114 1
gene 1 4 16 2.49613 0 7 2.49613 1
gene 1 4 17 1.49886 0 8 1.49886 1
gene 1 5 16 1.05453 0 9 1.05453 1
gene 1 5 17 0.798094 0 10 0.798094 1
gene 1 6 16 1.82938 0 11 1.82938 1
gene 1 6 17 0.0993145 0 12 0.0993145 1
gene 1 7 16 -1.72792 0 13 -1.72792 1
gene 1 7 17 0.813515 0 14 0.813515 1
gene 1 8 16 1.456 0 15 1.456 1
gene 1 8 17 -1.91319 0 16 -1.91319 1
gene 1 9 16 4.43288 0 17 4.43288 1
gene 1 9 17 0.0617068 0 18 0.0617068 1
gene 1 10 16 -0.560598 0 19 -0.560598 1
gene 1 10 17 4.18115 0 20 4.18115 1
gene 1 11 16 -3.11957 0 21 -3.11957 1
gene 1 11 17 -1.38179 0 22 -1.38179 1
gene 1 12 16 3.05818 0 23 3.05818 1
gene 1 12 17 1.75931 0 24 1.75931 1
gene 1 13 16 2.21316 0 25 2.21316 1
gene 1 13 17 -0.979905 0 16 -0.979905 1
gene 1 14 16 0.128701 0 17 0.128701 1
gene 1 14 17 2.85507 0 28 2.85507 1
gene 1 15 16 0.806037 0 29 0.806037 1
gene 1 15 17 1.2016 0 30 1.2016 1
genomeend 3


