/* Organism #3 Fitness: 11.610000 Time: 0 */
genomestart 3
trait 1 0.940666 0.000000 0.000000 0.000000 0.000000 0.000000 0.249522 0.000000 
node 1 1 1 1
node 2 1 1 1
node 3 1 1 1
node 4 1 1 1
node 5 1 1 1
node 6 1 1 1
node 7 1 1 1
node 8 1 1 1
node 9 1 1 1
node 10 1 1 1
node 11 1 1 1
node 12 1 1 1
node 13 1 1 1
node 14 1 1 1
node 15 1 1 3
node 16 1 0 2
node 17 1 0 2
gene 1 1 16 -2.12731 0 1 -2.12731 1
gene 1 1 17 -0.0326489 0 2 -0.0326489 1
gene 1 2 16 3.0467 0 3 3.0467 1
gene 1 2 17 0.871592 0 4 0.871592 1
gene 1 3 16 4.73546 0 5 4.73546 1
gene 1 3 17 -0.830241 0 6 -0.830241 1
gene 1 4 16 -3.52975 0 7 -3.52975 1
gene 1 4 17 -3.39585 0 8 -3.39585 1
gene 1 5 16 1.84969 0 9 1.84969 1
gene 1 5 17 -1.1205 0 10 -1.1205 1
gene 1 6 16 0.0297341 0 11 0.0297341 1
gene 1 6 17 0.313368 0 12 0.313368 1
gene 1 7 16 -0.132382 0 13 -0.132382 1
gene 1 7 17 -1.17665 0 14 -1.17665 1
gene 1 8 16 -2.32219 0 15 -2.32219 1
gene 1 8 17 -1.61149 0 16 -1.61149 1
gene 1 9 16 0.475778 0 17 0.475778 1
gene 1 9 17 -3.15073 0 18 -3.15073 1
gene 1 10 16 -2.71008 0 19 -2.71008 1
gene 1 10 17 -5 0 20 -5 1
gene 1 11 16 0.945464 0 21 0.945464 1
gene 1 11 17 0.523358 0 22 0.523358 1
gene 1 12 16 -2.15021 0 23 -2.15021 1
gene 1 12 17 -1.42398 0 24 -1.42398 1
gene 1 13 16 4.57426 0 25 4.57426 1
gene 1 13 17 -2.35822 0 16 -2.35822 1
gene 1 14 16 1.55716 0 17 1.55716 1
gene 1 14 17 -0.920216 0 28 -0.920216 1
gene 1 15 16 -0.638253 0 29 -0.638253 1
gene 1 15 17 -1.67856 0 30 -1.67856 1
genomeend 3


