/* Organism #9 Fitness: 12.580000 Time: 0 */
genomestart 9
trait 1 0.000000 0.230162 0.500592 0.500998 0.000000 0.392742 0.268847 0.358315 
node 1 1 1 1
node 2 1 1 1
node 3 1 1 1
node 4 1 1 1
node 5 1 1 1
node 6 1 1 1
node 7 1 1 1
node 8 1 1 1
node 9 1 1 1
node 10 1 1 1
node 11 1 1 1
node 12 1 1 1
node 13 1 1 1
node 14 1 1 1
node 15 1 1 3
node 16 1 0 2
node 17 1 0 2
gene 1 1 16 1.01522 0 1 1.01522 1
gene 1 1 17 -3.94351 0 2 -3.94351 1
gene 1 2 16 1.13312 0 3 1.13312 1
gene 1 2 17 0.725415 0 4 0.725415 1
gene 1 3 16 -0.121399 0 5 -0.121399 1
gene 1 3 17 4.13146 0 6 4.13146 1
gene 1 4 16 2.88262 0 7 2.88262 1
gene 1 4 17 -1.95848 0 8 -1.95848 1
gene 1 5 16 1.36744 0 9 1.36744 1
gene 1 5 17 0.159376 0 10 0.159376 1
gene 1 6 16 -0.17653 0 11 -0.17653 1
gene 1 6 17 -2.57997 0 12 -2.57997 1
gene 1 7 16 -0.469575 0 13 -0.469575 1
gene 1 7 17 0.127081 0 14 0.127081 1
gene 1 8 16 0.581599 0 15 0.581599 1
gene 1 8 17 -3.2875 0 16 -3.2875 1
gene 1 9 16 2.43166 0 17 2.43166 1
gene 1 9 17 1.61445 0 18 1.61445 1
gene 1 10 16 2.27509 0 19 2.27509 1
gene 1 10 17 0.337685 0 20 0.337685 1
gene 1 11 16 -3.041 0 21 -3.041 1
gene 1 11 17 1.03567 0 22 1.03567 1
gene 1 12 16 2.87551 0 23 2.87551 1
gene 1 12 17 0.514994 0 24 0.514994 1
gene 1 13 16 1.89747 0 25 1.89747 1
gene 1 13 17 -0.478256 0 16 -0.478256 1
gene 1 14 16 0.695267 0 17 0.695267 1
gene 1 14 17 3.36974 0 28 3.36974 1
gene 1 15 16 -0.92638 0 29 -0.92638 1
gene 1 15 17 2.46906 0 30 2.46906 1
genomeend 9


