/* Organism #1 Fitness: 11.270000 Time: 0 */
genomestart 1
trait 1 0.966164 0.277905 0.000000 0.000000 0.000000 0.000000 0.000000 0.000000 
node 1 1 1 1
node 2 1 1 1
node 3 1 1 1
node 4 1 1 1
node 5 1 1 1
node 6 1 1 1
node 7 1 1 1
node 8 1 1 1
node 9 1 1 1
node 10 1 1 1
node 11 1 1 1
node 12 1 1 1
node 13 1 1 1
node 14 1 1 1
node 15 1 1 3
node 16 1 0 2
node 17 1 0 2
gene 1 1 16 1.16336 0 1 1.16336 1
gene 1 1 17 -5 0 2 -5 1
gene 1 2 16 -1.46996 0 3 -1.46996 1
gene 1 2 17 -0.819913 0 4 -0.819913 1
gene 1 3 16 -1.73705 0 5 -1.73705 1
gene 1 3 17 1.66986 0 6 1.66986 1
gene 1 4 16 -1.06293 0 7 -1.06293 1
gene 1 4 17 -1.01471 0 8 -1.01471 1
gene 1 5 16 1.48954 0 9 1.48954 1
gene 1 5 17 1.8806 0 10 1.8806 1
gene 1 6 16 -0.733192 0 11 -0.733192 1
gene 1 6 17 -0.107907 0 12 -0.107907 1
gene 1 7 16 -0.589218 0 13 -0.589218 1
gene 1 7 17 -0.0902972 0 14 -0.0902972 1
gene 1 8 16 0.189922 0 15 0.189922 1
gene 1 8 17 0.429188 0 16 0.429188 1
gene 1 9 16 3.1909 0 17 3.1909 1
gene 1 9 17 3.64319 0 18 3.64319 1
gene 1 10 16 -0.746449 0 19 -0.746449 1
gene 1 10 17 -0.321689 0 20 -0.321689 1
gene 1 11 16 -4.89637 0 21 -4.89637 1
gene 1 11 17 1.10987 0 22 1.10987 1
gene 1 12 16 0.397094 0 23 0.397094 1
gene 1 12 17 -2.66066 0 24 -2.66066 1
gene 1 13 16 0.557083 0 25 0.557083 1
gene 1 13 17 2.39995 0 16 2.39995 1
gene 1 14 16 -0.507279 0 17 -0.507279 1
gene 1 14 17 -0.0925399 0 28 -0.0925399 1
gene 1 15 16 1.2042 0 29 1.2042 1
gene 1 15 17 -0.316737 0 30 -0.316737 1
genomeend 1


