/* Organism #70 Fitness: 11.810000 Time: 0 */
genomestart 70
trait 1 0.100000 0.000000 0.000000 0.690096 0.751228 0.000000 0.000000 0.569538 
node 1 1 1 1
node 2 1 1 1
node 3 1 1 1
node 4 1 1 1
node 5 1 1 1
node 6 1 1 1
node 7 1 1 1
node 8 1 1 1
node 9 1 1 1
node 10 1 1 1
node 11 1 1 1
node 12 1 1 1
node 13 1 1 1
node 14 1 1 1
node 15 1 1 3
node 16 1 0 2
node 17 1 0 2
gene 1 1 16 0.31168 0 1 0.31168 1
gene 1 1 17 -5 0 2 -5 1
gene 1 2 16 0.960471 0 3 0.960471 1
gene 1 2 17 1.07451 0 4 1.07451 1
gene 1 3 16 -1.37693 0 5 -1.37693 1
gene 1 3 17 2.24586 0 6 2.24586 1
gene 1 4 16 1.51704 0 7 1.51704 1
gene 1 4 17 2.18272 0 8 2.18272 1
gene 1 5 16 1.90282 0 9 1.90282 1
gene 1 5 17 2.19589 0 10 2.19589 1
gene 1 6 16 2.93338 0 11 2.93338 1
gene 1 6 17 -0.498988 0 12 -0.498988 1
gene 1 7 16 0.989092 0 13 0.989092 1
gene 1 7 17 1.24759 0 14 1.24759 1
gene 1 8 16 3.81696 0 15 3.81696 1
gene 1 8 17 1.36464 0 16 1.36464 1
gene 1 9 16 -1.0448 0 17 -1.0448 1
gene 1 9 17 2.94141 0 18 2.94141 1
gene 1 10 16 -1.86543 0 19 -1.86543 1
gene 1 10 17 0.546521 0 20 0.546521 1
gene 1 11 16 2.59346 0 21 2.59346 1
gene 1 11 17 -0.361569 0 22 -0.361569 1
gene 1 12 16 0.345211 0 23 0.345211 1
gene 1 12 17 -1.31035 0 24 -1.31035 1
gene 1 13 16 0.0630134 0 25 0.0630134 1
gene 1 13 17 -0.133969 0 16 -0.133969 1
gene 1 14 16 -1.05741 0 17 -1.05741 1
gene 1 14 17 1.58268 0 28 1.58268 1
gene 1 15 16 0.664765 0 29 0.664765 1
gene 1 15 17 -1.68911 0 30 -1.68911 1
genomeend 70


