/* Organism #1 Fitness: 14.030000 Time: 0 */
genomestart 1
trait 1 0.000000 0.000000 0.000000 0.000000 0.000000 0.000000 0.401526 0.000000 
node 1 1 1 1
node 2 1 1 1
node 3 1 1 1
node 4 1 1 1
node 5 1 1 1
node 6 1 1 1
node 7 1 1 1
node 8 1 1 1
node 9 1 1 1
node 10 1 1 1
node 11 1 1 1
node 12 1 1 1
node 13 1 1 1
node 14 1 1 1
node 15 1 1 3
node 16 1 0 2
node 17 1 0 2
gene 1 1 16 -4.01905 0 1 -4.01905 1
gene 1 1 17 -4.31987 0 2 -4.31987 1
gene 1 2 16 3.72552 0 3 3.72552 1
gene 1 2 17 -1.43584 0 4 -1.43584 1
gene 1 3 16 2.18723 0 5 2.18723 1
gene 1 3 17 -0.666444 0 6 -0.666444 1
gene 1 4 16 -2.1268 0 7 -2.1268 1
gene 1 4 17 -0.290006 0 8 -0.290006 1
gene 1 5 16 -3.09879 0 9 -3.09879 1
gene 1 5 17 1.73556 0 10 1.73556 1
gene 1 6 16 0.635949 0 11 0.635949 1
gene 1 6 17 0.444922 0 12 0.444922 1
gene 1 7 16 -0.0172649 0 13 -0.0172649 1
gene 1 7 17 0.755919 0 14 0.755919 1
gene 1 8 16 1.12997 0 15 1.12997 1
gene 1 8 17 1.69823 0 16 1.69823 1
gene 1 9 16 -0.967016 0 17 -0.967016 1
gene 1 9 17 2.3427 0 18 2.3427 1
gene 1 10 16 5 0 19 5 1
gene 1 10 17 -0.713236 0 20 -0.713236 1
gene 1 11 16 3.87406 0 21 3.87406 1
gene 1 11 17 -0.274903 0 22 -0.274903 1
gene 1 12 16 1.30833 0 23 1.30833 1
gene 1 12 17 0.199089 0 24 0.199089 1
gene 1 13 16 -1.30694 0 25 -1.30694 1
gene 1 13 17 0.898429 0 16 0.898429 1
gene 1 14 16 0.836301 0 17 0.836301 1
gene 1 14 17 -2.6062 0 28 -2.6062 1
gene 1 15 16 2.04268 0 29 2.04268 1
gene 1 15 17 2.56514 0 30 2.56514 1
genomeend 1


