/* Organism #0 Fitness: 11.910000 Time: 0 */
genomestart 0
trait 1 0.612299 0.000000 0.000000 0.000000 0.000000 0.000000 0.000000 0.000000 
node 1 1 1 1
node 2 1 1 1
node 3 1 1 1
node 4 1 1 1
node 5 1 1 1
node 6 1 1 1
node 7 1 1 1
node 8 1 1 1
node 9 1 1 1
node 10 1 1 1
node 11 1 1 1
node 12 1 1 1
node 13 1 1 1
node 14 1 1 1
node 15 1 1 3
node 16 1 0 2
node 17 1 0 2
gene 1 1 16 0.998599 0 1 0.998599 1
gene 1 1 17 -5 0 2 -5 1
gene 1 2 16 3.03457 0 3 3.03457 1
gene 1 2 17 1.43062 0 4 1.43062 1
gene 1 3 16 -0.471672 0 5 -0.471672 1
gene 1 3 17 -0.34137 0 6 -0.34137 1
gene 1 4 16 -0.604063 0 7 -0.604063 1
gene 1 4 17 -0.149734 0 8 -0.149734 1
gene 1 5 16 -0.0408836 0 9 -0.0408836 1
gene 1 5 17 1.25095 0 10 1.25095 1
gene 1 6 16 -1.38874 0 11 -1.38874 1
gene 1 6 17 -0.844765 0 12 -0.844765 1
gene 1 7 16 1.88349 0 13 1.88349 1
gene 1 7 17 0.363768 0 14 0.363768 1
gene 1 8 16 -0.529471 0 15 -0.529471 1
gene 1 8 17 0.580621 0 16 0.580621 1
gene 1 9 16 0.0306527 0 17 0.0306527 1
gene 1 9 17 2.92589 0 18 2.92589 1
gene 1 10 16 -0.312519 0 19 -0.312519 1
gene 1 10 17 0.892475 0 20 0.892475 1
gene 1 11 16 0.959784 0 21 0.959784 1
gene 1 11 17 -0.175216 0 22 -0.175216 1
gene 1 12 16 0.186016 0 23 0.186016 1
gene 1 12 17 -0.658905 0 24 -0.658905 1
gene 1 13 16 0.397492 0 25 0.397492 1
gene 1 13 17 0.610451 0 16 0.610451 1
gene 1 14 16 1.50222 0 17 1.50222 1
gene 1 14 17 0.860388 0 28 0.860388 1
gene 1 15 16 2.79325 0 29 2.79325 1
gene 1 15 17 -0.659801 0 30 -0.659801 1
genomeend 0


