/* Organism #1 Fitness: 12.050000 Time: 0 */
genomestart 1
trait 1 0.100000 0.000000 0.000000 0.354882 0.000000 0.878462 0.000000 0.000000 
node 1 1 1 1
node 2 1 1 1
node 3 1 1 1
node 4 1 1 1
node 5 1 1 1
node 6 1 1 1
node 7 1 1 1
node 8 1 1 1
node 9 1 1 1
node 10 1 1 1
node 11 1 1 1
node 12 1 1 1
node 13 1 1 1
node 14 1 1 1
node 15 1 1 3
node 16 1 0 2
node 17 1 0 2
gene 1 1 16 0.549853 0 1 0.549853 1
gene 1 1 17 -4.00751 0 2 -4.00751 1
gene 1 2 16 4.45527 0 3 4.45527 1
gene 1 2 17 1.62579 0 4 1.62579 1
gene 1 3 16 3.89469 0 5 3.89469 1
gene 1 3 17 0.452417 0 6 0.452417 1
gene 1 4 16 -0.543106 0 7 -0.543106 1
gene 1 4 17 -1.78848 0 8 -1.78848 1
gene 1 5 16 1.67146 0 9 1.67146 1
gene 1 5 17 1.19237 0 10 1.19237 1
gene 1 6 16 -1.24014 0 11 -1.24014 1
gene 1 6 17 2.00185 0 12 2.00185 1
gene 1 7 16 -1.07835 0 13 -1.07835 1
gene 1 7 17 0.997567 0 14 0.997567 1
gene 1 8 16 -0.706419 0 15 -0.706419 1
gene 1 8 17 -1.91958 0 16 -1.91958 1
gene 1 9 16 0.105514 0 17 0.105514 1
gene 1 9 17 -1.27204 0 18 -1.27204 1
gene 1 10 16 0.45291 0 19 0.45291 1
gene 1 10 17 5 0 20 5 1
gene 1 11 16 -2.3925 0 21 -2.3925 1
gene 1 11 17 -0.676891 0 22 -0.676891 1
gene 1 12 16 1.09725 0 23 1.09725 1
gene 1 12 17 0.606458 0 24 0.606458 1
gene 1 13 16 0.402009 0 25 0.402009 1
gene 1 13 17 0.736757 0 16 0.736757 1
gene 1 14 16 0.155086 0 17 0.155086 1
gene 1 14 17 1.70197 0 28 1.70197 1
gene 1 15 16 1.6014 0 29 1.6014 1
gene 1 15 17 1.85769 0 30 1.85769 1
genomeend 1


