/* Organism #9 Fitness: 9.970000 Time: 0 */
genomestart 9
trait 1 0.100000 0.000000 0.000000 0.000000 0.000000 0.000000 0.000000 0.000000 
node 1 1 1 1
node 2 1 1 1
node 3 1 1 1
node 4 1 1 1
node 5 1 1 1
node 6 1 1 1
node 7 1 1 1
node 8 1 1 1
node 9 1 1 1
node 10 1 1 1
node 11 1 1 1
node 12 1 1 1
node 13 1 1 1
node 14 1 1 1
node 15 1 1 3
node 16 1 0 2
node 17 1 0 2
gene 1 1 16 -0.370594 0 1 -0.370594 1
gene 1 1 17 -5 0 2 -5 1
gene 1 2 16 -1.70044 0 3 -1.70044 1
gene 1 2 17 1.41285 0 4 1.41285 1
gene 1 3 16 -1.80628 0 5 -1.80628 1
gene 1 3 17 0.0273429 0 6 0.0273429 1
gene 1 4 16 -0.57521 0 7 -0.57521 1
gene 1 4 17 -0.340103 0 8 -0.340103 1
gene 1 5 16 2.26572 0 9 2.26572 1
gene 1 5 17 0.849312 0 10 0.849312 1
gene 1 6 16 1.18148 0 11 1.18148 1
gene 1 6 17 -0.641852 0 12 -0.641852 1
gene 1 7 16 1.18231 0 13 1.18231 1
gene 1 7 17 -0.441335 0 14 -0.441335 1
gene 1 8 16 -0.48667 0 15 -0.48667 1
gene 1 8 17 1.29171 0 16 1.29171 1
gene 1 9 16 1.47828 0 17 1.47828 1
gene 1 9 17 -0.713259 0 18 -0.713259 1
gene 1 10 16 -0.785428 0 19 -0.785428 1
gene 1 10 17 -0.375755 0 20 -0.375755 1
gene 1 11 16 0.653184 0 21 0.653184 1
gene 1 11 17 0.161289 0 22 0.161289 1
gene 1 12 16 -1.10419 0 23 -1.10419 1
gene 1 12 17 -2.43025 0 24 -2.43025 1
gene 1 13 16 0.797358 0 25 0.797358 1
gene 1 13 17 0.417257 0 16 0.417257 1
gene 1 14 16 0.304472 0 17 0.304472 1
gene 1 14 17 0.813391 0 28 0.813391 1
gene 1 15 16 3.934 0 29 3.934 1
gene 1 15 17 1.13451 0 30 1.13451 1
genomeend 9


