/* Organism #1 Fitness: 9.930000 Time: 0 */
genomestart 1
trait 1 0.263341 0.000000 0.000000 0.000000 0.000000 0.000000 0.751912 0.000000 
node 1 1 1 1
node 2 1 1 1
node 3 1 1 1
node 4 1 1 1
node 5 1 1 1
node 6 1 1 1
node 7 1 1 1
node 8 1 1 1
node 9 1 1 1
node 10 1 1 1
node 11 1 1 1
node 12 1 1 1
node 13 1 1 1
node 14 1 1 1
node 15 1 1 3
node 16 1 0 2
node 17 1 0 2
gene 1 1 16 3.02935 0 1 3.02935 1
gene 1 1 17 -4.38205 0 2 -4.38205 1
gene 1 2 16 -1.56201 0 3 -1.56201 1
gene 1 2 17 0.392145 0 4 0.392145 1
gene 1 3 16 0.572396 0 5 0.572396 1
gene 1 3 17 0.89553 0 6 0.89553 1
gene 1 4 16 -1.63057 0 7 -1.63057 1
gene 1 4 17 -0.316461 0 8 -0.316461 1
gene 1 5 16 3.72085 0 9 3.72085 1
gene 1 5 17 -0.613222 0 10 -0.613222 1
gene 1 6 16 -1.0709 0 11 -1.0709 1
gene 1 6 17 0.674242 0 12 0.674242 1
gene 1 7 16 -0.379124 0 13 -0.379124 1
gene 1 7 17 -0.531916 0 14 -0.531916 1
gene 1 8 16 -1.82801 0 15 -1.82801 1
gene 1 8 17 0.46808 0 16 0.46808 1
gene 1 9 16 0.558266 0 17 0.558266 1
gene 1 9 17 -0.56946 0 18 -0.56946 1
gene 1 10 16 -0.773927 0 19 -0.773927 1
gene 1 10 17 0.15129 0 20 0.15129 1
gene 1 11 16 -1.00869 0 21 -1.00869 1
gene 1 11 17 -0.860884 0 22 -0.860884 1
gene 1 12 16 -2.29105 0 23 -2.29105 1
gene 1 12 17 -4.02196 0 24 -4.02196 1
gene 1 13 16 0.103228 0 25 0.103228 1
gene 1 13 17 0.303388 0 16 0.303388 1
gene 1 14 16 0.161777 0 17 0.161777 1
gene 1 14 17 1.69865 0 28 1.69865 1
gene 1 15 16 4.52162 0 29 4.52162 1
gene 1 15 17 0.9222 0 30 0.9222 1
genomeend 1


