/* Organism #11 Fitness: 9.810000 Time: 0 */
genomestart 11
trait 1 1.000000 0.346659 0.000000 0.549295 1.000000 0.000000 0.875918 0.726947 
node 1 1 1 1
node 2 1 1 1
node 3 1 1 1
node 4 1 1 1
node 5 1 1 1
node 6 1 1 1
node 7 1 1 1
node 8 1 1 1
node 9 1 1 1
node 10 1 1 1
node 11 1 1 1
node 12 1 1 1
node 13 1 1 1
node 14 1 1 1
node 15 1 1 3
node 16 1 0 2
node 17 1 0 2
gene 1 1 16 -0.261951 0 1 -0.261951 1
gene 1 1 17 -0.118401 0 2 -0.118401 1
gene 1 2 16 3.30204 0 3 3.30204 1
gene 1 2 17 -0.360473 0 4 -0.360473 1
gene 1 3 16 3.4508 0 5 3.4508 1
gene 1 3 17 0.684825 0 6 0.684825 1
gene 1 4 16 -4.47449 0 7 -4.47449 1
gene 1 4 17 -1.55309 0 8 -1.55309 1
gene 1 5 16 0.301659 0 9 0.301659 1
gene 1 5 17 -2.1239 0 10 -2.1239 1
gene 1 6 16 0.371527 0 11 0.371527 1
gene 1 6 17 -1.56321 0 12 -1.56321 1
gene 1 7 16 -0.339727 0 13 -0.339727 1
gene 1 7 17 0.8333 0 14 0.8333 1
gene 1 8 16 2.8838 0 15 2.8838 1
gene 1 8 17 -0.523976 0 16 -0.523976 1
gene 1 9 16 -0.736596 0 17 -0.736596 1
gene 1 9 17 -0.732033 0 18 -0.732033 1
gene 1 10 16 -0.745319 0 19 -0.745319 1
gene 1 10 17 -0.786583 0 20 -0.786583 1
gene 1 11 16 1.55264 0 21 1.55264 1
gene 1 11 17 -0.0632429 0 22 -0.0632429 1
gene 1 12 16 1.08684 0 23 1.08684 1
gene 1 12 17 -1.30982 0 24 -1.30982 1
gene 1 13 16 -2.01477 0 25 -2.01477 1
gene 1 13 17 2.81095 0 16 2.81095 1
gene 1 14 16 0.947709 0 17 0.947709 1
gene 1 14 17 -0.511192 0 28 -0.511192 1
gene 1 15 16 1.15472 0 29 1.15472 1
gene 1 15 17 2.5366 0 30 2.5366 1
genomeend 11


