/* Organism #0 Fitness: 11.020000 Time: 0 */
genomestart 0
trait 1 0.100000 0.167525 0.434611 0.000000 0.000000 0.000000 0.000000 0.000000 
node 1 1 1 1
node 2 1 1 1
node 3 1 1 1
node 4 1 1 1
node 5 1 1 1
node 6 1 1 1
node 7 1 1 1
node 8 1 1 1
node 9 1 1 1
node 10 1 1 1
node 11 1 1 1
node 12 1 1 1
node 13 1 1 1
node 14 1 1 1
node 15 1 1 3
node 16 1 0 2
node 17 1 0 2
gene 1 1 16 -0.418424 0 1 -0.418424 1
gene 1 1 17 -0.269072 0 2 -0.269072 1
gene 1 2 16 -0.609447 0 3 -0.609447 1
gene 1 2 17 5 0 4 5 1
gene 1 3 16 0.220549 0 5 0.220549 1
gene 1 3 17 0.716371 0 6 0.716371 1
gene 1 4 16 0.770577 0 7 0.770577 1
gene 1 4 17 -0.153767 0 8 -0.153767 1
gene 1 5 16 2.94952 0 9 2.94952 1
gene 1 5 17 -1.76448 0 10 -1.76448 1
gene 1 6 16 -0.474915 0 11 -0.474915 1
gene 1 6 17 -1.21259 0 12 -1.21259 1
gene 1 7 16 5 0 13 5 1
gene 1 7 17 0.355659 0 14 0.355659 1
gene 1 8 16 1.59887 0 15 1.59887 1
gene 1 8 17 -0.222903 0 16 -0.222903 1
gene 1 9 16 -0.62424 0 17 -0.62424 1
gene 1 9 17 0.479053 0 18 0.479053 1
gene 1 10 16 0.118308 0 19 0.118308 1
gene 1 10 17 -0.203836 0 20 -0.203836 1
gene 1 11 16 -0.013412 0 21 -0.013412 1
gene 1 11 17 0.11184 0 22 0.11184 1
gene 1 12 16 0.405502 0 23 0.405502 1
gene 1 12 17 -1.52219 0 24 -1.52219 1
gene 1 13 16 3.86449 0 25 3.86449 1
gene 1 13 17 -0.762738 0 16 -0.762738 1
gene 1 14 16 -0.657587 0 17 -0.657587 1
gene 1 14 17 0.178204 0 28 0.178204 1
gene 1 15 16 -3.80822 0 29 -3.80822 1
gene 1 15 17 -0.719482 0 30 -0.719482 1
genomeend 0


