/* Organism #77 Fitness: 9.700000 Time: 0 */
genomestart 77
trait 1 0.100000 0.051817 0.000000 0.000000 0.000000 0.000000 0.000000 0.000000 
node 1 1 1 1
node 2 1 1 1
node 3 1 1 1
node 4 1 1 1
node 5 1 1 1
node 6 1 1 1
node 7 1 1 1
node 8 1 1 1
node 9 1 1 1
node 10 1 1 1
node 11 1 1 1
node 12 1 1 1
node 13 1 1 1
node 14 1 1 1
node 15 1 1 3
node 16 1 0 2
node 17 1 0 2
gene 1 1 16 -0.0704992 0 1 -0.0704992 1
gene 1 1 17 1.31413 0 2 1.31413 1
gene 1 2 16 0.00378268 0 3 0.00378268 1
gene 1 2 17 0.538351 0 4 0.538351 1
gene 1 3 16 2.71013 0 5 2.71013 1
gene 1 3 17 0.482926 0 6 0.482926 1
gene 1 4 16 -4.08374 0 7 -4.08374 1
gene 1 4 17 0.829326 0 8 0.829326 1
gene 1 5 16 3.3472 0 9 3.3472 1
gene 1 5 17 -0.308205 0 10 -0.308205 1
gene 1 6 16 -0.1039 0 11 -0.1039 1
gene 1 6 17 -0.24499 0 12 -0.24499 1
gene 1 7 16 0.414488 0 13 0.414488 1
gene 1 7 17 -3.44848 0 14 -3.44848 1
gene 1 8 16 0.122947 0 15 0.122947 1
gene 1 8 17 2.26736 0 16 2.26736 1
gene 1 9 16 -0.996555 0 17 -0.996555 1
gene 1 9 17 5 0 18 5 1
gene 1 10 16 -0.402487 0 19 -0.402487 1
gene 1 10 17 2.26012 0 20 2.26012 1
gene 1 11 16 4.36901 0 21 4.36901 1
gene 1 11 17 -0.296487 0 22 -0.296487 1
gene 1 12 16 0.275515 0 23 0.275515 1
gene 1 12 17 -3.16754 0 24 -3.16754 1
gene 1 13 16 0.159999 0 25 0.159999 1
gene 1 13 17 0.732779 0 16 0.732779 1
gene 1 14 16 -1.40743 0 17 -1.40743 1
gene 1 14 17 -0.919007 0 28 -0.919007 1
gene 1 15 16 1.16491 0 29 1.16491 1
gene 1 15 17 1.67438 0 30 1.67438 1
genomeend 77


