/* Organism #0 Fitness: 10.250000 Time: 0 */
genomestart 0
trait 1 0.530808 0.000000 0.000000 0.003297 0.359424 0.000000 1.000000 0.347005 
node 1 1 1 1
node 2 1 1 1
node 3 1 1 1
node 4 1 1 1
node 5 1 1 1
node 6 1 1 1
node 7 1 1 1
node 8 1 1 1
node 9 1 1 1
node 10 1 1 1
node 11 1 1 1
node 12 1 1 1
node 13 1 1 1
node 14 1 1 1
node 15 1 1 3
node 16 1 0 2
node 17 1 0 2
gene 1 1 16 -0.734642 0 1 -0.734642 1
gene 1 1 17 -0.945762 0 2 -0.945762 1
gene 1 2 16 -0.204089 0 3 -0.204089 1
gene 1 2 17 -0.843339 0 4 -0.843339 1
gene 1 3 16 4.11137 0 5 4.11137 1
gene 1 3 17 -0.951156 0 6 -0.951156 1
gene 1 4 16 -3.48395 0 7 -3.48395 1
gene 1 4 17 1.86229 0 8 1.86229 1
gene 1 5 16 -2.78162 0 9 -2.78162 1
gene 1 5 17 -1.00675 0 10 -1.00675 1
gene 1 6 16 1.15606 0 11 1.15606 1
gene 1 6 17 -2.69634 0 12 -2.69634 1
gene 1 7 16 -1.85334 0 13 -1.85334 1
gene 1 7 17 3.44007 0 14 3.44007 1
gene 1 8 16 0.275418 0 15 0.275418 1
gene 1 8 17 1.10474 0 16 1.10474 1
gene 1 9 16 -0.473102 0 17 -0.473102 1
gene 1 9 17 0.778357 0 18 0.778357 1
gene 1 10 16 -1.12082 0 19 -1.12082 1
gene 1 10 17 -1.23779 0 20 -1.23779 1
gene 1 11 16 3.68722 0 21 3.68722 1
gene 1 11 17 -3.33836 0 22 -3.33836 1
gene 1 12 16 0.687426 0 23 0.687426 1
gene 1 12 17 0.800678 0 24 0.800678 1
gene 1 13 16 0.0910482 0 25 0.0910482 1
gene 1 13 17 -1.69235 0 16 -1.69235 1
gene 1 14 16 -0.800084 0 17 -0.800084 1
gene 1 14 17 -0.0381698 0 28 -0.0381698 1
gene 1 15 16 0.834333 0 29 0.834333 1
gene 1 15 17 5 0 30 5 1
genomeend 0


