/* Organism #1 Fitness: 10.170000 Time: 0 */
genomestart 1
trait 1 0.000000 0.823153 0.000000 0.000000 0.737525 0.807641 0.000000 0.000000 
node 1 1 1 1
node 2 1 1 1
node 3 1 1 1
node 4 1 1 1
node 5 1 1 1
node 6 1 1 1
node 7 1 1 1
node 8 1 1 1
node 9 1 1 1
node 10 1 1 1
node 11 1 1 1
node 12 1 1 1
node 13 1 1 1
node 14 1 1 1
node 15 1 1 3
node 16 1 0 2
node 17 1 0 2
gene 1 1 16 -0.646837 0 1 -0.646837 1
gene 1 1 17 -1.05991 0 2 -1.05991 1
gene 1 2 16 1.23112 0 3 1.23112 1
gene 1 2 17 -0.0437105 0 4 -0.0437105 1
gene 1 3 16 5 0 5 5 1
gene 1 3 17 -1.94812 0 6 -1.94812 1
gene 1 4 16 -4.13912 0 7 -4.13912 1
gene 1 4 17 0.62467 0 8 0.62467 1
gene 1 5 16 -2.53456 0 9 -2.53456 1
gene 1 5 17 0.692753 0 10 0.692753 1
gene 1 6 16 0.789327 0 11 0.789327 1
gene 1 6 17 3.91097 0 12 3.91097 1
gene 1 7 16 -3.2978 0 13 -3.2978 1
gene 1 7 17 1.47774 0 14 1.47774 1
gene 1 8 16 -1.64943 0 15 -1.64943 1
gene 1 8 17 -0.0575158 0 16 -0.0575158 1
gene 1 9 16 -0.59548 0 17 -0.59548 1
gene 1 9 17 4.37236 0 18 4.37236 1
gene 1 10 16 -0.376584 0 19 -0.376584 1
gene 1 10 17 3.00307 0 20 3.00307 1
gene 1 11 16 1.64483 0 21 1.64483 1
gene 1 11 17 -0.215786 0 22 -0.215786 1
gene 1 12 16 0.399717 0 23 0.399717 1
gene 1 12 17 -4.0156 0 24 -4.0156 1
gene 1 13 16 -0.39694 0 25 -0.39694 1
gene 1 13 17 0.932615 0 16 0.932615 1
gene 1 14 16 0.0670197 0 17 0.0670197 1
gene 1 14 17 -0.744808 0 28 -0.744808 1
gene 1 15 16 0.863182 0 29 0.863182 1
gene 1 15 17 4.04067 0 30 4.04067 1
genomeend 1


