/* Organism #2 Fitness: 9.880000 Time: 0 */
genomestart 2
trait 1 0.100000 1.000000 1.000000 0.615090 0.000000 0.046238 0.198532 0.000000 
node 1 1 1 1
node 2 1 1 1
node 3 1 1 1
node 4 1 1 1
node 5 1 1 1
node 6 1 1 1
node 7 1 1 1
node 8 1 1 1
node 9 1 1 1
node 10 1 1 1
node 11 1 1 1
node 12 1 1 1
node 13 1 1 1
node 14 1 1 1
node 15 1 1 3
node 16 1 0 2
node 17 1 0 2
gene 1 1 16 0.0785511 0 1 0.0785511 1
gene 1 1 17 0.598425 0 2 0.598425 1
gene 1 2 16 -0.574635 0 3 -0.574635 1
gene 1 2 17 0.260128 0 4 0.260128 1
gene 1 3 16 2.20939 0 5 2.20939 1
gene 1 3 17 5 0 6 5 1
gene 1 4 16 -3.49353 0 7 -3.49353 1
gene 1 4 17 2.51521 0 8 2.51521 1
gene 1 5 16 -0.884303 0 9 -0.884303 1
gene 1 5 17 -0.530549 0 10 -0.530549 1
gene 1 6 16 4.15637 0 11 4.15637 1
gene 1 6 17 -0.118965 0 12 -0.118965 1
gene 1 7 16 -3.79923 0 13 -3.79923 1
gene 1 7 17 -2.75189 0 14 -2.75189 1
gene 1 8 16 2.98029 0 15 2.98029 1
gene 1 8 17 -4.01636 0 16 -4.01636 1
gene 1 9 16 -0.706473 0 17 -0.706473 1
gene 1 9 17 3.91219 0 18 3.91219 1
gene 1 10 16 0.277405 0 19 0.277405 1
gene 1 10 17 -3.18301 0 20 -3.18301 1
gene 1 11 16 2.99 0 21 2.99 1
gene 1 11 17 -3.51321 0 22 -3.51321 1
gene 1 12 16 -0.348943 0 23 -0.348943 1
gene 1 12 17 0.0708535 0 24 0.0708535 1
gene 1 13 16 -3.04557 0 25 -3.04557 1
gene 1 13 17 1.13104 0 16 1.13104 1
gene 1 14 16 -1.26102 0 17 -1.26102 1
gene 1 14 17 -0.71861 0 28 -0.71861 1
gene 1 15 16 0.868641 0 29 0.868641 1
gene 1 15 17 3.338 0 30 3.338 1
genomeend 2


