/* Organism #6 Fitness: 10.030000 Time: 0 */
genomestart 6
trait 1 0.100000 0.000000 0.000000 0.000000 0.000000 0.000000 0.000000 0.000000 
node 1 1 1 1
node 2 1 1 1
node 3 1 1 1
node 4 1 1 1
node 5 1 1 1
node 6 1 1 1
node 7 1 1 1
node 8 1 1 1
node 9 1 1 1
node 10 1 1 1
node 11 1 1 1
node 12 1 1 1
node 13 1 1 1
node 14 1 1 1
node 15 1 1 3
node 16 1 0 2
node 17 1 0 2
gene 1 1 16 -0.135145 0 1 -0.135145 1
gene 1 1 17 -5 0 2 -5 1
gene 1 2 16 0.886784 0 3 0.886784 1
gene 1 2 17 -0.0717414 0 4 -0.0717414 1
gene 1 3 16 -0.507194 0 5 -0.507194 1
gene 1 3 17 1.02463 0 6 1.02463 1
gene 1 4 16 -2.73616 0 7 -2.73616 1
gene 1 4 17 0.958675 0 8 0.958675 1
gene 1 5 16 -0.489919 0 9 -0.489919 1
gene 1 5 17 1.91233 0 10 1.91233 1
gene 1 6 16 -1.84626 0 11 -1.84626 1
gene 1 6 17 0.143272 0 12 0.143272 1
gene 1 7 16 -1.36213 0 13 -1.36213 1
gene 1 7 17 0.750201 0 14 0.750201 1
gene 1 8 16 -0.990804 0 15 -0.990804 1
gene 1 8 17 -0.843321 0 16 -0.843321 1
gene 1 9 16 0.656349 0 17 0.656349 1
gene 1 9 17 -0.898799 0 18 -0.898799 1
gene 1 10 16 -0.828315 0 19 -0.828315 1
gene 1 10 17 -0.0997359 0 20 -0.0997359 1
gene 1 11 16 -1.37186 0 21 -1.37186 1
gene 1 11 17 -1.48688 0 22 -1.48688 1
gene 1 12 16 0.553915 0 23 0.553915 1
gene 1 12 17 -2.01033 0 24 -2.01033 1
gene 1 13 16 -3.01578 0 25 -3.01578 1
gene 1 13 17 -0.266727 0 16 -0.266727 1
gene 1 14 16 0.574764 0 17 0.574764 1
gene 1 14 17 2.05999 0 28 2.05999 1
gene 1 15 16 3.93572 0 29 3.93572 1
gene 1 15 17 1.20925 0 30 1.20925 1
genomeend 6


