/* Organism #18 Fitness: 10.010000 Time: 0 */
genomestart 18
trait 1 0.000000 0.000000 0.858258 0.753776 0.000000 1.000000 0.636199 0.000000 
node 1 1 1 1
node 2 1 1 1
node 3 1 1 1
node 4 1 1 1
node 5 1 1 1
node 6 1 1 1
node 7 1 1 1
node 8 1 1 1
node 9 1 1 1
node 10 1 1 1
node 11 1 1 1
node 12 1 1 1
node 13 1 1 1
node 14 1 1 1
node 15 1 1 3
node 16 1 0 2
node 17 1 0 2
gene 1 1 16 -0.494689 0 1 -0.494689 1
gene 1 1 17 0.860792 0 2 0.860792 1
gene 1 2 16 0.98142 0 3 0.98142 1
gene 1 2 17 2.07218 0 4 2.07218 1
gene 1 3 16 4.02747 0 5 4.02747 1
gene 1 3 17 0.912041 0 6 0.912041 1
gene 1 4 16 -4.98836 0 7 -4.98836 1
gene 1 4 17 1.62275 0 8 1.62275 1
gene 1 5 16 -1.04686 0 9 -1.04686 1
gene 1 5 17 -1.11193 0 10 -1.11193 1
gene 1 6 16 0.803017 0 11 0.803017 1
gene 1 6 17 -0.712962 0 12 -0.712962 1
gene 1 7 16 -0.976155 0 13 -0.976155 1
gene 1 7 17 1.33107 0 14 1.33107 1
gene 1 8 16 0.354646 0 15 0.354646 1
gene 1 8 17 1.63983 0 16 1.63983 1
gene 1 9 16 -0.548479 0 17 -0.548479 1
gene 1 9 17 -0.14625 0 18 -0.14625 1
gene 1 10 16 -1.1304 0 19 -1.1304 1
gene 1 10 17 1.11534 0 20 1.11534 1
gene 1 11 16 3.89112 0 21 3.89112 1
gene 1 11 17 -2.72176 0 22 -2.72176 1
gene 1 12 16 2.04949 0 23 2.04949 1
gene 1 12 17 0.968283 0 24 0.968283 1
gene 1 13 16 -2.82228 0 25 -2.82228 1
gene 1 13 17 0.800797 0 16 0.800797 1
gene 1 14 16 -0.0668673 0 17 -0.0668673 1
gene 1 14 17 -1.20569 0 28 -1.20569 1
gene 1 15 16 0.898058 0 29 0.898058 1
gene 1 15 17 2.86867 0 30 2.86867 1
genomeend 18


