/* Organism #0 Fitness: 2843.720000 Time: 0 */
genomestart 0
trait 1 0.100000 0.000000 0.000000 0.000000 0.000000 0.000000 0.000000 0.000000 
node 1 1 1 1
node 2 1 1 1
node 3 1 1 1
node 4 1 1 1
node 5 1 1 1
node 6 1 1 1
node 7 1 1 1
node 8 1 1 1
node 9 1 1 1
node 10 1 1 1
node 11 1 1 1
node 12 1 1 1
node 13 1 1 1
node 14 1 1 1
node 15 1 1 3
node 16 1 0 2
node 17 1 0 2
gene 1 1 16 -1.90786 0 1 -1.90786 1
gene 1 1 17 0.719115 0 2 0.719115 1
gene 1 2 16 0.414804 0 3 0.414804 1
gene 1 2 17 1.30268 0 4 1.30268 1
gene 1 3 16 -0.955959 0 5 -0.955959 1
gene 1 3 17 0.823656 0 6 0.823656 1
gene 1 4 16 -1.86163 0 7 -1.86163 1
gene 1 4 17 0.361397 0 8 0.361397 1
gene 1 5 16 -0.499724 0 9 -0.499724 1
gene 1 5 17 -0.28122 0 10 -0.28122 1
gene 1 6 16 -1.50423 0 11 -1.50423 1
gene 1 6 17 -1.95194 0 12 -1.95194 1
gene 1 7 16 -0.129952 0 13 -0.129952 1
gene 1 7 17 -1.53346 0 14 -1.53346 1
gene 1 8 16 1.31549 0 15 1.31549 1
gene 1 8 17 1.57069 0 16 1.57069 1
gene 1 9 16 -0.319235 0 17 -0.319235 1
gene 1 9 17 -2.13761 0 18 -2.13761 1
gene 1 10 16 1.20152 0 19 1.20152 1
gene 1 10 17 0.552607 0 20 0.552607 1
gene 1 11 16 -1.37536 0 21 -1.37536 1
gene 1 11 17 -1.4894 0 22 -1.4894 1
gene 1 12 16 1.85313 0 23 1.85313 1
gene 1 12 17 2.55452 0 24 2.55452 1
gene 1 13 16 0.903129 0 25 0.903129 1
gene 1 13 17 0.300085 0 16 0.300085 1
gene 1 14 16 0.424901 0 17 0.424901 1
gene 1 14 17 1.08617 0 28 1.08617 1
gene 1 15 16 -0.903795 0 29 -0.903795 1
gene 1 15 17 1.10068 0 30 1.10068 1
genomeend 0


