/* Organism #1 Fitness: 2871.960000 Time: 0 */
genomestart 1
trait 1 0.000000 0.000000 0.000000 0.000000 0.000000 0.000000 0.000000 0.000000 
node 1 1 1 1
node 2 1 1 1
node 3 1 1 1
node 4 1 1 1
node 5 1 1 1
node 6 1 1 1
node 7 1 1 1
node 8 1 1 1
node 9 1 1 1
node 10 1 1 1
node 11 1 1 1
node 12 1 1 1
node 13 1 1 1
node 14 1 1 1
node 15 1 1 3
node 16 1 0 2
node 17 1 0 2
gene 1 1 16 -3.64919 0 1 -3.64919 1
gene 1 1 17 1.60193 0 2 1.60193 1
gene 1 2 16 3.84889 0 3 3.84889 1
gene 1 2 17 -1.14722 0 4 -1.14722 1
gene 1 3 16 1.80471 0 5 1.80471 1
gene 1 3 17 -0.748024 0 6 -0.748024 1
gene 1 4 16 0.410251 0 7 0.410251 1
gene 1 4 17 0.909412 0 8 0.909412 1
gene 1 5 16 -2.63182 0 9 -2.63182 1
gene 1 5 17 2.22831 0 10 2.22831 1
gene 1 6 16 1.32506 0 11 1.32506 1
gene 1 6 17 0.0966012 0 12 0.0966012 1
gene 1 7 16 1.07297 0 13 1.07297 1
gene 1 7 17 -1.00937 0 14 -1.00937 1
gene 1 8 16 -0.243273 0 15 -0.243273 1
gene 1 8 17 -0.481377 0 16 -0.481377 1
gene 1 9 16 -0.735917 0 17 -0.735917 1
gene 1 9 17 -4.56283 0 18 -4.56283 1
gene 1 10 16 -1.12063 0 19 -1.12063 1
gene 1 10 17 0.191094 0 20 0.191094 1
gene 1 11 16 -3.21087 0 21 -3.21087 1
gene 1 11 17 -0.933849 0 22 -0.933849 1
gene 1 12 16 2.52351 0 23 2.52351 1
gene 1 12 17 2.10258 0 24 2.10258 1
gene 1 13 16 -3.03904 0 25 -3.03904 1
gene 1 13 17 -0.35817 0 16 -0.35817 1
gene 1 14 16 -0.449033 0 17 -0.449033 1
gene 1 14 17 -0.543568 0 28 -0.543568 1
gene 1 15 16 0.0858461 0 29 0.0858461 1
gene 1 15 17 0.345209 0 30 0.345209 1
genomeend 1


