/* Organism #5 Fitness: 2852.710000 Time: 0 */
genomestart 5
trait 1 0.100000 0.000000 0.000000 0.000000 0.000000 0.000000 0.000000 0.000000 
node 1 1 1 1
node 2 1 1 1
node 3 1 1 1
node 4 1 1 1
node 5 1 1 1
node 6 1 1 1
node 7 1 1 1
node 8 1 1 1
node 9 1 1 1
node 10 1 1 1
node 11 1 1 1
node 12 1 1 1
node 13 1 1 1
node 14 1 1 1
node 15 1 1 3
node 16 1 0 2
node 17 1 0 2
gene 1 1 16 -2.8475 0 1 -2.8475 1
gene 1 1 17 0.804 0 2 0.804 1
gene 1 2 16 5 0 3 5 1
gene 1 2 17 -1.14555 0 4 -1.14555 1
gene 1 3 16 3.26609 0 5 3.26609 1
gene 1 3 17 -0.827362 0 6 -0.827362 1
gene 1 4 16 1.09671 0 7 1.09671 1
gene 1 4 17 0.916847 0 8 0.916847 1
gene 1 5 16 -1.02306 0 9 -1.02306 1
gene 1 5 17 0.426939 0 10 0.426939 1
gene 1 6 16 1.27368 0 11 1.27368 1
gene 1 6 17 0.326268 0 12 0.326268 1
gene 1 7 16 -2.39514 0 13 -2.39514 1
gene 1 7 17 -0.0160719 0 14 -0.0160719 1
gene 1 8 16 0.161022 0 15 0.161022 1
gene 1 8 17 -1.98934 0 16 -1.98934 1
gene 1 9 16 -1.30348 0 17 -1.30348 1
gene 1 9 17 -4.20604 0 18 -4.20604 1
gene 1 10 16 -2.77319 0 19 -2.77319 1
gene 1 10 17 -0.833964 0 20 -0.833964 1
gene 1 11 16 -0.167718 0 21 -0.167718 1
gene 1 11 17 1.45602 0 22 1.45602 1
gene 1 12 16 0.497483 0 23 0.497483 1
gene 1 12 17 -0.446302 0 24 -0.446302 1
gene 1 13 16 0.0535644 0 25 0.0535644 1
gene 1 13 17 -1.97059 0 16 -1.97059 1
gene 1 14 16 -0.846867 0 17 -0.846867 1
gene 1 14 17 0.576523 0 28 0.576523 1
gene 1 15 16 0.518552 0 29 0.518552 1
gene 1 15 17 1.52365 0 30 1.52365 1
genomeend 5


