/* Organism #0 Fitness: 2811.620000 Time: 0 */
genomestart 0
trait 1 0.000000 0.000000 0.000000 0.251415 0.000000 0.000000 0.000000 0.000000 
node 1 1 1 1
node 2 1 1 1
node 3 1 1 1
node 4 1 1 1
node 5 1 1 1
node 6 1 1 1
node 7 1 1 1
node 8 1 1 1
node 9 1 1 1
node 10 1 1 1
node 11 1 1 1
node 12 1 1 1
node 13 1 1 1
node 14 1 1 1
node 15 1 1 3
node 16 1 0 2
node 17 1 0 2
gene 1 1 16 -2.44457 0 1 -2.44457 1
gene 1 1 17 1.85056 0 2 1.85056 1
gene 1 2 16 0.404462 0 3 0.404462 1
gene 1 2 17 1.68371 0 4 1.68371 1
gene 1 3 16 -0.738263 0 5 -0.738263 1
gene 1 3 17 2.50961 0 6 2.50961 1
gene 1 4 16 -0.181564 0 7 -0.181564 1
gene 1 4 17 0.173445 0 8 0.173445 1
gene 1 5 16 3.01235 0 9 3.01235 1
gene 1 5 17 -1.81186 0 10 -1.81186 1
gene 1 6 16 5 0 11 5 1
gene 1 6 17 -2.64074 0 12 -2.64074 1
gene 1 7 16 1.36116 0 13 1.36116 1
gene 1 7 17 2.70014 0 14 2.70014 1
gene 1 8 16 -0.608921 0 15 -0.608921 1
gene 1 8 17 -2.88872 0 16 -2.88872 1
gene 1 9 16 -2.88329 0 17 -2.88329 1
gene 1 9 17 0.278479 0 18 0.278479 1
gene 1 10 16 0.800987 0 19 0.800987 1
gene 1 10 17 -1.2169 0 20 -1.2169 1
gene 1 11 16 1.27194 0 21 1.27194 1
gene 1 11 17 -0.361034 0 22 -0.361034 1
gene 1 12 16 -0.448683 0 23 -0.448683 1
gene 1 12 17 -3.11198 0 24 -3.11198 1
gene 1 13 16 0.386217 0 25 0.386217 1
gene 1 13 17 1.02064 0 16 1.02064 1
gene 1 14 16 0.0732169 0 17 0.0732169 1
gene 1 14 17 -0.643795 0 28 -0.643795 1
gene 1 15 16 0.992583 0 29 0.992583 1
gene 1 15 17 -0.939417 0 30 -0.939417 1
genomeend 0


