/* Organism #19 Fitness: 2696.170000 Time: 0 */
genomestart 19
trait 1 0.209595 0.000000 0.010412 0.000000 0.000000 0.000000 0.769078 0.588771 
node 1 1 1 1
node 2 1 1 1
node 3 1 1 1
node 4 1 1 1
node 5 1 1 1
node 6 1 1 1
node 7 1 1 1
node 8 1 1 1
node 9 1 1 1
node 10 1 1 1
node 11 1 1 1
node 12 1 1 1
node 13 1 1 1
node 14 1 1 1
node 15 1 1 3
node 16 1 0 2
node 17 1 0 2
gene 1 1 16 -4.14325 0 1 -4.14325 1
gene 1 1 17 2.4048 0 2 2.4048 1
gene 1 2 16 4.66598 0 3 4.66598 1
gene 1 2 17 2.17033 0 4 2.17033 1
gene 1 3 16 3.09165 0 5 3.09165 1
gene 1 3 17 2.01871 0 6 2.01871 1
gene 1 4 16 0.179051 0 7 0.179051 1
gene 1 4 17 -2.95291 0 8 -2.95291 1
gene 1 5 16 0.629083 0 9 0.629083 1
gene 1 5 17 -2.53456 0 10 -2.53456 1
gene 1 6 16 0.384336 0 11 0.384336 1
gene 1 6 17 -0.969569 0 12 -0.969569 1
gene 1 7 16 -2.15156 0 13 -2.15156 1
gene 1 7 17 -0.108652 0 14 -0.108652 1
gene 1 8 16 -1.26567 0 15 -1.26567 1
gene 1 8 17 2.52121 0 16 2.52121 1
gene 1 9 16 -5 0 17 -5 1
gene 1 9 17 -4.5231 0 18 -4.5231 1
gene 1 10 16 -1.55516 0 19 -1.55516 1
gene 1 10 17 0.344994 0 20 0.344994 1
gene 1 11 16 1.63784 0 21 1.63784 1
gene 1 11 17 2.75545 0 22 2.75545 1
gene 1 12 16 1.10755 0 23 1.10755 1
gene 1 12 17 0.0140184 0 24 0.0140184 1
gene 1 13 16 -1.06447 0 25 -1.06447 1
gene 1 13 17 0.0967438 0 16 0.0967438 1
gene 1 14 16 -1.46372 0 17 -1.46372 1
gene 1 14 17 0.314512 0 28 0.314512 1
gene 1 15 16 -1.43296 0 29 -1.43296 1
gene 1 15 17 1.96472 0 30 1.96472 1
genomeend 19


