/* Organism #6 Fitness: 2690.150000 Time: 0 */
genomestart 6
trait 1 1.000000 0.000000 0.831551 0.800272 0.000000 0.263159 0.000000 0.347695 
node 1 1 1 1
node 2 1 1 1
node 3 1 1 1
node 4 1 1 1
node 5 1 1 1
node 6 1 1 1
node 7 1 1 1
node 8 1 1 1
node 9 1 1 1
node 10 1 1 1
node 11 1 1 1
node 12 1 1 1
node 13 1 1 1
node 14 1 1 1
node 15 1 1 3
node 16 1 0 2
node 17 1 0 2
gene 1 1 16 3.74874 0 1 3.74874 1
gene 1 1 17 -0.0197656 0 2 -0.0197656 1
gene 1 2 16 2.71753 0 3 2.71753 1
gene 1 2 17 -3.51019 0 4 -3.51019 1
gene 1 3 16 3.15922 0 5 3.15922 1
gene 1 3 17 2.82717 0 6 2.82717 1
gene 1 4 16 1.14042 0 7 1.14042 1
gene 1 4 17 -2.27598 0 8 -2.27598 1
gene 1 5 16 -1.52312 0 9 -1.52312 1
gene 1 5 17 2.49789 0 10 2.49789 1
gene 1 6 16 -3.4169 0 11 -3.4169 1
gene 1 6 17 1.50141 0 12 1.50141 1
gene 1 7 16 3.62415 0 13 3.62415 1
gene 1 7 17 0.4927 0 14 0.4927 1
gene 1 8 16 -3.85967 0 15 -3.85967 1
gene 1 8 17 -0.130433 0 16 -0.130433 1
gene 1 9 16 -4.14642 0 17 -4.14642 1
gene 1 9 17 -3.46524 0 18 -3.46524 1
gene 1 10 16 -1.36393 0 19 -1.36393 1
gene 1 10 17 -0.659178 0 20 -0.659178 1
gene 1 11 16 -4.32578 0 21 -4.32578 1
gene 1 11 17 -2.75408 0 22 -2.75408 1
gene 1 12 16 2.54073 0 23 2.54073 1
gene 1 12 17 1.40655 0 24 1.40655 1
gene 1 13 16 -2.57661 0 25 -2.57661 1
gene 1 13 17 -0.00931835 0 16 -0.00931835 1
gene 1 14 16 0.592922 0 17 0.592922 1
gene 1 14 17 -0.93513 0 28 -0.93513 1
gene 1 15 16 3.17522 0 29 3.17522 1
gene 1 15 17 -0.382377 0 30 -0.382377 1
genomeend 6


