/* Organism #6 Fitness: 2823.410000 Time: 0 */
genomestart 6
trait 1 0.100000 0.000000 0.000000 0.000000 0.000000 0.000000 0.000000 0.000000 
node 1 1 1 1
node 2 1 1 1
node 3 1 1 1
node 4 1 1 1
node 5 1 1 1
node 6 1 1 1
node 7 1 1 1
node 8 1 1 1
node 9 1 1 1
node 10 1 1 1
node 11 1 1 1
node 12 1 1 1
node 13 1 1 1
node 14 1 1 1
node 15 1 1 3
node 16 1 0 2
node 17 1 0 2
gene 1 1 16 -3.79127 0 1 -3.79127 1
gene 1 1 17 0.400342 0 2 0.400342 1
gene 1 2 16 3.55944 0 3 3.55944 1
gene 1 2 17 -3.16759 0 4 -3.16759 1
gene 1 3 16 2.13896 0 5 2.13896 1
gene 1 3 17 -0.459723 0 6 -0.459723 1
gene 1 4 16 1.25769 0 7 1.25769 1
gene 1 4 17 0.0267648 0 8 0.0267648 1
gene 1 5 16 2.65287 0 9 2.65287 1
gene 1 5 17 0.975481 0 10 0.975481 1
gene 1 6 16 -0.717233 0 11 -0.717233 1
gene 1 6 17 1.42635 0 12 1.42635 1
gene 1 7 16 -0.779088 0 13 -0.779088 1
gene 1 7 17 -1.98194 0 14 -1.98194 1
gene 1 8 16 4.88358 0 15 4.88358 1
gene 1 8 17 0.406956 0 16 0.406956 1
gene 1 9 16 -1.01943 0 17 -1.01943 1
gene 1 9 17 -2.00785 0 18 -2.00785 1
gene 1 10 16 -0.878541 0 19 -0.878541 1
gene 1 10 17 0.660122 0 20 0.660122 1
gene 1 11 16 -1.54708 0 21 -1.54708 1
gene 1 11 17 1.1136 0 22 1.1136 1
gene 1 12 16 -2.33046 0 23 -2.33046 1
gene 1 12 17 -0.410114 0 24 -0.410114 1
gene 1 13 16 -0.604422 0 25 -0.604422 1
gene 1 13 17 -0.736253 0 16 -0.736253 1
gene 1 14 16 -0.801417 0 17 -0.801417 1
gene 1 14 17 0.891549 0 28 0.891549 1
gene 1 15 16 -0.214694 0 29 -0.214694 1
gene 1 15 17 0.367995 0 30 0.367995 1
genomeend 6


