/* Organism #1 Fitness: 2704.020000 Time: 0 */
genomestart 1
trait 1 0.000000 0.000000 0.497630 0.000000 0.641369 0.644186 0.000000 0.000000 
node 1 1 1 1
node 2 1 1 1
node 3 1 1 1
node 4 1 1 1
node 5 1 1 1
node 6 1 1 1
node 7 1 1 1
node 8 1 1 1
node 9 1 1 1
node 10 1 1 1
node 11 1 1 1
node 12 1 1 1
node 13 1 1 1
node 14 1 1 1
node 15 1 1 3
node 16 1 0 2
node 17 1 0 2
gene 1 1 16 -3.5442 0 1 -3.5442 1
gene 1 1 17 3.43028 0 2 3.43028 1
gene 1 2 16 1.05342 0 3 1.05342 1
gene 1 2 17 2.12675 0 4 2.12675 1
gene 1 3 16 0.248936 0 5 0.248936 1
gene 1 3 17 3.45312 0 6 3.45312 1
gene 1 4 16 -1.15161 0 7 -1.15161 1
gene 1 4 17 0.147032 0 8 0.147032 1
gene 1 5 16 -0.0106584 0 9 -0.0106584 1
gene 1 5 17 -0.329161 0 10 -0.329161 1
gene 1 6 16 0.401899 0 11 0.401899 1
gene 1 6 17 -1.82593 0 12 -1.82593 1
gene 1 7 16 -2.46731 0 13 -2.46731 1
gene 1 7 17 1.52863 0 14 1.52863 1
gene 1 8 16 0.120658 0 15 0.120658 1
gene 1 8 17 5 0 16 5 1
gene 1 9 16 -4.74112 0 17 -4.74112 1
gene 1 9 17 -3.7021 0 18 -3.7021 1
gene 1 10 16 -0.735907 0 19 -0.735907 1
gene 1 10 17 0.364743 0 20 0.364743 1
gene 1 11 16 -3.43327 0 21 -3.43327 1
gene 1 11 17 -2.37219 0 22 -2.37219 1
gene 1 12 16 -0.192498 0 23 -0.192498 1
gene 1 12 17 1.57647 0 24 1.57647 1
gene 1 13 16 1.30645 0 25 1.30645 1
gene 1 13 17 -1.9504 0 16 -1.9504 1
gene 1 14 16 0.755851 0 17 0.755851 1
gene 1 14 17 -1.19107 0 28 -1.19107 1
gene 1 15 16 0.192349 0 29 0.192349 1
gene 1 15 17 2.63447 0 30 2.63447 1
genomeend 1


