/* Organism #3 Fitness: 2687.210000 Time: 0 */
genomestart 3
trait 1 0.000000 0.304663 0.000000 0.000000 0.000000 0.496572 0.000000 0.000000 
node 1 1 1 1
node 2 1 1 1
node 3 1 1 1
node 4 1 1 1
node 5 1 1 1
node 6 1 1 1
node 7 1 1 1
node 8 1 1 1
node 9 1 1 1
node 10 1 1 1
node 11 1 1 1
node 12 1 1 1
node 13 1 1 1
node 14 1 1 1
node 15 1 1 3
node 16 1 0 2
node 17 1 0 2
gene 1 1 16 -1.17192 0 1 -1.17192 1
gene 1 1 17 -0.117477 0 2 -0.117477 1
gene 1 2 16 4.94866 0 3 4.94866 1
gene 1 2 17 1.60769 0 4 1.60769 1
gene 1 3 16 4.56806 0 5 4.56806 1
gene 1 3 17 2.30208 0 6 2.30208 1
gene 1 4 16 2.78157 0 7 2.78157 1
gene 1 4 17 -0.913021 0 8 -0.913021 1
gene 1 5 16 -3.37089 0 9 -3.37089 1
gene 1 5 17 -1.48553 0 10 -1.48553 1
gene 1 6 16 -2.21326 0 11 -2.21326 1
gene 1 6 17 -0.314427 0 12 -0.314427 1
gene 1 7 16 0.668503 0 13 0.668503 1
gene 1 7 17 2.21745 0 14 2.21745 1
gene 1 8 16 -0.146225 0 15 -0.146225 1
gene 1 8 17 0.95917 0 16 0.95917 1
gene 1 9 16 -3.63151 0 17 -3.63151 1
gene 1 9 17 -0.0311688 0 18 -0.0311688 1
gene 1 10 16 0.51255 0 19 0.51255 1
gene 1 10 17 1.25881 0 20 1.25881 1
gene 1 11 16 -1.56728 0 21 -1.56728 1
gene 1 11 17 -0.297234 0 22 -0.297234 1
gene 1 12 16 -3.069 0 23 -3.069 1
gene 1 12 17 0.974911 0 24 0.974911 1
gene 1 13 16 -0.466021 0 25 -0.466021 1
gene 1 13 17 -0.476658 0 16 -0.476658 1
gene 1 14 16 0.423889 0 17 0.423889 1
gene 1 14 17 0.427272 0 28 0.427272 1
gene 1 15 16 0.496578 0 29 0.496578 1
gene 1 15 17 -2.41975 0 30 -2.41975 1
genomeend 3


