/* Organism #10 Fitness: 2858.280000 Time: 0 */
genomestart 10
trait 1 0.000000 0.625565 0.000000 0.000000 0.064631 0.258924 0.000000 0.696714 
node 1 1 1 1
node 2 1 1 1
node 3 1 1 1
node 4 1 1 1
node 5 1 1 1
node 6 1 1 1
node 7 1 1 1
node 8 1 1 1
node 9 1 1 1
node 10 1 1 1
node 11 1 1 1
node 12 1 1 1
node 13 1 1 1
node 14 1 1 1
node 15 1 1 3
node 16 1 0 2
node 17 1 0 2
gene 1 1 16 -3.09827 0 1 -3.09827 1
gene 1 1 17 1.33178 0 2 1.33178 1
gene 1 2 16 0.783046 0 3 0.783046 1
gene 1 2 17 5 0 4 5 1
gene 1 3 16 -0.892585 0 5 -0.892585 1
gene 1 3 17 1.95013 0 6 1.95013 1
gene 1 4 16 -1.34655 0 7 -1.34655 1
gene 1 4 17 -0.582015 0 8 -0.582015 1
gene 1 5 16 4.96456 0 9 4.96456 1
gene 1 5 17 -3.79682 0 10 -3.79682 1
gene 1 6 16 -0.12555 0 11 -0.12555 1
gene 1 6 17 0.157839 0 12 0.157839 1
gene 1 7 16 -0.151687 0 13 -0.151687 1
gene 1 7 17 0.0570003 0 14 0.0570003 1
gene 1 8 16 -0.185866 0 15 -0.185866 1
gene 1 8 17 0.55227 0 16 0.55227 1
gene 1 9 16 -0.212351 0 17 -0.212351 1
gene 1 9 17 -3.73776 0 18 -3.73776 1
gene 1 10 16 1.67257 0 19 1.67257 1
gene 1 10 17 -1.45891 0 20 -1.45891 1
gene 1 11 16 2.38271 0 21 2.38271 1
gene 1 11 17 -1.02914 0 22 -1.02914 1
gene 1 12 16 0.251662 0 23 0.251662 1
gene 1 12 17 0.349381 0 24 0.349381 1
gene 1 13 16 1.17604 0 25 1.17604 1
gene 1 13 17 -0.256249 0 16 -0.256249 1
gene 1 14 16 0.0756347 0 17 0.0756347 1
gene 1 14 17 -3.83657 0 28 -3.83657 1
gene 1 15 16 -1.31453 0 29 -1.31453 1
gene 1 15 17 3.15557 0 30 3.15557 1
genomeend 10


