/* Organism #0 Fitness: 17.880000 Time: 0 */
genomestart 0
trait 1 0.000000 0.000000 0.614861 0.624315 0.000000 1.000000 0.000000 0.958356 
node 1 1 1 1
node 2 1 1 1
node 3 1 1 1
node 4 1 1 1
node 5 1 1 1
node 6 1 1 1
node 7 1 1 1
node 8 1 1 1
node 9 1 1 1
node 10 1 1 1
node 11 1 1 1
node 12 1 1 1
node 13 1 1 1
node 14 1 1 1
node 15 1 1 3
node 16 1 0 2
node 17 1 0 2
gene 1 1 16 0.0604985 0 1 0.0604985 1
gene 1 1 17 0.263676 0 2 0.263676 1
gene 1 2 16 -0.19286 0 3 -0.19286 1
gene 1 2 17 0.956788 0 4 0.956788 1
gene 1 3 16 5 0 5 5 1
gene 1 3 17 0.951909 0 6 0.951909 1
gene 1 4 16 -1.72021 0 7 -1.72021 1
gene 1 4 17 -1.44158 0 8 -1.44158 1
gene 1 5 16 -0.55116 0 9 -0.55116 1
gene 1 5 17 2.01021 0 10 2.01021 1
gene 1 6 16 -0.80224 0 11 -0.80224 1
gene 1 6 17 -0.251625 0 12 -0.251625 1
gene 1 7 16 0.18251 0 13 0.18251 1
gene 1 7 17 -0.141777 0 14 -0.141777 1
gene 1 8 16 3.59291 0 15 3.59291 1
gene 1 8 17 0.256232 0 16 0.256232 1
gene 1 9 16 0.123361 0 17 0.123361 1
gene 1 9 17 0.0100633 0 18 0.0100633 1
gene 1 10 16 0.109963 0 19 0.109963 1
gene 1 10 17 1.75032 0 20 1.75032 1
gene 1 11 16 0.419292 0 21 0.419292 1
gene 1 11 17 0.135274 0 22 0.135274 1
gene 1 12 16 -4.23328 0 23 -4.23328 1
gene 1 12 17 -0.356433 0 24 -0.356433 1
gene 1 13 16 0.249532 0 25 0.249532 1
gene 1 13 17 -0.581861 0 16 -0.581861 1
gene 1 14 16 0.778815 0 17 0.778815 1
gene 1 14 17 -1.06682 0 28 -1.06682 1
gene 1 15 16 -0.672669 0 29 -0.672669 1
gene 1 15 17 -2.1509 0 30 -2.1509 1
genomeend 0


