/* Organism #0 Fitness: 18.140000 Time: 0 */
genomestart 0
trait 1 0.100000 0.000000 0.000000 0.000000 0.000000 0.000000 0.786106 0.942917 
node 1 1 1 1
node 2 1 1 1
node 3 1 1 1
node 4 1 1 1
node 5 1 1 1
node 6 1 1 1
node 7 1 1 1
node 8 1 1 1
node 9 1 1 1
node 10 1 1 1
node 11 1 1 1
node 12 1 1 1
node 13 1 1 1
node 14 1 1 1
node 15 1 1 3
node 16 1 0 2
node 17 1 0 2
gene 1 1 16 0.475262 0 1 0.475262 1
gene 1 1 17 -2.59101 0 2 -2.59101 1
gene 1 2 16 -1.04176 0 3 -1.04176 1
gene 1 2 17 4.06363 0 4 4.06363 1
gene 1 3 16 5 0 5 5 1
gene 1 3 17 -0.166848 0 6 -0.166848 1
gene 1 4 16 -2.28383 0 7 -2.28383 1
gene 1 4 17 2.98864 0 8 2.98864 1
gene 1 5 16 0.214156 0 9 0.214156 1
gene 1 5 17 -1.4757 0 10 -1.4757 1
gene 1 6 16 -0.373463 0 11 -0.373463 1
gene 1 6 17 0.298825 0 12 0.298825 1
gene 1 7 16 -3.11706 0 13 -3.11706 1
gene 1 7 17 -1.88293 0 14 -1.88293 1
gene 1 8 16 1.89797 0 15 1.89797 1
gene 1 8 17 0.137597 0 16 0.137597 1
gene 1 9 16 1.21145 0 17 1.21145 1
gene 1 9 17 -4.75103 0 18 -4.75103 1
gene 1 10 16 0.0323068 0 19 0.0323068 1
gene 1 10 17 -2.06691 0 20 -2.06691 1
gene 1 11 16 0.829395 0 21 0.829395 1
gene 1 11 17 -1.97533 0 22 -1.97533 1
gene 1 12 16 -1.16874 0 23 -1.16874 1
gene 1 12 17 -4.17984 0 24 -4.17984 1
gene 1 13 16 1.64577 0 25 1.64577 1
gene 1 13 17 -1.62564 0 16 -1.62564 1
gene 1 14 16 0.295504 0 17 0.295504 1
gene 1 14 17 0.731862 0 28 0.731862 1
gene 1 15 16 -1.68874 0 29 -1.68874 1
gene 1 15 17 -1.96298 0 30 -1.96298 1
genomeend 0


