/* Organism #0 Fitness: 18.390000 Time: 0 */
genomestart 0
trait 1 0.100000 0.000000 0.000000 0.000000 0.000000 0.000000 0.553409 0.701393 
node 1 1 1 1
node 2 1 1 1
node 3 1 1 1
node 4 1 1 1
node 5 1 1 1
node 6 1 1 1
node 7 1 1 1
node 8 1 1 1
node 9 1 1 1
node 10 1 1 1
node 11 1 1 1
node 12 1 1 1
node 13 1 1 1
node 14 1 1 1
node 15 1 1 3
node 16 1 0 2
node 17 1 0 2
gene 1 1 16 -0.274132 0 1 -0.274132 1
gene 1 1 17 1.81231 0 2 1.81231 1
gene 1 2 16 1.3912 0 3 1.3912 1
gene 1 2 17 2.2183 0 4 2.2183 1
gene 1 3 16 3.88842 0 5 3.88842 1
gene 1 3 17 -2.71549 0 6 -2.71549 1
gene 1 4 16 -2.07319 0 7 -2.07319 1
gene 1 4 17 -0.635694 0 8 -0.635694 1
gene 1 5 16 -0.639658 0 9 -0.639658 1
gene 1 5 17 1.85524 0 10 1.85524 1
gene 1 6 16 -1.34669 0 11 -1.34669 1
gene 1 6 17 -0.928827 0 12 -0.928827 1
gene 1 7 16 3.56079 0 13 3.56079 1
gene 1 7 17 3.02623 0 14 3.02623 1
gene 1 8 16 0.672659 0 15 0.672659 1
gene 1 8 17 -1.44325 0 16 -1.44325 1
gene 1 9 16 0.246222 0 17 0.246222 1
gene 1 9 17 -3.49775 0 18 -3.49775 1
gene 1 10 16 0.0320866 0 19 0.0320866 1
gene 1 10 17 -0.601519 0 20 -0.601519 1
gene 1 11 16 2.03652 0 21 2.03652 1
gene 1 11 17 0.78008 0 22 0.78008 1
gene 1 12 16 -1.98523 0 23 -1.98523 1
gene 1 12 17 -0.273984 0 24 -0.273984 1
gene 1 13 16 -0.347702 0 25 -0.347702 1
gene 1 13 17 -0.971753 0 16 -0.971753 1
gene 1 14 16 1.33923 0 17 1.33923 1
gene 1 14 17 0.950196 0 28 0.950196 1
gene 1 15 16 -0.745428 0 29 -0.745428 1
gene 1 15 17 -3.33243 0 30 -3.33243 1
genomeend 0


