/* Organism #1 Fitness: 17.660000 Time: 0 */
genomestart 1
trait 1 0.000000 0.498131 0.222410 0.000000 0.000000 0.000000 0.000000 0.000000 
node 1 1 1 1
node 2 1 1 1
node 3 1 1 1
node 4 1 1 1
node 5 1 1 1
node 6 1 1 1
node 7 1 1 1
node 8 1 1 1
node 9 1 1 1
node 10 1 1 1
node 11 1 1 1
node 12 1 1 1
node 13 1 1 1
node 14 1 1 1
node 15 1 1 3
node 16 1 0 2
node 17 1 0 2
gene 1 1 16 -0.548553 0 1 -0.548553 1
gene 1 1 17 0.224327 0 2 0.224327 1
gene 1 2 16 1.71274 0 3 1.71274 1
gene 1 2 17 1.25612 0 4 1.25612 1
gene 1 3 16 1.65848 0 5 1.65848 1
gene 1 3 17 -0.130553 0 6 -0.130553 1
gene 1 4 16 -4.26609 0 7 -4.26609 1
gene 1 4 17 -0.191479 0 8 -0.191479 1
gene 1 5 16 0.0545026 0 9 0.0545026 1
gene 1 5 17 1.6958 0 10 1.6958 1
gene 1 6 16 -1.59737 0 11 -1.59737 1
gene 1 6 17 -0.0223027 0 12 -0.0223027 1
gene 1 7 16 -0.0120554 0 13 -0.0120554 1
gene 1 7 17 0.101446 0 14 0.101446 1
gene 1 8 16 1.87974 0 15 1.87974 1
gene 1 8 17 3.71586 0 16 3.71586 1
gene 1 9 16 -0.140347 0 17 -0.140347 1
gene 1 9 17 2.24133 0 18 2.24133 1
gene 1 10 16 0.247195 0 19 0.247195 1
gene 1 10 17 -2.49138 0 20 -2.49138 1
gene 1 11 16 0.27271 0 21 0.27271 1
gene 1 11 17 -0.948255 0 22 -0.948255 1
gene 1 12 16 -1.87474 0 23 -1.87474 1
gene 1 12 17 -1.22836 0 24 -1.22836 1
gene 1 13 16 0.544639 0 25 0.544639 1
gene 1 13 17 0.400542 0 16 0.400542 1
gene 1 14 16 1.26052 0 17 1.26052 1
gene 1 14 17 0.611529 0 28 0.611529 1
gene 1 15 16 0.674969 0 29 0.674969 1
gene 1 15 17 2.09559 0 30 2.09559 1
genomeend 1


