/* Organism #1 Fitness: 18.150000 Time: 0 */
genomestart 1
trait 1 0.297691 0.000000 0.000000 0.000000 0.190801 0.000000 0.000000 0.000000 
node 1 1 1 1
node 2 1 1 1
node 3 1 1 1
node 4 1 1 1
node 5 1 1 1
node 6 1 1 1
node 7 1 1 1
node 8 1 1 1
node 9 1 1 1
node 10 1 1 1
node 11 1 1 1
node 12 1 1 1
node 13 1 1 1
node 14 1 1 1
node 15 1 1 3
node 16 1 0 2
node 17 1 0 2
gene 1 1 16 -0.464747 0 1 -0.464747 1
gene 1 1 17 -1.36565 0 2 -1.36565 1
gene 1 2 16 1.87867 0 3 1.87867 1
gene 1 2 17 3.70748 0 4 3.70748 1
gene 1 3 16 -1.4384 0 5 -1.4384 1
gene 1 3 17 -1.1767 0 6 -1.1767 1
gene 1 4 16 1.24507 0 7 1.24507 1
gene 1 4 17 -1.11022 0 8 -1.11022 1
gene 1 5 16 -0.7725 0 9 -0.7725 1
gene 1 5 17 -0.663866 0 10 -0.663866 1
gene 1 6 16 0.676779 0 11 0.676779 1
gene 1 6 17 -2.59597 0 12 -2.59597 1
gene 1 7 16 -0.294434 0 13 -0.294434 1
gene 1 7 17 -0.602721 0 14 -0.602721 1
gene 1 8 16 0.807724 0 15 0.807724 1
gene 1 8 17 -0.0691513 0 16 -0.0691513 1
gene 1 9 16 -0.733765 0 17 -0.733765 1
gene 1 9 17 0.125991 0 18 0.125991 1
gene 1 10 16 1.42943 0 19 1.42943 1
gene 1 10 17 -0.0468482 0 20 -0.0468482 1
gene 1 11 16 0.868843 0 21 0.868843 1
gene 1 11 17 -0.386152 0 22 -0.386152 1
gene 1 12 16 0.808829 0 23 0.808829 1
gene 1 12 17 -1.35211 0 24 -1.35211 1
gene 1 13 16 1.27133 0 25 1.27133 1
gene 1 13 17 -1.54029 0 16 -1.54029 1
gene 1 14 16 2.43849 0 17 2.43849 1
gene 1 14 17 -0.844417 0 28 -0.844417 1
gene 1 15 16 -2.13883 0 29 -2.13883 1
gene 1 15 17 -0.63049 0 30 -0.63049 1
genomeend 1


