/* Organism #2 Fitness: 18.880000 Time: 0 */
genomestart 2
trait 1 0.000000 0.000000 0.585623 0.007066 0.000000 0.000000 0.820010 0.000000 
node 1 1 1 1
node 2 1 1 1
node 3 1 1 1
node 4 1 1 1
node 5 1 1 1
node 6 1 1 1
node 7 1 1 1
node 8 1 1 1
node 9 1 1 1
node 10 1 1 1
node 11 1 1 1
node 12 1 1 1
node 13 1 1 1
node 14 1 1 1
node 15 1 1 3
node 16 1 0 2
node 17 1 0 2
gene 1 1 16 -0.692671 0 1 -0.692671 1
gene 1 1 17 0.679249 0 2 0.679249 1
gene 1 2 16 0.649819 0 3 0.649819 1
gene 1 2 17 1.76574 0 4 1.76574 1
gene 1 3 16 5 0 5 5 1
gene 1 3 17 -0.0601163 0 6 -0.0601163 1
gene 1 4 16 -2.44998 0 7 -2.44998 1
gene 1 4 17 -0.422538 0 8 -0.422538 1
gene 1 5 16 0.364271 0 9 0.364271 1
gene 1 5 17 0.120193 0 10 0.120193 1
gene 1 6 16 -0.420545 0 11 -0.420545 1
gene 1 6 17 2.08942 0 12 2.08942 1
gene 1 7 16 -0.400078 0 13 -0.400078 1
gene 1 7 17 -2.75464 0 14 -2.75464 1
gene 1 8 16 -4.3374 0 15 -4.3374 1
gene 1 8 17 0.945859 0 16 0.945859 1
gene 1 9 16 0.211501 0 17 0.211501 1
gene 1 9 17 0.265681 0 18 0.265681 1
gene 1 10 16 -0.0355902 0 19 -0.0355902 1
gene 1 10 17 -0.109907 0 20 -0.109907 1
gene 1 11 16 1.13263 0 21 1.13263 1
gene 1 11 17 -3.85893 0 22 -3.85893 1
gene 1 12 16 -2.96925 0 23 -2.96925 1
gene 1 12 17 3.17491 0 24 3.17491 1
gene 1 13 16 -3.84893 0 25 -3.84893 1
gene 1 13 17 0.772009 0 16 0.772009 1
gene 1 14 16 0.520001 0 17 0.520001 1
gene 1 14 17 -0.274692 0 28 -0.274692 1
gene 1 15 16 -0.698872 0 29 -0.698872 1
gene 1 15 17 -2.96541 0 30 -2.96541 1
genomeend 2


