/* Organism #1 Fitness: 17.680000 Time: 0 */
genomestart 1
trait 1 0.248675 0.000000 0.290632 0.000000 0.799492 0.881909 0.572134 0.382038 
node 1 1 1 1
node 2 1 1 1
node 3 1 1 1
node 4 1 1 1
node 5 1 1 1
node 6 1 1 1
node 7 1 1 1
node 8 1 1 1
node 9 1 1 1
node 10 1 1 1
node 11 1 1 1
node 12 1 1 1
node 13 1 1 1
node 14 1 1 1
node 15 1 1 3
node 16 1 0 2
node 17 1 0 2
gene 1 1 16 0.587022 0 1 0.587022 1
gene 1 1 17 1.68333 0 2 1.68333 1
gene 1 2 16 -1.82947 0 3 -1.82947 1
gene 1 2 17 0.336477 0 4 0.336477 1
gene 1 3 16 4.53165 0 5 4.53165 1
gene 1 3 17 -1.76207 0 6 -1.76207 1
gene 1 4 16 -0.95821 0 7 -0.95821 1
gene 1 4 17 -1.42354 0 8 -1.42354 1
gene 1 5 16 -1.27189 0 9 -1.27189 1
gene 1 5 17 -1.55825 0 10 -1.55825 1
gene 1 6 16 1.38392 0 11 1.38392 1
gene 1 6 17 -1.36101 0 12 -1.36101 1
gene 1 7 16 -0.876327 0 13 -0.876327 1
gene 1 7 17 -0.893964 0 14 -0.893964 1
gene 1 8 16 1.79748 0 15 1.79748 1
gene 1 8 17 -0.786536 0 16 -0.786536 1
gene 1 9 16 0.133932 0 17 0.133932 1
gene 1 9 17 1.52086 0 18 1.52086 1
gene 1 10 16 -0.0472789 0 19 -0.0472789 1
gene 1 10 17 -2.94787 0 20 -2.94787 1
gene 1 11 16 0.362661 0 21 0.362661 1
gene 1 11 17 0.815996 0 22 0.815996 1
gene 1 12 16 0.228315 0 23 0.228315 1
gene 1 12 17 2.30259 0 24 2.30259 1
gene 1 13 16 -0.355162 0 25 -0.355162 1
gene 1 13 17 -0.581591 0 16 -0.581591 1
gene 1 14 16 2.07975 0 17 2.07975 1
gene 1 14 17 0.925295 0 28 0.925295 1
gene 1 15 16 -0.64255 0 29 -0.64255 1
gene 1 15 17 -3.47249 0 30 -3.47249 1
genomeend 1


