/* Organism #80 Fitness: 17.990000 Time: 0 */
genomestart 80
trait 1 0.100000 0.750311 0.342759 0.714252 0.000000 0.000000 0.000000 0.000000 
node 1 1 1 1
node 2 1 1 1
node 3 1 1 1
node 4 1 1 1
node 5 1 1 1
node 6 1 1 1
node 7 1 1 1
node 8 1 1 1
node 9 1 1 1
node 10 1 1 1
node 11 1 1 1
node 12 1 1 1
node 13 1 1 1
node 14 1 1 1
node 15 1 1 3
node 16 1 0 2
node 17 1 0 2
gene 1 1 16 -0.41686 0 1 -0.41686 1
gene 1 1 17 -0.363118 0 2 -0.363118 1
gene 1 2 16 5 0 3 5 1
gene 1 2 17 -1.22782 0 4 -1.22782 1
gene 1 3 16 4.46217 0 5 4.46217 1
gene 1 3 17 0.369714 0 6 0.369714 1
gene 1 4 16 -2.80677 0 7 -2.80677 1
gene 1 4 17 -1.60903 0 8 -1.60903 1
gene 1 5 16 -0.614981 0 9 -0.614981 1
gene 1 5 17 4.34585 0 10 4.34585 1
gene 1 6 16 -1.55316 0 11 -1.55316 1
gene 1 6 17 4.26499 0 12 4.26499 1
gene 1 7 16 -0.507426 0 13 -0.507426 1
gene 1 7 17 1.35487 0 14 1.35487 1
gene 1 8 16 1.24183 0 15 1.24183 1
gene 1 8 17 0.82781 0 16 0.82781 1
gene 1 9 16 1.53559 0 17 1.53559 1
gene 1 9 17 1.20973 0 18 1.20973 1
gene 1 10 16 -0.107296 0 19 -0.107296 1
gene 1 10 17 -0.705221 0 20 -0.705221 1
gene 1 11 16 -0.11726 0 21 -0.11726 1
gene 1 11 17 -2.94546 0 22 -2.94546 1
gene 1 12 16 -0.492338 0 23 -0.492338 1
gene 1 12 17 0.80668 0 24 0.80668 1
gene 1 13 16 -1.583 0 25 -1.583 1
gene 1 13 17 0.0826265 0 16 0.0826265 1
gene 1 14 16 -0.289715 0 17 -0.289715 1
gene 1 14 17 0.237432 0 28 0.237432 1
gene 1 15 16 -2.00715 0 29 -2.00715 1
gene 1 15 17 -2.58193 0 30 -2.58193 1
genomeend 80


