/* Organism #1 Fitness: 17.750000 Time: 0 */
genomestart 1
trait 1 0.100000 0.000000 0.000000 0.000000 0.000000 0.000000 0.000000 0.000000 
node 1 1 1 1
node 2 1 1 1
node 3 1 1 1
node 4 1 1 1
node 5 1 1 1
node 6 1 1 1
node 7 1 1 1
node 8 1 1 1
node 9 1 1 1
node 10 1 1 1
node 11 1 1 1
node 12 1 1 1
node 13 1 1 1
node 14 1 1 1
node 15 1 1 3
node 16 1 0 2
node 17 1 0 2
gene 1 1 16 -0.0441948 0 1 -0.0441948 1
gene 1 1 17 2.35178 0 2 2.35178 1
gene 1 2 16 1.4054 0 3 1.4054 1
gene 1 2 17 0.709128 0 4 0.709128 1
gene 1 3 16 4.02004 0 5 4.02004 1
gene 1 3 17 -2.14265 0 6 -2.14265 1
gene 1 4 16 -2.6113 0 7 -2.6113 1
gene 1 4 17 1.28199 0 8 1.28199 1
gene 1 5 16 -0.652047 0 9 -0.652047 1
gene 1 5 17 2.81701 0 10 2.81701 1
gene 1 6 16 0.127277 0 11 0.127277 1
gene 1 6 17 -0.515043 0 12 -0.515043 1
gene 1 7 16 2.95725 0 13 2.95725 1
gene 1 7 17 -0.0632256 0 14 -0.0632256 1
gene 1 8 16 0.569947 0 15 0.569947 1
gene 1 8 17 -4.03904 0 16 -4.03904 1
gene 1 9 16 0.338547 0 17 0.338547 1
gene 1 9 17 2.03121 0 18 2.03121 1
gene 1 10 16 -0.0250222 0 19 -0.0250222 1
gene 1 10 17 -1.85561 0 20 -1.85561 1
gene 1 11 16 -3.60135 0 21 -3.60135 1
gene 1 11 17 -0.134555 0 22 -0.134555 1
gene 1 12 16 2.70343 0 23 2.70343 1
gene 1 12 17 0.456151 0 24 0.456151 1
gene 1 13 16 -2.32611 0 25 -2.32611 1
gene 1 13 17 0.359261 0 16 0.359261 1
gene 1 14 16 1.89854 0 17 1.89854 1
gene 1 14 17 2.61744 0 28 2.61744 1
gene 1 15 16 -0.82947 0 29 -0.82947 1
gene 1 15 17 -3.40437 0 30 -3.40437 1
genomeend 1


