/* Organism #7 Fitness: 17.930000 Time: 0 */
genomestart 7
trait 1 0.100000 0.000000 0.000000 0.000000 0.000000 0.000000 0.000000 0.000000 
node 1 1 1 1
node 2 1 1 1
node 3 1 1 1
node 4 1 1 1
node 5 1 1 1
node 6 1 1 1
node 7 1 1 1
node 8 1 1 1
node 9 1 1 1
node 10 1 1 1
node 11 1 1 1
node 12 1 1 1
node 13 1 1 1
node 14 1 1 1
node 15 1 1 3
node 16 1 0 2
node 17 1 0 2
gene 1 1 16 -0.134069 0 1 -0.134069 1
gene 1 1 17 -4.04701 0 2 -4.04701 1
gene 1 2 16 -3.03647 0 3 -3.03647 1
gene 1 2 17 2.11712 0 4 2.11712 1
gene 1 3 16 1.73635 0 5 1.73635 1
gene 1 3 17 -0.285102 0 6 -0.285102 1
gene 1 4 16 -2.17341 0 7 -2.17341 1
gene 1 4 17 0.251671 0 8 0.251671 1
gene 1 5 16 -0.714413 0 9 -0.714413 1
gene 1 5 17 -1.07033 0 10 -1.07033 1
gene 1 6 16 -0.250327 0 11 -0.250327 1
gene 1 6 17 -0.60372 0 12 -0.60372 1
gene 1 7 16 -2.08573 0 13 -2.08573 1
gene 1 7 17 -0.300189 0 14 -0.300189 1
gene 1 8 16 -0.263828 0 15 -0.263828 1
gene 1 8 17 0.601198 0 16 0.601198 1
gene 1 9 16 1.96759 0 17 1.96759 1
gene 1 9 17 -0.0642069 0 18 -0.0642069 1
gene 1 10 16 -2.27118 0 19 -2.27118 1
gene 1 10 17 0.0456757 0 20 0.0456757 1
gene 1 11 16 -2.30153 0 21 -2.30153 1
gene 1 11 17 0.403877 0 22 0.403877 1
gene 1 12 16 -2.21235 0 23 -2.21235 1
gene 1 12 17 1.98766 0 24 1.98766 1
gene 1 13 16 0.0286197 0 25 0.0286197 1
gene 1 13 17 0.175817 0 16 0.175817 1
gene 1 14 16 -0.719931 0 17 -0.719931 1
gene 1 14 17 0.109736 0 28 0.109736 1
gene 1 15 16 1.68561 0 29 1.68561 1
gene 1 15 17 0.543134 0 30 0.543134 1
genomeend 7


