/* Organism #10 Fitness: 12438.610000 Time: 0 */
genomestart 10
trait 1 0.664115 0.801638 0.014476 0.397013 0.000000 0.000000 0.205202 0.000000 
node 1 1 1 1
node 2 1 1 1
node 3 1 1 1
node 4 1 1 1
node 5 1 1 1
node 6 1 1 1
node 7 1 1 1
node 8 1 1 1
node 9 1 1 1
node 10 1 1 1
node 11 1 1 1
node 12 1 1 1
node 13 1 1 1
node 14 1 1 1
node 15 1 1 3
node 16 1 0 2
node 17 1 0 2
node 21 1 0 0
node 123 1 0 0
node 127 1 0 0
node 181 1 0 0
node 197 1 0 0
gene 1 1 16 -0.428533 0 1 -0.428533 1
gene 1 1 17 3.87699 0 2 3.87699 1
gene 1 2 16 4.47756 0 3 4.47756 1
gene 1 2 17 7.50118 0 4 7.50118 1
gene 1 3 16 1.60084 0 5 1.60084 1
gene 1 3 17 3.16356 0 6 3.16356 1
gene 1 4 16 4.86114 0 7 4.86114 1
gene 1 4 17 -5.839 0 8 -5.839 1
gene 1 5 16 -2.9538 0 9 -2.9538 1
gene 1 5 17 -2.1681 0 10 -2.1681 1
gene 1 6 16 -2.15543 0 11 -2.15543 1
gene 1 6 17 3.26254 0 12 3.26254 1
gene 1 7 16 0.744335 0 13 0.744335 1
gene 1 7 17 -2.12711 0 14 -2.12711 1
gene 1 8 16 -2.16817 0 15 -2.16817 1
gene 1 8 17 -0.155464 0 16 -0.155464 1
gene 1 9 16 -1.61429 0 17 -1.61429 1
gene 1 9 17 -8 0 18 -8 1
gene 1 10 16 -7.70147 0 19 -7.70147 1
gene 1 10 17 -2.6414 0 20 -2.6414 1
gene 1 11 16 0.429212 0 21 0.429212 1
gene 1 11 17 -5.46239 0 22 -5.46239 1
gene 1 12 16 0.216592 0 23 0.216592 1
gene 1 12 17 2.16422 0 24 2.16422 1
gene 1 13 16 -1.66893 0 25 -1.66893 1
gene 1 13 17 -1.48072 0 16 -1.48072 1
gene 1 14 16 1.66342 0 17 1.66342 0
gene 1 14 17 -0.25024 0 28 -0.25024 1
gene 1 15 16 -3.37017 0 29 -3.37017 1
gene 1 15 17 5.96221 0 30 5.96221 1
gene 1 12 21 3.34946 0 39 3.34946 1
gene 1 21 16 0.410645 0 40 0.410645 1
gene 1 4 21 0.579632 0 52 0.579632 1
gene 1 15 21 0.629147 0 61 0.629147 1
gene 1 9 21 -1.67258 0 90 -1.67258 1
gene 1 2 21 2.63187 0 133 2.63187 1
gene 1 17 21 0.177104 0 280 0.177104 1
gene 1 6 21 0.222553 0 353 0.222553 1
gene 1 11 21 1.61597 0 397 1.61597 1
gene 1 5 123 0.47001 0 440 0.34501 1
gene 1 123 16 1.77329 0 441 1.911 1
gene 1 10 127 2.24812 0 450 2.12312 1
gene 1 127 16 -6.69243 0 451 -4.99095 1
gene 1 6 123 -1.69262 0 464 -1.69262 1
gene 1 10 123 0.851313 0 491 0.751839 1
gene 1 1 127 -0.54754 0 516 -0.54754 0
gene 1 17 123 0.0834781 0 619 0.0834781 1
gene 1 3 21 -0.161418 0 627 -0.161418 1
gene 1 17 16 -0.161135 0 648 -0.161135 1
gene 1 11 123 -0.723628 0 679 -0.723628 1
gene 1 14 21 -0.123556 0 686 -0.123556 1
gene 1 1 181 -0.201617 0 702 -0.701617 1
gene 1 181 127 0.416888 0 703 0.208444 1
gene 1 7 123 1.23762 0 715 1.23762 1
gene 1 17 181 1.27952 0 745 1.27952 1
gene 1 14 197 1 0 771 0 1
gene 1 197 16 1.99057 0 772 0 1
genomeend 10


