/* Organism #68 Fitness: 10502.530000 Time: 0 */
genomestart 68
trait 1 1.000000 0.000000 0.000000 0.000000 0.135109 0.851142 0.218095 0.000000 
node 1 1 1 1
node 2 1 1 1
node 3 1 1 1
node 4 1 1 1
node 5 1 1 1
node 6 1 1 1
node 7 1 1 1
node 8 1 1 1
node 9 1 1 1
node 10 1 1 1
node 11 1 1 1
node 12 1 1 1
node 13 1 1 1
node 14 1 1 1
node 15 1 1 3
node 16 1 0 2
node 17 1 0 2
node 25 1 0 0
node 43 1 0 0
node 93 1 0 0
node 111 1 0 0
node 139 1 0 0
node 144 1 0 0
node 168 1 0 0
node 176 1 0 0
node 200 1 0 0
node 203 1 0 0
node 217 1 0 0
node 238 1 0 0
node 246 1 0 0
gene 1 1 16 1.48254 0 1 1.48254 1
gene 1 1 17 1.47482 0 2 1.47482 1
gene 1 2 16 -4.58335 0 3 -4.58335 1
gene 1 2 17 7.20506 0 4 7.20506 1
gene 1 3 16 2.32644 0 5 2.32644 1
gene 1 3 17 -1.37318 0 6 -1.37318 1
gene 1 4 16 -7.16057 0 7 -7.16057 1
gene 1 4 17 -3.97258 0 8 -3.97258 1
gene 1 5 16 -2.59288 0 9 -2.59288 1
gene 1 5 17 -2.18522 0 10 -2.18522 1
gene 1 6 16 -0.640543 0 11 -0.640543 1
gene 1 6 17 2.55278 0 12 2.55278 1
gene 1 7 16 -3.4304 0 13 -3.4304 1
gene 1 7 17 0.165153 0 14 0.165153 0
gene 1 8 16 0.671695 0 15 0.671695 1
gene 1 8 17 0.575851 0 16 0.575851 1
gene 1 9 16 -3.02432 0 17 -3.02432 1
gene 1 9 17 -5.73778 0 18 -5.73778 1
gene 1 10 16 -3.11526 0 19 -3.11526 1
gene 1 10 17 0.207955 0 20 0.207955 1
gene 1 11 16 -1.84895 0 21 -1.84895 1
gene 1 11 17 -0.666841 0 22 -0.666841 1
gene 1 12 16 0.462903 0 23 0.462903 1
gene 1 12 17 -5.46051 0 24 -5.46051 1
gene 1 13 16 2.11576 0 25 2.11576 0
gene 1 13 17 1.6488 0 16 1.6488 1
gene 1 14 16 4.58153 0 17 4.58153 1
gene 1 14 17 -3.09576 0 28 -3.09576 1
gene 1 15 16 -3.32091 0 29 -3.32091 1
gene 1 15 17 2.2386 0 30 2.2386 1
gene 1 16 17 -3.22661 0 40 -3.22661 1
gene 1 11 25 -3.15344 0 48 -3.15344 1
gene 1 25 17 1.09648 0 49 1.09648 0
gene 1 13 43 2.29971 0 109 2.29971 1
gene 1 43 16 -2.99268 0 110 -2.99268 1
gene 1 7 43 1.57228 0 119 1.57228 1
gene 1 2 25 -2.25139 0 166 -2.25139 1
gene 1 15 43 -3.47867 0 230 -3.47867 1
gene 1 11 43 -0.601402 0 255 -0.601402 1
gene 1 3 43 -0.197314 0 272 -0.197314 1
gene 1 4 93 0.210137 0 295 -0.0398632 1
gene 1 93 16 -3.45306 0 296 -1.674 0
gene 1 2 43 2.22942 0 308 2.22942 1
gene 1 10 43 0.775645 0 337 0.775645 1
gene 1 43 111 1.83733 0 359 1.33733 1
gene 1 111 16 -2.83434 0 360 -0.889914 1
gene 1 93 111 -0.13219 0 396 -0.13219 1
gene 1 4 139 -0.125389 0 477 -0.625389 1
gene 1 139 16 -5.66581 0 478 -2.50523 1
gene 1 139 17 0.598197 0 489 0.598197 1
gene 1 93 144 1.41356 0 500 0.913562 1
gene 1 144 16 -5.40443 0 501 -2.09654 1
gene 1 93 139 0.0182479 0 573 0.0182479 1
gene 1 7 168 0.765034 0 592 0.265034 1
gene 1 168 17 0.350248 0 593 0.458859 1
gene 1 5 168 -1.03275 0 603 -1.03275 1
gene 1 93 176 2.03483 0 624 1.53483 1
gene 1 176 111 -1.40979 0 625 -1.04877 1
gene 1 139 168 0.917862 0 652 0.917862 1
gene 1 93 200 1.85783 0 719 1.35783 1
gene 1 200 144 1.66594 0 720 1.16594 1
gene 1 13 203 1 0 748 0 1
gene 1 203 16 2.11576 0 749 0 1
gene 1 6 43 -0.131853 0 768 -0.131853 1
gene 1 200 176 -0.997555 0 780 -0.997555 1
gene 1 25 217 1 0 793 0 1
gene 1 217 17 1.09648 0 794 0 1
gene 1 93 238 1 0 863 0 1
gene 1 238 16 -3.45306 0 864 0 1
gene 1 5 43 0.993157 0 880 0.993157 1
gene 1 2 217 0.287179 0 891 0.287179 1
gene 1 7 246 1 0 895 0 1
gene 1 246 17 0.165153 0 896 0 1
genomeend 68


