/* Organism #65 Fitness: 13099.510000 Time: 0 */
genomestart 65
trait 1 0.404358 0.000000 0.000000 0.034622 0.351168 0.261627 0.540659 0.021702 
node 1 1 1 1
node 2 1 1 1
node 3 1 1 1
node 4 1 1 1
node 5 1 1 1
node 6 1 1 1
node 7 1 1 1
node 8 1 1 1
node 9 1 1 1
node 10 1 1 1
node 11 1 1 1
node 12 1 1 1
node 13 1 1 1
node 14 1 1 1
node 15 1 1 3
node 16 1 0 2
node 17 1 0 2
node 69 1 0 0
node 82 1 0 0
node 116 1 0 0
node 124 1 0 0
node 129 1 0 0
node 176 1 0 0
node 187 1 0 0
node 195 1 0 0
gene 1 1 16 -2.53368 0 1 -2.53368 1
gene 1 1 17 -3.6061 0 2 -3.6061 1
gene 1 2 16 5.49761 0 3 5.49761 1
gene 1 2 17 -0.421764 0 4 -0.421764 1
gene 1 3 16 3.41927 0 5 3.41927 1
gene 1 3 17 -2.03992 0 6 -2.03992 1
gene 1 4 16 2.16487 0 7 2.16487 1
gene 1 4 17 -0.680757 0 8 -0.680757 1
gene 1 5 16 -0.846318 0 9 -0.846318 1
gene 1 5 17 -2.83368 0 10 -2.83368 1
gene 1 6 16 -0.803905 0 11 -0.803905 1
gene 1 6 17 -2.45273 0 12 -2.45273 0
gene 1 7 16 2.13488 0 13 2.13488 1
gene 1 7 17 -3.19235 0 14 -3.19235 1
gene 1 8 16 -2.22759 0 15 -2.22759 1
gene 1 8 17 -2.0731 0 16 -2.0731 1
gene 1 9 16 -6.46745 0 17 -6.46745 1
gene 1 9 17 -0.219515 0 18 -0.219515 1
gene 1 10 16 -1.76314 0 19 -1.76314 1
gene 1 10 17 1.79443 0 20 1.79443 1
gene 1 11 16 -1.51328 0 21 -1.51328 1
gene 1 11 17 -0.932565 0 22 -0.932565 1
gene 1 12 16 3.01569 0 23 3.01569 1
gene 1 12 17 -4.22271 0 24 -4.22271 1
gene 1 13 16 -3.8317 0 25 -3.8317 1
gene 1 13 17 -5.21374 0 16 -5.21374 1
gene 1 14 16 -0.160267 0 17 -0.160267 1
gene 1 14 17 -2.13829 0 28 -2.13829 1
gene 1 15 16 4.89537 0 29 4.89537 1
gene 1 15 17 -1.00359 0 30 -1.00359 1
gene 1 16 17 0.0603652 0 72 0.0603652 1
gene 1 9 69 0.155845 0 230 -0.344155 1
gene 1 69 17 -0.154645 0 231 -0.600326 1
gene 1 6 69 1.40101 0 272 1.40101 1
gene 1 14 82 0.371366 0 282 -0.128634 1
gene 1 82 17 -2.87605 0 283 -1.43803 1
gene 1 14 69 0.127347 0 304 0.127347 1
gene 1 8 82 -1.007 0 373 -1.007 1
gene 1 15 69 -1.14515 0 383 -1.14515 1
gene 1 13 116 1 0 404 0.5 1
gene 1 116 17 -4.1791 0 405 -2.00081 1
gene 1 3 124 2.01174 0 432 1.51174 1
gene 1 124 17 -1.95277 0 433 -1.2253 1
gene 1 124 129 1 0 449 0 1
gene 1 129 17 -1.95277 0 450 0 1
gene 1 16 124 0.756977 0 541 0.756977 1
gene 1 6 129 -0.674852 0 591 -0.674852 1
gene 1 14 124 -0.270138 0 603 -0.270138 1
gene 1 6 176 1 0 638 0 1
gene 1 176 17 -2.45273 0 639 0 1
gene 1 124 82 0.72412 0 658 0.72412 0
gene 1 116 129 0.399882 0 683 0.399882 0
gene 1 116 187 1 0 706 0 1
gene 1 187 129 0.399882 0 707 0 1
gene 1 3 129 -0.803043 0 736 -0.803043 1
gene 1 124 195 1 0 743 0 1
gene 1 195 82 0.72412 0 744 0 1
gene 1 82 116 -0.76553 0 761 -0.76553 1
genomeend 65


