/* Organism #0 Fitness: 12555.640000 Time: 0 */
genomestart 0
trait 1 0.574674 0.580938 0.000000 1.000000 0.349491 0.737979 0.058354 0.334731 
node 1 1 1 1
node 2 1 1 1
node 3 1 1 1
node 4 1 1 1
node 5 1 1 1
node 6 1 1 1
node 7 1 1 1
node 8 1 1 1
node 9 1 1 1
node 10 1 1 1
node 11 1 1 1
node 12 1 1 1
node 13 1 1 1
node 14 1 1 1
node 15 1 1 3
node 16 1 0 2
node 17 1 0 2
node 54 1 0 0
node 57 1 0 0
node 61 1 0 0
node 73 1 0 0
node 89 1 0 0
node 109 1 0 0
gene 1 1 16 -5.44948 0 1 -5.44948 1
gene 1 1 17 6.58272 0 2 6.58272 1
gene 1 2 16 2.5299 0 3 2.5299 1
gene 1 2 17 3.80914 0 4 3.80914 1
gene 1 3 16 -0.51016 0 5 -0.51016 1
gene 1 3 17 6.09684 0 6 6.09684 1
gene 1 4 16 -5.94541 0 7 -5.94541 1
gene 1 4 17 -4.08453 0 8 -4.08453 1
gene 1 5 16 -5.06837 0 9 -5.06837 1
gene 1 5 17 -1.97738 0 10 -1.97738 1
gene 1 6 16 -2.07598 0 11 -2.07598 1
gene 1 6 17 -1.52701 0 12 -1.52701 1
gene 1 7 16 1.72819 0 13 1.72819 1
gene 1 7 17 -1.65577 0 14 -1.65577 1
gene 1 8 16 -3.02138 0 15 -3.02138 1
gene 1 8 17 -3.05942 0 16 -3.05942 1
gene 1 9 16 1.33325 0 17 1.33325 1
gene 1 9 17 -6.42745 0 18 -6.42745 1
gene 1 10 16 -3.82849 0 19 -3.82849 1
gene 1 10 17 -2.05425 0 20 -2.05425 1
gene 1 11 16 0.205884 0 21 0.205884 1
gene 1 11 17 -0.902381 0 22 -0.902381 1
gene 1 12 16 0.855841 0 23 0.855841 1
gene 1 12 17 -1.20765 0 24 -1.20765 0
gene 1 13 16 3.0387 0 25 3.0387 1
gene 1 13 17 4.52781 0 16 4.52781 1
gene 1 14 16 0.871211 0 17 0.871211 1
gene 1 14 17 -6.7043 0 28 -6.7043 1
gene 1 15 16 -2.78896 0 29 -2.78896 1
gene 1 15 17 3.75075 0 30 3.75075 1
gene 1 16 17 0.530179 0 47 0.530179 1
gene 1 11 54 3.03629 0 127 3.03629 1
gene 1 54 16 0.686966 0 128 0.686966 1
gene 1 12 57 -1.12451 0 137 -1.12451 1
gene 1 57 16 -1.10571 0 138 -1.10571 1
gene 1 3 61 -0.0651708 0 153 -0.0651708 1
gene 1 61 17 3.92595 0 154 3.92595 1
gene 1 11 73 2.49484 0 189 2.49484 0
gene 1 73 54 1.52164 0 190 1.52164 1
gene 1 57 17 1.23157 0 202 1.23157 1
gene 1 11 89 -2.15839 0 234 -2.15839 1
gene 1 89 73 -1.21392 0 235 -1.21392 1
gene 1 9 109 2.26744 0 312 2.26744 1
gene 1 109 16 1.64355 0 313 1.64355 1
gene 1 1 73 0.0192927 0 382 0.0192927 1
gene 1 4 57 -0.493486 0 494 -0.493486 1
gene 1 89 57 2.4344 0 503 2.4344 1
gene 1 11 57 -2.71458 0 512 -2.71458 1
gene 1 61 73 2.19964 0 674 2.19964 1
gene 1 73 16 0.0108649 0 752 0.0108649 1
gene 1 4 109 0.289038 0 833 0.289038 1
genomeend 0


