/* Organism #8 Fitness: 13270.980000 Time: 0 */
genomestart 8
trait 1 0.123976 0.763980 0.242447 0.000000 0.002448 0.628550 0.974418 0.302791 
node 1 1 1 1
node 2 1 1 1
node 3 1 1 1
node 4 1 1 1
node 5 1 1 1
node 6 1 1 1
node 7 1 1 1
node 8 1 1 1
node 9 1 1 1
node 10 1 1 1
node 11 1 1 1
node 12 1 1 1
node 13 1 1 1
node 14 1 1 1
node 15 1 1 3
node 16 1 0 2
node 17 1 0 2
node 29 1 0 0
node 33 1 0 0
node 36 1 0 0
node 74 1 0 0
node 137 1 0 0
node 193 1 0 0
gene 1 1 16 -3.03585 0 1 -3.03585 1
gene 1 1 17 -5.85976 0 2 -5.85976 1
gene 1 2 16 5.09911 0 3 5.09911 1
gene 1 2 17 6.58914 0 4 6.58914 1
gene 1 3 16 5.44937 0 5 5.44937 1
gene 1 3 17 1.62745 0 6 1.62745 1
gene 1 4 16 3.34273 0 7 3.34273 1
gene 1 4 17 -0.872543 0 8 -0.872543 1
gene 1 5 16 -0.186672 0 9 -0.186672 1
gene 1 5 17 1.53045 0 10 1.53045 1
gene 1 6 16 -0.0993824 0 11 -0.0993824 1
gene 1 6 17 -4.98313 0 12 -4.98313 1
gene 1 7 16 1.51865 0 13 1.51865 1
gene 1 7 17 5.12586 0 14 5.12586 1
gene 1 8 16 -0.612142 0 15 -0.612142 1
gene 1 8 17 -5.79613 0 16 -5.79613 0
gene 1 9 16 -6.03659 0 17 -6.03659 1
gene 1 9 17 -3.14299 0 18 -3.14299 1
gene 1 10 16 -2.36784 0 19 -2.36784 1
gene 1 10 17 -8 0 20 -8 1
gene 1 11 16 0.895597 0 21 0.895597 1
gene 1 11 17 -1.74518 0 22 -1.74518 1
gene 1 12 16 -1.41469 0 23 -1.41469 1
gene 1 12 17 2.67605 0 24 2.67605 1
gene 1 13 16 -1.8332 0 25 -1.8332 1
gene 1 13 17 -6.45538 0 16 -6.45538 1
gene 1 14 16 -0.0731292 0 17 -0.0731292 1
gene 1 14 17 -7.39659 0 28 -7.39659 1
gene 1 15 16 3.65986 0 29 3.65986 1
gene 1 15 17 -0.952745 0 30 -0.952745 1
gene 1 17 16 -0.624219 0 49 -0.624219 1
gene 1 8 29 -1.45239 0 59 -1.45239 1
gene 1 29 17 -0.619929 0 60 -0.619929 1
gene 1 9 29 0.201052 0 68 0.201052 1
gene 1 12 33 0.43716 0 74 0.43716 1
gene 1 33 17 -3.86949 0 75 -3.86949 1
gene 1 4 36 1.98171 0 83 1.98171 1
gene 1 36 17 -0.794517 0 84 -0.794517 1
gene 1 14 29 -0.758681 0 138 -0.758681 1
gene 1 4 74 1.40063 0 250 1.40063 1
gene 1 74 16 0.497978 0 251 0.497978 1
gene 1 13 36 -1.73454 0 271 -1.73454 0
gene 1 4 137 1 0 461 0.25 1
gene 1 137 74 0.656797 0 462 -0.0468706 1
gene 1 2 137 -0.792491 0 475 -0.792491 1
gene 1 36 74 -0.158217 0 486 -0.158217 1
gene 1 8 36 0.619064 0 651 0.619064 1
gene 1 3 36 0.964189 0 669 0.964189 1
gene 1 13 193 1 0 690 0 1
gene 1 193 36 -1.73454 0 691 0 1
gene 1 3 74 -0.333345 0 742 -0.333345 1
genomeend 8


