/* Organism #84 Fitness: 11904.080000 Time: 0 */
genomestart 84
trait 1 0.346921 0.000000 0.000000 0.645045 0.448648 0.000000 0.777065 0.303161 
node 1 1 1 1
node 2 1 1 1
node 3 1 1 1
node 4 1 1 1
node 5 1 1 1
node 6 1 1 1
node 7 1 1 1
node 8 1 1 1
node 9 1 1 1
node 10 1 1 1
node 11 1 1 1
node 12 1 1 1
node 13 1 1 1
node 14 1 1 1
node 15 1 1 3
node 16 1 0 2
node 17 1 0 2
node 21 1 0 0
node 32 1 0 0
node 85 1 0 0
node 93 1 0 0
node 169 1 0 0
node 184 1 0 0
node 230 1 0 0
gene 1 1 16 -1.78038 0 1 -1.78038 1
gene 1 1 17 1.94592 0 2 1.94592 1
gene 1 2 16 2.84326 0 3 2.84326 1
gene 1 2 17 -0.411961 0 4 -0.411961 1
gene 1 3 16 5.1299 0 5 5.1299 1
gene 1 3 17 1.43022 0 6 1.43022 1
gene 1 4 16 3.36742 0 7 3.36742 1
gene 1 4 17 -0.0428289 0 8 -0.0428289 1
gene 1 5 16 -0.0609479 0 9 -0.0609479 1
gene 1 5 17 -4.24835 0 10 -4.24835 1
gene 1 6 16 0.158448 0 11 0.158448 1
gene 1 6 17 -0.271884 0 12 -0.271884 1
gene 1 7 16 2.11919 0 13 2.11919 1
gene 1 7 17 -6.99706 0 14 -6.99706 1
gene 1 8 16 0.860357 0 15 0.860357 1
gene 1 8 17 -3.85702 0 16 -3.85702 0
gene 1 9 16 -8 0 17 -8 1
gene 1 9 17 -0.375883 0 18 -0.375883 1
gene 1 10 16 -0.696081 0 19 -0.696081 1
gene 1 10 17 4.11085 0 20 4.11085 1
gene 1 11 16 6.9989 0 21 6.9989 1
gene 1 11 17 2.51856 0 22 2.51856 1
gene 1 12 16 -3.57898 0 23 -3.57898 1
gene 1 12 17 2.13917 0 24 2.13917 1
gene 1 13 16 -6.49547 0 25 -6.49547 1
gene 1 13 17 -8 0 16 -8 1
gene 1 14 16 -2.5447 0 17 -2.5447 1
gene 1 14 17 -1.68187 0 28 -1.68187 1
gene 1 15 16 4.8517 0 29 4.8517 1
gene 1 15 17 -2.86705 0 30 -2.86705 1
gene 1 16 17 -4.50559 0 35 -4.50559 1
gene 1 14 21 1.15603 0 41 1.15603 1
gene 1 21 17 0.807923 0 42 0.807923 1
gene 1 1 21 -3.16019 0 53 -3.16019 0
gene 1 2 21 -6.92948 0 61 -6.92948 1
gene 1 16 32 0.0729651 0 94 0.0729651 1
gene 1 32 17 -4.89032 0 95 -4.89032 1
gene 1 6 21 -0.343827 0 133 -0.343827 1
gene 1 5 21 1.0383 0 148 1.0383 1
gene 1 32 21 -0.47484 0 196 -0.47484 1
gene 1 1 85 -0.389516 0 271 -0.389516 1
gene 1 85 21 1.09396 0 272 1.09396 1
gene 1 8 93 -0.796815 0 306 -0.796815 1
gene 1 93 17 -4.44339 0 307 -4.44339 1
gene 1 4 21 0.86668 0 418 0.86668 1
gene 1 12 93 0.912373 0 450 0.912373 1
gene 1 93 32 -0.10658 0 507 -0.10658 1
gene 1 13 85 1.84948 0 541 1.84948 1
gene 1 13 93 1.2074 0 563 1.2074 1
gene 1 5 93 -0.779466 0 595 -0.779466 1
gene 1 2 169 1 0 615 0 1
gene 1 169 21 -6.92948 0 616 0 1
gene 1 93 16 0.405412 0 628 0.405412 1
gene 1 1 184 1 0 662 0 1
gene 1 184 16 -1.78038 0 663 0 1
gene 1 8 169 -0.231491 0 694 -0.231491 1
gene 1 9 85 -0.391197 0 703 -0.391197 1
gene 1 12 32 0.133478 0 718 0.133478 1
gene 1 85 184 -0.383507 0 792 -0.383507 1
gene 1 9 93 -0.052514 0 823 -0.052514 1
gene 1 1 230 1 0 841 0 1
gene 1 230 21 -3.16019 0 842 0 1
gene 1 4 230 -0.771433 0 861 -0.771433 1
genomeend 84


