/* Organism #16 Fitness: 11875.870000 Time: 0 */
genomestart 16
trait 1 0.189084 0.680562 0.000000 0.000000 0.000000 0.011201 0.000000 0.000000 
node 1 1 1 1
node 2 1 1 1
node 3 1 1 1
node 4 1 1 1
node 5 1 1 1
node 6 1 1 1
node 7 1 1 1
node 8 1 1 1
node 9 1 1 1
node 10 1 1 1
node 11 1 1 1
node 12 1 1 1
node 13 1 1 1
node 14 1 1 1
node 15 1 1 3
node 16 1 0 2
node 17 1 0 2
node 18 1 0 0
node 52 1 0 0
node 97 1 0 0
node 105 1 0 0
node 148 1 0 0
node 192 1 0 0
node 205 1 0 0
node 225 1 0 0
gene 1 1 16 0.607918 0 1 0.607918 1
gene 1 1 17 1.13009 0 2 1.13009 1
gene 1 2 16 -0.129749 0 3 -0.129749 1
gene 1 2 17 2.3578 0 4 2.3578 1
gene 1 3 16 1.79424 0 5 1.79424 1
gene 1 3 17 3.69317 0 6 3.69317 1
gene 1 4 16 1.3187 0 7 1.3187 1
gene 1 4 17 -0.468486 0 8 -0.468486 1
gene 1 5 16 -2.33653 0 9 -2.33653 1
gene 1 5 17 -0.0483995 0 10 -0.0483995 1
gene 1 6 16 -1.94761 0 11 -1.94761 1
gene 1 6 17 2.7383 0 12 2.7383 1
gene 1 7 16 0.964239 0 13 0.964239 1
gene 1 7 17 1.61268 0 14 1.61268 1
gene 1 8 16 1.32624 0 15 1.32624 1
gene 1 8 17 0.767107 0 16 0.767107 1
gene 1 9 16 -3.15848 0 17 -3.15848 1
gene 1 9 17 -5.14412 0 18 -5.14412 1
gene 1 10 16 -1.02148 0 19 -1.02148 1
gene 1 10 17 0.167421 0 20 0.167421 0
gene 1 11 16 3.22097 0 21 3.22097 1
gene 1 11 17 0.438875 0 22 0.438875 1
gene 1 12 16 4.32166 0 23 4.32166 1
gene 1 12 17 -1.72093 0 24 -1.72093 0
gene 1 13 16 -1.97859 0 25 -1.97859 1
gene 1 13 17 0.719157 0 16 0.719157 1
gene 1 14 16 1.60112 0 17 1.60112 1
gene 1 14 17 0.505734 0 28 0.505734 1
gene 1 15 16 -1.694 0 29 -1.694 1
gene 1 15 17 1.86668 0 30 1.86668 1
gene 1 4 18 -0.0432229 0 31 -0.0432229 1
gene 1 18 17 -0.280912 0 32 -0.280912 0
gene 1 10 18 -2.00309 0 38 -2.00309 1
gene 1 7 52 1.67288 0 128 1.42288 1
gene 1 52 17 0.121214 0 129 -0.0905886 1
gene 1 11 52 -0.0746878 0 135 -0.0746878 1
gene 1 3 52 -1.27894 0 184 -1.27894 1
gene 1 12 18 1.01945 0 196 1.01945 1
gene 1 13 97 -0.138996 0 296 -0.638996 1
gene 1 97 16 -1.69921 0 297 -0.709916 0
gene 1 2 105 1.14174 0 331 0.641741 1
gene 1 105 16 -3.30048 0 332 -2.21926 1
gene 1 17 97 0.583757 0 366 0.583757 0
gene 1 1 105 -0.706132 0 472 -0.510613 1
gene 1 52 16 0.48855 0 490 0.48855 1
gene 1 97 148 0.591176 0 501 0.0911758 0
gene 1 148 16 -2.88309 0 502 -1.8938 1
gene 1 3 97 -0.205101 0 603 -0.205101 1
gene 1 148 105 -0.238679 0 621 -0.238679 1
gene 1 97 105 0.556491 0 668 0.556491 1
gene 1 97 192 1 0 680 0 1
gene 1 192 148 0.591176 0 681 0 1
gene 1 10 205 1 0 720 0 1
gene 1 205 17 0.167421 0 721 0 1
gene 1 2 205 0.646425 0 757 0.646425 1
gene 1 105 205 -0.937072 0 772 -0.937072 1
gene 1 18 225 1 0 784 0 1
gene 1 225 17 -0.280912 0 785 0 1
gene 1 16 205 -0.383415 0 881 -0.383415 1
genomeend 16


