/* Organism #4 Fitness: 11007.390000 Time: 0 */
genomestart 4
trait 1 0.238821 0.489018 0.000000 0.727933 0.000000 0.194623 0.419484 0.000000 
node 1 1 1 1
node 2 1 1 1
node 3 1 1 1
node 4 1 1 1
node 5 1 1 1
node 6 1 1 1
node 7 1 1 1
node 8 1 1 1
node 9 1 1 1
node 10 1 1 1
node 11 1 1 1
node 12 1 1 1
node 13 1 1 1
node 14 1 1 1
node 15 1 1 3
node 16 1 0 2
node 17 1 0 2
node 26 1 0 0
node 32 1 0 0
node 57 1 0 0
node 211 1 0 0
gene 1 1 16 -0.284536 0 1 -0.284536 1
gene 1 1 17 1.9798 0 2 1.9798 1
gene 1 2 16 7.66795 0 3 7.66795 1
gene 1 2 17 1.90726 0 4 1.90726 1
gene 1 3 16 8 0 5 8 1
gene 1 3 17 -5.05669 0 6 -5.05669 1
gene 1 4 16 2.40177 0 7 2.40177 1
gene 1 4 17 0.985337 0 8 0.985337 1
gene 1 5 16 1.65727 0 9 1.65727 1
gene 1 5 17 0.736158 0 10 0.736158 1
gene 1 6 16 -2.24339 0 11 -2.24339 1
gene 1 6 17 -0.473683 0 12 -0.473683 1
gene 1 7 16 2.49885 0 13 2.49885 1
gene 1 7 17 6.103 0 14 6.103 1
gene 1 8 16 -4.26761 0 15 -4.26761 1
gene 1 8 17 3.08386 0 16 3.08386 0
gene 1 9 16 -0.455574 0 17 -0.455574 1
gene 1 9 17 -8 0 18 -8 1
gene 1 10 16 -3.8201 0 19 -3.8201 1
gene 1 10 17 3.65573 0 20 3.65573 1
gene 1 11 16 -6.94164 0 21 -6.94164 1
gene 1 11 17 0.349289 0 22 0.349289 1
gene 1 12 16 -0.320109 0 23 -0.320109 1
gene 1 12 17 2.44422 0 24 2.44422 1
gene 1 13 16 -0.876685 0 25 -0.876685 1
gene 1 13 17 4.49258 0 16 4.49258 1
gene 1 14 16 5.06886 0 17 5.06886 1
gene 1 14 17 0.183884 0 28 0.183884 1
gene 1 15 16 -0.902021 0 29 -0.902021 1
gene 1 15 17 -2.19426 0 30 -2.19426 1
gene 1 16 17 -0.954554 0 33 -0.954554 1
gene 1 1 26 -1.89334 0 51 -1.89334 1
gene 1 26 17 4.41427 0 52 4.41427 1
gene 1 13 32 1.76004 0 66 1.76004 0
gene 1 32 17 0.0726031 0 67 0.0726031 1
gene 1 8 26 -0.107277 0 76 -0.107277 1
gene 1 11 32 -0.812276 0 115 -0.812276 1
gene 1 13 57 3.06103 0 133 3.06103 1
gene 1 57 32 0.374159 0 134 0.374159 1
gene 1 3 26 0.758802 0 145 0.758802 1
gene 1 57 17 2.43172 0 157 2.43172 1
gene 1 4 57 -1.39907 0 238 -1.39907 1
gene 1 14 26 3.39224 0 248 3.39224 1
gene 1 2 32 -3.05464 0 267 -3.05464 1
gene 1 10 32 -0.858423 0 395 -0.858423 1
gene 1 26 16 0.608836 0 431 0.608836 1
gene 1 3 57 3.57635 0 449 3.57635 1
gene 1 2 26 -0.753724 0 468 -0.753724 1
gene 1 26 32 2.29584 0 495 2.29584 1
gene 1 8 32 2.14798 0 516 2.14798 1
gene 1 2 57 0.625164 0 525 0.625164 1
gene 1 15 32 -0.499631 0 558 -0.499631 1
gene 1 7 26 -0.570289 0 625 -0.570289 1
gene 1 57 26 -3.19533 0 640 -3.19533 1
gene 1 8 211 1 0 717 1 1
gene 1 211 17 0.940163 0 718 0.940163 1
gene 1 12 211 -0.477602 0 738 -0.477602 1
gene 1 3 32 2.25276 0 809 2.25276 1
genomeend 4


