/* Organism #89 Fitness: 9969.480000 Time: 0 */
genomestart 89
trait 1 0.100000 0.039625 0.102320 0.417111 0.000000 0.185004 0.124681 0.476561 
node 1 1 1 1
node 2 1 1 1
node 3 1 1 1
node 4 1 1 1
node 5 1 1 1
node 6 1 1 1
node 7 1 1 1
node 8 1 1 1
node 9 1 1 1
node 10 1 1 1
node 11 1 1 1
node 12 1 1 1
node 13 1 1 1
node 14 1 1 1
node 15 1 1 3
node 16 1 0 2
node 17 1 0 2
node 19 1 0 0
node 21 1 0 0
node 28 1 0 0
node 76 1 0 0
node 88 1 0 0
node 150 1 0 0
node 178 1 0 0
node 195 1 0 0
node 201 1 0 0
node 202 1 0 0
node 211 1 0 0
node 227 1 0 0
node 233 1 0 0
gene 1 1 16 -2.61294 0 1 -2.61294 1
gene 1 1 17 -4.47488 0 2 -4.47488 1
gene 1 2 16 -0.68796 0 3 -0.68796 1
gene 1 2 17 6.82259 0 4 6.82259 1
gene 1 3 16 1.95357 0 5 1.95357 1
gene 1 3 17 -2.83731 0 6 -2.83731 1
gene 1 4 16 -0.741715 0 7 -0.741715 1
gene 1 4 17 6.56561 0 8 6.56561 1
gene 1 5 16 1.73881 0 9 1.73881 1
gene 1 5 17 -1.18339 0 10 -1.18339 1
gene 1 6 16 0.0374636 0 11 0.0374636 1
gene 1 6 17 1.20892 0 12 1.20892 1
gene 1 7 16 -0.499747 0 13 -0.499747 1
gene 1 7 17 -0.479884 0 14 -0.479884 1
gene 1 8 16 -3.57595 0 15 -3.57595 1
gene 1 8 17 0.155675 0 16 0.155675 1
gene 1 9 16 -4.26866 0 17 -4.26866 1
gene 1 9 17 -7.97142 0 18 -7.97142 1
gene 1 10 16 -2.13873 0 19 -2.13873 1
gene 1 10 17 -0.753156 0 20 -0.753156 1
gene 1 11 16 4.34492 0 21 4.34492 1
gene 1 11 17 -0.822239 0 22 -0.822239 1
gene 1 12 16 4.39093 0 23 4.39093 1
gene 1 12 17 -5.15293 0 24 -5.15293 1
gene 1 13 16 -1.54177 0 25 -1.54177 1
gene 1 13 17 -0.522026 0 16 -0.522026 1
gene 1 14 16 -1.56842 0 17 -1.56842 1
gene 1 14 17 1.18864 0 28 1.18864 1
gene 1 15 16 0.217384 0 29 0.217384 1
gene 1 15 17 7.14191 0 30 7.14191 1
gene 1 5 19 3.84644 0 35 3.84644 1
gene 1 19 16 -0.982785 0 36 -0.982785 1
gene 1 2 21 -1.42149 0 40 -1.42149 1
gene 1 21 16 -5.96206 0 41 -5.96206 1
gene 1 1 28 1.02809 0 55 1.02809 1
gene 1 28 17 -0.250416 0 56 -0.250416 1
gene 1 12 19 0.201057 0 62 0.201057 1
gene 1 6 28 5.65325 0 71 5.65325 1
gene 1 7 19 -0.0319695 0 165 -0.0319695 1
gene 1 10 19 2.70957 0 179 2.70957 1
gene 1 17 16 1.16755 0 201 1.16755 0
gene 1 3 19 1.7238 0 223 1.7238 1
gene 1 17 76 2.21532 0 233 2.21532 1
gene 1 76 16 -0.676815 0 234 -0.676815 1
gene 1 5 88 2.86293 0 279 2.86293 1
gene 1 88 19 -0.0588704 0 280 -0.0588704 1
gene 1 19 21 1.72064 0 469 1.72064 1
gene 1 1 150 3.27403 0 481 3.27403 1
gene 1 150 16 -6.98281 0 482 -6.98281 1
gene 1 6 19 -2.3944 0 493 -2.3944 1
gene 1 4 28 -2.86706 0 560 -2.86706 1
gene 1 4 150 -0.650761 0 573 -0.650761 1
gene 1 14 178 -0.0585086 0 591 -0.0585086 1
gene 1 178 17 0.0643202 0 592 0.0643202 1
gene 1 13 178 2.28567 0 642 2.28567 1
gene 1 15 88 0.180093 0 662 0.180093 1
gene 1 1 195 -2.39806 0 668 -2.39806 1
gene 1 195 28 -0.764336 0 669 -0.764336 1
gene 1 17 201 0.907426 0 692 0.907426 1
gene 1 201 76 1.00115 0 693 1.00115 1
gene 1 9 202 3.12698 0 697 3.12698 1
gene 1 202 16 -4.31352 0 698 -4.31352 1
gene 1 17 211 0.586241 0 741 -0.288759 1
gene 1 211 201 0.80581 0 742 -0.0691897 1
gene 1 14 19 0.286085 0 750 0.286085 1
gene 1 211 227 1 0 806 0 1
gene 1 227 201 0.611621 0 807 0 1
gene 1 17 233 1 0 830 0 1
gene 1 233 16 1.16755 0 831 0 1
genomeend 89


