/* Organism #68 Fitness: 11586.150000 Time: 0 */
genomestart 68
trait 1 0.204039 0.329872 0.650917 0.000000 0.000000 0.885352 0.000000 0.736656 
node 1 1 1 1
node 2 1 1 1
node 3 1 1 1
node 4 1 1 1
node 5 1 1 1
node 6 1 1 1
node 7 1 1 1
node 8 1 1 1
node 9 1 1 1
node 10 1 1 1
node 11 1 1 1
node 12 1 1 1
node 13 1 1 1
node 14 1 1 1
node 15 1 1 3
node 16 1 0 2
node 17 1 0 2
node 18 1 0 0
node 25 1 0 0
node 112 1 0 0
node 124 1 0 0
node 139 1 0 0
node 165 1 0 0
node 172 1 0 0
gene 1 1 16 -8 0 1 -8 1
gene 1 1 17 3.29079 0 2 3.29079 1
gene 1 2 16 2.26862 0 3 2.26862 1
gene 1 2 17 1.20153 0 4 1.20153 1
gene 1 3 16 2.34295 0 5 2.34295 1
gene 1 3 17 0.797049 0 6 0.797049 0
gene 1 4 16 3.67064 0 7 3.67064 1
gene 1 4 17 0.642269 0 8 0.642269 1
gene 1 5 16 -1.12013 0 9 -1.12013 1
gene 1 5 17 -3.31038 0 10 -3.31038 1
gene 1 6 16 -3.14233 0 11 -3.14233 1
gene 1 6 17 1.43933 0 12 1.43933 1
gene 1 7 16 -6.61556 0 13 -6.61556 0
gene 1 7 17 0.180345 0 14 0.180345 1
gene 1 8 16 -3.15622 0 15 -3.15622 1
gene 1 8 17 1.58099 0 16 1.58099 1
gene 1 9 16 -7.58308 0 17 -7.58308 1
gene 1 9 17 -2.30626 0 18 -2.30626 1
gene 1 10 16 -2.31926 0 19 -2.31926 1
gene 1 10 17 -0.417449 0 20 -0.417449 1
gene 1 11 16 -2.46156 0 21 -2.46156 1
gene 1 11 17 0.190015 0 22 0.190015 1
gene 1 12 16 5.11608 0 23 5.11608 1
gene 1 12 17 -3.90144 0 24 -3.90144 1
gene 1 13 16 -4.36959 0 25 -4.36959 1
gene 1 13 17 6.03102 0 16 6.03102 0
gene 1 14 16 -1.65646 0 17 -1.65646 1
gene 1 14 17 -3.00942 0 28 -3.00942 1
gene 1 15 16 5.28595 0 29 5.28595 1
gene 1 15 17 -5.86259 0 30 -5.86259 1
gene 1 2 18 0.0710339 0 31 0.0710339 1
gene 1 18 17 1.32398 0 32 1.32398 1
gene 1 11 18 3.43082 0 46 3.43082 1
gene 1 7 25 0.349692 0 55 0.349692 1
gene 1 25 16 4.18703 0 56 4.18703 1
gene 1 10 25 1.3286 0 154 1.3286 1
gene 1 1 18 -4.68278 0 162 -4.68278 1
gene 1 13 25 -1.74637 0 229 -1.74637 1
gene 1 17 16 -2.25197 0 276 -2.25197 1
gene 1 4 112 1.60079 0 351 1.60079 1
gene 1 112 17 3.24599 0 352 3.24599 1
gene 1 12 18 -1.49693 0 383 -1.49693 1
gene 1 3 124 -0.838522 0 411 -0.838522 1
gene 1 124 17 -0.468589 0 412 -0.468589 1
gene 1 11 139 -2.62304 0 460 -2.62304 1
gene 1 139 18 -1.4694 0 461 -1.4694 1
gene 1 2 139 -1.36565 0 551 -1.36565 1
gene 1 139 165 -2.16255 0 563 -2.16255 1
gene 1 165 18 1.98486 0 564 1.98486 1
gene 1 13 172 -0.842345 0 583 -0.842345 1
gene 1 172 17 0.60528 0 584 0.60528 1
gene 1 17 25 -1.8015 0 603 -1.8015 1
gene 1 5 25 0.105911 0 629 0.105911 1
gene 1 139 124 -0.4067 0 707 -0.4067 1
gene 1 4 124 0.507369 0 727 0.507369 1
gene 1 3 139 0.526758 0 736 0.526758 1
gene 1 11 112 0.346794 0 784 0.346794 1
genomeend 68


