/* Organism #28 Fitness: -165553.850800 Time: 0 */
genomestart 28
trait 1 0.132036 0.357979 0.225097 0.339589 0.095600 0.349554 0.506635 0.715957 
node 1 1 1 1
node 2 1 1 1
node 3 1 1 1
node 4 1 1 1
node 5 1 1 1
node 6 1 1 1
node 7 1 1 1
node 8 1 1 1
node 9 1 1 1
node 10 1 1 1
node 11 1 1 1
node 12 1 1 1
node 13 1 1 1
node 14 1 1 1
node 15 1 1 3
node 16 1 0 2
node 17 1 0 2
node 64 1 0 0
node 78 1 0 0
node 98 1 0 0
node 122 1 0 0
node 138 1 0 0
node 168 1 0 0
node 197 1 0 0
node 213 1 0 0
node 218 1 0 0
gene 1 1 16 6.56479 0 1 6.56479 1
gene 1 1 17 -3.68583 0 2 -3.68583 1
gene 1 2 16 0.669197 0 3 0.669197 0
gene 1 2 17 4.88665 0 4 4.88665 1
gene 1 3 16 0.034559 0 5 0.034559 1
gene 1 3 17 2.55312 0 6 2.55312 1
gene 1 4 16 -0.340054 0 7 -0.340054 1
gene 1 4 17 -4.87167 0 8 -4.87167 1
gene 1 5 16 -1.46268 0 9 -1.46268 1
gene 1 5 17 1.15381 0 10 1.15381 1
gene 1 6 16 1.20171 0 11 1.20171 0
gene 1 6 17 4.42192 0 12 4.42192 1
gene 1 7 16 6.91358 0 13 6.91358 0
gene 1 7 17 -4.85573 0 14 -4.85573 1
gene 1 8 16 -0.415705 0 15 -0.415705 1
gene 1 8 17 -2.25772 0 16 -2.25772 1
gene 1 9 16 0.958264 0 17 0.958264 0
gene 1 9 17 2.50096 0 18 2.50096 1
gene 1 10 16 4.7872 0 19 4.7872 1
gene 1 10 17 -0.667975 0 20 -0.667975 1
gene 1 11 16 0.441022 0 21 0.441022 1
gene 1 11 17 -4.72542 0 22 -4.72542 1
gene 1 12 16 5.10209 0 23 5.10209 1
gene 1 12 17 2.18634 0 24 2.18634 1
gene 1 13 16 -1.36517 0 25 -1.36517 1
gene 1 13 17 1.27377 0 16 1.27377 1
gene 1 14 16 5.59281 0 17 5.59281 1
gene 1 14 17 3.09218 0 28 3.09218 1
gene 1 15 16 0.835511 0 29 0.835511 1
gene 1 15 17 -1.80606 0 30 -1.80606 1
gene 1 7 64 -5.43829 0 153 -5.43829 1
gene 1 64 16 -1.04497 0 154 -1.04497 1
gene 1 6 64 3.20356 0 198 3.20356 1
gene 1 13 78 0.997831 0 205 0.997831 0
gene 1 78 16 1.21261 0 206 1.21261 1
gene 1 17 64 0.0314067 0 248 0.0314067 1
gene 1 14 64 -0.085146 0 274 -0.085146 0
gene 1 14 98 -1.75007 0 282 -1.75007 1
gene 1 98 64 1.6469 0 283 1.6469 1
gene 1 10 98 0.893435 0 306 0.893435 1
gene 1 12 98 0.575928 0 342 0.575928 1
gene 1 8 98 2.41474 0 361 2.41474 1
gene 1 78 122 -0.717372 0 381 -0.717372 1
gene 1 122 16 3.3845 0 382 3.3845 1
gene 1 5 98 0.542842 0 425 0.542842 1
gene 1 13 138 1.10286 0 448 0.227864 1
gene 1 138 78 0.862285 0 449 0.277392 1
gene 1 13 168 1 0 570 0 1
gene 1 168 138 1 0 571 0 1
gene 1 2 197 1 0 675 0 1
gene 1 197 16 0.669197 0 676 0 1
gene 1 11 78 0.937871 0 693 0.937871 1
gene 1 197 213 1 0 734 0 1
gene 1 213 16 0.669197 0 735 0 1
gene 1 6 218 1 0 750 0 1
gene 1 218 16 1.20171 0 751 0 1
gene 1 8 64 -0.888793 0 772 -0.888793 1
genomeend 28


