/* Organism #49 Fitness: -170243.198700 Time: 0 */
genomestart 49
trait 1 0.724443 0.548002 0.000000 0.000000 0.028473 0.369959 0.301162 0.195813 
node 1 1 1 1
node 2 1 1 1
node 3 1 1 1
node 4 1 1 1
node 5 1 1 1
node 6 1 1 1
node 7 1 1 1
node 8 1 1 1
node 9 1 1 1
node 10 1 1 1
node 11 1 1 1
node 12 1 1 1
node 13 1 1 1
node 14 1 1 1
node 15 1 1 3
node 16 1 0 2
node 17 1 0 2
node 25 1 0 0
node 105 1 0 0
node 200 1 0 0
gene 1 1 16 -0.116155 0 1 -0.116155 1
gene 1 1 17 -7.51215 0 2 -7.51215 1
gene 1 2 16 0.322446 0 3 0.322446 1
gene 1 2 17 -5.28929 0 4 -5.28929 1
gene 1 3 16 3.64254 0 5 3.64254 1
gene 1 3 17 -0.569822 0 6 -0.569822 1
gene 1 4 16 -5.70622 0 7 -5.70622 1
gene 1 4 17 -3.70707 0 8 -3.70707 1
gene 1 5 16 4.462 0 9 4.462 1
gene 1 5 17 -0.222129 0 10 -0.222129 1
gene 1 6 16 -3.72316 0 11 -3.72316 1
gene 1 6 17 6.2857 0 12 6.2857 1
gene 1 7 16 -2.60364 0 13 -2.60364 1
gene 1 7 17 -4.02553 0 14 -4.02553 1
gene 1 8 16 0.349025 0 15 0.349025 1
gene 1 8 17 1.23333 0 16 1.23333 1
gene 1 9 16 1.60045 0 17 1.60045 1
gene 1 9 17 2.13982 0 18 2.13982 1
gene 1 10 16 -0.327343 0 19 -0.327343 1
gene 1 10 17 -3.33218 0 20 -3.33218 1
gene 1 11 16 4.09999 0 21 4.09999 1
gene 1 11 17 -1.06021 0 22 -1.06021 1
gene 1 12 16 -3.29518 0 23 -3.29518 1
gene 1 12 17 0.703675 0 24 0.703675 1
gene 1 13 16 -0.682615 0 25 -0.682615 1
gene 1 13 17 3.66266 0 16 3.66266 1
gene 1 14 16 1.67158 0 17 1.67158 1
gene 1 14 17 3.06322 0 28 3.06322 1
gene 1 15 16 0.662095 0 29 0.662095 1
gene 1 15 17 1.05395 0 30 1.05395 1
gene 1 14 25 0.0894338 0 50 0.0894338 1
gene 1 25 17 2.82404 0 51 2.82404 0
gene 1 1 25 0.125953 0 80 0.125953 0
gene 1 8 25 2.02312 0 95 2.02312 1
gene 1 25 16 -2.05007 0 160 -2.05007 1
gene 1 11 25 1.92685 0 244 1.92685 1
gene 1 5 25 2.40544 0 266 2.40544 1
gene 1 9 105 0.688342 0 302 0.688342 1
gene 1 105 17 0.198257 0 303 0.198257 0
gene 1 14 105 -1.34566 0 330 -1.34566 1
gene 1 3 25 1.5911 0 376 1.5911 1
gene 1 16 105 0.171604 0 435 0.171604 1
gene 1 12 25 2.91899 0 471 2.91899 1
gene 1 10 105 0.389531 0 519 0.389531 1
gene 1 25 200 1 0 595 0.289062 1
gene 1 200 17 2.45473 0 596 0.218335 1
gene 1 5 200 0.891507 0 696 0.891507 1
gene 1 4 105 0.453229 0 768 0.453229 1
genomeend 49


