/* Organism #41 Fitness: -172288.262800 Time: 0 */
genomestart 41
trait 1 0.338839 0.000000 0.277978 0.107715 0.081000 0.000000 0.087071 0.051053 
node 1 1 1 1
node 2 1 1 1
node 3 1 1 1
node 4 1 1 1
node 5 1 1 1
node 6 1 1 1
node 7 1 1 1
node 8 1 1 1
node 9 1 1 1
node 10 1 1 1
node 11 1 1 1
node 12 1 1 1
node 13 1 1 1
node 14 1 1 1
node 15 1 1 3
node 16 1 0 2
node 17 1 0 2
node 22 1 0 0
node 66 1 0 0
node 117 1 0 0
node 154 1 0 0
node 165 1 0 0
gene 1 1 16 -0.533076 0 1 -0.533076 1
gene 1 1 17 4.01157 0 2 4.01157 1
gene 1 2 16 -3.33011 0 3 -3.33011 1
gene 1 2 17 6.37274 0 4 6.37274 1
gene 1 3 16 6.99339 0 5 6.99339 1
gene 1 3 17 -1.90631 0 6 -1.90631 1
gene 1 4 16 -0.831801 0 7 -0.831801 1
gene 1 4 17 1.22496 0 8 1.22496 1
gene 1 5 16 0.527658 0 9 0.527658 1
gene 1 5 17 4.79198 0 10 4.79198 1
gene 1 6 16 -0.545211 0 11 -0.545211 1
gene 1 6 17 -2.45359 0 12 -2.45359 1
gene 1 7 16 -1.77219 0 13 -1.77219 1
gene 1 7 17 0.7559 0 14 0.7559 1
gene 1 8 16 3.65857 0 15 3.65857 1
gene 1 8 17 -6.59785 0 16 -6.59785 1
gene 1 9 16 -1.42746 0 17 -1.42746 1
gene 1 9 17 -3.36769 0 18 -3.36769 1
gene 1 10 16 2.89302 0 19 2.89302 1
gene 1 10 17 2.12442 0 20 2.12442 1
gene 1 11 16 -3.53704 0 21 -3.53704 1
gene 1 11 17 2.06384 0 22 2.06384 1
gene 1 12 16 -2.54371 0 23 -2.54371 1
gene 1 12 17 -3.46925 0 24 -3.46925 1
gene 1 13 16 -0.310988 0 25 -0.310988 0
gene 1 13 17 -0.780924 0 16 -0.780924 1
gene 1 14 16 0.963821 0 17 0.963821 1
gene 1 14 17 3.12161 0 28 3.12161 1
gene 1 15 16 -2.51553 0 29 -2.51553 1
gene 1 15 17 -3.90378 0 30 -3.90378 1
gene 1 1 22 2.4503 0 44 2.4503 1
gene 1 22 16 1.26411 0 45 1.26411 1
gene 1 17 16 -1.22896 0 137 -1.22896 1
gene 1 3 22 1.60834 0 168 1.60834 1
gene 1 7 66 -1.10187 0 203 -1.10187 1
gene 1 66 16 -0.396196 0 204 -0.396196 1
gene 1 66 17 1.1892 0 367 1.1892 1
gene 1 6 117 0.976083 0 394 0.976083 1
gene 1 117 17 1.67865 0 395 1.67865 1
gene 1 10 66 4.87329 0 406 4.87329 1
gene 1 9 154 0.0177578 0 534 0.0177578 1
gene 1 154 17 2.38248 0 535 2.38248 1
gene 1 13 66 1.40787 0 565 1.40787 1
gene 1 1 117 1.42854 0 577 1.42854 1
gene 1 13 165 0.347487 0 584 0.347487 1
gene 1 165 16 2.34612 0 585 2.34612 1
gene 1 5 154 -0.519789 0 622 -0.519789 1
gene 1 66 117 2.36729 0 688 2.36729 1
gene 1 12 117 -0.631361 0 762 -0.631361 1
genomeend 41


