/* Organism #6 Fitness: -167322.365800 Time: 0 */
genomestart 6
trait 1 0.339107 0.000000 0.030667 0.017669 0.153192 0.000000 0.134980 0.008229 
node 1 1 1 1
node 2 1 1 1
node 3 1 1 1
node 4 1 1 1
node 5 1 1 1
node 6 1 1 1
node 7 1 1 1
node 8 1 1 1
node 9 1 1 1
node 10 1 1 1
node 11 1 1 1
node 12 1 1 1
node 13 1 1 1
node 14 1 1 1
node 15 1 1 3
node 16 1 0 2
node 17 1 0 2
node 110 1 0 0
node 157 1 0 0
gene 1 1 16 -0.862595 0 1 -0.862595 1
gene 1 1 17 3.06754 0 2 3.06754 1
gene 1 2 16 3.98162 0 3 3.98162 1
gene 1 2 17 -2.55821 0 4 -2.55821 1
gene 1 3 16 4.49967 0 5 4.49967 1
gene 1 3 17 -0.00639009 0 6 -0.00639009 1
gene 1 4 16 -5.30741 0 7 -5.30741 1
gene 1 4 17 -6.09517 0 8 -6.09517 1
gene 1 5 16 -0.860927 0 9 -0.860927 1
gene 1 5 17 0.236256 0 10 0.236256 1
gene 1 6 16 1.08291 0 11 1.08291 1
gene 1 6 17 -0.899476 0 12 -0.899476 1
gene 1 7 16 -0.57717 0 13 -0.57717 1
gene 1 7 17 0.168419 0 14 0.168419 1
gene 1 8 16 0.851261 0 15 0.851261 1
gene 1 8 17 1.90716 0 16 1.90716 1
gene 1 9 16 0.124893 0 17 0.124893 0
gene 1 9 17 -5.46924 0 18 -5.46924 1
gene 1 10 16 0.390949 0 19 0.390949 1
gene 1 10 17 -2.14096 0 20 -2.14096 1
gene 1 11 16 1.14113 0 21 1.14113 1
gene 1 11 17 -0.883486 0 22 -0.883486 1
gene 1 12 16 -0.129708 0 23 -0.129708 1
gene 1 12 17 0.466992 0 24 0.466992 1
gene 1 13 16 -1.34058 0 25 -1.34058 1
gene 1 13 17 0.790505 0 16 0.790505 1
gene 1 14 16 0.1991 0 17 0.1991 1
gene 1 14 17 0.876337 0 28 0.876337 1
gene 1 15 16 -0.683283 0 29 -0.683283 1
gene 1 15 17 -0.751427 0 30 -0.751427 1
gene 1 17 16 1.45471 0 31 1.45471 1
gene 1 14 110 -0.000826779 0 341 -0.000826779 1
gene 1 110 17 0.51528 0 342 0.51528 1
gene 1 4 110 -0.60745 0 368 -0.60745 1
gene 1 15 110 -3.16438 0 390 -3.16438 1
gene 1 10 110 1.26402 0 412 1.26402 1
gene 1 11 110 -2.32615 0 449 -2.32615 1
gene 1 10 157 2.11778 0 495 2.11778 1
gene 1 157 17 1.51862 0 496 1.51862 1
gene 1 2 157 0.961439 0 511 0.961439 1
gene 1 1 110 0.352212 0 524 0.352212 1
gene 1 7 110 0.330331 0 537 0.330331 1
gene 1 6 110 0.405705 0 541 0.405705 1
gene 1 8 157 -0.506727 0 670 -0.506727 1
gene 1 14 157 0.271456 0 724 0.271456 1
genomeend 6


