/* Organism #21 Fitness: -171708.002700 Time: 0 */
genomestart 21
trait 1 0.435797 0.363893 0.306476 0.227306 0.205768 0.098454 0.113134 0.193422 
node 1 1 1 1
node 2 1 1 1
node 3 1 1 1
node 4 1 1 1
node 5 1 1 1
node 6 1 1 1
node 7 1 1 1
node 8 1 1 1
node 9 1 1 1
node 10 1 1 1
node 11 1 1 1
node 12 1 1 1
node 13 1 1 1
node 14 1 1 1
node 15 1 1 3
node 16 1 0 2
node 17 1 0 2
node 113 1 0 0
node 129 1 0 0
gene 1 1 16 6.59713 0 1 6.59713 1
gene 1 1 17 -6.92562 0 2 -6.92562 1
gene 1 2 16 3.00073 0 3 3.00073 1
gene 1 2 17 -2.6263 0 4 -2.6263 1
gene 1 3 16 2.09278 0 5 2.09278 1
gene 1 3 17 4.58052 0 6 4.58052 1
gene 1 4 16 -7.72571 0 7 -7.72571 1
gene 1 4 17 2.19064 0 8 2.19064 1
gene 1 5 16 1.39439 0 9 1.39439 1
gene 1 5 17 -3.28474 0 10 -3.28474 1
gene 1 6 16 0.54217 0 11 0.54217 1
gene 1 6 17 0.281556 0 12 0.281556 1
gene 1 7 16 -3.93995 0 13 -3.93995 1
gene 1 7 17 0.603761 0 14 0.603761 1
gene 1 8 16 2.58416 0 15 2.58416 1
gene 1 8 17 -4.51161 0 16 -4.51161 1
gene 1 9 16 -1.82072 0 17 -1.82072 1
gene 1 9 17 -0.778383 0 18 -0.778383 1
gene 1 10 16 -2.37167 0 19 -2.37167 1
gene 1 10 17 -3.20719 0 20 -3.20719 1
gene 1 11 16 5.23395 0 21 5.23395 1
gene 1 11 17 -4.80122 0 22 -4.80122 1
gene 1 12 16 -1.154 0 23 -1.154 1
gene 1 12 17 2.81211 0 24 2.81211 1
gene 1 13 16 -3.96455 0 25 -3.96455 1
gene 1 13 17 1.68658 0 16 1.68658 1
gene 1 14 16 2.35067 0 17 2.35067 1
gene 1 14 17 -2.01259 0 28 -2.01259 1
gene 1 15 16 5.27297 0 29 5.27297 1
gene 1 15 17 0.520634 0 30 0.520634 1
gene 1 16 17 1.11672 0 164 1.11672 1
gene 1 8 113 4.168 0 333 4.168 1
gene 1 113 17 5.85352 0 334 5.85352 1
gene 1 13 129 -3.73628 0 377 -3.73628 1
gene 1 129 17 -0.422178 0 378 -0.422178 1
gene 1 12 129 1.17168 0 429 1.17168 1
gene 1 14 129 -0.839719 0 474 -0.839719 1
gene 1 10 129 0.343713 0 499 0.343713 1
gene 1 3 129 1.0847 0 575 1.0847 1
gene 1 7 113 2.01457 0 621 2.01457 1
gene 1 14 113 -0.569998 0 652 -0.569998 1
gene 1 9 129 1.35352 0 664 1.35352 1
gene 1 5 129 0.50241 0 681 0.50241 1
genomeend 21


