/* Organism #56 Fitness: -173899.417800 Time: 0 */
genomestart 56
trait 1 0.924091 0.068203 0.078585 0.031402 0.254141 0.296171 0.566194 0.029943 
node 1 1 1 1
node 2 1 1 1
node 3 1 1 1
node 4 1 1 1
node 5 1 1 1
node 6 1 1 1
node 7 1 1 1
node 8 1 1 1
node 9 1 1 1
node 10 1 1 1
node 11 1 1 1
node 12 1 1 1
node 13 1 1 1
node 14 1 1 1
node 15 1 1 3
node 16 1 0 2
node 17 1 0 2
node 71 1 0 0
node 144 1 0 0
gene 1 1 16 3.54807 0 1 3.54807 0
gene 1 1 17 -6.0003 0 2 -6.0003 1
gene 1 2 16 0.728078 0 3 0.728078 1
gene 1 2 17 1.21497 0 4 1.21497 1
gene 1 3 16 -4.55983 0 5 -4.55983 1
gene 1 3 17 3.55624 0 6 3.55624 1
gene 1 4 16 0.236366 0 7 0.236366 1
gene 1 4 17 -2.42961 0 8 -2.42961 1
gene 1 5 16 1.051 0 9 1.051 1
gene 1 5 17 -0.873557 0 10 -0.873557 0
gene 1 6 16 0.335364 0 11 0.335364 1
gene 1 6 17 1.67147 0 12 1.67147 1
gene 1 7 16 -4.59349 0 13 -4.59349 1
gene 1 7 17 -0.630587 0 14 -0.630587 1
gene 1 8 16 1.96008 0 15 1.96008 1
gene 1 8 17 0.439578 0 16 0.439578 1
gene 1 9 16 2.20481 0 17 2.20481 1
gene 1 9 17 0.378689 0 18 0.378689 0
gene 1 10 16 2.04276 0 19 2.04276 0
gene 1 10 17 -1.51824 0 20 -1.51824 1
gene 1 11 16 -3.22845 0 21 -3.22845 1
gene 1 11 17 0.766556 0 22 0.766556 1
gene 1 12 16 -0.0336882 0 23 -0.0336882 1
gene 1 12 17 2.66917 0 24 2.66917 1
gene 1 13 16 -3.04356 0 25 -3.04356 1
gene 1 13 17 -4.24442 0 16 -4.24442 1
gene 1 14 16 3.07009 0 17 3.07009 1
gene 1 14 17 0.311439 0 28 0.311439 1
gene 1 15 16 1.85816 0 29 1.85816 1
gene 1 15 17 1.71073 0 30 1.71073 1
gene 1 11 71 -0.0905612 0 179 -0.0905612 1
gene 1 71 17 1.80398 0 180 1.80398 1
gene 1 1 71 -2.34273 0 203 -2.34273 1
gene 1 4 71 1.63944 0 401 1.63944 1
gene 1 5 71 1.1449 0 444 1.1449 1
gene 1 5 144 2.94503 0 455 2.94503 1
gene 1 144 17 -1.08578 0 456 -1.08578 1
gene 1 12 71 2.1461 0 469 2.1461 1
gene 1 12 144 0.480119 0 570 0.480119 1
gene 1 7 71 -0.0218563 0 721 -0.0218563 1
gene 1 15 144 1.87631 0 773 1.87631 1
gene 1 14 144 0.00045778 0 782 0.00045778 1
genomeend 56


