/* Organism #52 Fitness: -172513.340100 Time: 0 */
genomestart 52
trait 1 0.436388 0.837823 0.868037 0.223304 0.491187 0.430857 0.189031 0.770233 
node 1 1 1 1
node 2 1 1 1
node 3 1 1 1
node 4 1 1 1
node 5 1 1 1
node 6 1 1 1
node 7 1 1 1
node 8 1 1 1
node 9 1 1 1
node 10 1 1 1
node 11 1 1 1
node 12 1 1 1
node 13 1 1 1
node 14 1 1 1
node 15 1 1 3
node 16 1 0 2
node 17 1 0 2
node 38 1 0 0
node 141 1 0 0
node 222 1 0 0
gene 1 1 16 0.865467 0 1 0.865467 0
gene 1 1 17 3.25047 0 2 3.25047 1
gene 1 2 16 -2.12645 0 3 -2.12645 1
gene 1 2 17 7.3162 0 4 7.3162 1
gene 1 3 16 7.41467 0 5 7.41467 1
gene 1 3 17 -2.28153 0 6 -2.28153 1
gene 1 4 16 -0.21035 0 7 -0.21035 1
gene 1 4 17 -2.64702 0 8 -2.64702 1
gene 1 5 16 2.53285 0 9 2.53285 1
gene 1 5 17 -0.152266 0 10 -0.152266 1
gene 1 6 16 0.848464 0 11 0.848464 1
gene 1 6 17 0.631784 0 12 0.631784 1
gene 1 7 16 0.843423 0 13 0.843423 1
gene 1 7 17 -1.95283 0 14 -1.95283 1
gene 1 8 16 3.15124 0 15 3.15124 1
gene 1 8 17 1.02029 0 16 1.02029 1
gene 1 9 16 -5.86431 0 17 -5.86431 1
gene 1 9 17 -3.21331 0 18 -3.21331 1
gene 1 10 16 5.48517 0 19 5.48517 1
gene 1 10 17 1.59133 0 20 1.59133 1
gene 1 11 16 0.385477 0 21 0.385477 1
gene 1 11 17 0.402633 0 22 0.402633 0
gene 1 12 16 0.499241 0 23 0.499241 1
gene 1 12 17 0.211641 0 24 0.211641 1
gene 1 13 16 -1.96625 0 25 -1.96625 1
gene 1 13 17 -0.0903589 0 16 -0.0903589 1
gene 1 14 16 3.4559 0 17 3.4559 1
gene 1 14 17 -3.63852 0 28 -3.63852 1
gene 1 15 16 -0.0693957 0 29 -0.0693957 1
gene 1 15 17 0.242414 0 30 0.242414 1
gene 1 17 16 -3.33765 0 44 -3.33765 1
gene 1 6 38 1.25295 0 79 1.25295 1
gene 1 38 17 -0.691444 0 80 -0.691444 1
gene 1 11 38 0.856993 0 158 0.856993 1
gene 1 2 38 0.095808 0 188 0.095808 1
gene 1 9 38 -0.952515 0 239 -0.952515 1
gene 1 4 38 -0.192589 0 288 -0.192589 1
gene 1 12 38 -0.356334 0 368 -0.356334 1
gene 1 1 38 -1.64795 0 400 -1.64795 1
gene 1 38 141 0.882415 0 403 0.861908 1
gene 1 141 17 0.281958 0 404 0.292843 1
gene 1 4 141 0.225644 0 437 0.225644 1
gene 1 9 141 0.141606 0 475 0.141606 1
gene 1 6 141 1.15018 0 500 1.15018 1
gene 1 11 141 0.18339 0 515 0.18339 1
gene 1 3 141 -0.961681 0 532 -0.961681 1
gene 1 7 141 -2.01211 0 551 -2.01211 1
gene 1 1 141 0.482848 0 557 0.482848 1
gene 1 7 38 0.012922 0 597 0.012922 1
gene 1 14 38 -0.970027 0 625 -0.970027 1
gene 1 38 16 0.0137759 0 636 0.0137759 1
gene 1 2 141 0.658419 0 647 0.658419 1
gene 1 4 222 0.0909464 0 679 -0.202022 1
gene 1 222 16 0.211301 0 680 0.0410708 1
gene 1 141 222 -0.936545 0 707 -0.936545 1
gene 1 222 17 -0.679577 0 728 -0.679577 0
gene 1 5 222 -0.0140755 0 762 -0.0140755 1
genomeend 52


