/* Organism #43 Fitness: -172797.666600 Time: 0 */
genomestart 43
trait 1 0.246548 0.175401 0.976304 0.748981 0.379107 0.991519 0.662341 1.000000 
node 1 1 1 1
node 2 1 1 1
node 3 1 1 1
node 4 1 1 1
node 5 1 1 1
node 6 1 1 1
node 7 1 1 1
node 8 1 1 1
node 9 1 1 1
node 10 1 1 1
node 11 1 1 1
node 12 1 1 1
node 13 1 1 1
node 14 1 1 1
node 15 1 1 3
node 16 1 0 2
node 17 1 0 2
node 19 1 0 0
node 24 1 0 0
node 34 1 0 0
node 103 1 0 0
gene 1 1 16 1.2251 0 1 1.2251 1
gene 1 1 17 -5.62427 0 2 -5.62427 1
gene 1 2 16 4.71757 0 3 4.71757 1
gene 1 2 17 2.51709 0 4 2.51709 0
gene 1 3 16 0.382416 0 5 0.382416 1
gene 1 3 17 0.777191 0 6 0.777191 1
gene 1 4 16 -2.02131 0 7 -2.02131 0
gene 1 4 17 -0.116259 0 8 -0.116259 1
gene 1 5 16 -3.68451 0 9 -3.68451 0
gene 1 5 17 -7.23291 0 10 -7.23291 1
gene 1 6 16 -3.60816 0 11 -3.60816 1
gene 1 6 17 0.0327936 0 12 0.0327936 1
gene 1 7 16 0.959138 0 13 0.959138 1
gene 1 7 17 -5.05665 0 14 -5.05665 1
gene 1 8 16 0.39398 0 15 0.39398 1
gene 1 8 17 4.47498 0 16 4.47498 1
gene 1 9 16 4.42918 0 17 4.42918 1
gene 1 9 17 1.67587 0 18 1.67587 1
gene 1 10 16 3.58865 0 19 3.58865 1
gene 1 10 17 -2.8818 0 20 -2.8818 1
gene 1 11 16 4.20932 0 21 4.20932 1
gene 1 11 17 -3.55978 0 22 -3.55978 1
gene 1 12 16 -6.04706 0 23 -6.04706 1
gene 1 12 17 2.53837 0 24 2.53837 1
gene 1 13 16 5.67119 0 25 5.67119 1
gene 1 13 17 3.08723 0 16 3.08723 1
gene 1 14 16 4.15482 0 17 4.15482 1
gene 1 14 17 -1.1179 0 28 -1.1179 1
gene 1 15 16 1.10402 0 29 1.10402 1
gene 1 15 17 0.420194 0 30 0.420194 1
gene 1 5 19 4.62979 0 34 4.62979 1
gene 1 19 16 -1.04583 0 35 -1.04583 0
gene 1 13 24 3.931 0 47 3.931 1
gene 1 24 16 -1.94189 0 48 -1.94189 1
gene 1 24 34 -8 0 72 -8 1
gene 1 34 16 2.01906 0 73 2.01906 1
gene 1 9 24 4.2627 0 99 4.2627 1
gene 1 24 19 -1.09607 0 109 -1.09607 0
gene 1 4 19 -5.09728 0 198 -5.09728 1
gene 1 1 19 -1.61421 0 213 -1.61421 1
gene 1 19 103 5.11381 0 306 5.11381 1
gene 1 103 16 1.57401 0 307 1.57401 1
gene 1 6 24 0.133938 0 335 0.133938 1
gene 1 2 24 -0.00758127 0 353 -0.00758127 1
gene 1 12 103 -0.262663 0 527 -0.262663 1
gene 1 1 24 1.89041 0 559 1.89041 1
gene 1 34 19 0.4591 0 604 0.4591 1
gene 1 6 103 -0.673926 0 692 -0.673926 1
gene 1 9 103 -1.13722 0 742 -1.13722 1
gene 1 2 34 0.116228 0 766 0.116228 1
gene 1 8 103 0.962033 0 820 0.962033 1
gene 1 7 19 -0.332392 0 822 -0.332392 1
genomeend 43


