/* Organism #71 Fitness: -171999.976500 Time: 0 */
genomestart 71
trait 1 0.176153 0.400614 0.188612 0.116473 0.036028 0.208382 0.303184 0.001150 
node 1 1 1 1
node 2 1 1 1
node 3 1 1 1
node 4 1 1 1
node 5 1 1 1
node 6 1 1 1
node 7 1 1 1
node 8 1 1 1
node 9 1 1 1
node 10 1 1 1
node 11 1 1 1
node 12 1 1 1
node 13 1 1 1
node 14 1 1 1
node 15 1 1 3
node 16 1 0 2
node 17 1 0 2
node 33 1 0 0
node 38 1 0 0
node 62 1 0 0
node 75 1 0 0
node 157 1 0 0
node 216 1 0 0
gene 1 1 16 -3.7937 0 1 -3.7937 1
gene 1 1 17 -0.149123 0 2 -0.149123 1
gene 1 2 16 1.25971 0 3 1.25971 0
gene 1 2 17 -3.94854 0 4 -3.94854 1
gene 1 3 16 6.4728 0 5 6.4728 1
gene 1 3 17 -0.20531 0 6 -0.20531 1
gene 1 4 16 -1.94722 0 7 -1.94722 1
gene 1 4 17 1.48161 0 8 1.48161 0
gene 1 5 16 3.44499 0 9 3.44499 1
gene 1 5 17 0.0311716 0 10 0.0311716 1
gene 1 6 16 2.23158 0 11 2.23158 1
gene 1 6 17 -2.12206 0 12 -2.12206 1
gene 1 7 16 -1.56508 0 13 -1.56508 1
gene 1 7 17 -2.8891 0 14 -2.8891 1
gene 1 8 16 6.3369 0 15 6.3369 1
gene 1 8 17 4.44129 0 16 4.44129 1
gene 1 9 16 -5.94482 0 17 -5.94482 1
gene 1 9 17 -5.65593 0 18 -5.65593 1
gene 1 10 16 1.79032 0 19 1.79032 1
gene 1 10 17 2.30999 0 20 2.30999 1
gene 1 11 16 -2.24918 0 21 -2.24918 1
gene 1 11 17 0.66057 0 22 0.66057 1
gene 1 12 16 0.993624 0 23 0.993624 1
gene 1 12 17 0.266761 0 24 0.266761 1
gene 1 13 16 7.21821 0 25 7.21821 1
gene 1 13 17 6.0157 0 16 6.0157 0
gene 1 14 16 2.91681 0 17 2.91681 1
gene 1 14 17 -3.24859 0 28 -3.24859 1
gene 1 15 16 2.48093 0 29 2.48093 1
gene 1 15 17 -2.44677 0 30 -2.44677 1
gene 1 6 33 2.25332 0 72 2.25332 1
gene 1 33 17 0.700301 0 73 0.700301 1
gene 1 3 38 1.52384 0 83 1.52384 1
gene 1 38 17 1.19273 0 84 1.19273 1
gene 1 2 33 1.37603 0 110 1.37603 1
gene 1 13 33 2.86625 0 171 2.86625 1
gene 1 3 62 -1.33208 0 180 -1.33208 1
gene 1 62 38 -1.00061 0 181 -1.00061 1
gene 1 62 33 -0.203985 0 192 -0.203985 1
gene 1 5 75 -0.0223936 0 212 -0.0819944 1
gene 1 75 16 3.4304 0 213 3.2259 1
gene 1 62 75 0.209868 0 241 0.209868 1
gene 1 1 33 0.966477 0 267 0.966477 1
gene 1 16 17 0.68417 0 348 0.68417 1
gene 1 11 33 -0.891281 0 376 -0.891281 1
gene 1 62 17 -2.32054 0 444 -2.32054 1
gene 1 13 75 -0.619715 0 458 -0.619715 1
gene 1 6 38 0.884827 0 499 0.884827 1
gene 1 16 157 2.17737 0 524 2.10706 1
gene 1 157 17 0.494463 0 525 0.494463 1
gene 1 75 38 2.11293 0 539 2.11293 1
gene 1 1 157 0.35864 0 648 0.35864 1
gene 1 7 62 0.437872 0 714 0.437872 1
gene 1 62 157 -0.656472 0 743 -0.656472 1
gene 1 15 33 -0.814341 0 778 -0.814341 1
gene 1 13 216 1 0 792 0 1
gene 1 216 17 6.0157 0 793 0 1
gene 1 11 62 0.879187 0 852 0.879187 1
genomeend 71


