/* Organism #77 Fitness: -166771.973900 Time: 0 */
genomestart 77
trait 1 0.062432 0.066775 0.455296 0.440418 0.142562 0.674784 0.017869 0.618324 
node 1 1 1 1
node 2 1 1 1
node 3 1 1 1
node 4 1 1 1
node 5 1 1 1
node 6 1 1 1
node 7 1 1 1
node 8 1 1 1
node 9 1 1 1
node 10 1 1 1
node 11 1 1 1
node 12 1 1 1
node 13 1 1 1
node 14 1 1 1
node 15 1 1 3
node 16 1 0 2
node 17 1 0 2
node 100 1 0 0
node 138 1 0 0
node 151 1 0 0
node 159 1 0 0
node 186 1 0 0
gene 1 1 16 -0.666171 0 1 -0.666171 1
gene 1 1 17 -2.5282 0 2 -2.5282 1
gene 1 2 16 -0.931347 0 3 -0.931347 1
gene 1 2 17 2.40624 0 4 2.40624 1
gene 1 3 16 2.58014 0 5 2.58014 1
gene 1 3 17 2.73638 0 6 2.73638 1
gene 1 4 16 0.256519 0 7 0.256519 1
gene 1 4 17 1.59088 0 8 1.59088 1
gene 1 5 16 0.553854 0 9 0.553854 1
gene 1 5 17 -0.377526 0 10 -0.377526 1
gene 1 6 16 0.645642 0 11 0.645642 1
gene 1 6 17 -1.71427 0 12 -1.71427 1
gene 1 7 16 -2.09051 0 13 -2.09051 1
gene 1 7 17 0.444066 0 14 0.444066 1
gene 1 8 16 -1.76574 0 15 -1.76574 1
gene 1 8 17 0.22783 0 16 0.22783 0
gene 1 9 16 -2.81535 0 17 -2.81535 1
gene 1 9 17 0.114538 0 18 0.114538 1
gene 1 10 16 2.6426 0 19 2.6426 1
gene 1 10 17 0.735872 0 20 0.735872 1
gene 1 11 16 -0.10396 0 21 -0.10396 1
gene 1 11 17 -1.34547 0 22 -1.34547 1
gene 1 12 16 -0.765667 0 23 -0.765667 1
gene 1 12 17 0.819114 0 24 0.819114 1
gene 1 13 16 0.418728 0 25 0.418728 1
gene 1 13 17 0.439079 0 16 0.439079 1
gene 1 14 16 1.5922 0 17 1.5922 1
gene 1 14 17 1.12994 0 28 1.12994 1
gene 1 15 16 -0.240736 0 29 -0.240736 1
gene 1 15 17 -0.869413 0 30 -0.869413 1
gene 1 17 16 -0.505347 0 164 -0.595575 1
gene 1 5 100 0.863806 0 281 0.191931 1
gene 1 100 16 0.805159 0 282 0.152906 1
gene 1 1 100 -0.94955 0 286 -0.94955 1
gene 1 2 100 -0.0536742 0 322 -0.0536742 1
gene 1 7 138 0.892009 0 411 0.00138425 0
gene 1 138 16 -2.05472 0 412 -0.509203 1
gene 1 10 138 -0.991149 0 417 -0.991149 1
gene 1 8 151 0.857521 0 445 -0.0331036 1
gene 1 151 16 -2.59089 0 446 -0.400056 1
gene 1 1 138 0.853246 0 475 0.853246 1
gene 1 17 159 1.19155 0 490 0.494285 1
gene 1 159 16 -0.67484 0 491 -0.266111 1
gene 1 3 100 -0.247629 0 538 -0.247629 1
gene 1 138 100 -0.644707 0 544 -0.644707 1
gene 1 7 186 0.881805 0 581 -0.00882002 1
gene 1 186 138 1.18804 0 582 0.391163 1
gene 1 6 151 1.01144 0 593 1.01144 1
gene 1 5 186 -0.621088 0 653 -0.621088 1
gene 1 6 186 -0.29582 0 670 -0.29582 1
gene 1 17 151 -0.0382785 0 725 -0.0382785 1
gene 1 3 138 0.509082 0 741 0.509082 1
genomeend 77


