/* Organism #0 Fitness: 17.610000 Time: 0 */
genomestart 0
trait 1 0.000000 0.150434 0.028134 0.000000 1.000000 0.000000 0.000000 0.095342 
node 1 1 1 1
node 2 1 1 1
node 3 1 1 1
node 4 1 1 1
node 5 1 1 1
node 6 1 1 1
node 7 1 1 1
node 8 1 1 1
node 9 1 1 1
node 10 1 1 1
node 11 1 1 1
node 12 1 1 1
node 13 1 1 1
node 14 1 1 1
node 15 1 1 3
node 16 1 0 2
node 17 1 0 2
gene 1 1 16 -4.0445 0 1 -4.0445 1
gene 1 1 17 -1.05497 0 2 -1.05497 1
gene 1 2 16 1.93001 0 3 1.93001 1
gene 1 2 17 0.141142 0 4 0.141142 1
gene 1 3 16 -3.37425 0 5 -3.37425 1
gene 1 3 17 1.7184 0 6 1.7184 1
gene 1 4 16 -5 0 7 -5 1
gene 1 4 17 2.10942 0 8 2.10942 1
gene 1 5 16 -0.0288314 0 9 -0.0288314 1
gene 1 5 17 4.59361 0 10 4.59361 1
gene 1 6 16 -0.899925 0 11 -0.899925 1
gene 1 6 17 1.7855 0 12 1.7855 1
gene 1 7 16 -0.33202 0 13 -0.33202 1
gene 1 7 17 2.16156 0 14 2.16156 1
gene 1 8 16 0.190854 0 15 0.190854 1
gene 1 8 17 -1.58243 0 16 -1.58243 1
gene 1 9 16 3.8766 0 17 3.8766 1
gene 1 9 17 5 0 18 5 1
gene 1 10 16 1.31577 0 19 1.31577 1
gene 1 10 17 1.33309 0 20 1.33309 1
gene 1 11 16 -3.77097 0 21 -3.77097 1
gene 1 11 17 -1.12418 0 22 -1.12418 1
gene 1 12 16 1.3101 0 23 1.3101 1
gene 1 12 17 2.00402 0 24 2.00402 1
gene 1 13 16 4.03243 0 25 4.03243 1
gene 1 13 17 -0.585286 0 16 -0.585286 1
gene 1 14 16 -1.42399 0 17 -1.42399 1
gene 1 14 17 -1.40998 0 28 -1.40998 1
gene 1 15 16 0.439505 0 29 0.439505 1
gene 1 15 17 -1.78325 0 30 -1.78325 1
genomeend 0


