/* Organism #7 Fitness: 17.090000 Time: 0 */
genomestart 7
trait 1 0.934425 0.000000 0.000000 0.000000 0.000000 0.000000 0.000000 0.000000 
node 1 1 1 1
node 2 1 1 1
node 3 1 1 1
node 4 1 1 1
node 5 1 1 1
node 6 1 1 1
node 7 1 1 1
node 8 1 1 1
node 9 1 1 1
node 10 1 1 1
node 11 1 1 1
node 12 1 1 1
node 13 1 1 1
node 14 1 1 1
node 15 1 1 3
node 16 1 0 2
node 17 1 0 2
gene 1 1 16 1.14097 0 1 1.14097 1
gene 1 1 17 3.45504 0 2 3.45504 1
gene 1 2 16 -0.489972 0 3 -0.489972 1
gene 1 2 17 4.91755 0 4 4.91755 1
gene 1 3 16 -0.203346 0 5 -0.203346 1
gene 1 3 17 2.88717 0 6 2.88717 1
gene 1 4 16 1.09239 0 7 1.09239 1
gene 1 4 17 0.0535122 0 8 0.0535122 1
gene 1 5 16 2.93428 0 9 2.93428 1
gene 1 5 17 -0.271928 0 10 -0.271928 1
gene 1 6 16 -1.68879 0 11 -1.68879 1
gene 1 6 17 -1.42928 0 12 -1.42928 1
gene 1 7 16 -1.30351 0 13 -1.30351 1
gene 1 7 17 -0.409229 0 14 -0.409229 1
gene 1 8 16 1.64542 0 15 1.64542 1
gene 1 8 17 -0.298232 0 16 -0.298232 1
gene 1 9 16 -2.27663 0 17 -2.27663 1
gene 1 9 17 -3.61989 0 18 -3.61989 1
gene 1 10 16 1.57252 0 19 1.57252 1
gene 1 10 17 -0.782094 0 20 -0.782094 1
gene 1 11 16 0.231574 0 21 0.231574 1
gene 1 11 17 -0.252854 0 22 -0.252854 1
gene 1 12 16 2.24583 0 23 2.24583 1
gene 1 12 17 -0.962409 0 24 -0.962409 1
gene 1 13 16 -1.34054 0 25 -1.34054 1
gene 1 13 17 -1.3709 0 16 -1.3709 1
gene 1 14 16 0.862008 0 17 0.862008 1
gene 1 14 17 -1.74197 0 28 -1.74197 1
gene 1 15 16 -4.43656 0 29 -4.43656 1
gene 1 15 17 0.269817 0 30 0.269817 1
genomeend 7


