/* Organism #11 Fitness: 16.430000 Time: 0 */
genomestart 11
trait 1 0.601777 0.000000 0.000000 0.000000 0.000000 0.630434 0.000000 0.000000 
node 1 1 1 1
node 2 1 1 1
node 3 1 1 1
node 4 1 1 1
node 5 1 1 1
node 6 1 1 1
node 7 1 1 1
node 8 1 1 1
node 9 1 1 1
node 10 1 1 1
node 11 1 1 1
node 12 1 1 1
node 13 1 1 1
node 14 1 1 1
node 15 1 1 3
node 16 1 0 2
node 17 1 0 2
gene 1 1 16 -0.00243889 0 1 -0.00243889 1
gene 1 1 17 2.43552 0 2 2.43552 1
gene 1 2 16 -0.0772684 0 3 -0.0772684 1
gene 1 2 17 0.990501 0 4 0.990501 1
gene 1 3 16 2.47413 0 5 2.47413 1
gene 1 3 17 -0.232216 0 6 -0.232216 1
gene 1 4 16 -4.55918 0 7 -4.55918 1
gene 1 4 17 0.107603 0 8 0.107603 1
gene 1 5 16 1.31515 0 9 1.31515 1
gene 1 5 17 0.483165 0 10 0.483165 1
gene 1 6 16 4.11895 0 11 4.11895 1
gene 1 6 17 -1.72801 0 12 -1.72801 1
gene 1 7 16 -0.32442 0 13 -0.32442 1
gene 1 7 17 0.0698199 0 14 0.0698199 1
gene 1 8 16 5 0 15 5 1
gene 1 8 17 0.317045 0 16 0.317045 1
gene 1 9 16 0.12404 0 17 0.12404 1
gene 1 9 17 0.556147 0 18 0.556147 1
gene 1 10 16 0.386411 0 19 0.386411 1
gene 1 10 17 -1.43169 0 20 -1.43169 1
gene 1 11 16 -1.46512 0 21 -1.46512 1
gene 1 11 17 1.71803 0 22 1.71803 1
gene 1 12 16 0.260961 0 23 0.260961 1
gene 1 12 17 0.258885 0 24 0.258885 1
gene 1 13 16 1.06718 0 25 1.06718 1
gene 1 13 17 -0.550988 0 16 -0.550988 1
gene 1 14 16 0.344754 0 17 0.344754 1
gene 1 14 17 -0.432565 0 28 -0.432565 1
gene 1 15 16 -1.79593 0 29 -1.79593 1
gene 1 15 17 3.99229 0 30 3.99229 1
genomeend 11


