/* Organism #16 Fitness: 18.260000 Time: 0 */
genomestart 16
trait 1 0.000000 0.000000 0.000000 0.000000 0.000000 0.000000 0.092863 0.000000 
node 1 1 1 1
node 2 1 1 1
node 3 1 1 1
node 4 1 1 1
node 5 1 1 1
node 6 1 1 1
node 7 1 1 1
node 8 1 1 1
node 9 1 1 1
node 10 1 1 1
node 11 1 1 1
node 12 1 1 1
node 13 1 1 1
node 14 1 1 1
node 15 1 1 3
node 16 1 0 2
node 17 1 0 2
gene 1 1 16 -1.38401 0 1 -1.38401 1
gene 1 1 17 -1.00218 0 2 -1.00218 1
gene 1 2 16 2.96991 0 3 2.96991 1
gene 1 2 17 -1.48026 0 4 -1.48026 1
gene 1 3 16 5 0 5 5 1
gene 1 3 17 -0.41483 0 6 -0.41483 1
gene 1 4 16 1.61567 0 7 1.61567 1
gene 1 4 17 -4.06427 0 8 -4.06427 1
gene 1 5 16 -4.43084 0 9 -4.43084 1
gene 1 5 17 -0.842782 0 10 -0.842782 1
gene 1 6 16 -3.65801 0 11 -3.65801 1
gene 1 6 17 -3.8853 0 12 -3.8853 1
gene 1 7 16 -2.60619 0 13 -2.60619 1
gene 1 7 17 2.1484 0 14 2.1484 1
gene 1 8 16 -3.4316 0 15 -3.4316 1
gene 1 8 17 2.33838 0 16 2.33838 1
gene 1 9 16 1.25463 0 17 1.25463 1
gene 1 9 17 -4.43565 0 18 -4.43565 1
gene 1 10 16 -0.15189 0 19 -0.15189 1
gene 1 10 17 -0.458851 0 20 -0.458851 1
gene 1 11 16 -0.842646 0 21 -0.842646 1
gene 1 11 17 -2.92231 0 22 -2.92231 1
gene 1 12 16 1.76152 0 23 1.76152 1
gene 1 12 17 0.288943 0 24 0.288943 1
gene 1 13 16 1.51106 0 25 1.51106 1
gene 1 13 17 -0.398404 0 16 -0.398404 1
gene 1 14 16 -0.216694 0 17 -0.216694 1
gene 1 14 17 -0.282672 0 28 -0.282672 1
gene 1 15 16 0.651009 0 29 0.651009 1
gene 1 15 17 0.927656 0 30 0.927656 1
genomeend 16


