/* Organism #3 Fitness: 19.560000 Time: 0 */
genomestart 3
trait 1 0.100000 0.000000 0.000000 0.000000 0.467410 0.075967 0.000000 0.000000 
node 1 1 1 1
node 2 1 1 1
node 3 1 1 1
node 4 1 1 1
node 5 1 1 1
node 6 1 1 1
node 7 1 1 1
node 8 1 1 1
node 9 1 1 1
node 10 1 1 1
node 11 1 1 1
node 12 1 1 1
node 13 1 1 1
node 14 1 1 1
node 15 1 1 3
node 16 1 0 2
node 17 1 0 2
gene 1 1 16 -2.67244 0 1 -2.67244 1
gene 1 1 17 -1.3347 0 2 -1.3347 1
gene 1 2 16 3.53191 0 3 3.53191 1
gene 1 2 17 0.67775 0 4 0.67775 1
gene 1 3 16 5 0 5 5 1
gene 1 3 17 -3.21271 0 6 -3.21271 1
gene 1 4 16 4.46449 0 7 4.46449 1
gene 1 4 17 -1.49375 0 8 -1.49375 1
gene 1 5 16 -1.45527 0 9 -1.45527 1
gene 1 5 17 2.00323 0 10 2.00323 1
gene 1 6 16 -2.16873 0 11 -2.16873 1
gene 1 6 17 -3.04212 0 12 -3.04212 1
gene 1 7 16 -1.45411 0 13 -1.45411 1
gene 1 7 17 2.07266 0 14 2.07266 1
gene 1 8 16 -0.332742 0 15 -0.332742 1
gene 1 8 17 2.00209 0 16 2.00209 1
gene 1 9 16 -3.63988 0 17 -3.63988 1
gene 1 9 17 -3.32595 0 18 -3.32595 1
gene 1 10 16 -0.35985 0 19 -0.35985 1
gene 1 10 17 0.969532 0 20 0.969532 1
gene 1 11 16 3.2331 0 21 3.2331 1
gene 1 11 17 -0.335478 0 22 -0.335478 1
gene 1 12 16 2.09346 0 23 2.09346 1
gene 1 12 17 -2.19697 0 24 -2.19697 1
gene 1 13 16 2.73944 0 25 2.73944 1
gene 1 13 17 0.181709 0 16 0.181709 1
gene 1 14 16 -0.762087 0 17 -0.762087 1
gene 1 14 17 -0.614357 0 28 -0.614357 1
gene 1 15 16 0.57828 0 29 0.57828 1
gene 1 15 17 -0.375689 0 30 -0.375689 1
genomeend 3


