/* Organism #1 Fitness: 17.020000 Time: 0 */
genomestart 1
trait 1 0.662071 0.923546 0.000000 0.000000 0.209780 0.000000 0.828030 0.000000 
node 1 1 1 1
node 2 1 1 1
node 3 1 1 1
node 4 1 1 1
node 5 1 1 1
node 6 1 1 1
node 7 1 1 1
node 8 1 1 1
node 9 1 1 1
node 10 1 1 1
node 11 1 1 1
node 12 1 1 1
node 13 1 1 1
node 14 1 1 1
node 15 1 1 3
node 16 1 0 2
node 17 1 0 2
gene 1 1 16 -0.353599 0 1 -0.353599 1
gene 1 1 17 -4.14694 0 2 -4.14694 1
gene 1 2 16 -0.225784 0 3 -0.225784 1
gene 1 2 17 0.208411 0 4 0.208411 1
gene 1 3 16 1.79521 0 5 1.79521 1
gene 1 3 17 0.308006 0 6 0.308006 1
gene 1 4 16 0.477658 0 7 0.477658 1
gene 1 4 17 -0.994543 0 8 -0.994543 1
gene 1 5 16 -3.04602 0 9 -3.04602 1
gene 1 5 17 1.91265 0 10 1.91265 1
gene 1 6 16 0.864308 0 11 0.864308 1
gene 1 6 17 1.15649 0 12 1.15649 1
gene 1 7 16 0.294763 0 13 0.294763 1
gene 1 7 17 2.08274 0 14 2.08274 1
gene 1 8 16 4.33846 0 15 4.33846 1
gene 1 8 17 0.359174 0 16 0.359174 1
gene 1 9 16 5 0 17 5 1
gene 1 9 17 -0.639223 0 18 -0.639223 1
gene 1 10 16 0.301114 0 19 0.301114 1
gene 1 10 17 1.85184 0 20 1.85184 1
gene 1 11 16 0.0772217 0 21 0.0772217 1
gene 1 11 17 0.112438 0 22 0.112438 1
gene 1 12 16 0.968033 0 23 0.968033 1
gene 1 12 17 -1.36 0 24 -1.36 1
gene 1 13 16 3.24052 0 25 3.24052 1
gene 1 13 17 -2.04598 0 16 -2.04598 1
gene 1 14 16 -0.497073 0 17 -0.497073 1
gene 1 14 17 0.277537 0 28 0.277537 1
gene 1 15 16 -0.337948 0 29 -0.337948 1
gene 1 15 17 -0.442127 0 30 -0.442127 1
genomeend 1


