/* Organism #1 Fitness: 18.790000 Time: 0 */
genomestart 1
trait 1 0.100000 0.259733 0.000000 0.000000 0.447836 0.293189 0.120888 0.000000 
node 1 1 1 1
node 2 1 1 1
node 3 1 1 1
node 4 1 1 1
node 5 1 1 1
node 6 1 1 1
node 7 1 1 1
node 8 1 1 1
node 9 1 1 1
node 10 1 1 1
node 11 1 1 1
node 12 1 1 1
node 13 1 1 1
node 14 1 1 1
node 15 1 1 3
node 16 1 0 2
node 17 1 0 2
gene 1 1 16 -2.06592 0 1 -2.06592 1
gene 1 1 17 -1.36709 0 2 -1.36709 1
gene 1 2 16 2.02062 0 3 2.02062 1
gene 1 2 17 1.89042 0 4 1.89042 1
gene 1 3 16 0.821432 0 5 0.821432 1
gene 1 3 17 5 0 6 5 1
gene 1 4 16 -3.95508 0 7 -3.95508 1
gene 1 4 17 0.840449 0 8 0.840449 1
gene 1 5 16 4.00018 0 9 4.00018 1
gene 1 5 17 2.83819 0 10 2.83819 1
gene 1 6 16 4.65387 0 11 4.65387 1
gene 1 6 17 0.408034 0 12 0.408034 1
gene 1 7 16 4.78237 0 13 4.78237 1
gene 1 7 17 -2.46328 0 14 -2.46328 1
gene 1 8 16 4.74641 0 15 4.74641 1
gene 1 8 17 -1.36611 0 16 -1.36611 1
gene 1 9 16 -4.10176 0 17 -4.10176 1
gene 1 9 17 3.28244 0 18 3.28244 1
gene 1 10 16 0.779122 0 19 0.779122 1
gene 1 10 17 1.32921 0 20 1.32921 1
gene 1 11 16 0.710737 0 21 0.710737 1
gene 1 11 17 0.441685 0 22 0.441685 1
gene 1 12 16 2.00487 0 23 2.00487 1
gene 1 12 17 -2.42012 0 24 -2.42012 1
gene 1 13 16 -1.06209 0 25 -1.06209 1
gene 1 13 17 -0.094382 0 16 -0.094382 1
gene 1 14 16 -1.06147 0 17 -1.06147 1
gene 1 14 17 0.336342 0 28 0.336342 1
gene 1 15 16 0.0424416 0 29 0.0424416 1
gene 1 15 17 -0.0748085 0 30 -0.0748085 1
genomeend 1


