/* Organism #0 Fitness: 17.090000 Time: 0 */
genomestart 0
trait 1 0.000000 0.005686 0.000000 0.975681 0.000000 0.867874 0.725530 0.000000 
node 1 1 1 1
node 2 1 1 1
node 3 1 1 1
node 4 1 1 1
node 5 1 1 1
node 6 1 1 1
node 7 1 1 1
node 8 1 1 1
node 9 1 1 1
node 10 1 1 1
node 11 1 1 1
node 12 1 1 1
node 13 1 1 1
node 14 1 1 1
node 15 1 1 3
node 16 1 0 2
node 17 1 0 2
gene 1 1 16 -1.97154 0 1 -1.97154 1
gene 1 1 17 -4.35358 0 2 -4.35358 1
gene 1 2 16 2.32713 0 3 2.32713 1
gene 1 2 17 -3.70815 0 4 -3.70815 1
gene 1 3 16 -3.4606 0 5 -3.4606 1
gene 1 3 17 0.457122 0 6 0.457122 1
gene 1 4 16 -4.9109 0 7 -4.9109 1
gene 1 4 17 0.336275 0 8 0.336275 1
gene 1 5 16 0.295292 0 9 0.295292 1
gene 1 5 17 0.79077 0 10 0.79077 1
gene 1 6 16 -0.379135 0 11 -0.379135 1
gene 1 6 17 1.91828 0 12 1.91828 1
gene 1 7 16 -0.276221 0 13 -0.276221 1
gene 1 7 17 1.19755 0 14 1.19755 1
gene 1 8 16 1.48191 0 15 1.48191 1
gene 1 8 17 1.22806 0 16 1.22806 1
gene 1 9 16 3.33815 0 17 3.33815 1
gene 1 9 17 1.54484 0 18 1.54484 1
gene 1 10 16 0.655581 0 19 0.655581 1
gene 1 10 17 -1.04709 0 20 -1.04709 1
gene 1 11 16 3.3519 0 21 3.3519 1
gene 1 11 17 -2.47691 0 22 -2.47691 1
gene 1 12 16 -1.4666 0 23 -1.4666 1
gene 1 12 17 -0.85338 0 24 -0.85338 1
gene 1 13 16 2.96763 0 25 2.96763 1
gene 1 13 17 -0.397848 0 16 -0.397848 1
gene 1 14 16 0.0798613 0 17 0.0798613 1
gene 1 14 17 -1.77056 0 28 -1.77056 1
gene 1 15 16 -0.00438119 0 29 -0.00438119 1
gene 1 15 17 1.19042 0 30 1.19042 1
genomeend 0


