/* Organism #6 Fitness: 16.450000 Time: 0 */
genomestart 6
trait 1 0.100000 0.000000 0.424319 0.196922 0.000000 0.162370 0.000000 0.000000 
node 1 1 1 1
node 2 1 1 1
node 3 1 1 1
node 4 1 1 1
node 5 1 1 1
node 6 1 1 1
node 7 1 1 1
node 8 1 1 1
node 9 1 1 1
node 10 1 1 1
node 11 1 1 1
node 12 1 1 1
node 13 1 1 1
node 14 1 1 1
node 15 1 1 3
node 16 1 0 2
node 17 1 0 2
gene 1 1 16 0.421441 0 1 0.421441 1
gene 1 1 17 -4.1839 0 2 -4.1839 1
gene 1 2 16 1.9714 0 3 1.9714 1
gene 1 2 17 -2.30791 0 4 -2.30791 1
gene 1 3 16 -5 0 5 -5 1
gene 1 3 17 2.76822 0 6 2.76822 1
gene 1 4 16 -5 0 7 -5 1
gene 1 4 17 -1.37782 0 8 -1.37782 1
gene 1 5 16 -0.15276 0 9 -0.15276 1
gene 1 5 17 0.0204553 0 10 0.0204553 1
gene 1 6 16 1.00401 0 11 1.00401 1
gene 1 6 17 -1.29777 0 12 -1.29777 1
gene 1 7 16 0.881683 0 13 0.881683 1
gene 1 7 17 -1.40352 0 14 -1.40352 1
gene 1 8 16 0.212102 0 15 0.212102 1
gene 1 8 17 -0.951006 0 16 -0.951006 1
gene 1 9 16 1.38843 0 17 1.38843 1
gene 1 9 17 2.55728 0 18 2.55728 1
gene 1 10 16 2.93593 0 19 2.93593 1
gene 1 10 17 0.408752 0 20 0.408752 1
gene 1 11 16 0.751593 0 21 0.751593 1
gene 1 11 17 -2.65068 0 22 -2.65068 1
gene 1 12 16 -2.40571 0 23 -2.40571 1
gene 1 12 17 0.070348 0 24 0.070348 1
gene 1 13 16 -1.27488 0 25 -1.27488 1
gene 1 13 17 -2.55719 0 16 -2.55719 1
gene 1 14 16 -0.299194 0 17 -0.299194 1
gene 1 14 17 0.478156 0 28 0.478156 1
gene 1 15 16 0.665245 0 29 0.665245 1
gene 1 15 17 1.60955 0 30 1.60955 1
genomeend 6


