/* Organism #5 Fitness: 15.540000 Time: 0 */
genomestart 5
trait 1 0.100000 0.264641 0.000000 0.061483 0.000000 0.832571 0.000000 0.019058 
node 1 1 1 1
node 2 1 1 1
node 3 1 1 1
node 4 1 1 1
node 5 1 1 1
node 6 1 1 1
node 7 1 1 1
node 8 1 1 1
node 9 1 1 1
node 10 1 1 1
node 11 1 1 1
node 12 1 1 1
node 13 1 1 1
node 14 1 1 1
node 15 1 1 3
node 16 1 0 2
node 17 1 0 2
gene 1 1 16 -1.27181 0 1 -1.27181 1
gene 1 1 17 -4.07173 0 2 -4.07173 1
gene 1 2 16 0.225017 0 3 0.225017 1
gene 1 2 17 -3.42452 0 4 -3.42452 1
gene 1 3 16 -0.63109 0 5 -0.63109 1
gene 1 3 17 2.06006 0 6 2.06006 1
gene 1 4 16 2.6242 0 7 2.6242 1
gene 1 4 17 -3.42764 0 8 -3.42764 1
gene 1 5 16 -1.97789 0 9 -1.97789 1
gene 1 5 17 -0.605781 0 10 -0.605781 1
gene 1 6 16 -0.322883 0 11 -0.322883 1
gene 1 6 17 -2.72385 0 12 -2.72385 1
gene 1 7 16 2.15784 0 13 2.15784 1
gene 1 7 17 -1.33099 0 14 -1.33099 1
gene 1 8 16 0.695464 0 15 0.695464 1
gene 1 8 17 -0.885508 0 16 -0.885508 1
gene 1 9 16 4.02974 0 17 4.02974 1
gene 1 9 17 2.15701 0 18 2.15701 1
gene 1 10 16 1.0036 0 19 1.0036 1
gene 1 10 17 0.89102 0 20 0.89102 1
gene 1 11 16 0.180615 0 21 0.180615 1
gene 1 11 17 -0.0757649 0 22 -0.0757649 1
gene 1 12 16 0.545831 0 23 0.545831 1
gene 1 12 17 1.56909 0 24 1.56909 1
gene 1 13 16 -0.204468 0 25 -0.204468 1
gene 1 13 17 3.73258 0 16 3.73258 1
gene 1 14 16 -0.35875 0 17 -0.35875 1
gene 1 14 17 -1.15482 0 28 -1.15482 1
gene 1 15 16 0.38103 0 29 0.38103 1
gene 1 15 17 2.85954 0 30 2.85954 1
genomeend 5


