/* Organism #0 Fitness: -297094.610100 Time: 0 */
genomestart 0
trait 1 0.100000 0.000000 0.000000 0.000000 0.000000 0.000000 0.000000 0.000000 
node 1 1 1 1
node 2 1 1 1
node 3 1 1 1
node 4 1 1 1
node 5 1 1 1
node 6 1 1 1
node 7 1 1 1
node 8 1 1 1
node 9 1 1 1
node 10 1 1 1
node 11 1 1 1
node 12 1 1 1
node 13 1 1 1
node 14 1 1 1
node 15 1 1 3
node 16 1 0 2
node 17 1 0 2
gene 1 1 16 -0.765227 0 1 -0.765227 1
gene 1 1 17 -0.484106 0 2 -0.484106 1
gene 1 2 16 -0.617896 0 3 -0.617896 1
gene 1 2 17 0.902184 0 4 0.902184 1
gene 1 3 16 -1.06942 0 5 -1.06942 1
gene 1 3 17 1.03437 0 6 1.03437 1
gene 1 4 16 -0.802229 0 7 -0.802229 1
gene 1 4 17 -0.53212 0 8 -0.53212 1
gene 1 5 16 -0.196073 0 9 -0.196073 1
gene 1 5 17 -0.781182 0 10 -0.781182 1
gene 1 6 16 -2.46848 0 11 -2.46848 1
gene 1 6 17 -0.9345 0 12 -0.9345 1
gene 1 7 16 -0.625193 0 13 -0.625193 1
gene 1 7 17 1.87303 0 14 1.87303 1
gene 1 8 16 -0.755113 0 15 -0.755113 1
gene 1 8 17 -1.91162 0 16 -1.91162 1
gene 1 9 16 -0.047892 0 17 -0.047892 1
gene 1 9 17 -0.749354 0 18 -0.749354 1
gene 1 10 16 -0.305976 0 19 -0.305976 1
gene 1 10 17 -0.699238 0 20 -0.699238 1
gene 1 11 16 -0.640725 0 21 -0.640725 1
gene 1 11 17 1.03144 0 22 1.03144 1
gene 1 12 16 -2.55837 0 23 -2.55837 1
gene 1 12 17 -0.266629 0 24 -0.266629 1
gene 1 13 16 -0.0345601 0 25 -0.0345601 1
gene 1 13 17 -1.6704 0 16 -1.6704 1
gene 1 14 16 -1.73027 0 17 -1.73027 1
gene 1 14 17 1.53796 0 28 1.53796 1
gene 1 15 16 -1.67315 0 29 -1.67315 1
gene 1 15 17 0.321854 0 30 0.321854 1
genomeend 0


