/* Organism #0 Fitness: -295528.759900 Time: 0 */
genomestart 0
trait 1 0.100000 0.254933 0.000000 0.454278 0.464784 0.956806 0.000000 0.312397 
node 1 1 1 1
node 2 1 1 1
node 3 1 1 1
node 4 1 1 1
node 5 1 1 1
node 6 1 1 1
node 7 1 1 1
node 8 1 1 1
node 9 1 1 1
node 10 1 1 1
node 11 1 1 1
node 12 1 1 1
node 13 1 1 1
node 14 1 1 1
node 15 1 1 3
node 16 1 0 2
node 17 1 0 2
gene 1 1 16 2.99834 0 1 2.99834 1
gene 1 1 17 5 0 2 5 1
gene 1 2 16 -2.40407 0 3 -2.40407 1
gene 1 2 17 2.25011 0 4 2.25011 1
gene 1 3 16 3.45916 0 5 3.45916 1
gene 1 3 17 0.041504 0 6 0.041504 1
gene 1 4 16 -0.889573 0 7 -0.889573 1
gene 1 4 17 -1.55202 0 8 -1.55202 1
gene 1 5 16 -0.829247 0 9 -0.829247 1
gene 1 5 17 4.97474 0 10 4.97474 1
gene 1 6 16 -1.10912 0 11 -1.10912 1
gene 1 6 17 -1.64157 0 12 -1.64157 1
gene 1 7 16 -1.19059 0 13 -1.19059 1
gene 1 7 17 -4.03506 0 14 -4.03506 1
gene 1 8 16 -0.351068 0 15 -0.351068 1
gene 1 8 17 1.16384 0 16 1.16384 1
gene 1 9 16 -5 0 17 -5 1
gene 1 9 17 -0.020207 0 18 -0.020207 1
gene 1 10 16 4.24781 0 19 4.24781 1
gene 1 10 17 -1.71969 0 20 -1.71969 1
gene 1 11 16 -4.02246 0 21 -4.02246 1
gene 1 11 17 3.33889 0 22 3.33889 1
gene 1 12 16 0.104353 0 23 0.104353 1
gene 1 12 17 -0.750357 0 24 -0.750357 1
gene 1 13 16 -2.35848 0 25 -2.35848 1
gene 1 13 17 -0.464656 0 16 -0.464656 1
gene 1 14 16 -0.078412 0 17 -0.078412 1
gene 1 14 17 0.847677 0 28 0.847677 1
gene 1 15 16 0.967374 0 29 0.967374 1
gene 1 15 17 -1.28591 0 30 -1.28591 1
genomeend 0


