/* Organism #48 Fitness: -302455.291300 Time: 0 */
genomestart 48
trait 1 0.000000 0.000000 0.400108 0.865868 0.388779 0.000000 0.000000 0.000000 
node 1 1 1 1
node 2 1 1 1
node 3 1 1 1
node 4 1 1 1
node 5 1 1 1
node 6 1 1 1
node 7 1 1 1
node 8 1 1 1
node 9 1 1 1
node 10 1 1 1
node 11 1 1 1
node 12 1 1 1
node 13 1 1 1
node 14 1 1 1
node 15 1 1 3
node 16 1 0 2
node 17 1 0 2
gene 1 1 16 4.30132 0 1 4.30132 1
gene 1 1 17 5 0 2 5 1
gene 1 2 16 2.28549 0 3 2.28549 1
gene 1 2 17 4.00081 0 4 4.00081 1
gene 1 3 16 -3.2335 0 5 -3.2335 1
gene 1 3 17 5 0 6 5 1
gene 1 4 16 -1.48147 0 7 -1.48147 1
gene 1 4 17 -0.617998 0 8 -0.617998 1
gene 1 5 16 1.21052 0 9 1.21052 1
gene 1 5 17 -0.838193 0 10 -0.838193 1
gene 1 6 16 -4.74797 0 11 -4.74797 1
gene 1 6 17 -3.39082 0 12 -3.39082 1
gene 1 7 16 -0.864357 0 13 -0.864357 1
gene 1 7 17 5 0 14 5 1
gene 1 8 16 2.90777 0 15 2.90777 1
gene 1 8 17 -5 0 16 -5 1
gene 1 9 16 -2.77491 0 17 -2.77491 1
gene 1 9 17 -0.81273 0 18 -0.81273 1
gene 1 10 16 -1.09078 0 19 -1.09078 1
gene 1 10 17 -0.88427 0 20 -0.88427 1
gene 1 11 16 1.11849 0 21 1.11849 1
gene 1 11 17 0.492893 0 22 0.492893 1
gene 1 12 16 -1.19573 0 23 -1.19573 1
gene 1 12 17 -0.189884 0 24 -0.189884 1
gene 1 13 16 0.749861 0 25 0.749861 1
gene 1 13 17 0.0578806 0 16 0.0578806 1
gene 1 14 16 0.988602 0 17 0.988602 1
gene 1 14 17 -0.398434 0 28 -0.398434 1
gene 1 15 16 -0.671259 0 29 -0.671259 1
gene 1 15 17 -2.00829 0 30 -2.00829 1
genomeend 48


