/* Organism #0 Fitness: -287438.601300 Time: 0 */
genomestart 0
trait 1 1.000000 0.000000 1.000000 0.567848 0.837847 0.875244 0.974319 0.000000 
node 1 1 1 1
node 2 1 1 1
node 3 1 1 1
node 4 1 1 1
node 5 1 1 1
node 6 1 1 1
node 7 1 1 1
node 8 1 1 1
node 9 1 1 1
node 10 1 1 1
node 11 1 1 1
node 12 1 1 1
node 13 1 1 1
node 14 1 1 1
node 15 1 1 3
node 16 1 0 2
node 17 1 0 2
gene 1 1 16 -1.92093 0 1 -1.92093 1
gene 1 1 17 0.0211045 0 2 0.0211045 1
gene 1 2 16 -0.181915 0 3 -0.181915 1
gene 1 2 17 3.46217 0 4 3.46217 1
gene 1 3 16 5 0 5 5 1
gene 1 3 17 3.22739 0 6 3.22739 1
gene 1 4 16 4.85962 0 7 4.85962 1
gene 1 4 17 -4.27639 0 8 -4.27639 1
gene 1 5 16 -3.08592 0 9 -3.08592 1
gene 1 5 17 2.24258 0 10 2.24258 1
gene 1 6 16 5 0 11 5 1
gene 1 6 17 0.339796 0 12 0.339796 1
gene 1 7 16 2.39342 0 13 2.39342 1
gene 1 7 17 -1.80807 0 14 -1.80807 1
gene 1 8 16 -3.33044 0 15 -3.33044 1
gene 1 8 17 -4.36521 0 16 -4.36521 1
gene 1 9 16 0.306855 0 17 0.306855 1
gene 1 9 17 -5 0 18 -5 1
gene 1 10 16 -5 0 19 -5 1
gene 1 10 17 3.90935 0 20 3.90935 1
gene 1 11 16 4.28979 0 21 4.28979 1
gene 1 11 17 -1.01505 0 22 -1.01505 1
gene 1 12 16 -1.10774 0 23 -1.10774 1
gene 1 12 17 4.12129 0 24 4.12129 1
gene 1 13 16 4.4174 0 25 4.4174 1
gene 1 13 17 -0.980892 0 16 -0.980892 1
gene 1 14 16 -0.616774 0 17 -0.616774 1
gene 1 14 17 -0.888044 0 28 -0.888044 1
gene 1 15 16 -2.11315 0 29 -2.11315 1
gene 1 15 17 0.329847 0 30 0.329847 1
genomeend 0


