/* Organism #1 Fitness: -290318.006600 Time: 0 */
genomestart 1
trait 1 0.100000 0.000000 0.000000 0.000000 0.000000 0.000000 0.000000 0.000000 
node 1 1 1 1
node 2 1 1 1
node 3 1 1 1
node 4 1 1 1
node 5 1 1 1
node 6 1 1 1
node 7 1 1 1
node 8 1 1 1
node 9 1 1 1
node 10 1 1 1
node 11 1 1 1
node 12 1 1 1
node 13 1 1 1
node 14 1 1 1
node 15 1 1 3
node 16 1 0 2
node 17 1 0 2
gene 1 1 16 0.410326 0 1 0.410326 1
gene 1 1 17 -1.34813 0 2 -1.34813 1
gene 1 2 16 -0.270944 0 3 -0.270944 1
gene 1 2 17 0.415366 0 4 0.415366 1
gene 1 3 16 0.469961 0 5 0.469961 1
gene 1 3 17 2.76379 0 6 2.76379 1
gene 1 4 16 -3.52911 0 7 -3.52911 1
gene 1 4 17 -2.17669 0 8 -2.17669 1
gene 1 5 16 4.20568 0 9 4.20568 1
gene 1 5 17 0.553135 0 10 0.553135 1
gene 1 6 16 0.206809 0 11 0.206809 1
gene 1 6 17 0.126347 0 12 0.126347 1
gene 1 7 16 1.54395 0 13 1.54395 1
gene 1 7 17 1.24882 0 14 1.24882 1
gene 1 8 16 -1.51425 0 15 -1.51425 1
gene 1 8 17 -0.92848 0 16 -0.92848 1
gene 1 9 16 4.04832 0 17 4.04832 1
gene 1 9 17 -0.677572 0 18 -0.677572 1
gene 1 10 16 -2.21506 0 19 -2.21506 1
gene 1 10 17 1.2987 0 20 1.2987 1
gene 1 11 16 0.869994 0 21 0.869994 1
gene 1 11 17 -3.17363 0 22 -3.17363 1
gene 1 12 16 -2.38073 0 23 -2.38073 1
gene 1 12 17 5 0 24 5 1
gene 1 13 16 0.779605 0 25 0.779605 1
gene 1 13 17 0.510586 0 16 0.510586 1
gene 1 14 16 -0.83969 0 17 -0.83969 1
gene 1 14 17 -0.501649 0 28 -0.501649 1
gene 1 15 16 0.664421 0 29 0.664421 1
gene 1 15 17 1.07731 0 30 1.07731 1
genomeend 1


