/* Organism #8 Fitness: -297678.547100 Time: 0 */
genomestart 8
trait 1 0.988271 0.000000 1.000000 0.000000 0.108524 0.000000 0.000000 0.000000 
node 1 1 1 1
node 2 1 1 1
node 3 1 1 1
node 4 1 1 1
node 5 1 1 1
node 6 1 1 1
node 7 1 1 1
node 8 1 1 1
node 9 1 1 1
node 10 1 1 1
node 11 1 1 1
node 12 1 1 1
node 13 1 1 1
node 14 1 1 1
node 15 1 1 3
node 16 1 0 2
node 17 1 0 2
gene 1 1 16 0.781795 0 1 0.781795 1
gene 1 1 17 -2.641 0 2 -2.641 1
gene 1 2 16 0.536772 0 3 0.536772 1
gene 1 2 17 -1.39125 0 4 -1.39125 1
gene 1 3 16 1.51996 0 5 1.51996 1
gene 1 3 17 2.6492 0 6 2.6492 1
gene 1 4 16 -4.71623 0 7 -4.71623 1
gene 1 4 17 2.05905 0 8 2.05905 1
gene 1 5 16 -0.0313347 0 9 -0.0313347 1
gene 1 5 17 -3.89755 0 10 -3.89755 1
gene 1 6 16 0.0547397 0 11 0.0547397 1
gene 1 6 17 -0.992013 0 12 -0.992013 1
gene 1 7 16 0.771041 0 13 0.771041 1
gene 1 7 17 2.88573 0 14 2.88573 1
gene 1 8 16 -0.608524 0 15 -0.608524 1
gene 1 8 17 1.04071 0 16 1.04071 1
gene 1 9 16 2.2849 0 17 2.2849 1
gene 1 9 17 0.260268 0 18 0.260268 1
gene 1 10 16 -3.39479 0 19 -3.39479 1
gene 1 10 17 2.21617 0 20 2.21617 1
gene 1 11 16 0.271881 0 21 0.271881 1
gene 1 11 17 -2.55565 0 22 -2.55565 1
gene 1 12 16 3.30145 0 23 3.30145 1
gene 1 12 17 3.18695 0 24 3.18695 1
gene 1 13 16 -2.91915 0 25 -2.91915 1
gene 1 13 17 -0.177888 0 16 -0.177888 1
gene 1 14 16 0.837746 0 17 0.837746 1
gene 1 14 17 -0.783955 0 28 -0.783955 1
gene 1 15 16 0.79871 0 29 0.79871 1
gene 1 15 17 0.439034 0 30 0.439034 1
genomeend 8


