/* Organism #0 Fitness: -296029.497900 Time: 0 */
genomestart 0
trait 1 0.100000 0.000000 0.000000 0.000000 0.000000 0.000000 0.000000 0.000000 
node 1 1 1 1
node 2 1 1 1
node 3 1 1 1
node 4 1 1 1
node 5 1 1 1
node 6 1 1 1
node 7 1 1 1
node 8 1 1 1
node 9 1 1 1
node 10 1 1 1
node 11 1 1 1
node 12 1 1 1
node 13 1 1 1
node 14 1 1 1
node 15 1 1 3
node 16 1 0 2
node 17 1 0 2
gene 1 1 16 -0.0868447 0 1 -0.0868447 1
gene 1 1 17 -0.469849 0 2 -0.469849 1
gene 1 2 16 1.37163 0 3 1.37163 1
gene 1 2 17 -0.0524415 0 4 -0.0524415 1
gene 1 3 16 0.550823 0 5 0.550823 1
gene 1 3 17 -0.149591 0 6 -0.149591 1
gene 1 4 16 -0.964926 0 7 -0.964926 1
gene 1 4 17 2.39196 0 8 2.39196 1
gene 1 5 16 0.501627 0 9 0.501627 1
gene 1 5 17 1.4358 0 10 1.4358 1
gene 1 6 16 0.339254 0 11 0.339254 1
gene 1 6 17 0.678344 0 12 0.678344 1
gene 1 7 16 0.478795 0 13 0.478795 1
gene 1 7 17 0.0831115 0 14 0.0831115 1
gene 1 8 16 -0.0570979 0 15 -0.0570979 1
gene 1 8 17 -0.489623 0 16 -0.489623 1
gene 1 9 16 1.42744 0 17 1.42744 1
gene 1 9 17 1.08939 0 18 1.08939 1
gene 1 10 16 0.623749 0 19 0.623749 1
gene 1 10 17 0.802096 0 20 0.802096 1
gene 1 11 16 0.201676 0 21 0.201676 1
gene 1 11 17 1.52785 0 22 1.52785 1
gene 1 12 16 -0.473323 0 23 -0.473323 1
gene 1 12 17 0.117611 0 24 0.117611 1
gene 1 13 16 0.62327 0 25 0.62327 1
gene 1 13 17 -0.802345 0 16 -0.802345 1
gene 1 14 16 1.9881 0 17 1.9881 1
gene 1 14 17 0.245382 0 28 0.245382 1
gene 1 15 16 -1.03865 0 29 -1.03865 1
gene 1 15 17 0.617539 0 30 0.617539 1
genomeend 0


