/* Organism #0 Fitness: -291568.515800 Time: 0 */
genomestart 0
trait 1 0.263540 0.000000 0.000000 0.309441 0.169954 0.000000 0.901505 0.373468 
node 1 1 1 1
node 2 1 1 1
node 3 1 1 1
node 4 1 1 1
node 5 1 1 1
node 6 1 1 1
node 7 1 1 1
node 8 1 1 1
node 9 1 1 1
node 10 1 1 1
node 11 1 1 1
node 12 1 1 1
node 13 1 1 1
node 14 1 1 1
node 15 1 1 3
node 16 1 0 2
node 17 1 0 2
gene 1 1 16 -2.10953 0 1 -2.10953 1
gene 1 1 17 -0.567202 0 2 -0.567202 1
gene 1 2 16 -0.121179 0 3 -0.121179 1
gene 1 2 17 2.27014 0 4 2.27014 1
gene 1 3 16 2.75043 0 5 2.75043 1
gene 1 3 17 -1.88306 0 6 -1.88306 1
gene 1 4 16 5 0 7 5 1
gene 1 4 17 0.808434 0 8 0.808434 1
gene 1 5 16 -0.239759 0 9 -0.239759 1
gene 1 5 17 -1.39481 0 10 -1.39481 1
gene 1 6 16 2.84223 0 11 2.84223 1
gene 1 6 17 -0.0155133 0 12 -0.0155133 1
gene 1 7 16 -0.783065 0 13 -0.783065 1
gene 1 7 17 -4.98349 0 14 -4.98349 1
gene 1 8 16 2.14506 0 15 2.14506 1
gene 1 8 17 3.85979 0 16 3.85979 1
gene 1 9 16 -1.97622 0 17 -1.97622 1
gene 1 9 17 -2.73578 0 18 -2.73578 1
gene 1 10 16 -4.25189 0 19 -4.25189 1
gene 1 10 17 2.42873 0 20 2.42873 1
gene 1 11 16 0.972071 0 21 0.972071 1
gene 1 11 17 2.89585 0 22 2.89585 1
gene 1 12 16 -1.47778 0 23 -1.47778 1
gene 1 12 17 3.08879 0 24 3.08879 1
gene 1 13 16 -1.02418 0 25 -1.02418 1
gene 1 13 17 -0.863984 0 16 -0.863984 1
gene 1 14 16 -0.0412253 0 17 -0.0412253 1
gene 1 14 17 0.453859 0 28 0.453859 1
gene 1 15 16 0.858187 0 29 0.858187 1
gene 1 15 17 -0.166764 0 30 -0.166764 1
genomeend 0


