/* Organism #2 Fitness: -296052.822000 Time: 0 */
genomestart 2
trait 1 0.100000 0.000000 0.000000 0.000000 0.000000 0.000000 0.000000 0.000000 
node 1 1 1 1
node 2 1 1 1
node 3 1 1 1
node 4 1 1 1
node 5 1 1 1
node 6 1 1 1
node 7 1 1 1
node 8 1 1 1
node 9 1 1 1
node 10 1 1 1
node 11 1 1 1
node 12 1 1 1
node 13 1 1 1
node 14 1 1 1
node 15 1 1 3
node 16 1 0 2
node 17 1 0 2
gene 1 1 16 -2.99682 0 1 -2.99682 1
gene 1 1 17 0.341837 0 2 0.341837 1
gene 1 2 16 0.400908 0 3 0.400908 1
gene 1 2 17 -0.702236 0 4 -0.702236 1
gene 1 3 16 0.218435 0 5 0.218435 1
gene 1 3 17 0.311262 0 6 0.311262 1
gene 1 4 16 0.296495 0 7 0.296495 1
gene 1 4 17 -2.42286 0 8 -2.42286 1
gene 1 5 16 -2.39758 0 9 -2.39758 1
gene 1 5 17 0.180477 0 10 0.180477 1
gene 1 6 16 0.111738 0 11 0.111738 1
gene 1 6 17 -1.17702 0 12 -1.17702 1
gene 1 7 16 -1.77196 0 13 -1.77196 1
gene 1 7 17 0.123239 0 14 0.123239 1
gene 1 8 16 0.581303 0 15 0.581303 1
gene 1 8 17 -0.635739 0 16 -0.635739 1
gene 1 9 16 0.676374 0 17 0.676374 1
gene 1 9 17 -1.75919 0 18 -1.75919 1
gene 1 10 16 -0.159857 0 19 -0.159857 1
gene 1 10 17 -0.500989 0 20 -0.500989 1
gene 1 11 16 -0.195739 0 21 -0.195739 1
gene 1 11 17 -2.12585 0 22 -2.12585 1
gene 1 12 16 0.850153 0 23 0.850153 1
gene 1 12 17 -1.51202 0 24 -1.51202 1
gene 1 13 16 -0.0512363 0 25 -0.0512363 1
gene 1 13 17 -1.22557 0 16 -1.22557 1
gene 1 14 16 0.1436 0 17 0.1436 1
gene 1 14 17 -1.30312 0 28 -1.30312 1
gene 1 15 16 -1.2951 0 29 -1.2951 1
gene 1 15 17 -1.40453 0 30 -1.40453 1
genomeend 2


