/* Organism #8 Fitness: -293890.956700 Time: 0 */
genomestart 8
trait 1 0.525596 0.000000 0.000000 0.535885 0.000000 0.000000 0.000000 0.000000 
node 1 1 1 1
node 2 1 1 1
node 3 1 1 1
node 4 1 1 1
node 5 1 1 1
node 6 1 1 1
node 7 1 1 1
node 8 1 1 1
node 9 1 1 1
node 10 1 1 1
node 11 1 1 1
node 12 1 1 1
node 13 1 1 1
node 14 1 1 1
node 15 1 1 3
node 16 1 0 2
node 17 1 0 2
gene 1 1 16 0.0528537 0 1 0.0528537 1
gene 1 1 17 -2.25751 0 2 -2.25751 1
gene 1 2 16 2.49212 0 3 2.49212 1
gene 1 2 17 -0.199423 0 4 -0.199423 1
gene 1 3 16 1.69838 0 5 1.69838 1
gene 1 3 17 0.668254 0 6 0.668254 1
gene 1 4 16 -2.5254 0 7 -2.5254 1
gene 1 4 17 0.40651 0 8 0.40651 1
gene 1 5 16 1.05744 0 9 1.05744 1
gene 1 5 17 0.951531 0 10 0.951531 1
gene 1 6 16 -1.25321 0 11 -1.25321 1
gene 1 6 17 -1.17865 0 12 -1.17865 1
gene 1 7 16 0.337471 0 13 0.337471 1
gene 1 7 17 -1.30118 0 14 -1.30118 1
gene 1 8 16 0.103883 0 15 0.103883 1
gene 1 8 17 -2.68727 0 16 -2.68727 1
gene 1 9 16 0.477777 0 17 0.477777 1
gene 1 9 17 -0.854884 0 18 -0.854884 1
gene 1 10 16 -0.00747629 0 19 -0.00747629 1
gene 1 10 17 2.6307 0 20 2.6307 1
gene 1 11 16 -0.803338 0 21 -0.803338 1
gene 1 11 17 -0.776436 0 22 -0.776436 1
gene 1 12 16 0.327115 0 23 0.327115 1
gene 1 12 17 -1.13128 0 24 -1.13128 1
gene 1 13 16 0.0293648 0 25 0.0293648 1
gene 1 13 17 -0.824749 0 16 -0.824749 1
gene 1 14 16 -1.61445 0 17 -1.61445 1
gene 1 14 17 0.728235 0 28 0.728235 1
gene 1 15 16 0.693859 0 29 0.693859 1
gene 1 15 17 1.23082 0 30 1.23082 1
genomeend 8


