/* Organism #20 Fitness: -137599.870800 Time: 0 */
genomestart 20
trait 1 0.656253 0.000000 0.725110 0.000000 0.000000 0.000000 0.000000 0.000000 
node 1 1 1 1
node 2 1 1 1
node 3 1 1 1
node 4 1 1 1
node 5 1 1 1
node 6 1 1 1
node 7 1 1 1
node 8 1 1 1
node 9 1 1 1
node 10 1 1 1
node 11 1 1 1
node 12 1 1 1
node 13 1 1 1
node 14 1 1 1
node 15 1 1 3
node 16 1 0 2
node 17 1 0 2
gene 1 1 16 -2.19862 0 1 -2.19862 1
gene 1 1 17 -1.30418 0 2 -1.30418 1
gene 1 2 16 -0.0208121 0 3 -0.0208121 1
gene 1 2 17 4.44706 0 4 4.44706 1
gene 1 3 16 1.41909 0 5 1.41909 1
gene 1 3 17 4.47201 0 6 4.47201 1
gene 1 4 16 2.84267 0 7 2.84267 1
gene 1 4 17 -1.00834 0 8 -1.00834 1
gene 1 5 16 1.88089 0 9 1.88089 1
gene 1 5 17 -3.13788 0 10 -3.13788 1
gene 1 6 16 0.719075 0 11 0.719075 1
gene 1 6 17 -1.53839 0 12 -1.53839 1
gene 1 7 16 -1.0941 0 13 -1.0941 1
gene 1 7 17 -4.6373 0 14 -4.6373 1
gene 1 8 16 -3.12694 0 15 -3.12694 1
gene 1 8 17 -0.520313 0 16 -0.520313 1
gene 1 9 16 0.867014 0 17 0.867014 1
gene 1 9 17 -0.507499 0 18 -0.507499 1
gene 1 10 16 -1.29567 0 19 -1.29567 1
gene 1 10 17 0.0487703 0 20 0.0487703 1
gene 1 11 16 0.951851 0 21 0.951851 1
gene 1 11 17 -2.76096 0 22 -2.76096 1
gene 1 12 16 1.50404 0 23 1.50404 1
gene 1 12 17 3.47499 0 24 3.47499 1
gene 1 13 16 1.54698 0 25 1.54698 1
gene 1 13 17 1.553 0 16 1.553 1
gene 1 14 16 -2.05514 0 17 -2.05514 1
gene 1 14 17 -4.3856 0 28 -4.3856 1
gene 1 15 16 -2.8422 0 29 -2.8422 1
gene 1 15 17 -0.47439 0 30 -0.47439 1
genomeend 20


