/* Organism #2 Fitness: -138585.977600 Time: 0 */
genomestart 2
trait 1 0.340184 0.000000 0.326488 0.891056 0.622284 0.000000 0.927451 0.987526 
node 1 1 1 1
node 2 1 1 1
node 3 1 1 1
node 4 1 1 1
node 5 1 1 1
node 6 1 1 1
node 7 1 1 1
node 8 1 1 1
node 9 1 1 1
node 10 1 1 1
node 11 1 1 1
node 12 1 1 1
node 13 1 1 1
node 14 1 1 1
node 15 1 1 3
node 16 1 0 2
node 17 1 0 2
gene 1 1 16 -1.99672 0 1 -1.99672 1
gene 1 1 17 -1.01227 0 2 -1.01227 1
gene 1 2 16 -2.90532 0 3 -2.90532 1
gene 1 2 17 4.58663 0 4 4.58663 1
gene 1 3 16 0.745578 0 5 0.745578 1
gene 1 3 17 1.1942 0 6 1.1942 1
gene 1 4 16 -0.449544 0 7 -0.449544 1
gene 1 4 17 0.0806684 0 8 0.0806684 1
gene 1 5 16 1.37682 0 9 1.37682 1
gene 1 5 17 1.42288 0 10 1.42288 1
gene 1 6 16 2.70731 0 11 2.70731 1
gene 1 6 17 -1.97338 0 12 -1.97338 1
gene 1 7 16 -0.795943 0 13 -0.795943 1
gene 1 7 17 2.4245 0 14 2.4245 1
gene 1 8 16 0.409313 0 15 0.409313 1
gene 1 8 17 -2.6039 0 16 -2.6039 1
gene 1 9 16 -2.66731 0 17 -2.66731 1
gene 1 9 17 -1.4234 0 18 -1.4234 1
gene 1 10 16 0.720882 0 19 0.720882 1
gene 1 10 17 -0.0234941 0 20 -0.0234941 1
gene 1 11 16 -1.08307 0 21 -1.08307 1
gene 1 11 17 -2.50815 0 22 -2.50815 1
gene 1 12 16 3.36088 0 23 3.36088 1
gene 1 12 17 4.96079 0 24 4.96079 1
gene 1 13 16 -0.214401 0 25 -0.214401 1
gene 1 13 17 0.582526 0 16 0.582526 1
gene 1 14 16 0.904027 0 17 0.904027 1
gene 1 14 17 -4.40064 0 28 -4.40064 1
gene 1 15 16 -2.48911 0 29 -2.48911 1
gene 1 15 17 -0.22611 0 30 -0.22611 1
genomeend 2


