/* Organism #7 Fitness: -138141.601000 Time: 0 */
genomestart 7
trait 1 0.576151 0.389034 0.000000 0.817624 0.000000 0.000000 0.000000 0.656949 
node 1 1 1 1
node 2 1 1 1
node 3 1 1 1
node 4 1 1 1
node 5 1 1 1
node 6 1 1 1
node 7 1 1 1
node 8 1 1 1
node 9 1 1 1
node 10 1 1 1
node 11 1 1 1
node 12 1 1 1
node 13 1 1 1
node 14 1 1 1
node 15 1 1 3
node 16 1 0 2
node 17 1 0 2
gene 1 1 16 0.540916 0 1 0.540916 1
gene 1 1 17 -3.64355 0 2 -3.64355 1
gene 1 2 16 -0.126182 0 3 -0.126182 1
gene 1 2 17 2.37899 0 4 2.37899 1
gene 1 3 16 0.0842424 0 5 0.0842424 1
gene 1 3 17 0.51711 0 6 0.51711 1
gene 1 4 16 2.00234 0 7 2.00234 1
gene 1 4 17 -1.91797 0 8 -1.91797 1
gene 1 5 16 -1.92999 0 9 -1.92999 1
gene 1 5 17 0.755594 0 10 0.755594 1
gene 1 6 16 1.64602 0 11 1.64602 1
gene 1 6 17 0.269289 0 12 0.269289 1
gene 1 7 16 -3.90403 0 13 -3.90403 1
gene 1 7 17 1.17088 0 14 1.17088 1
gene 1 8 16 -0.0944342 0 15 -0.0944342 1
gene 1 8 17 -4.12666 0 16 -4.12666 1
gene 1 9 16 -0.133776 0 17 -0.133776 1
gene 1 9 17 -0.811016 0 18 -0.811016 1
gene 1 10 16 0.316986 0 19 0.316986 1
gene 1 10 17 -0.147957 0 20 -0.147957 1
gene 1 11 16 -2.83307 0 21 -2.83307 1
gene 1 11 17 -4.97035 0 22 -4.97035 1
gene 1 12 16 -0.481003 0 23 -0.481003 1
gene 1 12 17 1.74194 0 24 1.74194 1
gene 1 13 16 2.49096 0 25 2.49096 1
gene 1 13 17 4.43899 0 16 4.43899 1
gene 1 14 16 -0.597721 0 17 -0.597721 1
gene 1 14 17 -0.088905 0 28 -0.088905 1
gene 1 15 16 2.33889 0 29 2.33889 1
gene 1 15 17 1.17822 0 30 1.17822 1
genomeend 7


