/* Organism #2 Fitness: -139801.575100 Time: 0 */
genomestart 2
trait 1 0.867114 0.283095 0.340732 0.258592 0.000000 0.754755 0.195899 0.000000 
node 1 1 1 1
node 2 1 1 1
node 3 1 1 1
node 4 1 1 1
node 5 1 1 1
node 6 1 1 1
node 7 1 1 1
node 8 1 1 1
node 9 1 1 1
node 10 1 1 1
node 11 1 1 1
node 12 1 1 1
node 13 1 1 1
node 14 1 1 1
node 15 1 1 3
node 16 1 0 2
node 17 1 0 2
gene 1 1 16 0.0648915 0 1 0.0648915 1
gene 1 1 17 -3.74306 0 2 -3.74306 1
gene 1 2 16 0.0958253 0 3 0.0958253 1
gene 1 2 17 -2.44329 0 4 -2.44329 1
gene 1 3 16 3.67891 0 5 3.67891 1
gene 1 3 17 1.5627 0 6 1.5627 1
gene 1 4 16 0.508057 0 7 0.508057 1
gene 1 4 17 -1.29152 0 8 -1.29152 1
gene 1 5 16 1.58879 0 9 1.58879 1
gene 1 5 17 0.358453 0 10 0.358453 1
gene 1 6 16 0.0549353 0 11 0.0549353 1
gene 1 6 17 1.29274 0 12 1.29274 1
gene 1 7 16 0.344834 0 13 0.344834 1
gene 1 7 17 1.74164 0 14 1.74164 1
gene 1 8 16 2.4023 0 15 2.4023 1
gene 1 8 17 -0.841359 0 16 -0.841359 1
gene 1 9 16 0.468727 0 17 0.468727 1
gene 1 9 17 -0.513343 0 18 -0.513343 1
gene 1 10 16 0.591944 0 19 0.591944 1
gene 1 10 17 -3.13014 0 20 -3.13014 1
gene 1 11 16 -3.99563 0 21 -3.99563 1
gene 1 11 17 -1.17124 0 22 -1.17124 1
gene 1 12 16 -0.0667879 0 23 -0.0667879 1
gene 1 12 17 -2.24084 0 24 -2.24084 1
gene 1 13 16 3.72732 0 25 3.72732 1
gene 1 13 17 -0.997776 0 16 -0.997776 1
gene 1 14 16 -0.819396 0 17 -0.819396 1
gene 1 14 17 0.678319 0 28 0.678319 1
gene 1 15 16 -0.96474 0 29 -0.96474 1
gene 1 15 17 -2.30216 0 30 -2.30216 1
genomeend 2


