/* Organism #11 Fitness: -139190.705700 Time: 0 */
genomestart 11
trait 1 0.100000 0.852077 0.000000 0.000000 1.000000 0.000000 0.000000 0.000000 
node 1 1 1 1
node 2 1 1 1
node 3 1 1 1
node 4 1 1 1
node 5 1 1 1
node 6 1 1 1
node 7 1 1 1
node 8 1 1 1
node 9 1 1 1
node 10 1 1 1
node 11 1 1 1
node 12 1 1 1
node 13 1 1 1
node 14 1 1 1
node 15 1 1 3
node 16 1 0 2
node 17 1 0 2
gene 1 1 16 0.327558 0 1 0.327558 1
gene 1 1 17 -2.99151 0 2 -2.99151 1
gene 1 2 16 0.69301 0 3 0.69301 1
gene 1 2 17 1.60617 0 4 1.60617 1
gene 1 3 16 -2.66789 0 5 -2.66789 1
gene 1 3 17 0.168297 0 6 0.168297 1
gene 1 4 16 -0.805031 0 7 -0.805031 1
gene 1 4 17 -0.826556 0 8 -0.826556 1
gene 1 5 16 1.24107 0 9 1.24107 1
gene 1 5 17 -0.309636 0 10 -0.309636 1
gene 1 6 16 5 0 11 5 1
gene 1 6 17 0.0817698 0 12 0.0817698 1
gene 1 7 16 -1.13364 0 13 -1.13364 1
gene 1 7 17 3.9852 0 14 3.9852 1
gene 1 8 16 0.302438 0 15 0.302438 1
gene 1 8 17 2.07039 0 16 2.07039 1
gene 1 9 16 0.0106091 0 17 0.0106091 1
gene 1 9 17 1.1099 0 18 1.1099 1
gene 1 10 16 1.33401 0 19 1.33401 1
gene 1 10 17 0.254067 0 20 0.254067 1
gene 1 11 16 -3.40291 0 21 -3.40291 1
gene 1 11 17 -4.70186 0 22 -4.70186 1
gene 1 12 16 -0.911861 0 23 -0.911861 1
gene 1 12 17 1.74569 0 24 1.74569 1
gene 1 13 16 -1.49935 0 25 -1.49935 1
gene 1 13 17 4.04276 0 16 4.04276 1
gene 1 14 16 -0.235178 0 17 -0.235178 1
gene 1 14 17 -1.24832 0 28 -1.24832 1
gene 1 15 16 2.99709 0 29 2.99709 1
gene 1 15 17 0.43708 0 30 0.43708 1
genomeend 11


