/* Organism #2 Fitness: -138746.281300 Time: 0 */
genomestart 2
trait 1 0.000000 0.050296 0.425036 0.058389 0.002708 0.000000 0.000000 0.000000 
node 1 1 1 1
node 2 1 1 1
node 3 1 1 1
node 4 1 1 1
node 5 1 1 1
node 6 1 1 1
node 7 1 1 1
node 8 1 1 1
node 9 1 1 1
node 10 1 1 1
node 11 1 1 1
node 12 1 1 1
node 13 1 1 1
node 14 1 1 1
node 15 1 1 3
node 16 1 0 2
node 17 1 0 2
gene 1 1 16 -1.25034 0 1 -1.25034 1
gene 1 1 17 -1.99351 0 2 -1.99351 1
gene 1 2 16 0.450689 0 3 0.450689 1
gene 1 2 17 1.5214 0 4 1.5214 1
gene 1 3 16 -0.161658 0 5 -0.161658 1
gene 1 3 17 -1.39513 0 6 -1.39513 1
gene 1 4 16 -0.59016 0 7 -0.59016 1
gene 1 4 17 -0.390255 0 8 -0.390255 1
gene 1 5 16 -3.60695 0 9 -3.60695 1
gene 1 5 17 -3.07546 0 10 -3.07546 1
gene 1 6 16 -1.39372 0 11 -1.39372 1
gene 1 6 17 2.04661 0 12 2.04661 1
gene 1 7 16 -2.48931 0 13 -2.48931 1
gene 1 7 17 0.815767 0 14 0.815767 1
gene 1 8 16 -3.6116 0 15 -3.6116 1
gene 1 8 17 -1.47621 0 16 -1.47621 1
gene 1 9 16 1.76405 0 17 1.76405 1
gene 1 9 17 -0.580184 0 18 -0.580184 1
gene 1 10 16 1.1991 0 19 1.1991 1
gene 1 10 17 -0.622972 0 20 -0.622972 1
gene 1 11 16 2.38148 0 21 2.38148 1
gene 1 11 17 -4.2251 0 22 -4.2251 1
gene 1 12 16 0.161217 0 23 0.161217 1
gene 1 12 17 2.73476 0 24 2.73476 1
gene 1 13 16 -4.71183 0 25 -4.71183 1
gene 1 13 17 2.70633 0 16 2.70633 1
gene 1 14 16 -0.839052 0 17 -0.839052 1
gene 1 14 17 -0.00822124 0 28 -0.00822124 1
gene 1 15 16 2.13394 0 29 2.13394 1
gene 1 15 17 1.06369 0 30 1.06369 1
genomeend 2


