/* Organism #27 Fitness: -137960.565600 Time: 0 */
genomestart 27
trait 1 0.000000 0.000000 0.000000 0.589415 0.000000 0.737583 0.000000 0.893311 
node 1 1 1 1
node 2 1 1 1
node 3 1 1 1
node 4 1 1 1
node 5 1 1 1
node 6 1 1 1
node 7 1 1 1
node 8 1 1 1
node 9 1 1 1
node 10 1 1 1
node 11 1 1 1
node 12 1 1 1
node 13 1 1 1
node 14 1 1 1
node 15 1 1 3
node 16 1 0 2
node 17 1 0 2
gene 1 1 16 -2.45757 0 1 -2.45757 1
gene 1 1 17 0.487408 0 2 0.487408 1
gene 1 2 16 1.32461 0 3 1.32461 1
gene 1 2 17 0.41698 0 4 0.41698 1
gene 1 3 16 4.59142 0 5 4.59142 1
gene 1 3 17 -1.05188 0 6 -1.05188 1
gene 1 4 16 0.685896 0 7 0.685896 1
gene 1 4 17 -3.55936 0 8 -3.55936 1
gene 1 5 16 0.608439 0 9 0.608439 1
gene 1 5 17 3.12273 0 10 3.12273 1
gene 1 6 16 1.09701 0 11 1.09701 1
gene 1 6 17 2.56874 0 12 2.56874 1
gene 1 7 16 0.909412 0 13 0.909412 1
gene 1 7 17 3.44569 0 14 3.44569 1
gene 1 8 16 -2.06699 0 15 -2.06699 1
gene 1 8 17 -1.78646 0 16 -1.78646 1
gene 1 9 16 0.334317 0 17 0.334317 1
gene 1 9 17 -3.33534 0 18 -3.33534 1
gene 1 10 16 -0.317415 0 19 -0.317415 1
gene 1 10 17 -2.15566 0 20 -2.15566 1
gene 1 11 16 -4.29814 0 21 -4.29814 1
gene 1 11 17 -0.829695 0 22 -0.829695 1
gene 1 12 16 3.48214 0 23 3.48214 1
gene 1 12 17 3.62425 0 24 3.62425 1
gene 1 13 16 4.20131 0 25 4.20131 1
gene 1 13 17 0.775725 0 16 0.775725 1
gene 1 14 16 -3.42449 0 17 -3.42449 1
gene 1 14 17 0.959709 0 28 0.959709 1
gene 1 15 16 -0.83239 0 29 -0.83239 1
gene 1 15 17 -0.81565 0 30 -0.81565 1
genomeend 27


