/* Organism #8 Fitness: -137754.210700 Time: 0 */
genomestart 8
trait 1 0.000000 0.000000 0.000000 0.000000 0.000000 0.000000 0.000000 0.000000 
node 1 1 1 1
node 2 1 1 1
node 3 1 1 1
node 4 1 1 1
node 5 1 1 1
node 6 1 1 1
node 7 1 1 1
node 8 1 1 1
node 9 1 1 1
node 10 1 1 1
node 11 1 1 1
node 12 1 1 1
node 13 1 1 1
node 14 1 1 1
node 15 1 1 3
node 16 1 0 2
node 17 1 0 2
gene 1 1 16 -2.14003 0 1 -2.14003 1
gene 1 1 17 2.37562 0 2 2.37562 1
gene 1 2 16 0.972602 0 3 0.972602 1
gene 1 2 17 0.293895 0 4 0.293895 1
gene 1 3 16 4.37122 0 5 4.37122 1
gene 1 3 17 0.84781 0 6 0.84781 1
gene 1 4 16 -0.219647 0 7 -0.219647 1
gene 1 4 17 0.730773 0 8 0.730773 1
gene 1 5 16 0.537991 0 9 0.537991 1
gene 1 5 17 -0.139033 0 10 -0.139033 1
gene 1 6 16 4.33832 0 11 4.33832 1
gene 1 6 17 3.15017 0 12 3.15017 1
gene 1 7 16 1.89773 0 13 1.89773 1
gene 1 7 17 1.52519 0 14 1.52519 1
gene 1 8 16 5 0 15 5 1
gene 1 8 17 -0.285481 0 16 -0.285481 1
gene 1 9 16 0.423442 0 17 0.423442 1
gene 1 9 17 -5 0 18 -5 1
gene 1 10 16 -4.60304 0 19 -4.60304 1
gene 1 10 17 -0.774316 0 20 -0.774316 1
gene 1 11 16 -5 0 21 -5 1
gene 1 11 17 2.22093 0 22 2.22093 1
gene 1 12 16 0.871191 0 23 0.871191 1
gene 1 12 17 -0.472951 0 24 -0.472951 1
gene 1 13 16 5 0 25 5 1
gene 1 13 17 -0.4127 0 16 -0.4127 1
gene 1 14 16 -0.878017 0 17 -0.878017 1
gene 1 14 17 0.827398 0 28 0.827398 1
gene 1 15 16 -0.81103 0 29 -0.81103 1
gene 1 15 17 -1.8655 0 30 -1.8655 1
genomeend 8


