/* Organism #10 Fitness: -138301.215600 Time: 0 */
genomestart 10
trait 1 0.206696 0.000000 0.000000 1.000000 0.000000 0.000000 0.000000 0.000000 
node 1 1 1 1
node 2 1 1 1
node 3 1 1 1
node 4 1 1 1
node 5 1 1 1
node 6 1 1 1
node 7 1 1 1
node 8 1 1 1
node 9 1 1 1
node 10 1 1 1
node 11 1 1 1
node 12 1 1 1
node 13 1 1 1
node 14 1 1 1
node 15 1 1 3
node 16 1 0 2
node 17 1 0 2
gene 1 1 16 2.64402 0 1 2.64402 1
gene 1 1 17 -3.82122 0 2 -3.82122 1
gene 1 2 16 -0.109407 0 3 -0.109407 1
gene 1 2 17 3.0434 0 4 3.0434 1
gene 1 3 16 -0.421194 0 5 -0.421194 1
gene 1 3 17 1.88158 0 6 1.88158 1
gene 1 4 16 -0.895783 0 7 -0.895783 1
gene 1 4 17 -2.01279 0 8 -2.01279 1
gene 1 5 16 -1.33752 0 9 -1.33752 1
gene 1 5 17 3.19929 0 10 3.19929 1
gene 1 6 16 0.880841 0 11 0.880841 1
gene 1 6 17 -0.157401 0 12 -0.157401 1
gene 1 7 16 1.23357 0 13 1.23357 1
gene 1 7 17 -0.535971 0 14 -0.535971 1
gene 1 8 16 1.17625 0 15 1.17625 1
gene 1 8 17 -3.74604 0 16 -3.74604 1
gene 1 9 16 3.05322 0 17 3.05322 1
gene 1 9 17 0.530272 0 18 0.530272 1
gene 1 10 16 0.185446 0 19 0.185446 1
gene 1 10 17 -0.312313 0 20 -0.312313 1
gene 1 11 16 0.555698 0 21 0.555698 1
gene 1 11 17 -3.55929 0 22 -3.55929 1
gene 1 12 16 0.0748452 0 23 0.0748452 1
gene 1 12 17 2.9518 0 24 2.9518 1
gene 1 13 16 -3.52828 0 25 -3.52828 1
gene 1 13 17 2.94621 0 16 2.94621 1
gene 1 14 16 -0.979472 0 17 -0.979472 1
gene 1 14 17 0.593431 0 28 0.593431 1
gene 1 15 16 1.58042 0 29 1.58042 1
gene 1 15 17 0.556134 0 30 0.556134 1
genomeend 10


