/* Organism #3 Fitness: -138118.328400 Time: 0 */
genomestart 3
trait 1 0.081403 0.351289 1.000000 0.000000 0.000000 0.000000 0.000000 0.462092 
node 1 1 1 1
node 2 1 1 1
node 3 1 1 1
node 4 1 1 1
node 5 1 1 1
node 6 1 1 1
node 7 1 1 1
node 8 1 1 1
node 9 1 1 1
node 10 1 1 1
node 11 1 1 1
node 12 1 1 1
node 13 1 1 1
node 14 1 1 1
node 15 1 1 3
node 16 1 0 2
node 17 1 0 2
gene 1 1 16 -0.470021 0 1 -0.470021 1
gene 1 1 17 -4.30576 0 2 -4.30576 1
gene 1 2 16 -0.610013 0 3 -0.610013 1
gene 1 2 17 3.10873 0 4 3.10873 1
gene 1 3 16 1.18749 0 5 1.18749 1
gene 1 3 17 0.144366 0 6 0.144366 1
gene 1 4 16 -0.705588 0 7 -0.705588 1
gene 1 4 17 0.25218 0 8 0.25218 1
gene 1 5 16 0.0202616 0 9 0.0202616 1
gene 1 5 17 0.363967 0 10 0.363967 1
gene 1 6 16 -0.271005 0 11 -0.271005 1
gene 1 6 17 4.63274 0 12 4.63274 1
gene 1 7 16 -2.60972 0 13 -2.60972 1
gene 1 7 17 3.98898 0 14 3.98898 1
gene 1 8 16 -1.04316 0 15 -1.04316 1
gene 1 8 17 -1.6022 0 16 -1.6022 1
gene 1 9 16 0.472089 0 17 0.472089 1
gene 1 9 17 -0.46927 0 18 -0.46927 1
gene 1 10 16 -0.87959 0 19 -0.87959 1
gene 1 10 17 -0.00854393 0 20 -0.00854393 1
gene 1 11 16 0.193681 0 21 0.193681 1
gene 1 11 17 -4.83376 0 22 -4.83376 1
gene 1 12 16 1.04213 0 23 1.04213 1
gene 1 12 17 3.8617 0 24 3.8617 1
gene 1 13 16 -4.69092 0 25 -4.69092 1
gene 1 13 17 4.2704 0 16 4.2704 1
gene 1 14 16 0.00811937 0 17 0.00811937 1
gene 1 14 17 -1.20145 0 28 -1.20145 1
gene 1 15 16 1.75212 0 29 1.75212 1
gene 1 15 17 0.966654 0 30 0.966654 1
genomeend 3


