/* Organism #0 Fitness: 10040.910000 Time: 0 */
genomestart 0
trait 1 0.100000 0.000000 0.000000 0.000000 0.000000 0.000000 0.000000 0.000000 
node 1 1 1 1
node 2 1 1 1
node 3 1 1 1
node 4 1 1 1
node 5 1 1 1
node 6 1 1 1
node 7 1 1 1
node 8 1 1 1
node 9 1 1 1
node 10 1 1 1
node 11 1 1 1
node 12 1 1 1
node 13 1 1 1
node 14 1 1 1
node 15 1 1 3
node 16 1 0 2
node 17 1 0 2
gene 1 1 16 -0.447672 0 1 -0.447672 1
gene 1 1 17 -3.45719 0 2 -3.45719 1
gene 1 2 16 1.29796 0 3 1.29796 1
gene 1 2 17 -4.16839 0 4 -4.16839 1
gene 1 3 16 5 0 5 5 1
gene 1 3 17 -0.585653 0 6 -0.585653 1
gene 1 4 16 0.00223544 0 7 0.00223544 1
gene 1 4 17 -2.921 0 8 -2.921 1
gene 1 5 16 -0.183438 0 9 -0.183438 1
gene 1 5 17 0.480723 0 10 0.480723 1
gene 1 6 16 -0.73716 0 11 -0.73716 1
gene 1 6 17 -0.993238 0 12 -0.993238 1
gene 1 7 16 0.82251 0 13 0.82251 1
gene 1 7 17 -0.00474785 0 14 -0.00474785 1
gene 1 8 16 -0.604296 0 15 -0.604296 1
gene 1 8 17 0.468287 0 16 0.468287 1
gene 1 9 16 -4.62829 0 17 -4.62829 1
gene 1 9 17 -4.70616 0 18 -4.70616 1
gene 1 10 16 -1.83771 0 19 -1.83771 1
gene 1 10 17 0.536974 0 20 0.536974 1
gene 1 11 16 1.23661 0 21 1.23661 1
gene 1 11 17 -1.19988 0 22 -1.19988 1
gene 1 12 16 0.187187 0 23 0.187187 1
gene 1 12 17 -0.487409 0 24 -0.487409 1
gene 1 13 16 -1.35691 0 25 -1.35691 1
gene 1 13 17 1.52391 0 16 1.52391 1
gene 1 14 16 0.372326 0 17 0.372326 1
gene 1 14 17 -0.414598 0 28 -0.414598 1
gene 1 15 16 1.00836 0 29 1.00836 1
gene 1 15 17 0.195715 0 30 0.195715 1
genomeend 0


