/* Organism #2 Fitness: 8483.200000 Time: 0 */
genomestart 2
trait 1 0.100000 0.000000 0.000000 0.000000 0.000000 0.000000 0.000000 0.000000 
node 1 1 1 1
node 2 1 1 1
node 3 1 1 1
node 4 1 1 1
node 5 1 1 1
node 6 1 1 1
node 7 1 1 1
node 8 1 1 1
node 9 1 1 1
node 10 1 1 1
node 11 1 1 1
node 12 1 1 1
node 13 1 1 1
node 14 1 1 1
node 15 1 1 3
node 16 1 0 2
node 17 1 0 2
gene 1 1 16 -0.835185 0 1 -0.835185 1
gene 1 1 17 0.203601 0 2 0.203601 1
gene 1 2 16 0.777206 0 3 0.777206 1
gene 1 2 17 2.14712 0 4 2.14712 1
gene 1 3 16 -0.396063 0 5 -0.396063 1
gene 1 3 17 0.0217575 0 6 0.0217575 1
gene 1 4 16 0.0191518 0 7 0.0191518 1
gene 1 4 17 -1.99828 0 8 -1.99828 1
gene 1 5 16 1.32188 0 9 1.32188 1
gene 1 5 17 0.321006 0 10 0.321006 1
gene 1 6 16 0.325614 0 11 0.325614 1
gene 1 6 17 -0.0559345 0 12 -0.0559345 1
gene 1 7 16 -3.1698 0 13 -3.1698 1
gene 1 7 17 0.102132 0 14 0.102132 1
gene 1 8 16 -0.331628 0 15 -0.331628 1
gene 1 8 17 -0.333827 0 16 -0.333827 1
gene 1 9 16 -1.16532 0 17 -1.16532 1
gene 1 9 17 -5 0 18 -5 1
gene 1 10 16 0.140832 0 19 0.140832 1
gene 1 10 17 1.05286 0 20 1.05286 1
gene 1 11 16 -0.401758 0 21 -0.401758 1
gene 1 11 17 -0.0538363 0 22 -0.0538363 1
gene 1 12 16 1.42758 0 23 1.42758 1
gene 1 12 17 0.0768614 0 24 0.0768614 1
gene 1 13 16 0.944604 0 25 0.944604 1
gene 1 13 17 0.543152 0 16 0.543152 1
gene 1 14 16 -0.0324988 0 17 -0.0324988 1
gene 1 14 17 0.822066 0 28 0.822066 1
gene 1 15 16 -2.10394 0 29 -2.10394 1
gene 1 15 17 0.293441 0 30 0.293441 1
genomeend 2


