/* Organism #0 Fitness: 8404.280000 Time: 0 */
genomestart 0
trait 1 0.483206 0.801346 0.356122 0.176301 0.666588 0.100283 0.788253 0.000000 
node 1 1 1 1
node 2 1 1 1
node 3 1 1 1
node 4 1 1 1
node 5 1 1 1
node 6 1 1 1
node 7 1 1 1
node 8 1 1 1
node 9 1 1 1
node 10 1 1 1
node 11 1 1 1
node 12 1 1 1
node 13 1 1 1
node 14 1 1 1
node 15 1 1 3
node 16 1 0 2
node 17 1 0 2
gene 1 1 16 -0.206687 0 1 -0.206687 1
gene 1 1 17 -0.461585 0 2 -0.461585 1
gene 1 2 16 -0.521001 0 3 -0.521001 1
gene 1 2 17 1.3916 0 4 1.3916 1
gene 1 3 16 3.73823 0 5 3.73823 1
gene 1 3 17 -1.54819 0 6 -1.54819 1
gene 1 4 16 0.190008 0 7 0.190008 1
gene 1 4 17 -3.6895 0 8 -3.6895 1
gene 1 5 16 -0.576956 0 9 -0.576956 1
gene 1 5 17 2.29033 0 10 2.29033 1
gene 1 6 16 0.0789587 0 11 0.0789587 1
gene 1 6 17 0.269569 0 12 0.269569 1
gene 1 7 16 -0.348818 0 13 -0.348818 1
gene 1 7 17 -0.477095 0 14 -0.477095 1
gene 1 8 16 0.45763 0 15 0.45763 1
gene 1 8 17 -4.04024 0 16 -4.04024 1
gene 1 9 16 -5 0 17 -5 1
gene 1 9 17 -4.87862 0 18 -4.87862 1
gene 1 10 16 0.145893 0 19 0.145893 1
gene 1 10 17 -0.361963 0 20 -0.361963 1
gene 1 11 16 1.50631 0 21 1.50631 1
gene 1 11 17 0.034411 0 22 0.034411 1
gene 1 12 16 -1.31399 0 23 -1.31399 1
gene 1 12 17 -1.35284 0 24 -1.35284 1
gene 1 13 16 -0.624336 0 25 -0.624336 1
gene 1 13 17 0.364118 0 16 0.364118 1
gene 1 14 16 -1.11091 0 17 -1.11091 1
gene 1 14 17 1.69175 0 28 1.69175 1
gene 1 15 16 0.959535 0 29 0.959535 1
gene 1 15 17 -2.14238 0 30 -2.14238 1
genomeend 0


