/* Organism #1 Fitness: 8296.850000 Time: 0 */
genomestart 1
trait 1 0.713978 0.000000 0.000000 0.029233 0.260130 0.997452 0.660579 0.000000 
node 1 1 1 1
node 2 1 1 1
node 3 1 1 1
node 4 1 1 1
node 5 1 1 1
node 6 1 1 1
node 7 1 1 1
node 8 1 1 1
node 9 1 1 1
node 10 1 1 1
node 11 1 1 1
node 12 1 1 1
node 13 1 1 1
node 14 1 1 1
node 15 1 1 3
node 16 1 0 2
node 17 1 0 2
gene 1 1 16 0.448166 0 1 0.448166 1
gene 1 1 17 -0.161031 0 2 -0.161031 1
gene 1 2 16 -4.3136 0 3 -4.3136 1
gene 1 2 17 1.31611 0 4 1.31611 1
gene 1 3 16 -0.556127 0 5 -0.556127 1
gene 1 3 17 1.10639 0 6 1.10639 1
gene 1 4 16 -2.05354 0 7 -2.05354 1
gene 1 4 17 -0.264269 0 8 -0.264269 1
gene 1 5 16 -2.90795 0 9 -2.90795 1
gene 1 5 17 -0.25547 0 10 -0.25547 1
gene 1 6 16 -0.0495015 0 11 -0.0495015 1
gene 1 6 17 -0.0183807 0 12 -0.0183807 1
gene 1 7 16 -3.23507 0 13 -3.23507 1
gene 1 7 17 -0.301565 0 14 -0.301565 1
gene 1 8 16 -0.0803106 0 15 -0.0803106 1
gene 1 8 17 -0.32798 0 16 -0.32798 1
gene 1 9 16 0.953084 0 17 0.953084 1
gene 1 9 17 -4.96264 0 18 -4.96264 1
gene 1 10 16 -0.981055 0 19 -0.981055 1
gene 1 10 17 0.326724 0 20 0.326724 1
gene 1 11 16 -0.436641 0 21 -0.436641 1
gene 1 11 17 1.16037 0 22 1.16037 1
gene 1 12 16 -1.47888 0 23 -1.47888 1
gene 1 12 17 -1.23123 0 24 -1.23123 1
gene 1 13 16 0.05129 0 25 0.05129 1
gene 1 13 17 0.184201 0 16 0.184201 1
gene 1 14 16 1.17084 0 17 1.17084 1
gene 1 14 17 0.810937 0 28 0.810937 1
gene 1 15 16 -0.705469 0 29 -0.705469 1
gene 1 15 17 0.790921 0 30 0.790921 1
genomeend 1


