/* Organism #0 Fitness: 8641.860000 Time: 0 */
genomestart 0
trait 1 0.407083 0.470113 0.725615 0.000000 0.000000 0.000000 0.000000 0.000000 
node 1 1 1 1
node 2 1 1 1
node 3 1 1 1
node 4 1 1 1
node 5 1 1 1
node 6 1 1 1
node 7 1 1 1
node 8 1 1 1
node 9 1 1 1
node 10 1 1 1
node 11 1 1 1
node 12 1 1 1
node 13 1 1 1
node 14 1 1 1
node 15 1 1 3
node 16 1 0 2
node 17 1 0 2
gene 1 1 16 0.489518 0 1 0.489518 1
gene 1 1 17 0.213379 0 2 0.213379 1
gene 1 2 16 1.60008 0 3 1.60008 1
gene 1 2 17 2.43464 0 4 2.43464 1
gene 1 3 16 0.0763282 0 5 0.0763282 1
gene 1 3 17 2.65378 0 6 2.65378 1
gene 1 4 16 -0.126851 0 7 -0.126851 1
gene 1 4 17 2.18058 0 8 2.18058 1
gene 1 5 16 -1.56223 0 9 -1.56223 1
gene 1 5 17 -0.69703 0 10 -0.69703 1
gene 1 6 16 -3.27567 0 11 -3.27567 1
gene 1 6 17 0.30663 0 12 0.30663 1
gene 1 7 16 -0.289114 0 13 -0.289114 1
gene 1 7 17 -0.195564 0 14 -0.195564 1
gene 1 8 16 -0.0244047 0 15 -0.0244047 1
gene 1 8 17 -0.351282 0 16 -0.351282 1
gene 1 9 16 0.413504 0 17 0.413504 1
gene 1 9 17 -4.99443 0 18 -4.99443 1
gene 1 10 16 -0.506637 0 19 -0.506637 1
gene 1 10 17 -0.276013 0 20 -0.276013 1
gene 1 11 16 -1.3193 0 21 -1.3193 1
gene 1 11 17 0.872155 0 22 0.872155 1
gene 1 12 16 0.305765 0 23 0.305765 1
gene 1 12 17 -1.35967 0 24 -1.35967 1
gene 1 13 16 -0.44802 0 25 -0.44802 1
gene 1 13 17 -0.024049 0 16 -0.024049 1
gene 1 14 16 0.58724 0 17 0.58724 1
gene 1 14 17 0.995448 0 28 0.995448 1
gene 1 15 16 -3.03602 0 29 -3.03602 1
gene 1 15 17 0.696124 0 30 0.696124 1
genomeend 0


