/* Organism #0 Fitness: 8344.950000 Time: 0 */
genomestart 0
trait 1 0.000000 0.496983 0.321573 1.000000 1.000000 0.000000 0.000000 0.469406 
node 1 1 1 1
node 2 1 1 1
node 3 1 1 1
node 4 1 1 1
node 5 1 1 1
node 6 1 1 1
node 7 1 1 1
node 8 1 1 1
node 9 1 1 1
node 10 1 1 1
node 11 1 1 1
node 12 1 1 1
node 13 1 1 1
node 14 1 1 1
node 15 1 1 3
node 16 1 0 2
node 17 1 0 2
gene 1 1 16 -1.69225 0 1 -1.69225 1
gene 1 1 17 -2.69704 0 2 -2.69704 1
gene 1 2 16 2.12798 0 3 2.12798 1
gene 1 2 17 4.25852 0 4 4.25852 1
gene 1 3 16 0.487846 0 5 0.487846 1
gene 1 3 17 0.41412 0 6 0.41412 1
gene 1 4 16 2.13793 0 7 2.13793 1
gene 1 4 17 -0.297617 0 8 -0.297617 1
gene 1 5 16 -0.0354807 0 9 -0.0354807 1
gene 1 5 17 0.946387 0 10 0.946387 1
gene 1 6 16 -0.0980182 0 11 -0.0980182 1
gene 1 6 17 -0.61281 0 12 -0.61281 1
gene 1 7 16 -1.43038 0 13 -1.43038 1
gene 1 7 17 1.48801 0 14 1.48801 1
gene 1 8 16 -0.375816 0 15 -0.375816 1
gene 1 8 17 -0.50604 0 16 -0.50604 1
gene 1 9 16 -0.94478 0 17 -0.94478 1
gene 1 9 17 -5 0 18 -5 1
gene 1 10 16 -1.66684 0 19 -1.66684 1
gene 1 10 17 1.53429 0 20 1.53429 1
gene 1 11 16 -0.275303 0 21 -0.275303 1
gene 1 11 17 1.05286 0 22 1.05286 1
gene 1 12 16 0.73537 0 23 0.73537 1
gene 1 12 17 -0.792088 0 24 -0.792088 1
gene 1 13 16 -0.790997 0 25 -0.790997 1
gene 1 13 17 -0.787458 0 16 -0.787458 1
gene 1 14 16 -0.72214 0 17 -0.72214 1
gene 1 14 17 0.317782 0 28 0.317782 1
gene 1 15 16 -1.97529 0 29 -1.97529 1
gene 1 15 17 0.241355 0 30 0.241355 1
genomeend 0


