/* Organism #2 Fitness: 7915.260000 Time: 0 */
genomestart 2
trait 1 0.039739 0.000000 0.459499 0.009975 0.000000 0.000000 0.000000 0.000000 
node 1 1 1 1
node 2 1 1 1
node 3 1 1 1
node 4 1 1 1
node 5 1 1 1
node 6 1 1 1
node 7 1 1 1
node 8 1 1 1
node 9 1 1 1
node 10 1 1 1
node 11 1 1 1
node 12 1 1 1
node 13 1 1 1
node 14 1 1 1
node 15 1 1 3
node 16 1 0 2
node 17 1 0 2
gene 1 1 16 0.510202 0 1 0.510202 1
gene 1 1 17 4.14914 0 2 4.14914 1
gene 1 2 16 -0.882902 0 3 -0.882902 1
gene 1 2 17 5 0 4 5 1
gene 1 3 16 0.504903 0 5 0.504903 1
gene 1 3 17 4.65209 0 6 4.65209 1
gene 1 4 16 -0.976109 0 7 -0.976109 1
gene 1 4 17 -5 0 8 -5 1
gene 1 5 16 -1.25312 0 9 -1.25312 1
gene 1 5 17 2.12155 0 10 2.12155 1
gene 1 6 16 -1.70633 0 11 -1.70633 1
gene 1 6 17 -0.123117 0 12 -0.123117 1
gene 1 7 16 -0.834229 0 13 -0.834229 1
gene 1 7 17 -0.46501 0 14 -0.46501 1
gene 1 8 16 0.635746 0 15 0.635746 1
gene 1 8 17 -2.17093 0 16 -2.17093 1
gene 1 9 16 -5 0 17 -5 1
gene 1 9 17 -4.18704 0 18 -4.18704 1
gene 1 10 16 -0.180703 0 19 -0.180703 1
gene 1 10 17 -0.397406 0 20 -0.397406 1
gene 1 11 16 0.074607 0 21 0.074607 1
gene 1 11 17 -2.76704 0 22 -2.76704 1
gene 1 12 16 1.14238 0 23 1.14238 1
gene 1 12 17 0.238263 0 24 0.238263 1
gene 1 13 16 1.23939 0 25 1.23939 1
gene 1 13 17 0.0363428 0 16 0.0363428 1
gene 1 14 16 0.265782 0 17 0.265782 1
gene 1 14 17 -1.70388 0 28 -1.70388 1
gene 1 15 16 1.00643 0 29 1.00643 1
gene 1 15 17 0.380189 0 30 0.380189 1
genomeend 2


