/* Organism #2 Fitness: 7951.130000 Time: 0 */
genomestart 2
trait 1 0.100000 0.000000 0.000000 0.000000 0.000000 0.000000 0.000000 0.000000 
node 1 1 1 1
node 2 1 1 1
node 3 1 1 1
node 4 1 1 1
node 5 1 1 1
node 6 1 1 1
node 7 1 1 1
node 8 1 1 1
node 9 1 1 1
node 10 1 1 1
node 11 1 1 1
node 12 1 1 1
node 13 1 1 1
node 14 1 1 1
node 15 1 1 3
node 16 1 0 2
node 17 1 0 2
gene 1 1 16 1.15581 0 1 1.15581 1
gene 1 1 17 -3.10405 0 2 -3.10405 1
gene 1 2 16 0.0552528 0 3 0.0552528 1
gene 1 2 17 1.56194 0 4 1.56194 1
gene 1 3 16 2.9212 0 5 2.9212 1
gene 1 3 17 -0.895683 0 6 -0.895683 1
gene 1 4 16 -2.61738 0 7 -2.61738 1
gene 1 4 17 -1.93164 0 8 -1.93164 1
gene 1 5 16 0.344722 0 9 0.344722 1
gene 1 5 17 -4.27175 0 10 -4.27175 1
gene 1 6 16 3.00463 0 11 3.00463 1
gene 1 6 17 -1.69204 0 12 -1.69204 1
gene 1 7 16 0.136292 0 13 0.136292 1
gene 1 7 17 -2.5763 0 14 -2.5763 1
gene 1 8 16 1.35188 0 15 1.35188 1
gene 1 8 17 0.167809 0 16 0.167809 1
gene 1 9 16 -5 0 17 -5 1
gene 1 9 17 0.807838 0 18 0.807838 1
gene 1 10 16 -0.242612 0 19 -0.242612 1
gene 1 10 17 0.234401 0 20 0.234401 1
gene 1 11 16 0.960892 0 21 0.960892 1
gene 1 11 17 -0.808681 0 22 -0.808681 1
gene 1 12 16 -0.545258 0 23 -0.545258 1
gene 1 12 17 0.0141916 0 24 0.0141916 1
gene 1 13 16 -0.157079 0 25 -0.157079 1
gene 1 13 17 0.919929 0 16 0.919929 1
gene 1 14 16 2.06989 0 17 2.06989 1
gene 1 14 17 1.38392 0 28 1.38392 1
gene 1 15 16 -0.425548 0 29 -0.425548 1
gene 1 15 17 -1.63346 0 30 -1.63346 1
genomeend 2


