/* Organism #0 Fitness: 8070.210000 Time: 0 */
genomestart 0
trait 1 0.100000 0.000000 0.241165 0.000000 0.000000 0.961910 0.000000 0.000000 
node 1 1 1 1
node 2 1 1 1
node 3 1 1 1
node 4 1 1 1
node 5 1 1 1
node 6 1 1 1
node 7 1 1 1
node 8 1 1 1
node 9 1 1 1
node 10 1 1 1
node 11 1 1 1
node 12 1 1 1
node 13 1 1 1
node 14 1 1 1
node 15 1 1 3
node 16 1 0 2
node 17 1 0 2
gene 1 1 16 -1.19756 0 1 -1.19756 1
gene 1 1 17 -2.12347 0 2 -2.12347 1
gene 1 2 16 2.504 0 3 2.504 1
gene 1 2 17 2.90103 0 4 2.90103 1
gene 1 3 16 0.643847 0 5 0.643847 1
gene 1 3 17 0.0122721 0 6 0.0122721 1
gene 1 4 16 -2.48878 0 7 -2.48878 1
gene 1 4 17 1.20698 0 8 1.20698 1
gene 1 5 16 0.0802657 0 9 0.0802657 1
gene 1 5 17 1.7611 0 10 1.7611 1
gene 1 6 16 -3.31479 0 11 -3.31479 1
gene 1 6 17 -1.02948 0 12 -1.02948 1
gene 1 7 16 -0.534846 0 13 -0.534846 1
gene 1 7 17 1.66327 0 14 1.66327 1
gene 1 8 16 -4.78135 0 15 -4.78135 1
gene 1 8 17 -0.995519 0 16 -0.995519 1
gene 1 9 16 -0.563904 0 17 -0.563904 1
gene 1 9 17 -5 0 18 -5 1
gene 1 10 16 -3.26934 0 19 -3.26934 1
gene 1 10 17 0.628743 0 20 0.628743 1
gene 1 11 16 2.81768 0 21 2.81768 1
gene 1 11 17 1.49879 0 22 1.49879 1
gene 1 12 16 1.96817 0 23 1.96817 1
gene 1 12 17 0.968646 0 24 0.968646 1
gene 1 13 16 -1.44164 0 25 -1.44164 1
gene 1 13 17 -0.774277 0 16 -0.774277 1
gene 1 14 16 -0.486154 0 17 -0.486154 1
gene 1 14 17 0.522644 0 28 0.522644 1
gene 1 15 16 -0.902263 0 29 -0.902263 1
gene 1 15 17 0.480956 0 30 0.480956 1
genomeend 0


