/* Organism #4 Fitness: 9314.170000 Time: 0 */
genomestart 4
trait 1 0.100000 0.000000 0.000000 0.000000 0.621194 0.000000 0.000000 0.000000 
node 1 1 1 1
node 2 1 1 1
node 3 1 1 1
node 4 1 1 1
node 5 1 1 1
node 6 1 1 1
node 7 1 1 1
node 8 1 1 1
node 9 1 1 1
node 10 1 1 1
node 11 1 1 1
node 12 1 1 1
node 13 1 1 1
node 14 1 1 1
node 15 1 1 3
node 16 1 0 2
node 17 1 0 2
gene 1 1 16 -2.35176 0 1 -2.35176 1
gene 1 1 17 -1.75338 0 2 -1.75338 1
gene 1 2 16 -1.76465 0 3 -1.76465 1
gene 1 2 17 4.86349 0 4 4.86349 1
gene 1 3 16 4.7988 0 5 4.7988 1
gene 1 3 17 -0.0353276 0 6 -0.0353276 1
gene 1 4 16 0.978987 0 7 0.978987 1
gene 1 4 17 -4.01829 0 8 -4.01829 1
gene 1 5 16 -2.40146 0 9 -2.40146 1
gene 1 5 17 3.78986 0 10 3.78986 1
gene 1 6 16 -2.06026 0 11 -2.06026 1
gene 1 6 17 -0.33467 0 12 -0.33467 1
gene 1 7 16 0.0824354 0 13 0.0824354 1
gene 1 7 17 1.7172 0 14 1.7172 1
gene 1 8 16 1.89331 0 15 1.89331 1
gene 1 8 17 -1.19735 0 16 -1.19735 1
gene 1 9 16 -1.9053 0 17 -1.9053 1
gene 1 9 17 -5 0 18 -5 1
gene 1 10 16 -0.249618 0 19 -0.249618 1
gene 1 10 17 1.468 0 20 1.468 1
gene 1 11 16 0.649155 0 21 0.649155 1
gene 1 11 17 -0.750275 0 22 -0.750275 1
gene 1 12 16 1.45168 0 23 1.45168 1
gene 1 12 17 0.178517 0 24 0.178517 1
gene 1 13 16 0.108028 0 25 0.108028 1
gene 1 13 17 -0.829782 0 16 -0.829782 1
gene 1 14 16 -0.336417 0 17 -0.336417 1
gene 1 14 17 0.263403 0 28 0.263403 1
gene 1 15 16 -0.705238 0 29 -0.705238 1
gene 1 15 17 -0.401887 0 30 -0.401887 1
genomeend 4


