/*Fitness: 11590.4*/
genomestart 1
node 1 0 1 1
node 2 0 1 1
node 3 0 1 1
node 4 0 1 1
node 5 0 1 1
node 6 0 1 1
node 7 0 1 1
node 8 0 1 1
node 9 0 1 1
node 10 0 1 1
node 11 0 1 1
node 12 0 1 1
node 13 0 1 1
node 14 0 1 1
node 15 0 1 3
node 16 0 0 2
node 17 0 0 2
gene 0 1 16 -0.734891 0 0 1 1
gene 0 2 16 0.346905 0 0 1 1
gene 0 3 16 3.00451 0 0 1 1
gene 0 4 16 -2.75067 0 0 1 1
gene 0 5 16 -0.581025 0 0 1 1
gene 0 6 16 3.42994 0 0 1 1
gene 0 7 16 -0.918377 0 0 1 1
gene 0 8 16 1.13627 0 0 1 1
gene 0 9 16 -4.94691 0 0 1 1
gene 0 10 16 0.11558 0 0 1 1
gene 0 11 16 1.73344 0 0 1 1
gene 0 12 16 -1.33042 0 0 1 1
gene 0 13 16 0.787847 0 0 1 1
gene 0 14 16 2.33693 0 0 1 1
gene 0 15 16 0.542319 0 0 1 1
gene 0 1 17 0.813465 0 0 1 1
gene 0 2 17 -0.454469 0 0 1 1
gene 0 3 17 0.78175 0 0 1 1
gene 0 4 17 0.768126 0 0 1 1
gene 0 5 17 0.160655 0 0 1 1
gene 0 6 17 -2.16177 0 0 1 1
gene 0 7 17 0.95644 0 0 1 1
gene 0 8 17 -2.85512 0 0 1 1
gene 0 9 17 -3.232 0 0 1 1
gene 0 10 17 -0.720339 0 0 1 1
gene 0 11 17 -3.2702 0 0 1 1
gene 0 12 17 -4.18159 0 0 1 1
gene 0 13 17 1.25675 0 0 1 1
gene 0 14 17 -1.37242 0 0 1 1
gene 0 15 17 -1.7832 0 0 1 1
genomeend 1
