/*Fitness: 10929.7*/
genomestart 1
node 1 0 1 1
node 2 0 1 1
node 3 0 1 1
node 4 0 1 1
node 5 0 1 1
node 6 0 1 1
node 7 0 1 1
node 8 0 1 1
node 9 0 1 1
node 10 0 1 1
node 11 0 1 1
node 12 0 1 1
node 13 0 1 1
node 14 0 1 1
node 15 0 1 3
node 16 0 0 2
node 17 0 0 2
gene 0 1 16 -0.712139 0 0 1 1
gene 0 2 16 2.37291 0 0 1 1
gene 0 3 16 3.94501 0 0 1 1
gene 0 4 16 1.15416 0 0 1 1
gene 0 5 16 -0.89744 0 0 1 1
gene 0 6 16 -0.612043 0 0 1 1
gene 0 7 16 -0.397285 0 0 1 1
gene 0 8 16 -0.633568 0 0 1 1
gene 0 9 16 -4.83067 0 0 1 1
gene 0 10 16 -0.0201758 0 0 1 1
gene 0 11 16 0.38953 0 0 1 1
gene 0 12 16 -0.468368 0 0 1 1
gene 0 13 16 -0.990104 0 0 1 1
gene 0 14 16 1.94994 0 0 1 1
gene 0 15 16 1.32357 0 0 1 1
gene 0 1 17 -1.94472 0 0 1 1
gene 0 2 17 -1.57434 0 0 1 1
gene 0 3 17 1.59639 0 0 1 1
gene 0 4 17 -2.25742 0 0 1 1
gene 0 5 17 -1.57964 0 0 1 1
gene 0 6 17 -0.466095 0 0 1 1
gene 0 7 17 -1.02979 0 0 1 1
gene 0 8 17 -1.75618 0 0 1 1
gene 0 9 17 -2.03434 0 0 1 1
gene 0 10 17 -2.90008 0 0 1 1
gene 0 11 17 0.115741 0 0 1 1
gene 0 12 17 3.23851 0 0 1 1
gene 0 13 17 -2.13129 0 0 1 1
gene 0 14 17 -0.430943 0 0 1 1
gene 0 15 17 -2.48789 0 0 1 1
genomeend 1
