/*Fitness: 8720.9*/
genomestart 1
node 1 0 1 1
node 2 0 1 1
node 3 0 1 1
node 4 0 1 1
node 5 0 1 1
node 6 0 1 1
node 7 0 1 1
node 8 0 1 1
node 9 0 1 1
node 10 0 1 1
node 11 0 1 1
node 12 0 1 1
node 13 0 1 1
node 14 0 1 1
node 15 0 1 3
node 16 0 0 2
node 17 0 0 2
gene 0 1 16 -0.557142 0 0 1 1
gene 0 2 16 1.74306 0 0 1 1
gene 0 3 16 3.86974 0 0 1 1
gene 0 4 16 0.965146 0 0 1 1
gene 0 5 16 -0.939504 0 0 1 1
gene 0 6 16 -3.01882 0 0 1 1
gene 0 7 16 -0.581581 0 0 1 1
gene 0 8 16 -3.83345 0 0 1 1
gene 0 9 16 -4.86149 0 0 1 1
gene 0 10 16 0.166017 0 0 1 1
gene 0 11 16 1.40447 0 0 1 1
gene 0 12 16 0.142283 0 0 1 1
gene 0 13 16 0.261733 0 0 1 1
gene 0 14 16 2.22955 0 0 1 1
gene 0 15 16 3.57059 0 0 1 1
gene 0 1 17 -0.259038 0 0 1 1
gene 0 2 17 -1.48625 0 0 1 1
gene 0 3 17 1.53289 0 0 1 1
gene 0 4 17 3.11953 0 0 1 1
gene 0 5 17 -2.21999 0 0 1 1
gene 0 6 17 -0.310954 0 0 1 1
gene 0 7 17 -1.24332 0 0 1 1
gene 0 8 17 -0.691274 0 0 1 1
gene 0 9 17 -2.70839 0 0 1 1
gene 0 10 17 0.0176369 0 0 1 1
gene 0 11 17 0.64047 0 0 1 1
gene 0 12 17 -0.360627 0 0 1 1
gene 0 13 17 -1.39467 0 0 1 1
gene 0 14 17 -1.30925 0 0 1 1
gene 0 15 17 -2.85561 0 0 1 1
genomeend 1
