/*Fitness: 10531*/
genomestart 1
node 1 0 1 1
node 2 0 1 1
node 3 0 1 1
node 4 0 1 1
node 5 0 1 1
node 6 0 1 1
node 7 0 1 1
node 8 0 1 1
node 9 0 1 1
node 10 0 1 1
node 11 0 1 1
node 12 0 1 1
node 13 0 1 1
node 14 0 1 1
node 15 0 1 3
node 16 0 0 2
node 17 0 0 2
gene 0 1 16 -3.27773 0 0 1 1
gene 0 2 16 1.3456 0 0 1 1
gene 0 3 16 1.31952 0 0 1 1
gene 0 4 16 2.22288 0 0 1 1
gene 0 5 16 -0.910863 0 0 1 1
gene 0 6 16 -0.299077 0 0 1 1
gene 0 7 16 -0.249158 0 0 1 1
gene 0 8 16 -0.498266 0 0 1 1
gene 0 9 16 -4.99029 0 0 1 1
gene 0 10 16 0.473023 0 0 1 1
gene 0 11 16 1.07309 0 0 1 1
gene 0 12 16 0.0264034 0 0 1 1
gene 0 13 16 -0.45101 0 0 1 1
gene 0 14 16 3.59888 0 0 1 1
gene 0 15 16 0.952642 0 0 1 1
gene 0 1 17 -1.48179 0 0 1 1
gene 0 2 17 2.37792 0 0 1 1
gene 0 3 17 -1.40026 0 0 1 1
gene 0 4 17 -2.49227 0 0 1 1
gene 0 5 17 -3.42199 0 0 1 1
gene 0 6 17 -1.95686 0 0 1 1
gene 0 7 17 1.67093 0 0 1 1
gene 0 8 17 -0.782668 0 0 1 1
gene 0 9 17 -2.03761 0 0 1 1
gene 0 10 17 -4.16318 0 0 1 1
gene 0 11 17 -2.0108 0 0 1 1
gene 0 12 17 -1.8671 0 0 1 1
gene 0 13 17 -2.48179 0 0 1 1
gene 0 14 17 -0.0671968 0 0 1 1
gene 0 15 17 -4.121 0 0 1 1
genomeend 1
