/*Fitness: 11763.2*/
genomestart 1
node 1 0 1 1
node 2 0 1 1
node 3 0 1 1
node 4 0 1 1
node 5 0 1 1
node 6 0 1 1
node 7 0 1 1
node 8 0 1 1
node 9 0 1 1
node 10 0 1 1
node 11 0 1 1
node 12 0 1 1
node 13 0 1 1
node 14 0 1 1
node 15 0 1 3
node 16 0 0 2
node 17 0 0 2
gene 0 1 16 -0.918755 0 0 1 1
gene 0 2 16 -0.781056 0 0 1 1
gene 0 3 16 2.13867 0 0 1 1
gene 0 4 16 0.336542 0 0 1 1
gene 0 5 16 -1.99756 0 0 1 1
gene 0 6 16 -3.06068 0 0 1 1
gene 0 7 16 -2.87717 0 0 1 1
gene 0 8 16 -2.30961 0 0 1 1
gene 0 9 16 -3.31938 0 0 1 1
gene 0 10 16 0.585351 0 0 1 1
gene 0 11 16 0.902825 0 0 1 1
gene 0 12 16 2.60454 0 0 1 1
gene 0 13 16 -2.00224 0 0 1 1
gene 0 14 16 -4.35667 0 0 1 1
gene 0 15 16 -3.39983 0 0 1 1
gene 0 1 17 -1.25203 0 0 1 1
gene 0 2 17 4.1277 0 0 1 1
gene 0 3 17 1.15625 0 0 1 1
gene 0 4 17 -1.34243 0 0 1 1
gene 0 5 17 -0.195795 0 0 1 1
gene 0 6 17 -0.00457923 0 0 1 1
gene 0 7 17 0.200546 0 0 1 1
gene 0 8 17 -0.525825 0 0 1 1
gene 0 9 17 -4.79723 0 0 1 1
gene 0 10 17 -0.198337 0 0 1 1
gene 0 11 17 1.84574 0 0 1 1
gene 0 12 17 -0.84569 0 0 1 1
gene 0 13 17 -0.0852369 0 0 1 1
gene 0 14 17 1.10882 0 0 1 1
gene 0 15 17 0.750346 0 0 1 1
genomeend 1
