/*Fitness: 11591.7*/
genomestart 1
node 1 0 1 1
node 2 0 1 1
node 3 0 1 1
node 4 0 1 1
node 5 0 1 1
node 6 0 1 1
node 7 0 1 1
node 8 0 1 1
node 9 0 1 1
node 10 0 1 1
node 11 0 1 1
node 12 0 1 1
node 13 0 1 1
node 14 0 1 1
node 15 0 1 3
node 16 0 0 2
node 17 0 0 2
gene 0 1 16 0.124139 0 0 1 1
gene 0 2 16 1.2701 0 0 1 1
gene 0 3 16 3.10335 0 0 1 1
gene 0 4 16 0.201502 0 0 1 1
gene 0 5 16 -3.56314 0 0 1 1
gene 0 6 16 1.26616 0 0 1 1
gene 0 7 16 -2.96911 0 0 1 1
gene 0 8 16 -2.73507 0 0 1 1
gene 0 9 16 -1.31246 0 0 1 1
gene 0 10 16 -0.454528 0 0 1 1
gene 0 11 16 -0.0280819 0 0 1 1
gene 0 12 16 0.440686 0 0 1 1
gene 0 13 16 2.66905 0 0 1 1
gene 0 14 16 1.341 0 0 1 1
gene 0 15 16 -3.21641 0 0 1 1
gene 0 1 17 -0.111026 0 0 1 1
gene 0 2 17 2.92559 0 0 1 1
gene 0 3 17 2.71339 0 0 1 1
gene 0 4 17 -1.72836 0 0 1 1
gene 0 5 17 0.64642 0 0 1 1
gene 0 6 17 -0.101008 0 0 1 1
gene 0 7 17 0.677266 0 0 1 1
gene 0 8 17 -0.42717 0 0 1 1
gene 0 9 17 -4.89321 0 0 1 1
gene 0 10 17 0.402365 0 0 1 1
gene 0 11 17 3.17357 0 0 1 1
gene 0 12 17 -0.779513 0 0 1 1
gene 0 13 17 -0.61026 0 0 1 1
gene 0 14 17 1.01269 0 0 1 1
gene 0 15 17 0.335543 0 0 1 1
genomeend 1
