/*Fitness: 10974.9*/
genomestart 1
node 1 0 1 1
node 2 0 1 1
node 3 0 1 1
node 4 0 1 1
node 5 0 1 1
node 6 0 1 1
node 7 0 1 1
node 8 0 1 1
node 9 0 1 1
node 10 0 1 1
node 11 0 1 1
node 12 0 1 1
node 13 0 1 1
node 14 0 1 1
node 15 0 1 3
node 16 0 0 2
node 17 0 0 2
gene 0 1 16 -2.28733 0 0 1 1
gene 0 2 16 -0.208024 0 0 1 1
gene 0 3 16 2.91819 0 0 1 1
gene 0 4 16 1.21575 0 0 1 1
gene 0 5 16 -0.909549 0 0 1 1
gene 0 6 16 0.567991 0 0 1 1
gene 0 7 16 -0.561681 0 0 1 1
gene 0 8 16 0.320423 0 0 1 1
gene 0 9 16 -4.83334 0 0 1 1
gene 0 10 16 -0.0436861 0 0 1 1
gene 0 11 16 1.55624 0 0 1 1
gene 0 12 16 -0.672461 0 0 1 1
gene 0 13 16 -0.295913 0 0 1 1
gene 0 14 16 1.72222 0 0 1 1
gene 0 15 16 0.900328 0 0 1 1
gene 0 1 17 -3.83602 0 0 1 1
gene 0 2 17 -0.109751 0 0 1 1
gene 0 3 17 -1.3738 0 0 1 1
gene 0 4 17 -2.88572 0 0 1 1
gene 0 5 17 -3.43588 0 0 1 1
gene 0 6 17 -2.72533 0 0 1 1
gene 0 7 17 0.599155 0 0 1 1
gene 0 8 17 -1.52128 0 0 1 1
gene 0 9 17 -1.02793 0 0 1 1
gene 0 10 17 0.388194 0 0 1 1
gene 0 11 17 0.0252346 0 0 1 1
gene 0 12 17 -1.48945 0 0 1 1
gene 0 13 17 2.98069 0 0 1 1
gene 0 14 17 -2.7473 0 0 1 1
gene 0 15 17 -1.13349 0 0 1 1
genomeend 1
