/*Fitness: 10905.6*/
genomestart 1
node 1 0 1 1
node 2 0 1 1
node 3 0 1 1
node 4 0 1 1
node 5 0 1 1
node 6 0 1 1
node 7 0 1 1
node 8 0 1 1
node 9 0 1 1
node 10 0 1 1
node 11 0 1 1
node 12 0 1 1
node 13 0 1 1
node 14 0 1 1
node 15 0 1 3
node 16 0 0 2
node 17 0 0 2
gene 0 1 16 -2.11607 0 0 1 1
gene 0 2 16 0.450142 0 0 1 1
gene 0 3 16 1.77324 0 0 1 1
gene 0 4 16 -0.607572 0 0 1 1
gene 0 5 16 -0.6253 0 0 1 1
gene 0 6 16 0.445695 0 0 1 1
gene 0 7 16 -0.382148 0 0 1 1
gene 0 8 16 0.245856 0 0 1 1
gene 0 9 16 -5 0 0 1 1
gene 0 10 16 0.233116 0 0 1 1
gene 0 11 16 1.30775 0 0 1 1
gene 0 12 16 -0.679264 0 0 1 1
gene 0 13 16 -0.157203 0 0 1 1
gene 0 14 16 0.204419 0 0 1 1
gene 0 15 16 0.78264 0 0 1 1
gene 0 1 17 -0.30831 0 0 1 1
gene 0 2 17 -0.324445 0 0 1 1
gene 0 3 17 -0.0268047 0 0 1 1
gene 0 4 17 -2.13217 0 0 1 1
gene 0 5 17 0.611809 0 0 1 1
gene 0 6 17 0.226002 0 0 1 1
gene 0 7 17 -2.93457 0 0 1 1
gene 0 8 17 -4.34299 0 0 1 1
gene 0 9 17 2.4814 0 0 1 1
gene 0 10 17 -2.46266 0 0 1 1
gene 0 11 17 1.87622 0 0 1 1
gene 0 12 17 -4.17894 0 0 1 1
gene 0 13 17 -1.83565 0 0 1 1
gene 0 14 17 -0.971153 0 0 1 1
gene 0 15 17 -3.81252 0 0 1 1
genomeend 1
