/*Fitness: 10660.8*/
genomestart 1
node 1 0 1 1
node 2 0 1 1
node 3 0 1 1
node 4 0 1 1
node 5 0 1 1
node 6 0 1 1
node 7 0 1 1
node 8 0 1 1
node 9 0 1 1
node 10 0 1 1
node 11 0 1 1
node 12 0 1 1
node 13 0 1 1
node 14 0 1 1
node 15 0 1 3
node 16 0 0 2
node 17 0 0 2
gene 0 1 16 -0.850349 0 0 1 1
gene 0 2 16 3.70946 0 0 1 1
gene 0 3 16 3.47579 0 0 1 1
gene 0 4 16 -0.00589469 0 0 1 1
gene 0 5 16 -0.343073 0 0 1 1
gene 0 6 16 0.63181 0 0 1 1
gene 0 7 16 -0.0395872 0 0 1 1
gene 0 8 16 0.259243 0 0 1 1
gene 0 9 16 -4.78847 0 0 1 1
gene 0 10 16 -0.0739626 0 0 1 1
gene 0 11 16 2.737 0 0 1 1
gene 0 12 16 -1.87257 0 0 1 1
gene 0 13 16 0.747628 0 0 1 1
gene 0 14 16 0.23258 0 0 1 1
gene 0 15 16 0.537855 0 0 1 1
gene 0 1 17 -4.74992 0 0 1 1
gene 0 2 17 -1.38832 0 0 1 1
gene 0 3 17 -0.834097 0 0 1 1
gene 0 4 17 -0.364624 0 0 1 1
gene 0 5 17 -0.871457 0 0 1 1
gene 0 6 17 1.45786 0 0 1 1
gene 0 7 17 -2.77058 0 0 1 1
gene 0 8 17 -2.22145 0 0 1 1
gene 0 9 17 -1.85558 0 0 1 1
gene 0 10 17 -2.93137 0 0 1 1
gene 0 11 17 3.78177 0 0 1 1
gene 0 12 17 0.350311 0 0 1 1
gene 0 13 17 -3.68844 0 0 1 1
gene 0 14 17 -1.27668 0 0 1 1
gene 0 15 17 -4.34463 0 0 1 1
genomeend 1
