/*Fitness: 9977.6*/
genomestart 1
node 1 0 1 1
node 2 0 1 1
node 3 0 1 1
node 4 0 1 1
node 5 0 1 1
node 6 0 1 1
node 7 0 1 1
node 8 0 1 1
node 9 0 1 1
node 10 0 1 1
node 11 0 1 1
node 12 0 1 1
node 13 0 1 1
node 14 0 1 1
node 15 0 1 3
node 16 0 0 2
node 17 0 0 2
gene 0 1 16 -1.35566 0 0 1 1
gene 0 2 16 0.179607 0 0 1 1
gene 0 3 16 0.0895325 0 0 1 1
gene 0 4 16 1.06556 0 0 1 1
gene 0 5 16 -2.08378 0 0 1 1
gene 0 6 16 -3.54129 0 0 1 1
gene 0 7 16 -3.32665 0 0 1 1
gene 0 8 16 -2.54213 0 0 1 1
gene 0 9 16 -3.39427 0 0 1 1
gene 0 10 16 2.87235 0 0 1 1
gene 0 11 16 -2.12018 0 0 1 1
gene 0 12 16 1.89835 0 0 1 1
gene 0 13 16 -0.540992 0 0 1 1
gene 0 14 16 -4.74247 0 0 1 1
gene 0 15 16 -1.77113 0 0 1 1
gene 0 1 17 -1.74531 0 0 1 1
gene 0 2 17 3.47584 0 0 1 1
gene 0 3 17 1.0064 0 0 1 1
gene 0 4 17 0.857699 0 0 1 1
gene 0 5 17 -1.03122 0 0 1 1
gene 0 6 17 -2.60649 0 0 1 1
gene 0 7 17 -1.30239 0 0 1 1
gene 0 8 17 -2.85976 0 0 1 1
gene 0 9 17 -4.69943 0 0 1 1
gene 0 10 17 -0.0973921 0 0 1 1
gene 0 11 17 0.993028 0 0 1 1
gene 0 12 17 -0.101345 0 0 1 1
gene 0 13 17 -0.815944 0 0 1 1
gene 0 14 17 0.88326 0 0 1 1
gene 0 15 17 3.33212 0 0 1 1
genomeend 1
