/* Organism #4 Fitness: -169895.990400 Time: 0 */
genomestart 4
trait 1 0.100000 0.000000 0.000000 0.000000 0.000000 0.467418 0.000000 0.000000 
node 1 1 1 1
node 2 1 1 1
node 3 1 1 1
node 4 1 1 1
node 5 1 1 1
node 6 1 1 1
node 7 1 1 1
node 8 1 1 1
node 9 1 1 1
node 10 1 1 1
node 11 1 1 1
node 12 1 1 1
node 13 1 1 1
node 14 1 1 1
node 15 1 1 3
node 16 1 0 2
node 17 1 0 2
gene 1 1 16 -4.04932 0 1 -4.04932 1
gene 1 1 17 -3.22751 0 2 -3.22751 1
gene 1 2 16 2.31268 0 3 2.31268 1
gene 1 2 17 4.37249 0 4 4.37249 1
gene 1 3 16 4.90589 0 5 4.90589 1
gene 1 3 17 2.2333 0 6 2.2333 1
gene 1 4 16 -0.228954 0 7 -0.228954 1
gene 1 4 17 0.00255236 0 8 0.00255236 1
gene 1 5 16 1.72482 0 9 1.72482 1
gene 1 5 17 -2.9703 0 10 -2.9703 1
gene 1 6 16 -2.32332 0 11 -2.32332 1
gene 1 6 17 -1.88352 0 12 -1.88352 1
gene 1 7 16 1.95246 0 13 1.95246 1
gene 1 7 17 -0.674314 0 14 -0.674314 1
gene 1 8 16 -1.3506 0 15 -1.3506 1
gene 1 8 17 -0.892197 0 16 -0.892197 1
gene 1 9 16 -1.79909 0 17 -1.79909 1
gene 1 9 17 1.95915 0 18 1.95915 1
gene 1 10 16 1.38182 0 19 1.38182 1
gene 1 10 17 -4.00992 0 20 -4.00992 1
gene 1 11 16 -1.27941 0 21 -1.27941 1
gene 1 11 17 0.197935 0 22 0.197935 1
gene 1 12 16 0.78295 0 23 0.78295 1
gene 1 12 17 1.65922 0 24 1.65922 1
gene 1 13 16 4.29826 0 25 4.29826 1
gene 1 13 17 0.324218 0 16 0.324218 1
gene 1 14 16 0.453315 0 17 0.453315 1
gene 1 14 17 -0.107354 0 28 -0.107354 1
gene 1 15 16 0.253531 0 29 0.253531 1
gene 1 15 17 -3.11273 0 30 -3.11273 1
genomeend 4


