/* Organism #1 Fitness: -166977.356800 Time: 0 */
genomestart 1
trait 1 0.100000 0.845529 0.000000 0.000000 0.000000 0.000000 0.054986 0.000000 
node 1 1 1 1
node 2 1 1 1
node 3 1 1 1
node 4 1 1 1
node 5 1 1 1
node 6 1 1 1
node 7 1 1 1
node 8 1 1 1
node 9 1 1 1
node 10 1 1 1
node 11 1 1 1
node 12 1 1 1
node 13 1 1 1
node 14 1 1 1
node 15 1 1 3
node 16 1 0 2
node 17 1 0 2
gene 1 1 16 -0.92136 0 1 -0.92136 1
gene 1 1 17 -3.05836 0 2 -3.05836 1
gene 1 2 16 0.035565 0 3 0.035565 1
gene 1 2 17 3.87555 0 4 3.87555 1
gene 1 3 16 -0.540508 0 5 -0.540508 1
gene 1 3 17 -1.67413 0 6 -1.67413 1
gene 1 4 16 -0.627914 0 7 -0.627914 1
gene 1 4 17 -2.21774 0 8 -2.21774 1
gene 1 5 16 0.68943 0 9 0.68943 1
gene 1 5 17 -1.05474 0 10 -1.05474 1
gene 1 6 16 -1.32619 0 11 -1.32619 1
gene 1 6 17 -0.856714 0 12 -0.856714 1
gene 1 7 16 -1.61883 0 13 -1.61883 1
gene 1 7 17 -0.0189782 0 14 -0.0189782 1
gene 1 8 16 0.235462 0 15 0.235462 1
gene 1 8 17 -0.443799 0 16 -0.443799 1
gene 1 9 16 0.24211 0 17 0.24211 1
gene 1 9 17 -0.685147 0 18 -0.685147 1
gene 1 10 16 -0.438953 0 19 -0.438953 1
gene 1 10 17 -0.672172 0 20 -0.672172 1
gene 1 11 16 -0.62131 0 21 -0.62131 1
gene 1 11 17 -2.50665 0 22 -2.50665 1
gene 1 12 16 -2.79094 0 23 -2.79094 1
gene 1 12 17 1.11202 0 24 1.11202 1
gene 1 13 16 0.374952 0 25 0.374952 1
gene 1 13 17 -0.701742 0 16 -0.701742 1
gene 1 14 16 -0.750492 0 17 -0.750492 1
gene 1 14 17 0.884507 0 28 0.884507 1
gene 1 15 16 3.57815 0 29 3.57815 1
gene 1 15 17 1.38832 0 30 1.38832 1
genomeend 1


