/* Organism #73 Fitness: -172374.984000 Time: 0 */
genomestart 73
trait 1 0.000000 0.441325 0.482289 0.515325 0.675369 0.000000 0.000000 0.000000 
node 1 1 1 1
node 2 1 1 1
node 3 1 1 1
node 4 1 1 1
node 5 1 1 1
node 6 1 1 1
node 7 1 1 1
node 8 1 1 1
node 9 1 1 1
node 10 1 1 1
node 11 1 1 1
node 12 1 1 1
node 13 1 1 1
node 14 1 1 1
node 15 1 1 3
node 16 1 0 2
node 17 1 0 2
gene 1 1 16 0.123924 0 1 0.123924 1
gene 1 1 17 -1.26755 0 2 -1.26755 1
gene 1 2 16 1.59601 0 3 1.59601 1
gene 1 2 17 4.23583 0 4 4.23583 1
gene 1 3 16 -1.15417 0 5 -1.15417 1
gene 1 3 17 0.888185 0 6 0.888185 1
gene 1 4 16 -0.327201 0 7 -0.327201 1
gene 1 4 17 -4.83189 0 8 -4.83189 1
gene 1 5 16 -0.253715 0 9 -0.253715 1
gene 1 5 17 4.98405 0 10 4.98405 1
gene 1 6 16 -1.32382 0 11 -1.32382 1
gene 1 6 17 -0.514202 0 12 -0.514202 1
gene 1 7 16 -2.50703 0 13 -2.50703 1
gene 1 7 17 2.03446 0 14 2.03446 1
gene 1 8 16 -0.0325972 0 15 -0.0325972 1
gene 1 8 17 -1.0322 0 16 -1.0322 1
gene 1 9 16 -3.72708 0 17 -3.72708 1
gene 1 9 17 -0.606145 0 18 -0.606145 1
gene 1 10 16 1.75984 0 19 1.75984 1
gene 1 10 17 1.2324 0 20 1.2324 1
gene 1 11 16 2.47536 0 21 2.47536 1
gene 1 11 17 -0.0853965 0 22 -0.0853965 1
gene 1 12 16 0.569168 0 23 0.569168 1
gene 1 12 17 4.88068 0 24 4.88068 1
gene 1 13 16 -1.16609 0 25 -1.16609 1
gene 1 13 17 0.995122 0 16 0.995122 1
gene 1 14 16 -1.19262 0 17 -1.19262 1
gene 1 14 17 -0.0737412 0 28 -0.0737412 1
gene 1 15 16 1.01169 0 29 1.01169 1
gene 1 15 17 -0.5016 0 30 -0.5016 1
genomeend 73


