/* Organism #1 Fitness: -173559.404300 Time: 0 */
genomestart 1
trait 1 0.100000 0.000000 0.000000 0.068072 0.756665 0.000000 0.000000 0.000000 
node 1 1 1 1
node 2 1 1 1
node 3 1 1 1
node 4 1 1 1
node 5 1 1 1
node 6 1 1 1
node 7 1 1 1
node 8 1 1 1
node 9 1 1 1
node 10 1 1 1
node 11 1 1 1
node 12 1 1 1
node 13 1 1 1
node 14 1 1 1
node 15 1 1 3
node 16 1 0 2
node 17 1 0 2
gene 1 1 16 -4.29028 0 1 -4.29028 1
gene 1 1 17 0.493062 0 2 0.493062 1
gene 1 2 16 1.09997 0 3 1.09997 1
gene 1 2 17 -2.07136 0 4 -2.07136 1
gene 1 3 16 4.24811 0 5 4.24811 1
gene 1 3 17 0.542648 0 6 0.542648 1
gene 1 4 16 -1.60343 0 7 -1.60343 1
gene 1 4 17 -2.29732 0 8 -2.29732 1
gene 1 5 16 -2.55001 0 9 -2.55001 1
gene 1 5 17 -1.07712 0 10 -1.07712 1
gene 1 6 16 0.160746 0 11 0.160746 1
gene 1 6 17 0.803136 0 12 0.803136 1
gene 1 7 16 2.4906 0 13 2.4906 1
gene 1 7 17 -2.26362 0 14 -2.26362 1
gene 1 8 16 -0.939984 0 15 -0.939984 1
gene 1 8 17 -3.56697 0 16 -3.56697 1
gene 1 9 16 -1.04881 0 17 -1.04881 1
gene 1 9 17 -3.20286 0 18 -3.20286 1
gene 1 10 16 1.0791 0 19 1.0791 1
gene 1 10 17 1.36007 0 20 1.36007 1
gene 1 11 16 -0.515504 0 21 -0.515504 1
gene 1 11 17 -1.12818 0 22 -1.12818 1
gene 1 12 16 0.695015 0 23 0.695015 1
gene 1 12 17 0.712964 0 24 0.712964 1
gene 1 13 16 0.981438 0 25 0.981438 1
gene 1 13 17 0.923272 0 16 0.923272 1
gene 1 14 16 0.829027 0 17 0.829027 1
gene 1 14 17 -0.28463 0 28 -0.28463 1
gene 1 15 16 -0.0059147 0 29 -0.0059147 1
gene 1 15 17 -2.13909 0 30 -2.13909 1
genomeend 1


