/* Organism #1 Fitness: -170084.302700 Time: 0 */
genomestart 1
trait 1 0.100000 0.000000 0.000000 0.000000 0.000000 0.000000 0.000000 0.000000 
node 1 1 1 1
node 2 1 1 1
node 3 1 1 1
node 4 1 1 1
node 5 1 1 1
node 6 1 1 1
node 7 1 1 1
node 8 1 1 1
node 9 1 1 1
node 10 1 1 1
node 11 1 1 1
node 12 1 1 1
node 13 1 1 1
node 14 1 1 1
node 15 1 1 3
node 16 1 0 2
node 17 1 0 2
gene 1 1 16 0.517037 0 1 0.517037 1
gene 1 1 17 1.52958 0 2 1.52958 1
gene 1 2 16 2.38533 0 3 2.38533 1
gene 1 2 17 -2.24711 0 4 -2.24711 1
gene 1 3 16 1.01847 0 5 1.01847 1
gene 1 3 17 -2.522 0 6 -2.522 1
gene 1 4 16 -1.19745 0 7 -1.19745 1
gene 1 4 17 0.754634 0 8 0.754634 1
gene 1 5 16 -1.60412 0 9 -1.60412 1
gene 1 5 17 0.0556454 0 10 0.0556454 1
gene 1 6 16 1.92936 0 11 1.92936 1
gene 1 6 17 -0.57055 0 12 -0.57055 1
gene 1 7 16 4.15239 0 13 4.15239 1
gene 1 7 17 0.618504 0 14 0.618504 1
gene 1 8 16 -1.57855 0 15 -1.57855 1
gene 1 8 17 -0.0185707 0 16 -0.0185707 1
gene 1 9 16 -1.33315 0 17 -1.33315 1
gene 1 9 17 -1.39043 0 18 -1.39043 1
gene 1 10 16 0.959123 0 19 0.959123 1
gene 1 10 17 0.979404 0 20 0.979404 1
gene 1 11 16 -0.575717 0 21 -0.575717 1
gene 1 11 17 0.817975 0 22 0.817975 1
gene 1 12 16 0.359481 0 23 0.359481 1
gene 1 12 17 -0.558087 0 24 -0.558087 1
gene 1 13 16 -1.06296 0 25 -1.06296 1
gene 1 13 17 1.05289 0 16 1.05289 1
gene 1 14 16 -0.0220267 0 17 -0.0220267 1
gene 1 14 17 2.33597 0 28 2.33597 1
gene 1 15 16 0.5827 0 29 0.5827 1
gene 1 15 17 0.0934441 0 30 0.0934441 1
genomeend 1


