/* Organism #4 Fitness: -170836.184700 Time: 0 */
genomestart 4
trait 1 0.525161 0.516595 0.158525 0.314813 0.359387 0.301022 0.346640 0.000000 
node 1 1 1 1
node 2 1 1 1
node 3 1 1 1
node 4 1 1 1
node 5 1 1 1
node 6 1 1 1
node 7 1 1 1
node 8 1 1 1
node 9 1 1 1
node 10 1 1 1
node 11 1 1 1
node 12 1 1 1
node 13 1 1 1
node 14 1 1 1
node 15 1 1 3
node 16 1 0 2
node 17 1 0 2
gene 1 1 16 2.74058 0 1 2.74058 1
gene 1 1 17 -4.3404 0 2 -4.3404 1
gene 1 2 16 3.91424 0 3 3.91424 1
gene 1 2 17 0.890711 0 4 0.890711 1
gene 1 3 16 -3.70889 0 5 -3.70889 1
gene 1 3 17 4.89008 0 6 4.89008 1
gene 1 4 16 -4.86073 0 7 -4.86073 1
gene 1 4 17 3.04541 0 8 3.04541 1
gene 1 5 16 1.11611 0 9 1.11611 1
gene 1 5 17 -0.150476 0 10 -0.150476 1
gene 1 6 16 -0.410633 0 11 -0.410633 1
gene 1 6 17 -1.90184 0 12 -1.90184 1
gene 1 7 16 0.513958 0 13 0.513958 1
gene 1 7 17 3.91214 0 14 3.91214 1
gene 1 8 16 -2.2495 0 15 -2.2495 1
gene 1 8 17 -3.21063 0 16 -3.21063 1
gene 1 9 16 -0.577299 0 17 -0.577299 1
gene 1 9 17 0.77568 0 18 0.77568 1
gene 1 10 16 0.481998 0 19 0.481998 1
gene 1 10 17 -1.48918 0 20 -1.48918 1
gene 1 11 16 1.83375 0 21 1.83375 1
gene 1 11 17 -0.059389 0 22 -0.059389 1
gene 1 12 16 0.560111 0 23 0.560111 1
gene 1 12 17 -5 0 24 -5 1
gene 1 13 16 1.2626 0 25 1.2626 1
gene 1 13 17 -0.701447 0 16 -0.701447 1
gene 1 14 16 -2.36849 0 17 -2.36849 1
gene 1 14 17 -1.44526 0 28 -1.44526 1
gene 1 15 16 2.10811 0 29 2.10811 1
gene 1 15 17 0.668972 0 30 0.668972 1
genomeend 4


