/* Organism #4 Fitness: -171472.904900 Time: 0 */
genomestart 4
trait 1 0.423429 0.000000 0.000000 0.335899 0.000000 0.000000 0.000000 0.922097 
node 1 1 1 1
node 2 1 1 1
node 3 1 1 1
node 4 1 1 1
node 5 1 1 1
node 6 1 1 1
node 7 1 1 1
node 8 1 1 1
node 9 1 1 1
node 10 1 1 1
node 11 1 1 1
node 12 1 1 1
node 13 1 1 1
node 14 1 1 1
node 15 1 1 3
node 16 1 0 2
node 17 1 0 2
gene 1 1 16 0.713365 0 1 0.713365 1
gene 1 1 17 -4.3605 0 2 -4.3605 1
gene 1 2 16 1.16018 0 3 1.16018 1
gene 1 2 17 2.59315 0 4 2.59315 1
gene 1 3 16 -2.78852 0 5 -2.78852 1
gene 1 3 17 1.90911 0 6 1.90911 1
gene 1 4 16 -4.76749 0 7 -4.76749 1
gene 1 4 17 0.706131 0 8 0.706131 1
gene 1 5 16 -0.237445 0 9 -0.237445 1
gene 1 5 17 -0.376725 0 10 -0.376725 1
gene 1 6 16 -0.8675 0 11 -0.8675 1
gene 1 6 17 0.250217 0 12 0.250217 1
gene 1 7 16 0.914766 0 13 0.914766 1
gene 1 7 17 -2.72069 0 14 -2.72069 1
gene 1 8 16 -0.926602 0 15 -0.926602 1
gene 1 8 17 1.41934 0 16 1.41934 1
gene 1 9 16 1.76132 0 17 1.76132 1
gene 1 9 17 -0.650213 0 18 -0.650213 1
gene 1 10 16 1.11503 0 19 1.11503 1
gene 1 10 17 -1.87068 0 20 -1.87068 1
gene 1 11 16 0.724174 0 21 0.724174 1
gene 1 11 17 0.0440001 0 22 0.0440001 1
gene 1 12 16 0.697203 0 23 0.697203 1
gene 1 12 17 -2.6749 0 24 -2.6749 1
gene 1 13 16 1.23225 0 25 1.23225 1
gene 1 13 17 1.64524 0 16 1.64524 1
gene 1 14 16 -0.626759 0 17 -0.626759 1
gene 1 14 17 -0.994415 0 28 -0.994415 1
gene 1 15 16 -0.861008 0 29 -0.861008 1
gene 1 15 17 2.32575 0 30 2.32575 1
genomeend 4


