/* Organism #9 Fitness: -171635.508500 Time: 0 */
genomestart 9
trait 1 0.100000 0.400143 0.000000 0.000000 0.000000 0.018663 0.000000 0.000000 
node 1 1 1 1
node 2 1 1 1
node 3 1 1 1
node 4 1 1 1
node 5 1 1 1
node 6 1 1 1
node 7 1 1 1
node 8 1 1 1
node 9 1 1 1
node 10 1 1 1
node 11 1 1 1
node 12 1 1 1
node 13 1 1 1
node 14 1 1 1
node 15 1 1 3
node 16 1 0 2
node 17 1 0 2
gene 1 1 16 -3.64444 0 1 -3.64444 1
gene 1 1 17 -1.12693 0 2 -1.12693 1
gene 1 2 16 1.84063 0 3 1.84063 1
gene 1 2 17 2.81714 0 4 2.81714 1
gene 1 3 16 4.79851 0 5 4.79851 1
gene 1 3 17 3.43541 0 6 3.43541 1
gene 1 4 16 -0.077939 0 7 -0.077939 1
gene 1 4 17 -1.75485 0 8 -1.75485 1
gene 1 5 16 1.45063 0 9 1.45063 1
gene 1 5 17 -0.947862 0 10 -0.947862 1
gene 1 6 16 3.34123 0 11 3.34123 1
gene 1 6 17 -3.92402 0 12 -3.92402 1
gene 1 7 16 -0.118511 0 13 -0.118511 1
gene 1 7 17 -5 0 14 -5 1
gene 1 8 16 -0.213237 0 15 -0.213237 1
gene 1 8 17 0.505641 0 16 0.505641 1
gene 1 9 16 -1.41011 0 17 -1.41011 1
gene 1 9 17 -1.05606 0 18 -1.05606 1
gene 1 10 16 2.3391 0 19 2.3391 1
gene 1 10 17 -3.54861 0 20 -3.54861 1
gene 1 11 16 -0.37814 0 21 -0.37814 1
gene 1 11 17 -0.850916 0 22 -0.850916 1
gene 1 12 16 -0.00121609 0 23 -0.00121609 1
gene 1 12 17 2.43958 0 24 2.43958 1
gene 1 13 16 -0.637933 0 25 -0.637933 1
gene 1 13 17 -0.601027 0 16 -0.601027 1
gene 1 14 16 1.69655 0 17 1.69655 1
gene 1 14 17 -0.498338 0 28 -0.498338 1
gene 1 15 16 -0.465449 0 29 -0.465449 1
gene 1 15 17 -0.726213 0 30 -0.726213 1
genomeend 9


