/* Organism #59 Fitness: -170342.004400 Time: 0 */
genomestart 59
trait 1 0.100000 0.000000 0.110894 0.508247 0.967495 0.000000 0.000000 0.000000 
node 1 1 1 1
node 2 1 1 1
node 3 1 1 1
node 4 1 1 1
node 5 1 1 1
node 6 1 1 1
node 7 1 1 1
node 8 1 1 1
node 9 1 1 1
node 10 1 1 1
node 11 1 1 1
node 12 1 1 1
node 13 1 1 1
node 14 1 1 1
node 15 1 1 3
node 16 1 0 2
node 17 1 0 2
gene 1 1 16 -0.583478 0 1 -0.583478 1
gene 1 1 17 1.43549 0 2 1.43549 1
gene 1 2 16 0.492517 0 3 0.492517 1
gene 1 2 17 -0.893898 0 4 -0.893898 1
gene 1 3 16 2.04855 0 5 2.04855 1
gene 1 3 17 -0.560838 0 6 -0.560838 1
gene 1 4 16 -2.05667 0 7 -2.05667 1
gene 1 4 17 -1.5266 0 8 -1.5266 1
gene 1 5 16 -0.399963 0 9 -0.399963 1
gene 1 5 17 -0.302215 0 10 -0.302215 1
gene 1 6 16 -0.147005 0 11 -0.147005 1
gene 1 6 17 0.49231 0 12 0.49231 1
gene 1 7 16 0.837943 0 13 0.837943 1
gene 1 7 17 0.152166 0 14 0.152166 1
gene 1 8 16 0.62735 0 15 0.62735 1
gene 1 8 17 -0.755372 0 16 -0.755372 1
gene 1 9 16 0.287062 0 17 0.287062 1
gene 1 9 17 -1.0865 0 18 -1.0865 1
gene 1 10 16 0.399069 0 19 0.399069 1
gene 1 10 17 0.64304 0 20 0.64304 1
gene 1 11 16 -2.28319 0 21 -2.28319 1
gene 1 11 17 -0.217172 0 22 -0.217172 1
gene 1 12 16 1.20838 0 23 1.20838 1
gene 1 12 17 0.984226 0 24 0.984226 1
gene 1 13 16 0.272673 0 25 0.272673 1
gene 1 13 17 -0.145113 0 16 -0.145113 1
gene 1 14 16 -0.693441 0 17 -0.693441 1
gene 1 14 17 1.4056 0 28 1.4056 1
gene 1 15 16 -1.09536 0 29 -1.09536 1
gene 1 15 17 -1.04998 0 30 -1.04998 1
genomeend 59


