/* Organism #8 Fitness: -170499.882600 Time: 0 */
genomestart 8
trait 1 0.100000 0.000000 0.559001 0.395887 0.000000 0.059963 0.000000 0.000000 
node 1 1 1 1
node 2 1 1 1
node 3 1 1 1
node 4 1 1 1
node 5 1 1 1
node 6 1 1 1
node 7 1 1 1
node 8 1 1 1
node 9 1 1 1
node 10 1 1 1
node 11 1 1 1
node 12 1 1 1
node 13 1 1 1
node 14 1 1 1
node 15 1 1 3
node 16 1 0 2
node 17 1 0 2
gene 1 1 16 3.58085 0 1 3.58085 1
gene 1 1 17 -5 0 2 -5 1
gene 1 2 16 2.30158 0 3 2.30158 1
gene 1 2 17 3.13821 0 4 3.13821 1
gene 1 3 16 -1.72241 0 5 -1.72241 1
gene 1 3 17 4.21348 0 6 4.21348 1
gene 1 4 16 -4.07225 0 7 -4.07225 1
gene 1 4 17 4.84118 0 8 4.84118 1
gene 1 5 16 0.95794 0 9 0.95794 1
gene 1 5 17 1.74406 0 10 1.74406 1
gene 1 6 16 0.480882 0 11 0.480882 1
gene 1 6 17 1.7551 0 12 1.7551 1
gene 1 7 16 0.423193 0 13 0.423193 1
gene 1 7 17 0.498978 0 14 0.498978 1
gene 1 8 16 -2.38845 0 15 -2.38845 1
gene 1 8 17 -3.73879 0 16 -3.73879 1
gene 1 9 16 1.45987 0 17 1.45987 1
gene 1 9 17 -1.87534 0 18 -1.87534 1
gene 1 10 16 -0.493562 0 19 -0.493562 1
gene 1 10 17 -1.11706 0 20 -1.11706 1
gene 1 11 16 -0.270407 0 21 -0.270407 1
gene 1 11 17 -3.73541 0 22 -3.73541 1
gene 1 12 16 -0.67271 0 23 -0.67271 1
gene 1 12 17 -2.36764 0 24 -2.36764 1
gene 1 13 16 3.40083 0 25 3.40083 1
gene 1 13 17 1.16047 0 16 1.16047 1
gene 1 14 16 -0.826714 0 17 -0.826714 1
gene 1 14 17 -0.269013 0 28 -0.269013 1
gene 1 15 16 -0.418504 0 29 -0.418504 1
gene 1 15 17 3.13142 0 30 3.13142 1
genomeend 8


