/*Fitness: -174854*/
genomestart 1
node 1 0 1 1
node 2 0 1 1
node 3 0 1 1
node 4 0 1 1
node 5 0 1 1
node 6 0 1 1
node 7 0 1 1
node 8 0 1 1
node 9 0 1 1
node 10 0 1 1
node 11 0 1 1
node 12 0 1 1
node 13 0 1 1
node 14 0 1 1
node 15 0 1 3
node 16 0 0 2
node 17 0 0 2
gene 0 1 16 -5 0 0 1 1
gene 0 2 16 5 0 0 1 1
gene 0 3 16 5 0 0 1 1
gene 0 4 16 2.39102 0 0 1 1
gene 0 5 16 -4.02578 0 0 1 1
gene 0 6 16 2.93042 0 0 1 1
gene 0 7 16 -5 0 0 1 1
gene 0 8 16 -2.75789 0 0 1 1
gene 0 9 16 -5 0 0 1 1
gene 0 10 16 5 0 0 1 1
gene 0 11 16 -5 0 0 1 1
gene 0 12 16 5 0 0 1 1
gene 0 13 16 3.84666 0 0 1 1
gene 0 14 16 -2.00682 0 0 1 1
gene 0 15 16 0.219846 0 0 1 1
gene 0 1 17 -0.226122 0 0 1 1
gene 0 2 17 1.9547 0 0 1 1
gene 0 3 17 2.12247 0 0 1 1
gene 0 4 17 -2.44461 0 0 1 1
gene 0 5 17 5 0 0 1 1
gene 0 6 17 0.0640356 0 0 1 1
gene 0 7 17 -5 0 0 1 1
gene 0 8 17 4.752 0 0 1 1
gene 0 9 17 -5 0 0 1 1
gene 0 10 17 -5 0 0 1 1
gene 0 11 17 -1.02317 0 0 1 1
gene 0 12 17 -2.11042 0 0 1 1
gene 0 13 17 -0.603767 0 0 1 1
gene 0 14 17 5 0 0 1 1
gene 0 15 17 -5 0 0 1 1
genomeend 1
