/*Fitness: -173340*/
genomestart 1
node 1 0 1 1
node 2 0 1 1
node 3 0 1 1
node 4 0 1 1
node 5 0 1 1
node 6 0 1 1
node 7 0 1 1
node 8 0 1 1
node 9 0 1 1
node 10 0 1 1
node 11 0 1 1
node 12 0 1 1
node 13 0 1 1
node 14 0 1 1
node 15 0 1 3
node 16 0 0 2
node 17 0 0 2
gene 0 1 16 -5 0 0 1 1
gene 0 2 16 3.23018 0 0 1 1
gene 0 3 16 -0.362025 0 0 1 1
gene 0 4 16 -5 0 0 1 1
gene 0 5 16 -0.631803 0 0 1 1
gene 0 6 16 -4.16854 0 0 1 1
gene 0 7 16 0.324853 0 0 1 1
gene 0 8 16 -3.72837 0 0 1 1
gene 0 9 16 5 0 0 1 1
gene 0 10 16 -2.31621 0 0 1 1
gene 0 11 16 0.0611479 0 0 1 1
gene 0 12 16 -2.38488 0 0 1 1
gene 0 13 16 -5 0 0 1 1
gene 0 14 16 -5 0 0 1 1
gene 0 15 16 -3.07511 0 0 1 1
gene 0 1 17 -5 0 0 1 1
gene 0 2 17 -0.459223 0 0 1 1
gene 0 3 17 -2.29828 0 0 1 1
gene 0 4 17 -5 0 0 1 1
gene 0 5 17 -1.55105 0 0 1 1
gene 0 6 17 -3.09909 0 0 1 1
gene 0 7 17 -5 0 0 1 1
gene 0 8 17 -4.35594 0 0 1 1
gene 0 9 17 5 0 0 1 1
gene 0 10 17 5 0 0 1 1
gene 0 11 17 0.380462 0 0 1 1
gene 0 12 17 5 0 0 1 1
gene 0 13 17 0.173004 0 0 1 1
gene 0 14 17 -5 0 0 1 1
gene 0 15 17 1.78471 0 0 1 1
genomeend 1
