/* Organism #1 Fitness: -336893.841900 Time: 0 */
genomestart 1
trait 1 0.100000 0.000000 0.000000 0.000000 0.000000 0.000000 0.000000 0.000000 
node 1 1 1 1
node 2 1 1 1
node 3 1 1 1
node 4 1 1 1
node 5 1 1 1
node 6 1 1 1
node 7 1 1 1
node 8 1 1 1
node 9 1 1 1
node 10 1 1 1
node 11 1 1 1
node 12 1 1 1
node 13 1 1 1
node 14 1 1 1
node 15 1 1 3
node 16 1 0 2
node 17 1 0 2
gene 1 1 16 -2.76325 0 1 -2.76325 1
gene 1 1 17 0.176958 0 2 0.176958 1
gene 1 2 16 3.11278 0 3 3.11278 1
gene 1 2 17 1.04501 0 4 1.04501 1
gene 1 3 16 0.103392 0 5 0.103392 1
gene 1 3 17 0.0425239 0 6 0.0425239 1
gene 1 4 16 -0.311614 0 7 -0.311614 1
gene 1 4 17 1.44203 0 8 1.44203 1
gene 1 5 16 1.55585 0 9 1.55585 1
gene 1 5 17 4.86109 0 10 4.86109 1
gene 1 6 16 0.732718 0 11 0.732718 1
gene 1 6 17 0.691298 0 12 0.691298 1
gene 1 7 16 -1.24574 0 13 -1.24574 1
gene 1 7 17 0.231068 0 14 0.231068 1
gene 1 8 16 -0.90586 0 15 -0.90586 1
gene 1 8 17 0.501902 0 16 0.501902 1
gene 1 9 16 -0.569154 0 17 -0.569154 1
gene 1 9 17 -0.366925 0 18 -0.366925 1
gene 1 10 16 -0.623734 0 19 -0.623734 1
gene 1 10 17 -0.506896 0 20 -0.506896 1
gene 1 11 16 -0.796301 0 21 -0.796301 1
gene 1 11 17 2.34066 0 22 2.34066 1
gene 1 12 16 2.97265 0 23 2.97265 1
gene 1 12 17 0.95093 0 24 0.95093 1
gene 1 13 16 -0.622247 0 25 -0.622247 1
gene 1 13 17 0.535636 0 16 0.535636 1
gene 1 14 16 0.441648 0 17 0.441648 1
gene 1 14 17 0.384926 0 28 0.384926 1
gene 1 15 16 0.868817 0 29 0.868817 1
gene 1 15 17 2.48582 0 30 2.48582 1
genomeend 1


