/* Organism #6 Fitness: -335903.201200 Time: 0 */
genomestart 6
trait 1 0.000000 0.000000 0.000000 0.162573 0.434629 0.229100 0.490680 0.655848 
node 1 1 1 1
node 2 1 1 1
node 3 1 1 1
node 4 1 1 1
node 5 1 1 1
node 6 1 1 1
node 7 1 1 1
node 8 1 1 1
node 9 1 1 1
node 10 1 1 1
node 11 1 1 1
node 12 1 1 1
node 13 1 1 1
node 14 1 1 1
node 15 1 1 3
node 16 1 0 2
node 17 1 0 2
gene 1 1 16 -0.787827 0 1 -0.787827 1
gene 1 1 17 -0.533397 0 2 -0.533397 1
gene 1 2 16 -2.80509 0 3 -2.80509 1
gene 1 2 17 0.615987 0 4 0.615987 1
gene 1 3 16 5 0 5 5 1
gene 1 3 17 0.120803 0 6 0.120803 1
gene 1 4 16 -1.62753 0 7 -1.62753 1
gene 1 4 17 -2.71829 0 8 -2.71829 1
gene 1 5 16 -1.51588 0 9 -1.51588 1
gene 1 5 17 -0.0675418 0 10 -0.0675418 1
gene 1 6 16 -0.557652 0 11 -0.557652 1
gene 1 6 17 1.88757 0 12 1.88757 1
gene 1 7 16 4.07875 0 13 4.07875 1
gene 1 7 17 0.853518 0 14 0.853518 1
gene 1 8 16 -1.4905 0 15 -1.4905 1
gene 1 8 17 -1.52053 0 16 -1.52053 1
gene 1 9 16 3.65067 0 17 3.65067 1
gene 1 9 17 -0.696208 0 18 -0.696208 1
gene 1 10 16 -3.54456 0 19 -3.54456 1
gene 1 10 17 1.61289 0 20 1.61289 1
gene 1 11 16 -5 0 21 -5 1
gene 1 11 17 -1.8666 0 22 -1.8666 1
gene 1 12 16 1.73754 0 23 1.73754 1
gene 1 12 17 0.843042 0 24 0.843042 1
gene 1 13 16 -1.34313 0 25 -1.34313 1
gene 1 13 17 -1.05175 0 16 -1.05175 1
gene 1 14 16 -0.586044 0 17 -0.586044 1
gene 1 14 17 -1.21043 0 28 -1.21043 1
gene 1 15 16 -2.05804 0 29 -2.05804 1
gene 1 15 17 -3.58187 0 30 -3.58187 1
genomeend 6


