/* Organism #2 Fitness: -340318.553300 Time: 0 */
genomestart 2
trait 1 0.218277 0.879970 0.000000 0.936969 0.322813 0.000000 0.000000 0.889179 
node 1 1 1 1
node 2 1 1 1
node 3 1 1 1
node 4 1 1 1
node 5 1 1 1
node 6 1 1 1
node 7 1 1 1
node 8 1 1 1
node 9 1 1 1
node 10 1 1 1
node 11 1 1 1
node 12 1 1 1
node 13 1 1 1
node 14 1 1 1
node 15 1 1 3
node 16 1 0 2
node 17 1 0 2
gene 1 1 16 -5 0 1 -5 1
gene 1 1 17 -0.559844 0 2 -0.559844 1
gene 1 2 16 -1.45466 0 3 -1.45466 1
gene 1 2 17 -2.93353 0 4 -2.93353 1
gene 1 3 16 0.256847 0 5 0.256847 1
gene 1 3 17 -1.60524 0 6 -1.60524 1
gene 1 4 16 -0.523829 0 7 -0.523829 1
gene 1 4 17 2.97685 0 8 2.97685 1
gene 1 5 16 0.680811 0 9 0.680811 1
gene 1 5 17 0.342522 0 10 0.342522 1
gene 1 6 16 -0.189052 0 11 -0.189052 1
gene 1 6 17 -0.154559 0 12 -0.154559 1
gene 1 7 16 3.55819 0 13 3.55819 1
gene 1 7 17 0.683198 0 14 0.683198 1
gene 1 8 16 0.353785 0 15 0.353785 1
gene 1 8 17 0.749364 0 16 0.749364 1
gene 1 9 16 -1.21734 0 17 -1.21734 1
gene 1 9 17 4.14438 0 18 4.14438 1
gene 1 10 16 0.146751 0 19 0.146751 1
gene 1 10 17 2.41583 0 20 2.41583 1
gene 1 11 16 -0.636138 0 21 -0.636138 1
gene 1 11 17 0.204883 0 22 0.204883 1
gene 1 12 16 5 0 23 5 1
gene 1 12 17 1.95255 0 24 1.95255 1
gene 1 13 16 0.0194281 0 25 0.0194281 1
gene 1 13 17 -1.04078 0 16 -1.04078 1
gene 1 14 16 0.306455 0 17 0.306455 1
gene 1 14 17 0.450613 0 28 0.450613 1
gene 1 15 16 1.18061 0 29 1.18061 1
gene 1 15 17 0.933607 0 30 0.933607 1
genomeend 2


