/* Organism #3 Fitness: -342136.579500 Time: 0 */
genomestart 3
trait 1 0.100000 0.000000 0.000000 0.000000 0.000000 0.000000 0.000000 0.000000 
node 1 1 1 1
node 2 1 1 1
node 3 1 1 1
node 4 1 1 1
node 5 1 1 1
node 6 1 1 1
node 7 1 1 1
node 8 1 1 1
node 9 1 1 1
node 10 1 1 1
node 11 1 1 1
node 12 1 1 1
node 13 1 1 1
node 14 1 1 1
node 15 1 1 3
node 16 1 0 2
node 17 1 0 2
gene 1 1 16 -3.81643 0 1 -3.81643 1
gene 1 1 17 2.47973 0 2 2.47973 1
gene 1 2 16 1.9519 0 3 1.9519 1
gene 1 2 17 0.234907 0 4 0.234907 1
gene 1 3 16 4.36998 0 5 4.36998 1
gene 1 3 17 -3.10328 0 6 -3.10328 1
gene 1 4 16 -0.775839 0 7 -0.775839 1
gene 1 4 17 0.00353985 0 8 0.00353985 1
gene 1 5 16 -0.368704 0 9 -0.368704 1
gene 1 5 17 -2.48725 0 10 -2.48725 1
gene 1 6 16 2.20125 0 11 2.20125 1
gene 1 6 17 0.759423 0 12 0.759423 1
gene 1 7 16 -0.891487 0 13 -0.891487 1
gene 1 7 17 1.60002 0 14 1.60002 1
gene 1 8 16 1.46927 0 15 1.46927 1
gene 1 8 17 -0.319167 0 16 -0.319167 1
gene 1 9 16 -2.05599 0 17 -2.05599 1
gene 1 9 17 -2.25162 0 18 -2.25162 1
gene 1 10 16 3.72104 0 19 3.72104 1
gene 1 10 17 -2.69764 0 20 -2.69764 1
gene 1 11 16 -3.53275 0 21 -3.53275 1
gene 1 11 17 0.955788 0 22 0.955788 1
gene 1 12 16 3.30904 0 23 3.30904 1
gene 1 12 17 1.92307 0 24 1.92307 1
gene 1 13 16 0.0526596 0 25 0.0526596 1
gene 1 13 17 -0.42144 0 16 -0.42144 1
gene 1 14 16 -2.3807 0 17 -2.3807 1
gene 1 14 17 -0.93898 0 28 -0.93898 1
gene 1 15 16 -0.960493 0 29 -0.960493 1
gene 1 15 17 -1.89002 0 30 -1.89002 1
genomeend 3


