/* Organism #2 Fitness: -338853.838900 Time: 0 */
genomestart 2
trait 1 0.100000 0.000000 0.000000 0.000000 0.000000 0.000000 0.000000 0.000000 
node 1 1 1 1
node 2 1 1 1
node 3 1 1 1
node 4 1 1 1
node 5 1 1 1
node 6 1 1 1
node 7 1 1 1
node 8 1 1 1
node 9 1 1 1
node 10 1 1 1
node 11 1 1 1
node 12 1 1 1
node 13 1 1 1
node 14 1 1 1
node 15 1 1 3
node 16 1 0 2
node 17 1 0 2
gene 1 1 16 -4.09592 0 1 -4.09592 1
gene 1 1 17 0.872645 0 2 0.872645 1
gene 1 2 16 0.0894697 0 3 0.0894697 1
gene 1 2 17 0.258873 0 4 0.258873 1
gene 1 3 16 2.29684 0 5 2.29684 1
gene 1 3 17 1.9195 0 6 1.9195 1
gene 1 4 16 -0.857552 0 7 -0.857552 1
gene 1 4 17 -0.717965 0 8 -0.717965 1
gene 1 5 16 0.534169 0 9 0.534169 1
gene 1 5 17 1.23059 0 10 1.23059 1
gene 1 6 16 -1.16318 0 11 -1.16318 1
gene 1 6 17 -0.506249 0 12 -0.506249 1
gene 1 7 16 -2.08209 0 13 -2.08209 1
gene 1 7 17 1.4611 0 14 1.4611 1
gene 1 8 16 2.24147 0 15 2.24147 1
gene 1 8 17 2.37305 0 16 2.37305 1
gene 1 9 16 -0.983822 0 17 -0.983822 1
gene 1 9 17 1.59465 0 18 1.59465 1
gene 1 10 16 0.37418 0 19 0.37418 1
gene 1 10 17 -1.85565 0 20 -1.85565 1
gene 1 11 16 -0.283408 0 21 -0.283408 1
gene 1 11 17 1.32766 0 22 1.32766 1
gene 1 12 16 2.97091 0 23 2.97091 1
gene 1 12 17 -0.483554 0 24 -0.483554 1
gene 1 13 16 2.0075 0 25 2.0075 1
gene 1 13 17 0.0340862 0 16 0.0340862 1
gene 1 14 16 -0.913792 0 17 -0.913792 1
gene 1 14 17 1.91056 0 28 1.91056 1
gene 1 15 16 0.875194 0 29 0.875194 1
gene 1 15 17 1.57886 0 30 1.57886 1
genomeend 2


