/* Organism #3 Fitness: -339309.357200 Time: 0 */
genomestart 3
trait 1 0.100000 0.000000 0.000000 0.000000 0.000000 0.000000 0.000000 0.000000 
node 1 1 1 1
node 2 1 1 1
node 3 1 1 1
node 4 1 1 1
node 5 1 1 1
node 6 1 1 1
node 7 1 1 1
node 8 1 1 1
node 9 1 1 1
node 10 1 1 1
node 11 1 1 1
node 12 1 1 1
node 13 1 1 1
node 14 1 1 1
node 15 1 1 3
node 16 1 0 2
node 17 1 0 2
gene 1 1 16 -0.0461205 0 1 -0.0461205 1
gene 1 1 17 -1.00623 0 2 -1.00623 1
gene 1 2 16 0.225565 0 3 0.225565 1
gene 1 2 17 1.38265 0 4 1.38265 1
gene 1 3 16 0.375782 0 5 0.375782 1
gene 1 3 17 -0.296295 0 6 -0.296295 1
gene 1 4 16 -0.617529 0 7 -0.617529 1
gene 1 4 17 -0.45137 0 8 -0.45137 1
gene 1 5 16 -1.16318 0 9 -1.16318 1
gene 1 5 17 0.326216 0 10 0.326216 1
gene 1 6 16 1.18135 0 11 1.18135 1
gene 1 6 17 4.00007 0 12 4.00007 1
gene 1 7 16 3.244 0 13 3.244 1
gene 1 7 17 1.87011 0 14 1.87011 1
gene 1 8 16 -0.832271 0 15 -0.832271 1
gene 1 8 17 -1.40143 0 16 -1.40143 1
gene 1 9 16 0.989419 0 17 0.989419 1
gene 1 9 17 -0.492611 0 18 -0.492611 1
gene 1 10 16 -0.0823466 0 19 -0.0823466 1
gene 1 10 17 -0.521602 0 20 -0.521602 1
gene 1 11 16 -2.00947 0 21 -2.00947 1
gene 1 11 17 -0.452189 0 22 -0.452189 1
gene 1 12 16 -0.00624519 0 23 -0.00624519 1
gene 1 12 17 1.04699 0 24 1.04699 1
gene 1 13 16 0.490587 0 25 0.490587 1
gene 1 13 17 2.53245 0 16 2.53245 1
gene 1 14 16 1.86056 0 17 1.86056 1
gene 1 14 17 -0.1248 0 28 -0.1248 1
gene 1 15 16 1.5441 0 29 1.5441 1
gene 1 15 17 0.709456 0 30 0.709456 1
genomeend 3


