/* Organism #2 Fitness: -335378.699600 Time: 0 */
genomestart 2
trait 1 0.100000 0.000000 0.000000 0.000000 0.000000 0.000000 0.000000 0.000000 
node 1 1 1 1
node 2 1 1 1
node 3 1 1 1
node 4 1 1 1
node 5 1 1 1
node 6 1 1 1
node 7 1 1 1
node 8 1 1 1
node 9 1 1 1
node 10 1 1 1
node 11 1 1 1
node 12 1 1 1
node 13 1 1 1
node 14 1 1 1
node 15 1 1 3
node 16 1 0 2
node 17 1 0 2
gene 1 1 16 0.961217 0 1 0.961217 1
gene 1 1 17 -0.319062 0 2 -0.319062 1
gene 1 2 16 -0.555437 0 3 -0.555437 1
gene 1 2 17 0.485851 0 4 0.485851 1
gene 1 3 16 0.175176 0 5 0.175176 1
gene 1 3 17 -1.17866 0 6 -1.17866 1
gene 1 4 16 -0.926697 0 7 -0.926697 1
gene 1 4 17 0.201176 0 8 0.201176 1
gene 1 5 16 -0.372793 0 9 -0.372793 1
gene 1 5 17 -0.981871 0 10 -0.981871 1
gene 1 6 16 -3.39957 0 11 -3.39957 1
gene 1 6 17 -0.261638 0 12 -0.261638 1
gene 1 7 16 0.53495 0 13 0.53495 1
gene 1 7 17 0.436275 0 14 0.436275 1
gene 1 8 16 0.445682 0 15 0.445682 1
gene 1 8 17 -1.65192 0 16 -1.65192 1
gene 1 9 16 1.55381 0 17 1.55381 1
gene 1 9 17 0.911726 0 18 0.911726 1
gene 1 10 16 0.816266 0 19 0.816266 1
gene 1 10 17 -0.89782 0 20 -0.89782 1
gene 1 11 16 1.59906 0 21 1.59906 1
gene 1 11 17 -0.180043 0 22 -0.180043 1
gene 1 12 16 1.50492 0 23 1.50492 1
gene 1 12 17 -0.0104124 0 24 -0.0104124 1
gene 1 13 16 -2.93252 0 25 -2.93252 1
gene 1 13 17 1.91438 0 16 1.91438 1
gene 1 14 16 0.340181 0 17 0.340181 1
gene 1 14 17 0.0848252 0 28 0.0848252 1
gene 1 15 16 2.16441 0 29 2.16441 1
gene 1 15 17 0.112599 0 30 0.112599 1
genomeend 2


