/* Organism #0 Fitness: -332163.240300 Time: 0 */
genomestart 0
trait 1 0.000000 0.000000 0.031640 0.000000 0.000000 0.097553 0.000000 0.000000 
node 1 1 1 1
node 2 1 1 1
node 3 1 1 1
node 4 1 1 1
node 5 1 1 1
node 6 1 1 1
node 7 1 1 1
node 8 1 1 1
node 9 1 1 1
node 10 1 1 1
node 11 1 1 1
node 12 1 1 1
node 13 1 1 1
node 14 1 1 1
node 15 1 1 3
node 16 1 0 2
node 17 1 0 2
gene 1 1 16 -0.659211 0 1 -0.659211 1
gene 1 1 17 -3.00015 0 2 -3.00015 1
gene 1 2 16 3.8102 0 3 3.8102 1
gene 1 2 17 4.65781 0 4 4.65781 1
gene 1 3 16 -0.479598 0 5 -0.479598 1
gene 1 3 17 0.686406 0 6 0.686406 1
gene 1 4 16 -1.78186 0 7 -1.78186 1
gene 1 4 17 -2.91625 0 8 -2.91625 1
gene 1 5 16 0.452573 0 9 0.452573 1
gene 1 5 17 2.28507 0 10 2.28507 1
gene 1 6 16 -0.24001 0 11 -0.24001 1
gene 1 6 17 -1.31371 0 12 -1.31371 1
gene 1 7 16 -0.478464 0 13 -0.478464 1
gene 1 7 17 0.771859 0 14 0.771859 1
gene 1 8 16 1.19886 0 15 1.19886 1
gene 1 8 17 0.879399 0 16 0.879399 1
gene 1 9 16 -5 0 17 -5 1
gene 1 9 17 -0.10057 0 18 -0.10057 1
gene 1 10 16 0.351959 0 19 0.351959 1
gene 1 10 17 -0.399973 0 20 -0.399973 1
gene 1 11 16 -0.180963 0 21 -0.180963 1
gene 1 11 17 -1.57069 0 22 -1.57069 1
gene 1 12 16 0.232862 0 23 0.232862 1
gene 1 12 17 -0.713257 0 24 -0.713257 1
gene 1 13 16 -0.338523 0 25 -0.338523 1
gene 1 13 17 0.751614 0 16 0.751614 1
gene 1 14 16 1.52156 0 17 1.52156 1
gene 1 14 17 -2.95731 0 28 -2.95731 1
gene 1 15 16 -3.24768 0 29 -3.24768 1
gene 1 15 17 -0.206868 0 30 -0.206868 1
genomeend 0


