/* Organism #0 Fitness: -339893.229100 Time: 0 */
genomestart 0
trait 1 0.100000 0.000000 0.000000 0.000000 0.000000 0.000000 0.000000 0.000000 
node 1 1 1 1
node 2 1 1 1
node 3 1 1 1
node 4 1 1 1
node 5 1 1 1
node 6 1 1 1
node 7 1 1 1
node 8 1 1 1
node 9 1 1 1
node 10 1 1 1
node 11 1 1 1
node 12 1 1 1
node 13 1 1 1
node 14 1 1 1
node 15 1 1 3
node 16 1 0 2
node 17 1 0 2
gene 1 1 16 -1.31745 0 1 -1.31745 1
gene 1 1 17 1.43862 0 2 1.43862 1
gene 1 2 16 0.865701 0 3 0.865701 1
gene 1 2 17 -1.38889 0 4 -1.38889 1
gene 1 3 16 0.564083 0 5 0.564083 1
gene 1 3 17 1.78201 0 6 1.78201 1
gene 1 4 16 -0.0776775 0 7 -0.0776775 1
gene 1 4 17 -2.09357 0 8 -2.09357 1
gene 1 5 16 0.205243 0 9 0.205243 1
gene 1 5 17 0.883727 0 10 0.883727 1
gene 1 6 16 0.0456509 0 11 0.0456509 1
gene 1 6 17 -0.83425 0 12 -0.83425 1
gene 1 7 16 -1.37967 0 13 -1.37967 1
gene 1 7 17 1.21615 0 14 1.21615 1
gene 1 8 16 -0.0536593 0 15 -0.0536593 1
gene 1 8 17 -0.522055 0 16 -0.522055 1
gene 1 9 16 -1.02209 0 17 -1.02209 1
gene 1 9 17 0.0141769 0 18 0.0141769 1
gene 1 10 16 1.2137 0 19 1.2137 1
gene 1 10 17 0.96724 0 20 0.96724 1
gene 1 11 16 -0.820815 0 21 -0.820815 1
gene 1 11 17 -1.17682 0 22 -1.17682 1
gene 1 12 16 1.49749 0 23 1.49749 1
gene 1 12 17 0.050953 0 24 0.050953 1
gene 1 13 16 0.379121 0 25 0.379121 1
gene 1 13 17 -0.784087 0 16 -0.784087 1
gene 1 14 16 -0.822271 0 17 -0.822271 1
gene 1 14 17 -1.01229 0 28 -1.01229 1
gene 1 15 16 0.761826 0 29 0.761826 1
gene 1 15 17 2.87824 0 30 2.87824 1
genomeend 0


