/* Organism #0 Fitness: -335696.119500 Time: 0 */
genomestart 0
trait 1 0.000000 0.000000 0.000000 0.713906 0.000000 0.229158 0.000000 0.000000 
node 1 1 1 1
node 2 1 1 1
node 3 1 1 1
node 4 1 1 1
node 5 1 1 1
node 6 1 1 1
node 7 1 1 1
node 8 1 1 1
node 9 1 1 1
node 10 1 1 1
node 11 1 1 1
node 12 1 1 1
node 13 1 1 1
node 14 1 1 1
node 15 1 1 3
node 16 1 0 2
node 17 1 0 2
gene 1 1 16 -1.58074 0 1 -1.58074 1
gene 1 1 17 3.26238 0 2 3.26238 1
gene 1 2 16 2.70626 0 3 2.70626 1
gene 1 2 17 0.893744 0 4 0.893744 1
gene 1 3 16 2.14298 0 5 2.14298 1
gene 1 3 17 0.0152553 0 6 0.0152553 1
gene 1 4 16 -0.864361 0 7 -0.864361 1
gene 1 4 17 -0.11228 0 8 -0.11228 1
gene 1 5 16 -4.18826 0 9 -4.18826 1
gene 1 5 17 2.17735 0 10 2.17735 1
gene 1 6 16 -0.914404 0 11 -0.914404 1
gene 1 6 17 0.893933 0 12 0.893933 1
gene 1 7 16 -0.387534 0 13 -0.387534 1
gene 1 7 17 1.16667 0 14 1.16667 1
gene 1 8 16 -0.713202 0 15 -0.713202 1
gene 1 8 17 -2.46514 0 16 -2.46514 1
gene 1 9 16 2.1035 0 17 2.1035 1
gene 1 9 17 0.320716 0 18 0.320716 1
gene 1 10 16 1.97008 0 19 1.97008 1
gene 1 10 17 1.50693 0 20 1.50693 1
gene 1 11 16 -0.704626 0 21 -0.704626 1
gene 1 11 17 0.523011 0 22 0.523011 1
gene 1 12 16 3.74428 0 23 3.74428 1
gene 1 12 17 -1.66204 0 24 -1.66204 1
gene 1 13 16 2.82875 0 25 2.82875 1
gene 1 13 17 1.6435 0 16 1.6435 1
gene 1 14 16 -0.491417 0 17 -0.491417 1
gene 1 14 17 -0.804645 0 28 -0.804645 1
gene 1 15 16 -0.313757 0 29 -0.313757 1
gene 1 15 17 3.06932 0 30 3.06932 1
genomeend 0


