/*Fitness: -172325*/
genomestart 1
node 1 0 1 1
node 2 0 1 1
node 3 0 1 1
node 4 0 1 1
node 5 0 1 1
node 6 0 1 1
node 7 0 1 1
node 8 0 1 1
node 9 0 1 1
node 10 0 1 1
node 11 0 1 1
node 12 0 1 1
node 13 0 1 1
node 14 0 1 1
node 15 0 1 3
node 16 0 0 2
node 17 0 0 2
gene 0 1 16 -0.877077 0 0 1 1
gene 0 2 16 1.33296 0 0 1 1
gene 0 3 16 5 0 0 1 1
gene 0 4 16 0.969682 0 0 1 1
gene 0 5 16 -2.44824 0 0 1 1
gene 0 6 16 2.77298 0 0 1 1
gene 0 7 16 1.03393 0 0 1 1
gene 0 8 16 0.442231 0 0 1 1
gene 0 9 16 0.0732487 0 0 1 1
gene 0 10 16 -0.171575 0 0 1 1
gene 0 11 16 -3.15522 0 0 1 1
gene 0 12 16 3.18667 0 0 1 1
gene 0 13 16 -0.246272 0 0 1 1
gene 0 14 16 -2.03446 0 0 1 1
gene 0 15 16 -2.83323 0 0 1 1
gene 0 1 17 -0.687164 0 0 1 1
gene 0 2 17 3.48093 0 0 1 1
gene 0 3 17 0.938099 0 0 1 1
gene 0 4 17 -5 0 0 1 1
gene 0 5 17 2.29768 0 0 1 1
gene 0 6 17 -0.992888 0 0 1 1
gene 0 7 17 -2.89907 0 0 1 1
gene 0 8 17 -3.10166 0 0 1 1
gene 0 9 17 0.920992 0 0 1 1
gene 0 10 17 2.22548 0 0 1 1
gene 0 11 17 1.77518 0 0 1 1
gene 0 12 17 1.97169 0 0 1 1
gene 0 13 17 0.66178 0 0 1 1
gene 0 14 17 1.91655 0 0 1 1
gene 0 15 17 -3.32196 0 0 1 1
genomeend 1
