/*Fitness: -167113*/
genomestart 1
node 1 0 1 1
node 2 0 1 1
node 3 0 1 1
node 4 0 1 1
node 5 0 1 1
node 6 0 1 1
node 7 0 1 1
node 8 0 1 1
node 9 0 1 1
node 10 0 1 1
node 11 0 1 1
node 12 0 1 1
node 13 0 1 1
node 14 0 1 1
node 15 0 1 3
node 16 0 0 2
node 17 0 0 2
gene 0 1 16 2.96563 0 0 1 1
gene 0 2 16 4.4079 0 0 1 1
gene 0 3 16 2.40676 0 0 1 1
gene 0 4 16 -4.31291 0 0 1 1
gene 0 5 16 1.2409 0 0 1 1
gene 0 6 16 -0.128284 0 0 1 1
gene 0 7 16 0.340247 0 0 1 1
gene 0 8 16 -1.95227 0 0 1 1
gene 0 9 16 1.71399 0 0 1 1
gene 0 10 16 -1.69383 0 0 1 1
gene 0 11 16 -2.31624 0 0 1 1
gene 0 12 16 0.841104 0 0 1 1
gene 0 13 16 3.53232 0 0 1 1
gene 0 14 16 -1.46125 0 0 1 1
gene 0 15 16 -4.34595e-05 0 0 1 1
gene 0 1 17 -4.29942 0 0 1 1
gene 0 2 17 -2.0006 0 0 1 1
gene 0 3 17 4.6069 0 0 1 1
gene 0 4 17 1.35006 0 0 1 1
gene 0 5 17 2.79912 0 0 1 1
gene 0 6 17 -0.00312017 0 0 1 1
gene 0 7 17 1.25983 0 0 1 1
gene 0 8 17 -2.90615 0 0 1 1
gene 0 9 17 -1.63768 0 0 1 1
gene 0 10 17 0.177146 0 0 1 1
gene 0 11 17 -2.95375 0 0 1 1
gene 0 12 17 -2.23125 0 0 1 1
gene 0 13 17 2.59095 0 0 1 1
gene 0 14 17 -2.5914 0 0 1 1
gene 0 15 17 3.27431 0 0 1 1
genomeend 1
