/*Fitness: -167112*/
genomestart 1
node 1 0 1 1
node 2 0 1 1
node 3 0 1 1
node 4 0 1 1
node 5 0 1 1
node 6 0 1 1
node 7 0 1 1
node 8 0 1 1
node 9 0 1 1
node 10 0 1 1
node 11 0 1 1
node 12 0 1 1
node 13 0 1 1
node 14 0 1 1
node 15 0 1 3
node 16 0 0 2
node 17 0 0 2
gene 0 1 16 0.4032 0 0 1 1
gene 0 2 16 2.55122 0 0 1 1
gene 0 3 16 -2.30539 0 0 1 1
gene 0 4 16 -4.61692 0 0 1 1
gene 0 5 16 0.0860982 0 0 1 1
gene 0 6 16 2.91593 0 0 1 1
gene 0 7 16 0.54625 0 0 1 1
gene 0 8 16 2.68057 0 0 1 1
gene 0 9 16 1.52674 0 0 1 1
gene 0 10 16 -1.23163 0 0 1 1
gene 0 11 16 -4.44021 0 0 1 1
gene 0 12 16 -0.469726 0 0 1 1
gene 0 13 16 -1.8351 0 0 1 1
gene 0 14 16 -3.06508 0 0 1 1
gene 0 15 16 0.255195 0 0 1 1
gene 0 1 17 -4.50649 0 0 1 1
gene 0 2 17 1.51184 0 0 1 1
gene 0 3 17 0.388151 0 0 1 1
gene 0 4 17 3.26779 0 0 1 1
gene 0 5 17 4.28525 0 0 1 1
gene 0 6 17 1.26464 0 0 1 1
gene 0 7 17 0.862257 0 0 1 1
gene 0 8 17 -2.98223 0 0 1 1
gene 0 9 17 -1.16045 0 0 1 1
gene 0 10 17 -1.10649 0 0 1 1
gene 0 11 17 -2.5979 0 0 1 1
gene 0 12 17 -1.30402 0 0 1 1
gene 0 13 17 2.34928 0 0 1 1
gene 0 14 17 -1.84334 0 0 1 1
gene 0 15 17 3.45818 0 0 1 1
genomeend 1
