/*Fitness: -167459*/
genomestart 1
node 1 0 1 1
node 2 0 1 1
node 3 0 1 1
node 4 0 1 1
node 5 0 1 1
node 6 0 1 1
node 7 0 1 1
node 8 0 1 1
node 9 0 1 1
node 10 0 1 1
node 11 0 1 1
node 12 0 1 1
node 13 0 1 1
node 14 0 1 1
node 15 0 1 3
node 16 0 0 2
node 17 0 0 2
gene 0 1 16 -0.390889 0 0 1 1
gene 0 2 16 4.4007 0 0 1 1
gene 0 3 16 -2.59304 0 0 1 1
gene 0 4 16 -4.93672 0 0 1 1
gene 0 5 16 2.63517 0 0 1 1
gene 0 6 16 -0.302346 0 0 1 1
gene 0 7 16 -3.35476 0 0 1 1
gene 0 8 16 -0.160744 0 0 1 1
gene 0 9 16 2.03016 0 0 1 1
gene 0 10 16 -2.0729 0 0 1 1
gene 0 11 16 -2.98171 0 0 1 1
gene 0 12 16 3.88815 0 0 1 1
gene 0 13 16 -2.58871 0 0 1 1
gene 0 14 16 -2.19825 0 0 1 1
gene 0 15 16 -0.0103253 0 0 1 1
gene 0 1 17 -4.27232 0 0 1 1
gene 0 2 17 0.834474 0 0 1 1
gene 0 3 17 2.77645 0 0 1 1
gene 0 4 17 2.93414 0 0 1 1
gene 0 5 17 -3.96126 0 0 1 1
gene 0 6 17 2.70802 0 0 1 1
gene 0 7 17 -1.62042 0 0 1 1
gene 0 8 17 -3.18309 0 0 1 1
gene 0 9 17 -1.53478 0 0 1 1
gene 0 10 17 -1.67377 0 0 1 1
gene 0 11 17 -2.31605 0 0 1 1
gene 0 12 17 2.15772 0 0 1 1
gene 0 13 17 -3.17453 0 0 1 1
gene 0 14 17 2.81074 0 0 1 1
gene 0 15 17 3.55078 0 0 1 1
genomeend 1
