/*Fitness: -166748*/
genomestart 1
node 1 0 1 1
node 2 0 1 1
node 3 0 1 1
node 4 0 1 1
node 5 0 1 1
node 6 0 1 1
node 7 0 1 1
node 8 0 1 1
node 9 0 1 1
node 10 0 1 1
node 11 0 1 1
node 12 0 1 1
node 13 0 1 1
node 14 0 1 1
node 15 0 1 3
node 16 0 0 2
node 17 0 0 2
gene 0 1 16 1.89706 0 0 1 1
gene 0 2 16 1.9326 0 0 1 1
gene 0 3 16 0.390408 0 0 1 1
gene 0 4 16 -3.9398 0 0 1 1
gene 0 5 16 -3.50659 0 0 1 1
gene 0 6 16 -0.89415 0 0 1 1
gene 0 7 16 -1.92112 0 0 1 1
gene 0 8 16 0.716484 0 0 1 1
gene 0 9 16 -2.09191 0 0 1 1
gene 0 10 16 -2.03572 0 0 1 1
gene 0 11 16 -3.68835 0 0 1 1
gene 0 12 16 3.09399 0 0 1 1
gene 0 13 16 3.03035 0 0 1 1
gene 0 14 16 -3.26864 0 0 1 1
gene 0 15 16 4.05019 0 0 1 1
gene 0 1 17 -4.18574 0 0 1 1
gene 0 2 17 -2.38463 0 0 1 1
gene 0 3 17 1.46098 0 0 1 1
gene 0 4 17 1.82063 0 0 1 1
gene 0 5 17 -4.35777 0 0 1 1
gene 0 6 17 -0.779324 0 0 1 1
gene 0 7 17 3.47662 0 0 1 1
gene 0 8 17 -3.03607 0 0 1 1
gene 0 9 17 1.91059 0 0 1 1
gene 0 10 17 -0.270371 0 0 1 1
gene 0 11 17 0.881776 0 0 1 1
gene 0 12 17 -4.38706 0 0 1 1
gene 0 13 17 0.569578 0 0 1 1
gene 0 14 17 -3.54779 0 0 1 1
gene 0 15 17 -0.238534 0 0 1 1
genomeend 1
