/*Fitness: -168117*/
genomestart 1
node 1 0 1 1
node 2 0 1 1
node 3 0 1 1
node 4 0 1 1
node 5 0 1 1
node 6 0 1 1
node 7 0 1 1
node 8 0 1 1
node 9 0 1 1
node 10 0 1 1
node 11 0 1 1
node 12 0 1 1
node 13 0 1 1
node 14 0 1 1
node 15 0 1 3
node 16 0 0 2
node 17 0 0 2
gene 0 1 16 -3.25576 0 0 1 1
gene 0 2 16 -3.63924 0 0 1 1
gene 0 3 16 4.18014 0 0 1 1
gene 0 4 16 -1.96253 0 0 1 1
gene 0 5 16 1.69314 0 0 1 1
gene 0 6 16 -1.24409 0 0 1 1
gene 0 7 16 -2.22196 0 0 1 1
gene 0 8 16 0.200497 0 0 1 1
gene 0 9 16 1.03152 0 0 1 1
gene 0 10 16 1.33966 0 0 1 1
gene 0 11 16 -4.15605 0 0 1 1
gene 0 12 16 3.9857 0 0 1 1
gene 0 13 16 1.31439 0 0 1 1
gene 0 14 16 1.29724 0 0 1 1
gene 0 15 16 -2.51936 0 0 1 1
gene 0 1 17 3.00063 0 0 1 1
gene 0 2 17 4.68503 0 0 1 1
gene 0 3 17 0.0741013 0 0 1 1
gene 0 4 17 -2.19636 0 0 1 1
gene 0 5 17 -2.46133 0 0 1 1
gene 0 6 17 0.0507336 0 0 1 1
gene 0 7 17 1.54063 0 0 1 1
gene 0 8 17 -0.104242 0 0 1 1
gene 0 9 17 -2.87699 0 0 1 1
gene 0 10 17 2.57016 0 0 1 1
gene 0 11 17 -2.84126 0 0 1 1
gene 0 12 17 -1.0168 0 0 1 1
gene 0 13 17 1.08098 0 0 1 1
gene 0 14 17 1.57747 0 0 1 1
gene 0 15 17 0.263616 0 0 1 1
genomeend 1
