/*Fitness: -166623*/
genomestart 1
node 1 0 1 1
node 2 0 1 1
node 3 0 1 1
node 4 0 1 1
node 5 0 1 1
node 6 0 1 1
node 7 0 1 1
node 8 0 1 1
node 9 0 1 1
node 10 0 1 1
node 11 0 1 1
node 12 0 1 1
node 13 0 1 1
node 14 0 1 1
node 15 0 1 3
node 16 0 0 2
node 17 0 0 2
gene 0 1 16 0.10989 0 0 1 1
gene 0 2 16 1.12826 0 0 1 1
gene 0 3 16 -2.18204 0 0 1 1
gene 0 4 16 -4.47877 0 0 1 1
gene 0 5 16 1.17951 0 0 1 1
gene 0 6 16 2.22865 0 0 1 1
gene 0 7 16 0.0243902 0 0 1 1
gene 0 8 16 -2.51693 0 0 1 1
gene 0 9 16 1.42067 0 0 1 1
gene 0 10 16 -0.696491 0 0 1 1
gene 0 11 16 2.97105 0 0 1 1
gene 0 12 16 -0.81388 0 0 1 1
gene 0 13 16 -1.63956 0 0 1 1
gene 0 14 16 -2.14236 0 0 1 1
gene 0 15 16 0.139085 0 0 1 1
gene 0 1 17 -3.98197 0 0 1 1
gene 0 2 17 2.07931 0 0 1 1
gene 0 3 17 0.609216 0 0 1 1
gene 0 4 17 2.53916 0 0 1 1
gene 0 5 17 -1.85553 0 0 1 1
gene 0 6 17 2.44937 0 0 1 1
gene 0 7 17 1.60589 0 0 1 1
gene 0 8 17 -0.813716 0 0 1 1
gene 0 9 17 3.74237 0 0 1 1
gene 0 10 17 -2.37168 0 0 1 1
gene 0 11 17 0.0474527 0 0 1 1
gene 0 12 17 -3.83248 0 0 1 1
gene 0 13 17 2.18385 0 0 1 1
gene 0 14 17 -1.29942 0 0 1 1
gene 0 15 17 -1.53136 0 0 1 1
genomeend 1
