/*Fitness: -167511*/
genomestart 1
node 1 0 1 1
node 2 0 1 1
node 3 0 1 1
node 4 0 1 1
node 5 0 1 1
node 6 0 1 1
node 7 0 1 1
node 8 0 1 1
node 9 0 1 1
node 10 0 1 1
node 11 0 1 1
node 12 0 1 1
node 13 0 1 1
node 14 0 1 1
node 15 0 1 3
node 16 0 0 2
node 17 0 0 2
gene 0 1 16 2.73444 0 0 1 1
gene 0 2 16 -0.58432 0 0 1 1
gene 0 3 16 1.84997 0 0 1 1
gene 0 4 16 -4.20467 0 0 1 1
gene 0 5 16 2.21573 0 0 1 1
gene 0 6 16 -2.07636 0 0 1 1
gene 0 7 16 -1.7438 0 0 1 1
gene 0 8 16 3.41959 0 0 1 1
gene 0 9 16 -0.928052 0 0 1 1
gene 0 10 16 -0.765906 0 0 1 1
gene 0 11 16 -1.77006 0 0 1 1
gene 0 12 16 2.3196 0 0 1 1
gene 0 13 16 4.25532 0 0 1 1
gene 0 14 16 0.523145 0 0 1 1
gene 0 15 16 2.84073 0 0 1 1
gene 0 1 17 -4.53278 0 0 1 1
gene 0 2 17 -1.75617 0 0 1 1
gene 0 3 17 3.55637 0 0 1 1
gene 0 4 17 0.633957 0 0 1 1
gene 0 5 17 2.82439 0 0 1 1
gene 0 6 17 2.1431 0 0 1 1
gene 0 7 17 0.826994 0 0 1 1
gene 0 8 17 0.647446 0 0 1 1
gene 0 9 17 4.22548 0 0 1 1
gene 0 10 17 -0.772729 0 0 1 1
gene 0 11 17 0.538267 0 0 1 1
gene 0 12 17 1.52409 0 0 1 1
gene 0 13 17 2.29708 0 0 1 1
gene 0 14 17 2.26466 0 0 1 1
gene 0 15 17 -2.43969 0 0 1 1
genomeend 1
