/*Fitness: -168048*/
genomestart 1
node 1 0 1 1
node 2 0 1 1
node 3 0 1 1
node 4 0 1 1
node 5 0 1 1
node 6 0 1 1
node 7 0 1 1
node 8 0 1 1
node 9 0 1 1
node 10 0 1 1
node 11 0 1 1
node 12 0 1 1
node 13 0 1 1
node 14 0 1 1
node 15 0 1 3
node 16 0 0 2
node 17 0 0 2
gene 0 1 16 -1.68342 0 0 1 1
gene 0 2 16 -4.8065 0 0 1 1
gene 0 3 16 4.30457 0 0 1 1
gene 0 4 16 -0.890118 0 0 1 1
gene 0 5 16 3.54401 0 0 1 1
gene 0 6 16 -0.505207 0 0 1 1
gene 0 7 16 2.04741 0 0 1 1
gene 0 8 16 -3.15337 0 0 1 1
gene 0 9 16 -0.20763 0 0 1 1
gene 0 10 16 0.650444 0 0 1 1
gene 0 11 16 3.1458 0 0 1 1
gene 0 12 16 1.06412 0 0 1 1
gene 0 13 16 2.80975 0 0 1 1
gene 0 14 16 -1.14287 0 0 1 1
gene 0 15 16 -2.05823 0 0 1 1
gene 0 1 17 2.22282 0 0 1 1
gene 0 2 17 4.63274 0 0 1 1
gene 0 3 17 -0.632065 0 0 1 1
gene 0 4 17 -0.695699 0 0 1 1
gene 0 5 17 1.2879 0 0 1 1
gene 0 6 17 3.74796 0 0 1 1
gene 0 7 17 -0.365704 0 0 1 1
gene 0 8 17 0.0383514 0 0 1 1
gene 0 9 17 -0.333165 0 0 1 1
gene 0 10 17 1.25258 0 0 1 1
gene 0 11 17 -0.351207 0 0 1 1
gene 0 12 17 -1.3629 0 0 1 1
gene 0 13 17 -0.706411 0 0 1 1
gene 0 14 17 -0.650488 0 0 1 1
gene 0 15 17 -1.11008 0 0 1 1
genomeend 1
