/*Fitness: -168336*/
genomestart 1
node 1 0 1 1
node 2 0 1 1
node 3 0 1 1
node 4 0 1 1
node 5 0 1 1
node 6 0 1 1
node 7 0 1 1
node 8 0 1 1
node 9 0 1 1
node 10 0 1 1
node 11 0 1 1
node 12 0 1 1
node 13 0 1 1
node 14 0 1 1
node 15 0 1 3
node 16 0 0 2
node 17 0 0 2
gene 0 1 16 2.48659 0 0 1 1
gene 0 2 16 0.857235 0 0 1 1
gene 0 3 16 2.2297 0 0 1 1
gene 0 4 16 -4.66674 0 0 1 1
gene 0 5 16 0.541802 0 0 1 1
gene 0 6 16 0.721076 0 0 1 1
gene 0 7 16 3.27075 0 0 1 1
gene 0 8 16 -1.67577 0 0 1 1
gene 0 9 16 1.78572 0 0 1 1
gene 0 10 16 2.31257 0 0 1 1
gene 0 11 16 0.664385 0 0 1 1
gene 0 12 16 -0.28389 0 0 1 1
gene 0 13 16 1.26909 0 0 1 1
gene 0 14 16 -1.14472 0 0 1 1
gene 0 15 16 0.473418 0 0 1 1
gene 0 1 17 -3.96746 0 0 1 1
gene 0 2 17 -1.78999 0 0 1 1
gene 0 3 17 2.81539 0 0 1 1
gene 0 4 17 -0.51045 0 0 1 1
gene 0 5 17 -0.400734 0 0 1 1
gene 0 6 17 -0.292592 0 0 1 1
gene 0 7 17 2.50969 0 0 1 1
gene 0 8 17 -4.1815 0 0 1 1
gene 0 9 17 0.539372 0 0 1 1
gene 0 10 17 -1.92691 0 0 1 1
gene 0 11 17 -1.68756 0 0 1 1
gene 0 12 17 -2.15171 0 0 1 1
gene 0 13 17 4.07678 0 0 1 1
gene 0 14 17 -3.35371 0 0 1 1
gene 0 15 17 1.48396 0 0 1 1
genomeend 1
