/*Fitness: 17.5*/
genomestart 1
node 1 0 1 1
node 2 0 1 1
node 3 0 1 1
node 4 0 1 1
node 5 0 1 1
node 6 0 1 1
node 7 0 1 1
node 8 0 1 1
node 9 0 1 1
node 10 0 1 1
node 11 0 1 1
node 12 0 1 1
node 13 0 1 1
node 14 0 1 1
node 15 0 1 3
node 16 0 0 2
node 17 0 0 2
gene 0 1 16 0.187435 0 0 1 1
gene 0 2 16 0.66611 0 0 1 1
gene 0 3 16 4.67984 0 0 1 1
gene 0 4 16 -1.55842 0 0 1 1
gene 0 5 16 -3.26227 0 0 1 1
gene 0 6 16 -1.07891 0 0 1 1
gene 0 7 16 -4.89082 0 0 1 1
gene 0 8 16 1.48369 0 0 1 1
gene 0 9 16 0.129884 0 0 1 1
gene 0 10 16 -0.566746 0 0 1 1
gene 0 11 16 0.746417 0 0 1 1
gene 0 12 16 1.27361 0 0 1 1
gene 0 13 16 -3.0808 0 0 1 1
gene 0 14 16 -0.972952 0 0 1 1
gene 0 15 16 1.14032 0 0 1 1
gene 0 1 17 2.84911 0 0 1 1
gene 0 2 17 -3.22637 0 0 1 1
gene 0 3 17 -2.75705 0 0 1 1
gene 0 4 17 -3.27501 0 0 1 1
gene 0 5 17 -3.61473 0 0 1 1
gene 0 6 17 -2.42522 0 0 1 1
gene 0 7 17 0.864908 0 0 1 1
gene 0 8 17 -1.12052 0 0 1 1
gene 0 9 17 -4.47374 0 0 1 1
gene 0 10 17 2.43597 0 0 1 1
gene 0 11 17 3.81918 0 0 1 1
gene 0 12 17 -4.1045 0 0 1 1
gene 0 13 17 -2.973 0 0 1 1
gene 0 14 17 -2.56816 0 0 1 1
gene 0 15 17 -0.726821 0 0 1 1
genomeend 1
