/*Fitness: 17*/
genomestart 1
node 1 0 1 1
node 2 0 1 1
node 3 0 1 1
node 4 0 1 1
node 5 0 1 1
node 6 0 1 1
node 7 0 1 1
node 8 0 1 1
node 9 0 1 1
node 10 0 1 1
node 11 0 1 1
node 12 0 1 1
node 13 0 1 1
node 14 0 1 1
node 15 0 1 3
node 16 0 0 2
node 17 0 0 2
gene 0 1 16 -0.636096 0 0 1 1
gene 0 2 16 3.09235 0 0 1 1
gene 0 3 16 -2.96196 0 0 1 1
gene 0 4 16 -4.27276 0 0 1 1
gene 0 5 16 -4.45322 0 0 1 1
gene 0 6 16 0.556771 0 0 1 1
gene 0 7 16 -1.04608 0 0 1 1
gene 0 8 16 -3.04352 0 0 1 1
gene 0 9 16 -1.56099 0 0 1 1
gene 0 10 16 -4.19491 0 0 1 1
gene 0 11 16 -0.55145 0 0 1 1
gene 0 12 16 2.58075 0 0 1 1
gene 0 13 16 -0.711232 0 0 1 1
gene 0 14 16 2.42454 0 0 1 1
gene 0 15 16 -3.17709 0 0 1 1
gene 0 1 17 2.90019 0 0 1 1
gene 0 2 17 4.77742 0 0 1 1
gene 0 3 17 4.1318 0 0 1 1
gene 0 4 17 -0.910248 0 0 1 1
gene 0 5 17 -1.53809 0 0 1 1
gene 0 6 17 -3.93275 0 0 1 1
gene 0 7 17 -2.58875 0 0 1 1
gene 0 8 17 -2.7283 0 0 1 1
gene 0 9 17 -0.158238 0 0 1 1
gene 0 10 17 -0.311806 0 0 1 1
gene 0 11 17 -1.71533 0 0 1 1
gene 0 12 17 4.03639 0 0 1 1
gene 0 13 17 0.428546 0 0 1 1
gene 0 14 17 -3.93119 0 0 1 1
gene 0 15 17 -0.857622 0 0 1 1
genomeend 1
