/*Fitness: 18.5*/
genomestart 1
node 1 0 1 1
node 2 0 1 1
node 3 0 1 1
node 4 0 1 1
node 5 0 1 1
node 6 0 1 1
node 7 0 1 1
node 8 0 1 1
node 9 0 1 1
node 10 0 1 1
node 11 0 1 1
node 12 0 1 1
node 13 0 1 1
node 14 0 1 1
node 15 0 1 3
node 16 0 0 2
node 17 0 0 2
gene 0 1 16 1.06396 0 0 1 1
gene 0 2 16 3.99504 0 0 1 1
gene 0 3 16 0.534639 0 0 1 1
gene 0 4 16 -1.36221 0 0 1 1
gene 0 5 16 -1.82504 0 0 1 1
gene 0 6 16 -1.9684 0 0 1 1
gene 0 7 16 -0.586065 0 0 1 1
gene 0 8 16 4.19358 0 0 1 1
gene 0 9 16 4.14482 0 0 1 1
gene 0 10 16 2.59366 0 0 1 1
gene 0 11 16 -2.26841 0 0 1 1
gene 0 12 16 2.5653 0 0 1 1
gene 0 13 16 1.65562 0 0 1 1
gene 0 14 16 0.696067 0 0 1 1
gene 0 15 16 -0.724761 0 0 1 1
gene 0 1 17 -4.74971 0 0 1 1
gene 0 2 17 -3.45406 0 0 1 1
gene 0 3 17 3.66796 0 0 1 1
gene 0 4 17 -3.73907 0 0 1 1
gene 0 5 17 1.44653 0 0 1 1
gene 0 6 17 -0.558735 0 0 1 1
gene 0 7 17 0.137889 0 0 1 1
gene 0 8 17 0.935888 0 0 1 1
gene 0 9 17 -0.0539924 0 0 1 1
gene 0 10 17 0.780948 0 0 1 1
gene 0 11 17 3.77973 0 0 1 1
gene 0 12 17 3.37236 0 0 1 1
gene 0 13 17 0.698592 0 0 1 1
gene 0 14 17 1.36851 0 0 1 1
gene 0 15 17 3.26786 0 0 1 1
genomeend 1
