/*Fitness: 17.3*/
genomestart 1
node 1 0 1 1
node 2 0 1 1
node 3 0 1 1
node 4 0 1 1
node 5 0 1 1
node 6 0 1 1
node 7 0 1 1
node 8 0 1 1
node 9 0 1 1
node 10 0 1 1
node 11 0 1 1
node 12 0 1 1
node 13 0 1 1
node 14 0 1 1
node 15 0 1 3
node 16 0 0 2
node 17 0 0 2
gene 0 1 16 -3.42117 0 0 1 1
gene 0 2 16 2.16258 0 0 1 1
gene 0 3 16 5 0 0 1 1
gene 0 4 16 3.44626 0 0 1 1
gene 0 5 16 -0.686058 0 0 1 1
gene 0 6 16 -0.766032 0 0 1 1
gene 0 7 16 -3.21607 0 0 1 1
gene 0 8 16 3.24376 0 0 1 1
gene 0 9 16 -3.59287 0 0 1 1
gene 0 10 16 -0.177659 0 0 1 1
gene 0 11 16 2.79955 0 0 1 1
gene 0 12 16 0.591826 0 0 1 1
gene 0 13 16 1.2591 0 0 1 1
gene 0 14 16 -0.611644 0 0 1 1
gene 0 15 16 0.598315 0 0 1 1
gene 0 1 17 -2.28753 0 0 1 1
gene 0 2 17 -1.79159 0 0 1 1
gene 0 3 17 -1.69084 0 0 1 1
gene 0 4 17 -0.555042 0 0 1 1
gene 0 5 17 -4.86627 0 0 1 1
gene 0 6 17 -1.15155 0 0 1 1
gene 0 7 17 -3.65846 0 0 1 1
gene 0 8 17 -4.14662 0 0 1 1
gene 0 9 17 -2.63355 0 0 1 1
gene 0 10 17 -2.45642 0 0 1 1
gene 0 11 17 -2.26216 0 0 1 1
gene 0 12 17 1.10769 0 0 1 1
gene 0 13 17 -4.2001 0 0 1 1
gene 0 14 17 4.40926 0 0 1 1
gene 0 15 17 -4.00783 0 0 1 1
genomeend 1
