/*Fitness: 17.6*/
genomestart 1
node 1 0 1 1
node 2 0 1 1
node 3 0 1 1
node 4 0 1 1
node 5 0 1 1
node 6 0 1 1
node 7 0 1 1
node 8 0 1 1
node 9 0 1 1
node 10 0 1 1
node 11 0 1 1
node 12 0 1 1
node 13 0 1 1
node 14 0 1 1
node 15 0 1 3
node 16 0 0 2
node 17 0 0 2
gene 0 1 16 2.01746 0 0 1 1
gene 0 2 16 0.624982 0 0 1 1
gene 0 3 16 -2.14262 0 0 1 1
gene 0 4 16 3.04603 0 0 1 1
gene 0 5 16 -0.565602 0 0 1 1
gene 0 6 16 -2.54056 0 0 1 1
gene 0 7 16 -0.0124258 0 0 1 1
gene 0 8 16 -2.17333 0 0 1 1
gene 0 9 16 -1.26455 0 0 1 1
gene 0 10 16 -1.1148 0 0 1 1
gene 0 11 16 -2.02156 0 0 1 1
gene 0 12 16 0.272571 0 0 1 1
gene 0 13 16 -1.66321 0 0 1 1
gene 0 14 16 -0.494746 0 0 1 1
gene 0 15 16 -3.0067 0 0 1 1
gene 0 1 17 3.26689 0 0 1 1
gene 0 2 17 4.35203 0 0 1 1
gene 0 3 17 4.66946 0 0 1 1
gene 0 4 17 -2.94866 0 0 1 1
gene 0 5 17 -1.21154 0 0 1 1
gene 0 6 17 -4.20375 0 0 1 1
gene 0 7 17 -3.56851 0 0 1 1
gene 0 8 17 -3.30626 0 0 1 1
gene 0 9 17 -0.463707 0 0 1 1
gene 0 10 17 -0.98626 0 0 1 1
gene 0 11 17 2.1009 0 0 1 1
gene 0 12 17 -1.96932 0 0 1 1
gene 0 13 17 1.35269 0 0 1 1
gene 0 14 17 1.7588 0 0 1 1
gene 0 15 17 0.903548 0 0 1 1
genomeend 1
