/*Fitness: 17.9*/
genomestart 1
node 1 0 1 1
node 2 0 1 1
node 3 0 1 1
node 4 0 1 1
node 5 0 1 1
node 6 0 1 1
node 7 0 1 1
node 8 0 1 1
node 9 0 1 1
node 10 0 1 1
node 11 0 1 1
node 12 0 1 1
node 13 0 1 1
node 14 0 1 1
node 15 0 1 3
node 16 0 0 2
node 17 0 0 2
gene 0 1 16 -4.03245 0 0 1 1
gene 0 2 16 0.0948005 0 0 1 1
gene 0 3 16 -2.09998 0 0 1 1
gene 0 4 16 1.02015 0 0 1 1
gene 0 5 16 -4.00238 0 0 1 1
gene 0 6 16 -2.20877 0 0 1 1
gene 0 7 16 -0.914772 0 0 1 1
gene 0 8 16 1.53438 0 0 1 1
gene 0 9 16 -3.42609 0 0 1 1
gene 0 10 16 -0.949024 0 0 1 1
gene 0 11 16 3.06036 0 0 1 1
gene 0 12 16 3.43206 0 0 1 1
gene 0 13 16 0.840899 0 0 1 1
gene 0 14 16 -1.21393 0 0 1 1
gene 0 15 16 -3.42535 0 0 1 1
gene 0 1 17 4.98845 0 0 1 1
gene 0 2 17 3.44333 0 0 1 1
gene 0 3 17 3.50941 0 0 1 1
gene 0 4 17 -2.55892 0 0 1 1
gene 0 5 17 -1.95904 0 0 1 1
gene 0 6 17 0.0183125 0 0 1 1
gene 0 7 17 -3.81381 0 0 1 1
gene 0 8 17 0.52659 0 0 1 1
gene 0 9 17 -3.55619 0 0 1 1
gene 0 10 17 -0.347855 0 0 1 1
gene 0 11 17 -1.18648 0 0 1 1
gene 0 12 17 3.45807 0 0 1 1
gene 0 13 17 2.00385 0 0 1 1
gene 0 14 17 1.15925 0 0 1 1
gene 0 15 17 2.60476 0 0 1 1
genomeend 1
