/*Fitness: 19.3*/
genomestart 1
node 1 0 1 1
node 2 0 1 1
node 3 0 1 1
node 4 0 1 1
node 5 0 1 1
node 6 0 1 1
node 7 0 1 1
node 8 0 1 1
node 9 0 1 1
node 10 0 1 1
node 11 0 1 1
node 12 0 1 1
node 13 0 1 1
node 14 0 1 1
node 15 0 1 3
node 16 0 0 2
node 17 0 0 2
gene 0 1 16 -4.37415 0 0 1 1
gene 0 2 16 4.01359 0 0 1 1
gene 0 3 16 -3.5413 0 0 1 1
gene 0 4 16 -4.7101 0 0 1 1
gene 0 5 16 -0.486382 0 0 1 1
gene 0 6 16 -0.670817 0 0 1 1
gene 0 7 16 -1.33045 0 0 1 1
gene 0 8 16 0.630808 0 0 1 1
gene 0 9 16 3.75336 0 0 1 1
gene 0 10 16 0.656826 0 0 1 1
gene 0 11 16 -0.895306 0 0 1 1
gene 0 12 16 -0.592533 0 0 1 1
gene 0 13 16 -0.365137 0 0 1 1
gene 0 14 16 0.715529 0 0 1 1
gene 0 15 16 1.08446 0 0 1 1
gene 0 1 17 -0.204155 0 0 1 1
gene 0 2 17 -0.0850032 0 0 1 1
gene 0 3 17 4.09452 0 0 1 1
gene 0 4 17 -2.11531 0 0 1 1
gene 0 5 17 2.60974 0 0 1 1
gene 0 6 17 3.61849 0 0 1 1
gene 0 7 17 -0.800942 0 0 1 1
gene 0 8 17 1.47687 0 0 1 1
gene 0 9 17 2.28241 0 0 1 1
gene 0 10 17 0.85353 0 0 1 1
gene 0 11 17 0.525191 0 0 1 1
gene 0 12 17 -2.94312 0 0 1 1
gene 0 13 17 -0.968996 0 0 1 1
gene 0 14 17 -0.816528 0 0 1 1
gene 0 15 17 3.9418 0 0 1 1
genomeend 1
