/*Fitness: 19.8*/
genomestart 1
node 1 0 1 1
node 2 0 1 1
node 3 0 1 1
node 4 0 1 1
node 5 0 1 1
node 6 0 1 1
node 7 0 1 1
node 8 0 1 1
node 9 0 1 1
node 10 0 1 1
node 11 0 1 1
node 12 0 1 1
node 13 0 1 1
node 14 0 1 1
node 15 0 1 3
node 16 0 0 2
node 17 0 0 2
gene 0 1 16 -4.45656 0 0 1 1
gene 0 2 16 4.36216 0 0 1 1
gene 0 3 16 -3.5669 0 0 1 1
gene 0 4 16 -4.78749 0 0 1 1
gene 0 5 16 -3.43951 0 0 1 1
gene 0 6 16 -2.67715 0 0 1 1
gene 0 7 16 -3.77529 0 0 1 1
gene 0 8 16 -0.718896 0 0 1 1
gene 0 9 16 4.1064 0 0 1 1
gene 0 10 16 1.24509 0 0 1 1
gene 0 11 16 4.20289 0 0 1 1
gene 0 12 16 4.1431 0 0 1 1
gene 0 13 16 -2.40011 0 0 1 1
gene 0 14 16 -1.65901 0 0 1 1
gene 0 15 16 3.28516 0 0 1 1
gene 0 1 17 -4.43539 0 0 1 1
gene 0 2 17 -3.36233 0 0 1 1
gene 0 3 17 3.20209 0 0 1 1
gene 0 4 17 -0.193241 0 0 1 1
gene 0 5 17 0.276859 0 0 1 1
gene 0 6 17 -2.07887 0 0 1 1
gene 0 7 17 1.37521 0 0 1 1
gene 0 8 17 -1.46309 0 0 1 1
gene 0 9 17 2.24997 0 0 1 1
gene 0 10 17 -4.18171 0 0 1 1
gene 0 11 17 1.16963 0 0 1 1
gene 0 12 17 2.66408 0 0 1 1
gene 0 13 17 4.39083 0 0 1 1
gene 0 14 17 4.57219 0 0 1 1
gene 0 15 17 3.86965 0 0 1 1
genomeend 1
