/*Fitness: 19.1*/
genomestart 1
node 1 0 1 1
node 2 0 1 1
node 3 0 1 1
node 4 0 1 1
node 5 0 1 1
node 6 0 1 1
node 7 0 1 1
node 8 0 1 1
node 9 0 1 1
node 10 0 1 1
node 11 0 1 1
node 12 0 1 1
node 13 0 1 1
node 14 0 1 1
node 15 0 1 3
node 16 0 0 2
node 17 0 0 2
gene 0 1 16 -4.00379 0 0 1 1
gene 0 2 16 4.33572 0 0 1 1
gene 0 3 16 -3.60349 0 0 1 1
gene 0 4 16 -5 0 0 1 1
gene 0 5 16 -0.460026 0 0 1 1
gene 0 6 16 -0.503642 0 0 1 1
gene 0 7 16 -0.96849 0 0 1 1
gene 0 8 16 0.267372 0 0 1 1
gene 0 9 16 3.30865 0 0 1 1
gene 0 10 16 1.16244 0 0 1 1
gene 0 11 16 2.62548 0 0 1 1
gene 0 12 16 0.243781 0 0 1 1
gene 0 13 16 -4.23732 0 0 1 1
gene 0 14 16 -1.29748 0 0 1 1
gene 0 15 16 1.19041 0 0 1 1
gene 0 1 17 -1.03407 0 0 1 1
gene 0 2 17 1.63354 0 0 1 1
gene 0 3 17 2.17162 0 0 1 1
gene 0 4 17 3.19798 0 0 1 1
gene 0 5 17 2.41017 0 0 1 1
gene 0 6 17 -0.418288 0 0 1 1
gene 0 7 17 -2.36868 0 0 1 1
gene 0 8 17 -2.75969 0 0 1 1
gene 0 9 17 4.08232 0 0 1 1
gene 0 10 17 0.941476 0 0 1 1
gene 0 11 17 3.45786 0 0 1 1
gene 0 12 17 -3.55199 0 0 1 1
gene 0 13 17 0.6472 0 0 1 1
gene 0 14 17 3.90535 0 0 1 1
gene 0 15 17 0.034566 0 0 1 1
genomeend 1
