/*Fitness: 20.4*/
genomestart 1
node 1 0 1 1
node 2 0 1 1
node 3 0 1 1
node 4 0 1 1
node 5 0 1 1
node 6 0 1 1
node 7 0 1 1
node 8 0 1 1
node 9 0 1 1
node 10 0 1 1
node 11 0 1 1
node 12 0 1 1
node 13 0 1 1
node 14 0 1 1
node 15 0 1 3
node 16 0 0 2
node 17 0 0 2
gene 0 1 16 -4.26463 0 0 1 1
gene 0 2 16 2.97447 0 0 1 1
gene 0 3 16 5 0 0 1 1
gene 0 4 16 2.29826 0 0 1 1
gene 0 5 16 -3.4837 0 0 1 1
gene 0 6 16 -3.90406 0 0 1 1
gene 0 7 16 -4.37196 0 0 1 1
gene 0 8 16 -3.60191 0 0 1 1
gene 0 9 16 -3.76641 0 0 1 1
gene 0 10 16 -0.824623 0 0 1 1
gene 0 11 16 3.51424 0 0 1 1
gene 0 12 16 1.30511 0 0 1 1
gene 0 13 16 -3.53921 0 0 1 1
gene 0 14 16 -1.89535 0 0 1 1
gene 0 15 16 5 0 0 1 1
gene 0 1 17 -0.0321374 0 0 1 1
gene 0 2 17 -0.400132 0 0 1 1
gene 0 3 17 -2.32814 0 0 1 1
gene 0 4 17 2.88101 0 0 1 1
gene 0 5 17 -2.79399 0 0 1 1
gene 0 6 17 -1.40168 0 0 1 1
gene 0 7 17 2.92483 0 0 1 1
gene 0 8 17 -3.26508 0 0 1 1
gene 0 9 17 -4.70682 0 0 1 1
gene 0 10 17 1.08459 0 0 1 1
gene 0 11 17 2.61384 0 0 1 1
gene 0 12 17 -0.787341 0 0 1 1
gene 0 13 17 1.61021 0 0 1 1
gene 0 14 17 3.30117 0 0 1 1
gene 0 15 17 -2.50049 0 0 1 1
genomeend 1
